SVM-light Version V6.02
0 # kernel type
3 # kernel parameter -d 
1 # kernel parameter -g 
1 # kernel parameter -s 
1 # kernel parameter -r 
empty# kernel parameter -u 
57 # highest feature index 
526 # number of training documents 
134 # number of support vectors plus 1 
0.78815798 # threshold b, each following line is a SV (starting with alpha*y)
-0.026322065770049557498211356687534 1:-0.32373646 2:-0.17667121 3:-0.50017285 4:-0.098842546 5:-0.44537586 6:-0.34561899 7:-0.26157999 8:-0.31560028 9:-0.30961666 10:-0.41393355 11:-0.22640149 12:-0.60592264 13:-0.21933696 14:-0.16083114 15:-0.15391792 16:-0.30765641 17:-0.37343216 18:-0.36310151 19:-0.88086981 20:-0.14419276 21:-0.57808203 22:-0.062323686 23:-0.26375422 24:-0.25234732 25:-0.40743604 26:-0.4047187 27:-0.27057403 28:-0.30796358 29:-0.16733444 30:-0.27352092 31:-0.20108834 32:-0.16073692 33:-0.18338262 34:-0.16487801 35:-0.27398148 36:-0.30811864 37:-0.39074841 38:-0.11907394 39:-0.21418162 40:-0.20511942 41:-0.13776088 42:3.9630189 43:-0.2478133 44:-0.17397934 45:-0.31722111 46:-0.15619448 47:-0.066107452 48:-0.14383133 49:-0.22159693 50:-0.64531434 51:-0.26362848 52:0.99174768 53:-0.34909117 54:-0.28615856 55:-0.064924724 56:-0.2402797 57:-0.52936292 #
-0.012150555337680895781615753037386 1:-0.32373646 2:-0.17667121 3:-0.50017285 4:-0.098842546 5:-0.44537586 6:-0.34561899 7:-0.26157999 8:-0.31560028 9:-0.30961666 10:-0.41393355 11:-0.22640149 12:-0.60592264 13:-0.21933696 14:-0.16083114 15:-0.15391792 16:-0.30765641 17:-0.37343216 18:-0.36310151 19:-0.88086981 20:-0.14419276 21:-0.57808203 22:-0.062323686 23:-0.26375422 24:-0.25234732 25:-0.40743604 26:-0.4047187 27:-0.27057403 28:-0.30796358 29:-0.16733444 30:-0.27352092 31:-0.20108834 32:-0.16073692 33:-0.18338262 34:-0.16487801 35:-0.27398148 36:-0.30811864 37:-0.39074841 38:-0.11907394 39:-0.21418162 40:-0.20511942 41:-0.13776088 42:3.9630189 43:-0.2478133 44:-0.17397934 45:-0.31722111 46:-0.15619448 47:-0.066107452 48:-0.14383133 49:-0.22159693 50:-0.64531434 51:-0.26362848 52:0.99174768 53:-0.34909117 54:-0.28615856 55:-0.064924724 56:-0.2402797 57:-0.52936292 #
-0.026322065770049557498211356687534 1:0.024139695 2:-0.080433995 3:-0.021999607 4:-0.098842546 5:-0.44537586 6:0.79088759 7:-0.26157999 8:-0.31560028 9:3.2707233 10:-0.41393355 11:-0.22640149 12:-0.35715175 13:-0.21933696 14:-0.16083114 15:-0.15391792 16:-0.30765641 17:-0.37343216 18:-0.36310151 19:-0.69665569 20:-0.14419276 21:-0.46731937 22:-0.062323686 23:-0.26375422 24:-0.25234732 25:-0.15976314 26:0.20463702 27:-0.24532005 28:-0.30796358 29:-0.16733444 30:-0.27352092 31:-0.20108834 32:-0.16073692 33:0.46399492 34:-0.16487801 35:-0.27398148 36:0.20619465 37:-0.19668855 38:-0.11907394 39:-0.21418162 40:-0.20511942 41:-0.13776088 42:-0.073323682 43:-0.2478133 44:-0.17397934 45:-0.31722111 46:-0.15619448 47:-0.066107452 48:-0.14383133 49:1.0351145 50:-0.027299901 51:0.57792056 52:-0.52965069 53:-0.22061887 54:-0.28615856 55:-0.033451673 56:0.16251212 57:1.7727969 #
-0.026322065770049557498211356687534 1:-0.32373646 2:0.43684098 3:-0.50017285 4:-0.098842546 5:0.90616858 6:-0.34561899 7:-0.26157999 8:2.014786 9:-0.30961666 10:-0.41393355 11:-0.22640149 12:-0.60592264 13:-0.21933696 14:-0.16083114 15:-0.15391792 16:0.37708521 17:0.88871866 18:-0.36310151 19:-0.59617531 20:-0.14419276 21:-0.57808203 22:-0.062323686 23:-0.26375422 24:-0.25234732 25:-0.40743604 26:-0.4047187 27:-0.27057403 28:-0.30796358 29:-0.16733444 30:-0.27352092 31:-0.20108834 32:-0.16073692 33:-0.18338262 34:-0.16487801 35:-0.27398148 36:0.74108052 37:-0.39074841 38:-0.11907394 39:-0.21418162 40:0.97164136 41:-0.13776088 42:-0.16252463 43:-0.2478133 44:0.9409681 45:-0.31722111 46:-0.15619448 47:-0.066107452 48:-0.14383133 49:-0.22159693 50:-0.32267445 51:-0.26362848 52:-0.52965069 53:-0.34909117 54:-0.28615856 55:-0.075865149 56:-0.24923062 57:-0.31437522 #
-0.026322065770049557498211356687534 1:-0.062829345 2:-0.17667121 3:-0.13676119 4:-0.098842546 5:-0.10086454 6:-0.072857417 7:-0.26157999 8:0.5525828 9:-0.30961666 10:-0.27394488 11:-0.22640149 12:0.50857097 13:-0.038220409 14:1.1955793 15:-0.15391792 16:-0.30765641 17:0.91346675 18:-0.36310151 19:-0.88086981 20:2.7596867 21:-0.53654605 22:-0.062323686 23:1.462683 24:-0.25234732 25:1.1925309 26:-0.4047187 27:-0.27057403 28:-0.30796358 29:-0.16733444 30:-0.27352092 31:-0.20108834 32:-0.16073692 33:-0.090900108 34:-0.16487801 35:-0.27398148 36:0.082759462 37:-0.07540112 38:-0.11907394 39:-0.21418162 40:-0.20511942 41:-0.13776088 42:-0.16252463 43:-0.2478133 44:-0.042809062 45:-0.31722111 46:-0.15619448 47:-0.066107452 48:-0.14383133 49:0.3897762 50:-0.11364016 51:-0.26362848 52:-0.52965069 53:0.018806782 54:-0.28615856 55:-0.074870564 56:-0.10601576 57:1.6055843 #
-0.026322065770049557498211356687534 1:0.41550037 2:-0.17667121 3:0.47530058 4:-0.098842546 5:-0.22011846 6:-0.34561899 7:-0.26157999 8:-0.31560028 9:-0.30961666 10:2.7591429 11:-0.22640149 12:-0.43675846 13:-0.21933696 14:-0.16083114 15:-0.15391792 16:-0.079409197 17:0.46800172 18:-0.36310151 19:-0.21658263 20:-0.14419276 21:0.010344515 22:-0.062323686 23:-0.26375422 24:-0.25234732 25:0.35044304 26:0.29758957 27:-0.27057403 28:-0.30796358 29:-0.16733444 30:-0.27352092 31:-0.20108834 32:-0.16073692 33:-0.18338262 34:-0.16487801 35:-0.27398148 36:-0.30811864 37:-0.39074841 38:-0.11907394 39:-0.21418162 40:-0.20511942 41:-0.13776088 42:-0.16252463 43:-0.2478133 44:-0.17397934 45:-0.31722111 46:-0.15619448 47:-0.066107452 48:-0.14383133 49:0.0076679932 50:-0.1409055 51:-0.26362848 52:-0.043850437 53:-0.34909117 54:-0.28615856 55:-0.079887688 56:-0.13286854 57:0.0081063164 #
0.026322065770049557498211356687534 1:-0.32373646 2:-0.17667121 3:0.66656989 4:-0.098842546 5:-0.44537586 6:-0.34561899 7:1.0584979 8:-0.31560028 9:-0.30961666 10:-0.41393355 11:-0.22640149 12:-0.60592264 13:-0.21933696 14:-0.16083114 15:-0.15391792 16:-0.30765641 17:2.6705787 18:3.1317954 19:0.49236253 20:-0.14419276 21:0.27340579 22:-0.062323686 23:-0.26375422 24:-0.25234732 25:-0.40743604 26:-0.4047187 27:-0.27057403 28:-0.30796358 29:-0.16733444 30:-0.27352092 31:-0.20108834 32:-0.16073692 33:-0.18338262 34:-0.16487801 35:-0.27398148 36:-0.30811864 37:-0.39074841 38:-0.11907394 39:-0.21418162 40:-0.20511942 41:-0.13776088 42:-0.16252463 43:-0.2478133 44:-0.17397934 45:-0.31722111 46:-0.15619448 47:-0.066107452 48:-0.14383133 49:-0.22159693 50:0.15446906 51:-0.26362848 52:0.49722049 53:-0.34909117 54:-0.28615856 55:-0.072019421 56:-0.2134269 57:-0.3949956 #
0.026322065770049557498211356687534 1:0.28504682 2:-0.0082560908 3:0.054508116 4:-0.098842546 5:-0.44537586 6:-0.34561899 7:-0.26157999 8:-0.31560028 9:5.2022223 10:0.26267835 11:0.40345138 12:-0.028774185 13:-0.21933696 14:-0.16083114 15:-0.15391792 16:-0.11968812 17:-0.37343216 18:-0.098622821 19:0.43095782 20:0.54486334 21:0.031112511 22:-0.062323686 23:-0.26375422 24:2.0263598 25:-0.40743604 26:-0.4047187 27:-0.27057403 28:-0.30796358 29:-0.16733444 30:-0.27352092 31:-0.20108834 32:-0.16073692 33:-0.18338262 34:-0.16487801 35:-0.27398148 36:-0.30811864 37:-0.39074841 38:4.6110144 39:-0.21418162 40:-0.20511942 41:-0.13776088 42:-0.16252463 43:-0.2478133 44:-0.17397934 45:-0.31722111 46:-0.15619448 47:-0.066107452 48:-0.14383133 49:-0.22159693 50:0.28170732 51:-0.26362848 52:0.063781954 53:0.39254439 54:1.8741031 55:-0.056282897 56:0.32362884 57:0.55751926 #
0.0049422859776209419196968397614 1:-0.32373646 2:1.4112427 3:0.57093525 4:-0.098842546 5:-0.44537586 6:3.9276457 7:-0.26157999 8:0.50688899 9:1.4334437 10:1.3359249 11:-0.22640149 12:1.4539003 13:-0.21933696 14:-0.16083114 15:-0.15391792 16:-0.30765641 17:0.54224592 18:-0.36310151 19:0.48678026 20:-0.14419276 21:0.072648503 22:-0.062323686 23:-0.26375422 24:0.67985106 25:-0.40743604 26:-0.4047187 27:-0.21375258 28:-0.30796358 29:-0.16733444 30:-0.27352092 31:-0.20108834 32:-0.16073692 33:-0.18338262 34:-0.16487801 35:-0.27398148 36:-0.30811864 37:-0.39074841 38:-0.11907394 39:-0.21418162 40:-0.20511942 41:-0.13776088 42:-0.16252463 43:-0.2478133 44:-0.17397934 45:-0.31722111 46:-0.15619448 47:-0.066107452 48:-0.14383133 49:-0.22159693 50:-0.28177646 51:-0.26362848 52:0.17141435 53:0.27575138 54:-0.28615856 55:-0.063775428 56:-0.016506467 57:0.091712639 #
-0.025779110432561484073099578040456 1:-0.32373646 2:-0.17667121 3:-0.50017285 4:-0.098842546 5:-0.44537586 6:-0.34561899 7:-0.26157999 8:-0.31560028 9:-0.30961666 10:-0.41393355 11:-0.22640149 12:-0.60592264 13:-0.21933696 14:-0.16083114 15:-0.15391792 16:-0.30765641 17:1.4084278 18:-0.36310151 19:-0.88086981 20:-0.14419276 21:-0.57808203 22:-0.062323686 23:-0.26375422 24:-0.25234732 25:-0.050787069 26:-0.4047187 27:-0.27057403 28:-0.30796358 29:-0.16733444 30:-0.27352092 31:-0.20108834 32:-0.16073692 33:-0.18338262 34:-0.16487801 35:-0.27398148 36:-0.30811864 37:-0.39074841 38:11.624594 39:-0.21418162 40:-0.20511942 41:-0.13776088 42:-0.16252463 43:-0.2478133 44:-0.17397934 45:-0.31722111 46:-0.15619448 47:-0.066107452 48:-0.14383133 49:-0.22159693 50:-0.64531434 51:-0.26362848 52:-0.52965069 53:-0.34909117 54:8.0795603 55:-0.070184968 56:-0.25818154 57:-0.28152987 #
-0.026322065770049557498211356687534 1:-0.32373646 2:-0.17667121 3:6.0794911 4:-0.098842546 5:-0.44537586 6:-0.34561899 7:-0.26157999 8:-0.31560028 9:-0.30961666 10:-0.41393355 11:-0.22640149 12:-0.60592264 13:-0.21933696 14:-0.16083114 15:-0.15391792 16:-0.30765641 17:-0.37343216 18:6.1355176 19:-0.88086981 20:-0.14419276 21:1.8033148 22:-0.062323686 23:-0.26375422 24:-0.25234732 25:-0.40743604 26:-0.4047187 27:-0.27057403 28:-0.30796358 29:-0.16733444 30:-0.27352092 31:-0.20108834 32:-0.16073692 33:-0.18338262 34:-0.16487801 35:-0.27398148 36:-0.30811864 37:-0.39074841 38:-0.11907394 39:-0.21418162 40:-0.20511942 41:-0.13776088 42:-0.16252463 43:-0.2478133 44:-0.17397934 45:-0.31722111 46:-0.15619448 47:-0.066107452 48:-0.14383133 49:-0.22159693 50:-0.64531434 51:-0.26362848 52:-0.52965069 53:-0.34909117 54:-0.28615856 55:-0.083578698 56:-0.29398528 57:-0.5801239 #
-0.026322065770049557498211356687534 1:-0.32373646 2:-0.17667121 3:-0.50017285 4:-0.098842546 5:0.32314941 6:-0.34561899 7:-0.26157999 8:-0.31560028 9:-0.30961666 10:-0.41393355 11:-0.22640149 12:-0.60592264 13:-0.21933696 14:-0.16083114 15:-0.15391792 16:-0.30765641 17:-0.37343216 18:-0.36310151 19:-0.39521447 20:-0.14419276 21:-0.37732473 22:-0.062323686 23:-0.26375422 24:-0.25234732 25:-0.26378575 26:-0.10520487 27:-0.17902836 28:0.68258494 29:-0.16733444 30:-0.27352092 31:-0.20108834 32:-0.16073692 33:-0.18338262 34:0.51893091 35:0.8867777 36:-0.30811864 37:-0.39074841 38:-0.11907394 39:-0.21418162 40:-0.20511942 41:-0.13776088 42:-0.16252463 43:-0.2478133 44:-0.17397934 45:-0.31722111 46:-0.15619448 47:-0.066107452 48:-0.14383133 49:-0.22159693 50:0.35441491 51:-0.26362848 52:-0.52965069 53:11.552116 54:-0.28615856 55:0.17799684 56:2.8119872 57:0.65904123 #
0.012681354038880654488963273252011 1:-0.32373646 2:-0.17667121 3:-0.50017285 4:-0.098842546 5:7.8361464 6:-0.34561899 7:6.490294 8:-0.31560028 9:-0.30961666 10:-0.41393355 11:-0.22640149 12:2.4987381 13:-0.21933696 14:-0.16083114 15:-0.15391792 16:-0.30765641 17:-0.37343216 18:-0.36310151 19:2.6080334 20:-0.14419276 21:-0.57808203 22:-0.062323686 23:-0.26375422 24:-0.25234732 25:-0.40743604 26:-0.4047187 27:-0.27057403 28:-0.30796358 29:-0.16733444 30:-0.27352092 31:-0.20108834 32:-0.16073692 33:-0.18338262 34:-0.16487801 35:-0.27398148 36:-0.30811864 37:-0.39074841 38:-0.11907394 39:-0.21418162 40:-0.20511942 41:-0.13776088 42:-0.16252463 43:-0.2478133 44:-0.17397934 45:-0.31722111 46:-0.15619448 47:-0.066107452 48:-0.14383133 49:-0.22159693 50:-0.64531434 51:-0.26362848 52:-0.52965069 53:-0.34909117 54:-0.28615856 55:0.086627744 56:0.20726676 57:-0.43978468 #
0.026322065770049557498211356687534 1:-0.32373646 2:-0.17667121 3:-0.50017285 4:-0.098842546 5:-0.44537586 6:-0.34561899 7:-0.26157999 8:-0.31560028 9:-0.30961666 10:-0.41393355 11:-0.22640149 12:-0.60592264 13:-0.21933696 14:-0.16083114 15:-0.15391792 16:-0.30765641 17:-0.37343216 18:-0.36310151 19:-0.16076016 20:-0.14419276 21:-0.13503145 22:-0.062323686 23:-0.26375422 24:-0.25234732 25:-0.40743604 26:-0.4047187 27:-0.27057403 28:-0.30796358 29:-0.16733444 30:-0.27352092 31:-0.20108834 32:-0.16073692 33:-0.18338262 34:-0.16487801 35:-0.27398148 36:-0.30811864 37:-0.39074841 38:-0.11907394 39:-0.21418162 40:-0.20511942 41:-0.13776088 42:-0.16252463 43:-0.2478133 44:-0.17397934 45:-0.31722111 46:-0.15619448 47:-0.066107452 48:-0.14383133 49:-0.22159693 50:-0.64531434 51:-0.26362848 52:-0.52965069 53:-0.34909117 54:-0.28615856 55:-0.097370259 56:-0.3029362 57:-0.54130667 #
0.026322065770049557498211356687534 1:0.76337653 2:0.12407006 3:-0.50017285 4:-0.098842546 5:0.54840684 6:-0.34561899 7:-0.26157999 8:-0.31560028 9:0.86812675 10:1.3359249 11:-0.22640149 12:0.89665353 13:-0.21933696 14:8.8343115 15:-0.15391792 16:-0.30765641 17:0.86397064 18:-0.36310151 19:0.95568883 20:-0.14419276 21:0.12110716 22:-0.062323686 23:-0.26375422 24:-0.25234732 25:-0.40743604 26:-0.4047187 27:-0.27057403 28:-0.30796358 29:-0.16733444 30:-0.27352092 31:-0.20108834 32:-0.16073692 33:0.20196116 34:-0.16487801 35:-0.27398148 36:-0.30811864 37:-0.39074841 38:-0.11907394 39:-0.21418162 40:-0.20511942 41:-0.13776088 42:-0.16252463 43:-0.2478133 44:-0.17397934 45:-0.31722111 46:-0.15619448 47:-0.066107452 48:-0.14383133 49:-0.22159693 50:-0.272688 51:-0.26362848 52:-0.41038236 53:0.37502545 54:2.3400419 55:-0.05144259 56:-0.043359254 57:-0.0098093236 #
0.026322065770049557498211356687534 1:-0.32373646 2:-0.17667121 3:-0.50017285 4:-0.098842546 5:-0.44537586 6:-0.34561899 7:-0.26157999 8:-0.31560028 9:-0.30961666 10:-0.41393355 11:-0.22640149 12:-0.60592264 13:-0.21933696 14:-0.16083114 15:-0.15391792 16:-0.30765641 17:-0.37343216 18:-0.36310151 19:-0.88086981 20:-0.14419276 21:-0.57808203 22:-0.062323686 23:-0.26375422 24:-0.25234732 25:0.61297631 26:-0.4047187 27:-0.27057403 28:-0.30796358 29:-0.16733444 30:-0.27352092 31:-0.20108834 32:-0.16073692 33:1.4042337 34:-0.16487801 35:-0.27398148 36:-0.30811864 37:-0.39074841 38:-0.11907394 39:-0.21418162 40:-0.20511942 41:-0.13776088 42:-0.16252463 43:-0.2478133 44:-0.17397934 45:-0.31722111 46:-0.15619448 47:-0.066107452 48:-0.14383133 49:-0.22159693 50:0.90881026 51:-0.26362848 52:-0.52965069 53:-0.34909117 54:-0.28615856 55:-0.072748788 56:-0.2402797 57:-0.48457378 #
-0.026322065770049557498211356687534 1:0.19807778 2:-0.17667121 3:-0.021999607 4:-0.098842546 5:-0.44537586 6:-0.34561899 7:-0.26157999 8:1.4207659 9:5.7204294 10:-0.41393355 11:-0.22640149 12:-0.22779089 13:-0.21933696 14:-0.16083114 15:-0.15391792 16:-0.30765641 17:-0.37343216 18:-0.36310151 19:-0.59617531 20:-0.14419276 21:-0.40501541 22:-0.062323686 23:-0.26375422 24:-0.25234732 25:-0.090414733 26:0.38021407 27:-0.23269306 28:-0.30796358 29:-0.16733444 30:-0.27352092 31:-0.20108834 32:-0.16073692 33:0.60271871 34:-0.16487801 35:-0.27398148 36:-0.30811864 37:-0.39074841 38:-0.11907394 39:-0.21418162 40:-0.20511942 41:-0.13776088 42:-0.16252463 43:-0.2478133 44:-0.17397934 45:-0.31722111 46:-0.15619448 47:-0.066107452 48:-0.14383133 49:0.23693292 50:0.090849921 51:0.40961075 52:-0.52965069 53:-0.13886377 54:-0.28615856 55:-0.051752016 56:-0.043359254 57:0.82923985 #
0.026322065770049557498211356687534 1:-0.32373646 2:-0.17667121 3:0.36053899 4:-0.098842546 5:-0.15386628 6:0.6545068 7:-0.26157999 8:-0.31560028 9:2.8467357 10:0.6359815 11:0.7633673 12:0.28965256 13:-0.21933696 14:-0.16083114 15:-0.15391792 16:-0.012277667 17:-0.37343216 18:-0.36310151 19:-0.12726671 20:-0.14419276 21:0.19725648 22:0.79421991 23:0.71013343 24:0.88700628 25:-0.40743604 26:-0.4047187 27:-0.27057403 28:-0.30796358 29:-0.16733444 30:-0.27352092 31:-0.20108834 32:-0.16073692 33:-0.18338262 34:-0.16487801 35:-0.27398148 36:0.61764532 37:-0.39074841 38:-0.11907394 39:-0.21418162 40:-0.20511942 41:-0.13776088 42:-0.16252463 43:-0.2478133 44:-0.17397934 45:-0.31722111 46:-0.15619448 47:-0.066107452 48:-0.14383133 49:0.32184586 50:0.52709544 51:-0.26362848 52:-0.15439181 53:0.77796131 54:-0.28615856 55:0.038666703 56:0.30572698 57:1.2054683 #
-0.026322065770049557498211356687534 1:0.024139695 2:-0.080433995 3:-0.021999607 4:-0.098842546 5:-0.44537586 6:0.79088759 7:-0.26157999 8:-0.31560028 9:3.2707233 10:-0.41393355 11:-0.22640149 12:-0.35715175 13:-0.21933696 14:-0.16083114 15:-0.15391792 16:-0.30765641 17:-0.37343216 18:-0.36310151 19:-0.69665569 20:-0.14419276 21:-0.46731937 22:-0.062323686 23:-0.26375422 24:-0.25234732 25:-0.15976314 26:0.20463702 27:-0.24532005 28:-0.30796358 29:-0.16733444 30:-0.27352092 31:-0.20108834 32:-0.16073692 33:0.46399492 34:-0.16487801 35:-0.27398148 36:0.20619465 37:-0.19668855 38:-0.11907394 39:-0.21418162 40:-0.20511942 41:-0.13776088 42:-0.073323682 43:-0.2478133 44:-0.17397934 45:-0.31722111 46:-0.15619448 47:-0.066107452 48:-0.14383133 49:1.0351145 50:-0.027299901 51:0.57792056 52:-0.52965069 53:-0.22061887 54:-0.28615856 55:-0.033451673 56:0.16251212 57:1.7727969 #
0.0015151565968953301793975541045256 1:0.50246942 2:0.051892161 3:-0.13676119 4:6.5757008 5:1.0916747 6:-0.34561899 7:-0.26157999 8:-0.31560028 9:2.4227481 10:0.47266138 11:-0.22640149 12:-0.60592264 13:-0.21933696 14:-0.16083114 15:-0.15391792 16:-0.30765641 17:-0.37343216 18:-0.36310151 19:-0.77480716 20:1.7261025 21:-0.17656745 22:-0.062323686 23:-0.26375422 24:-0.25234732 25:-0.31332034 26:-0.4047187 27:-0.27057403 28:0.016526459 29:-0.16733444 30:-0.27352092 31:-0.20108834 32:-0.16073692 33:-0.18338262 34:0.73114747 35:-0.27398148 36:-0.30811864 37:-0.39074841 38:-0.11907394 39:-0.21418162 40:-0.20511942 41:-0.13776088 42:-0.16252463 43:-0.2478133 44:-0.17397934 45:-0.31722111 46:-0.15619448 47:-0.066107452 48:-0.14383133 49:-0.22159693 50:-0.32721868 51:-0.26362848 52:-0.52965069 53:6.1971569 54:-0.28615856 55:22.455303 56:17.948008 57:5.463419 #
-0.026322065770049557498211356687534 1:-0.32373646 2:-0.17667121 3:-0.50017285 4:-0.098842546 5:-0.44537586 6:-0.34561899 7:-0.26157999 8:2.7458875 9:-0.30961666 10:-0.41393355 11:-0.22640149 12:0.73744017 13:-0.21933696 14:-0.16083114 15:-0.15391792 16:0.59190613 17:-0.37343216 18:-0.36310151 19:1.3799396 20:-0.14419276 21:0.82029635 22:-0.062323686 23:-0.26375422 24:-0.25234732 25:-0.075554363 26:-0.4047187 27:-0.27057403 28:-0.30796358 29:-0.16733444 30:-0.27352092 31:-0.20108834 32:-0.16073692 33:-0.18338262 34:-0.16487801 35:1.0668955 36:-0.30811864 37:-0.39074841 38:-0.11907394 39:-0.21418162 40:-0.20511942 41:-0.13776088 42:-0.16252463 43:-0.2478133 44:-0.17397934 45:0.23349348 46:-0.15619448 47:-0.066107452 48:-0.14383133 49:-0.22159693 50:1.1087561 51:-0.26362848 52:-0.52965069 53:-0.34909117 54:-0.28615856 55:-0.049475525 56:-0.15972133 57:-0.27555799 #
0.013549320359512758218945016608359 1:-0.32373646 2:-0.17667121 3:-0.50017285 4:-0.098842546 5:-0.44537586 6:-0.34561899 7:2.0539665 8:-0.31560028 9:-0.30961666 10:-0.41393355 11:-0.22640149 12:-0.60592264 13:-0.21933696 14:-0.16083114 15:-0.15391792 16:2.5789993 17:-0.37343216 18:-0.36310151 19:-0.88086981 20:-0.14419276 21:0.91029096 22:-0.062323686 23:-0.26375422 24:-0.25234732 25:-0.40743604 26:-0.4047187 27:-0.27057403 28:-0.30796358 29:-0.16733444 30:-0.27352092 31:-0.20108834 32:-0.16073692 33:-0.18338262 34:-0.16487801 35:-0.27398148 36:-0.30811864 37:-0.39074841 38:-0.11907394 39:-0.21418162 40:2.2637708 41:-0.13776088 42:-0.16252463 43:-0.2478133 44:-0.17397934 45:-0.31722111 46:-0.15619448 47:-0.066107452 48:-0.14383133 49:-0.22159693 50:-0.64531434 51:-0.26362848 52:-0.10784808 53:2.202836 54:5.8769407 55:-0.081456922 56:-0.2402797 57:-0.45172846 #
-0.026322065770049557498211356687534 1:-0.32373646 2:-0.17667121 3:-0.50017285 4:-0.098842546 5:0.32314941 6:-0.34561899 7:-0.26157999 8:-0.31560028 9:-0.30961666 10:-0.41393355 11:-0.22640149 12:-0.60592264 13:-0.21933696 14:-0.16083114 15:-0.15391792 16:-0.30765641 17:-0.37343216 18:-0.36310151 19:-0.39521447 20:-0.14419276 21:-0.37732473 22:-0.062323686 23:-0.26375422 24:-0.25234732 25:-0.26378575 26:-0.10520487 27:-0.17902836 28:0.68258494 29:-0.16733444 30:-0.27352092 31:-0.20108834 32:-0.16073692 33:-0.18338262 34:0.51893091 35:0.8867777 36:-0.30811864 37:-0.39074841 38:-0.11907394 39:-0.21418162 40:-0.20511942 41:-0.13776088 42:-0.16252463 43:-0.2478133 44:-0.17397934 45:-0.31722111 46:-0.15619448 47:-0.066107452 48:-0.14383133 49:-0.22159693 50:0.35441491 51:-0.26362848 52:-0.52965069 53:11.552116 54:-0.28615856 55:0.17799684 56:2.8119872 57:0.65904123 #
-0.026322065770049557498211356687534 1:-0.32373646 2:-0.17667121 3:-0.50017285 4:-0.098842546 5:-0.44537586 6:-0.34561899 7:-0.26157999 8:-0.31560028 9:-0.30961666 10:-0.41393355 11:-0.22640149 12:-0.60592264 13:-0.21933696 14:-0.16083114 15:-0.15391792 16:-0.30765641 17:-0.37343216 18:-0.36310151 19:-0.88086981 20:-0.14419276 21:-0.57808203 22:-0.062323686 23:-0.26375422 24:-0.25234732 25:2.2674313 26:-0.4047187 27:-0.27057403 28:-0.30796358 29:-0.16733444 30:-0.27352092 31:-0.20108834 32:-0.16073692 33:-0.18338262 34:-0.16487801 35:-0.27398148 36:-0.30811864 37:-0.39074841 38:-0.11907394 39:-0.21418162 40:-0.20511942 41:-0.13776088 42:-0.16252463 43:-0.2478133 44:-0.17397934 45:-0.31722111 46:-0.15619448 47:-0.066107452 48:-0.14383133 49:-0.22159693 50:-0.64531434 51:-0.26362848 52:0.62230676 53:-0.34909117 54:8.1007395 55:-0.065764599 56:-0.2402797 57:-0.52339101 #
-0.026322065770049557498211356687534 1:-0.32373646 2:-0.17667121 3:-0.50017285 4:-0.098842546 5:0.70741206 6:-0.34561899 7:1.6211542 8:-0.31560028 9:-0.30961666 10:-0.41393355 11:-0.22640149 12:-0.60592264 13:-0.21933696 14:-0.16083114 15:-0.15391792 16:3.2234621 17:-0.37343216 18:1.2804446 19:0.58726066 20:-0.14419276 21:-0.57808203 22:-0.062323686 23:-0.26375422 24:-0.25234732 25:-0.40743604 26:-0.4047187 27:-0.27057403 28:-0.30796358 29:-0.16733444 30:-0.27352092 31:-0.20108834 32:-0.16073692 33:-0.18338262 34:-0.16487801 35:-0.27398148 36:-0.30811864 37:-0.39074841 38:-0.11907394 39:-0.21418162 40:-0.20511942 41:-0.13776088 42:-0.16252463 43:-0.2478133 44:-0.17397934 45:-0.31722111 46:-0.15619448 47:-0.066107452 48:-0.14383133 49:-0.22159693 50:-0.64531434 51:-0.26362848 52:1.7917181 53:0.57941324 54:-0.28615856 55:0.28611916 56:0.88753736 57:-0.030710904 #
0.026322065770049557498211356687534 1:0.37201586 2:0.20827763 3:0.74307758 4:-0.098842546 5:-0.021361919 6:-0.34561899 7:0.084669963 8:-0.31560028 9:-0.30961666 10:0.72930723 11:0.49343038 12:-0.60592264 13:0.26364049 14:-0.16083114 15:0.84714329 16:-0.092835501 17:-0.37343216 18:1.1670966 19:-0.70223796 20:0.64329994 21:0.10033916 22:-0.062323686 23:-0.26375422 24:-0.25234732 25:-0.40743604 26:-0.4047187 27:-0.27057403 28:-0.30796358 29:-0.16733444 30:-0.27352092 31:-0.20108834 32:-0.16073692 33:-0.18338262 34:-0.16487801 35:-0.27398148 36:-0.30811864 37:-0.39074841 38:-0.11907394 39:-0.21418162 40:0.16406043 41:-0.13776088 42:-0.16252463 43:-0.2478133 44:-0.17397934 45:-0.31722111 46:-0.15619448 47:-0.066107452 48:-0.14383133 49:-0.22159693 50:-0.64531434 51:-0.26362848 52:1.7189935 53:0.11808084 54:1.4081643 55:0.023814254 56:0.85173368 57:2.214716 #
-0.026322065770049557498211356687534 1:-0.32373646 2:-0.17667121 3:-0.50017285 4:-0.098842546 5:-0.44537586 6:-0.34561899 7:-0.26157999 8:-0.31560028 9:-0.30961666 10:-0.41393355 11:-0.22640149 12:-0.60592264 13:-0.21933696 14:-0.16083114 15:-0.15391792 16:-0.30765641 17:-0.37343216 18:-0.36310151 19:1.6534696 20:-0.14419276 21:5.7146206 22:-0.062323686 23:-0.26375422 24:-0.25234732 25:-0.40743604 26:-0.4047187 27:-0.27057403 28:-0.30796358 29:-0.16733444 30:-0.27352092 31:-0.20108834 32:-0.16073692 33:-0.18338262 34:-0.16487801 35:-0.27398148 36:-0.30811864 37:-0.39074841 38:-0.11907394 39:-0.21418162 40:-0.20511942 41:-0.13776088 42:-0.16252463 43:-0.2478133 44:-0.17397934 45:-0.31722111 46:-0.15619448 47:-0.066107452 48:-0.14383133 49:-0.22159693 50:-0.64531434 51:-0.26362848 52:-0.52965069 53:-0.34909117 54:-0.28615856 55:-0.099646755 56:-0.32083806 57:-0.62192702 #
0.026322065770049557498211356687534 1:-0.32373646 2:-0.17667121 3:0.87696612 4:-0.098842546 5:1.952953 6:-0.34561899 7:-0.26157999 8:-0.31560028 9:-0.30961666 10:0.42599848 11:-0.22640149 12:-0.24769257 13:-0.21933696 14:-0.16083114 15:-0.15391792 16:-0.30765641 17:1.4084278 18:-0.36310151 19:-0.47894815 20:-0.14419276 21:-0.32886606 22:-0.062323686 23:-0.26375422 24:-0.25234732 25:-0.40743604 26:-0.4047187 27:-0.27057403 28:-0.30796358 29:-0.16733444 30:-0.27352092 31:-0.20108834 32:-0.16073692 33:0.37151241 34:-0.16487801 35:-0.27398148 36:-0.30811864 37:-0.39074841 38:-0.11907394 39:-0.21418162 40:-0.20511942 41:-0.13776088 42:-0.16252463 43:-0.2478133 44:-0.17397934 45:-0.31722111 46:-0.15619448 47:-0.066107452 48:-0.14383133 49:0.22844163 50:0.55890501 51:-0.26362848 52:-0.52965069 53:-0.34909117 54:-0.28615856 55:-0.087645441 56:-0.2134269 57:-0.37409401 #
0.026322065770049557498211356687534 1:-0.32373646 2:-0.17667121 3:0.24577741 4:-0.098842546 5:0.58815813 6:-0.34561899 7:-0.26157999 8:-0.041437197 9:-0.026958233 10:0.02936391 11:0.35846189 12:-0.34720093 13:0.17308222 14:-0.16083114 15:-0.15391792 16:-0.30765641 17:-0.37343216 18:-0.36310151 19:-0.70223796 20:-0.14419276 21:-0.53654605 22:-0.062323686 23:-0.26375422 24:-0.25234732 25:-0.40743604 26:-0.4047187 27:-0.27057403 28:-0.30796358 29:-0.16733444 30:-0.14627562 31:-0.20108834 32:-0.16073692 33:-0.18338262 34:-0.16487801 35:-0.27398148 36:-0.30811864 37:-0.39074841 38:-0.11907394 39:-0.21418162 40:-0.20511942 41:-0.13776088 42:-0.16252463 43:-0.054893032 44:-0.17397934 45:-0.31722111 46:-0.15619448 47:-0.066107452 48:-0.14383133 49:-0.22159693 50:-0.49989921 51:-0.26362848 52:-0.52965069 53:-0.16222237 54:-0.28615856 55:-0.095093764 56:-0.19552505 57:0.079768874 #
0.026322065770049557498211356687534 1:-0.32373646 2:-0.17667121 3:-0.50017285 4:-0.098842546 5:-0.44537586 6:-0.34561899 7:-0.26157999 8:-0.31560028 9:-0.30961666 10:-0.41393355 11:-0.22640149 12:-0.60592264 13:-0.21933696 14:-0.16083114 15:-0.15391792 16:-0.30765641 17:-0.37343216 18:-0.36310151 19:-0.88086981 20:-0.14419276 21:-0.57808203 22:-0.062323686 23:-0.26375422 24:-0.25234732 25:0.61297631 26:-0.4047187 27:-0.27057403 28:-0.30796358 29:-0.16733444 30:-0.27352092 31:-0.20108834 32:-0.16073692 33:1.4042337 34:-0.16487801 35:-0.27398148 36:-0.30811864 37:-0.39074841 38:-0.11907394 39:-0.21418162 40:-0.20511942 41:-0.13776088 42:-0.16252463 43:-0.2478133 44:-0.17397934 45:-0.31722111 46:-0.15619448 47:-0.066107452 48:-0.14383133 49:-0.22159693 50:0.90881026 51:-0.26362848 52:-0.52965069 53:-0.34909117 54:-0.28615856 55:-0.072748788 56:-0.2402797 57:-0.48457378 #
-0.026322065770049557498211356687534 1:-0.062829345 2:-0.17667121 3:-0.13676119 4:-0.098842546 5:-0.10086454 6:-0.072857417 7:-0.26157999 8:0.5525828 9:-0.30961666 10:-0.27394488 11:-0.22640149 12:0.50857097 13:-0.038220409 14:1.1955793 15:-0.15391792 16:-0.30765641 17:0.91346675 18:-0.36310151 19:-0.88086981 20:2.7596867 21:-0.53654605 22:-0.062323686 23:1.462683 24:-0.25234732 25:1.1925309 26:-0.4047187 27:-0.27057403 28:-0.30796358 29:-0.16733444 30:-0.27352092 31:-0.20108834 32:-0.16073692 33:-0.090900108 34:-0.16487801 35:-0.27398148 36:0.082759462 37:-0.07540112 38:-0.11907394 39:-0.21418162 40:-0.20511942 41:-0.13776088 42:-0.16252463 43:-0.2478133 44:-0.042809062 45:-0.31722111 46:-0.15619448 47:-0.066107452 48:-0.14383133 49:0.3897762 50:-0.11364016 51:-0.26362848 52:-0.52965069 53:0.018806782 54:-0.28615856 55:-0.074870564 56:-0.10601576 57:1.6055843 #
-0.025176918319299294857227522470566 1:-0.32373646 2:-0.17667121 3:-0.50017285 4:-0.098842546 5:-0.44537586 6:-0.34561899 7:-0.26157999 8:-0.31560028 9:-0.30961666 10:5.4189277 11:-0.22640149 12:4.3694954 13:-0.21933696 14:-0.16083114 15:-0.15391792 16:-0.30765641 17:-0.37343216 18:-0.36310151 19:-0.88086981 20:-0.14419276 21:-0.57808203 22:-0.062323686 23:-0.26375422 24:-0.25234732 25:-0.40743604 26:-0.4047187 27:-0.27057403 28:-0.30796358 29:-0.16733444 30:-0.27352092 31:-0.20108834 32:-0.16073692 33:-0.18338262 34:-0.16487801 35:-0.27398148 36:-0.30811864 37:-0.39074841 38:-0.11907394 39:-0.21418162 40:-0.20511942 41:-0.13776088 42:-0.16252463 43:-0.2478133 44:-0.17397934 45:-0.31722111 46:-0.15619448 47:-0.066107452 48:-0.14383133 49:-0.22159693 50:-0.64531434 51:-0.26362848 52:0.73866612 53:-0.34909117 54:-0.28615856 55:-0.084175445 56:-0.25818154 57:-0.58609575 #
0.026322065770049557498211356687534 1:-0.32373646 2:-0.044345044 3:-0.060253467 4:-0.098842546 5:0.32314941 6:1.20003 7:-0.023533149 8:-0.31560028 9:1.2921144 10:-0.41393355 11:0.80835682 12:0.30955422 13:1.1692232 14:-0.16083114 15:-0.15391792 16:0.30995369 17:0.19577312 18:0.27920386 19:-0.55709958 20:-0.14419276 21:-0.17656745 22:-0.062323686 23:0.22318961 24:-0.25234732 25:-0.40743604 26:-0.4047187 27:-0.27057403 28:-0.30796358 29:-0.16733444 30:-0.27352092 31:-0.20108834 32:-0.16073692 33:-0.18338262 34:-0.16487801 35:-0.27398148 36:-0.30811864 37:-0.39074841 38:-0.11907394 39:-0.21418162 40:-0.20511942 41:-0.13776088 42:-0.16252463 43:0.10587386 44:-0.17397934 45:-0.31722111 46:-0.15619448 47:-0.066107452 48:-0.14383133 49:0.41525009 50:-0.47717807 51:-0.26362848 52:0.407042 53:0.19983594 54:0.095064074 55:-0.064814217 56:0.099855617 57:0.52467394 #
0.022036892668696742708656088893804 1:2.4592729 2:-0.17667121 3:0.72395068 4:-0.098842546 5:2.1119583 6:-0.34561899 7:-0.26157999 8:-0.31560028 9:-0.30961666 10:-0.41393355 11:-0.22640149 12:0.67773515 13:-0.21933696 14:-0.16083114 15:-0.15391792 16:1.424337 17:1.2104434 18:-0.36310151 19:0.19650352 20:-0.14419276 21:1.2079656 22:-0.062323686 23:2.5693736 24:-0.25234732 25:-0.40743604 26:-0.4047187 27:-0.27057403 28:-0.30796358 29:-0.16733444 30:-0.27352092 31:-0.20108834 32:-0.16073692 33:-0.18338262 34:-0.16487801 35:-0.27398148 36:-0.30811864 37:-0.39074841 38:-0.11907394 39:-0.21418162 40:-0.20511942 41:-0.13776088 42:-0.16252463 43:-0.2478133 44:-0.17397934 45:-0.31722111 46:-0.15619448 47:-0.066107452 48:-0.14383133 49:-0.22159693 50:-0.64531434 51:-0.26362848 52:0.8142997 53:1.8115795 54:-0.28615856 55:-0.067820072 56:-0.13286854 57:-0.27257204 #
0.026322065770049557498211356687534 1:-0.32373646 2:-0.17667121 3:-0.50017285 4:-0.098842546 5:-0.44537586 6:-0.34561899 7:-0.26157999 8:-0.31560028 9:-0.30961666 10:-0.41393355 11:-0.22640149 12:-0.60592264 13:-0.21933696 14:-0.16083114 15:-0.15391792 16:1.4109107 17:-0.37343216 18:-0.36310151 19:1.2627124 20:-0.14419276 21:2.0802214 22:-0.062323686 23:-0.26375422 24:-0.25234732 25:-0.40743604 26:-0.4047187 27:-0.27057403 28:-0.30796358 29:-0.16733444 30:-0.27352092 31:-0.20108834 32:-0.16073692 33:-0.18338262 34:-0.16487801 35:-0.27398148 36:-0.30811864 37:-0.39074841 38:-0.11907394 39:-0.21418162 40:-0.20511942 41:-0.13776088 42:-0.16252463 43:-0.2478133 44:-0.17397934 45:0.73489034 46:-0.15619448 47:-0.066107452 48:-0.14383133 49:-0.22159693 50:-0.64531434 51:-0.26362848 52:0.13941552 53:0.99402839 54:-0.28615856 55:0.00065150071 56:0.03719911 57:-0.42186904 #
-0.026322065770049557498211356687534 1:-0.32373646 2:-0.17667121 3:-0.50017285 4:-0.098842546 5:0.70741206 6:-0.34561899 7:1.6211542 8:-0.31560028 9:-0.30961666 10:-0.41393355 11:-0.22640149 12:-0.60592264 13:-0.21933696 14:-0.16083114 15:-0.15391792 16:3.2234621 17:-0.37343216 18:1.2804446 19:0.58726066 20:-0.14419276 21:-0.57808203 22:-0.062323686 23:-0.26375422 24:-0.25234732 25:-0.40743604 26:-0.4047187 27:-0.27057403 28:-0.30796358 29:-0.16733444 30:-0.27352092 31:-0.20108834 32:-0.16073692 33:-0.18338262 34:-0.16487801 35:-0.27398148 36:-0.30811864 37:-0.39074841 38:-0.11907394 39:-0.21418162 40:-0.20511942 41:-0.13776088 42:-0.16252463 43:-0.2478133 44:-0.17397934 45:-0.31722111 46:-0.15619448 47:-0.066107452 48:-0.14383133 49:-0.22159693 50:-0.64531434 51:-0.26362848 52:1.7917181 53:0.57941324 54:-0.28615856 55:0.28611916 56:0.88753736 57:-0.030710904 #
-0.0039322793432275812350318311416686 1:-0.32373646 2:-0.17667121 3:-0.50017285 4:-0.098842546 5:-0.44537586 6:-0.34561899 7:-0.26157999 8:-0.31560028 9:-0.30961666 10:-0.41393355 11:-0.22640149 12:0.78719431 13:-0.21933696 14:-0.16083114 15:-0.15391792 16:-0.30765641 17:1.3589318 18:-0.36310151 19:-0.099355474 20:-0.14419276 21:0.39109111 22:-0.062323686 23:-0.26375422 24:-0.25234732 25:-0.40743604 26:-0.4047187 27:-0.049601737 28:-0.30796358 29:-0.16733444 30:-0.27352092 31:1.4053497 32:-0.16073692 33:-0.18338262 34:-0.16487801 35:-0.27398148 36:-0.30811864 37:-0.39074841 38:-0.11907394 39:-0.21418162 40:4.6634398 41:-0.13776088 42:-0.16252463 43:-0.2478133 44:-0.17397934 45:-0.31722111 46:-0.15619448 47:-0.066107452 48:-0.14383133 49:-0.22159693 50:0.5634492 51:0.97064346 52:-0.52965069 53:-0.34909117 54:-0.28615856 55:0.2760849 56:1.4603969 57:0.49182859 #
0.0054081135414564985436358668380308 1:-0.32373646 2:0.02783286 3:-0.50017285 4:-0.098842546 5:-0.44537586 6:-0.34561899 7:0.10631058 8:2.0604799 9:-0.30961666 10:-0.01729898 11:1.3482307 12:-0.088479199 13:-0.21933696 14:-0.16083114 15:-0.15391792 16:-0.30765641 17:0.047284782 18:0.95929188 19:-0.38963223 20:-0.14419276 21:-0.093495466 22:7.4518995 23:1.2856125 24:-0.25234732 25:-0.40743604 26:-0.4047187 27:-0.27057403 28:-0.30796358 29:-0.16733444 30:-0.27352092 31:-0.20108834 32:-0.16073692 33:-0.18338262 34:-0.16487801 35:-0.27398148 36:-0.30811864 37:-0.39074841 38:-0.11907394 39:-0.21418162 40:-0.20511942 41:-0.13776088 42:-0.16252463 43:-0.2478133 44:-0.17397934 45:-0.31722111 46:-0.15619448 47:-0.066107452 48:-0.14383133 49:0.016159287 50:0.0045096669 51:0.26000205 52:-0.28238708 53:-0.01623112 54:4.5638404 55:-0.042977575 56:0.01929725 57:0.60828024 #
0.026322065770049557498211356687534 1:-0.32373646 2:-0.17667121 3:-0.50017285 4:-0.098842546 5:-0.44537586 6:-0.34561899 7:-0.26157999 8:-0.31560028 9:-0.30961666 10:-0.41393355 11:-0.22640149 12:1.1951786 13:-0.21933696 14:-0.16083114 15:-0.15391792 16:-0.30765641 17:-0.37343216 18:-0.36310151 19:-0.88086981 20:-0.14419276 21:0.67492038 22:-0.062323686 23:-0.26375422 24:-0.25234732 25:-0.40743604 26:-0.4047187 27:-0.27057403 28:-0.30796358 29:-0.16733444 30:-0.27352092 31:-0.20108834 32:-0.16073692 33:-0.18338262 34:-0.16487801 35:-0.27398148 36:-0.30811864 37:-0.39074841 38:-0.11907394 39:-0.21418162 40:-0.20511942 41:-0.13776088 42:-0.16252463 43:-0.2478133 44:-0.17397934 45:-0.31722111 46:-0.15619448 47:-0.066107452 48:-0.14383133 49:-0.22159693 50:-0.64531434 51:-0.26362848 52:0.36922523 53:-0.34909117 54:-0.28615856 55:-0.092286833 56:-0.23132877 57:-0.4696441 #
-0.017411834307234242552597791586777 1:-0.32373646 2:0.11204042 3:-0.50017285 4:-0.098842546 5:-0.12736541 6:-0.34561899 7:-0.26157999 8:0.78105205 9:-0.30961666 10:0.72930723 11:-0.22640149 12:-0.60592264 13:-0.21933696 14:10.404892 15:-0.15391792 16:-0.30765641 17:-0.37343216 18:-0.36310151 19:-0.32822752 20:-0.14419276 21:-0.57808203 22:-0.062323686 23:-0.26375422 24:-0.25234732 25:-0.1647166 26:-0.4047187 27:-0.19481209 28:-0.30796358 29:-0.16733444 30:-0.27352092 31:0.34969041 32:-0.16073692 33:-0.18338262 34:-0.16487801 35:0.20633267 36:-0.30811864 37:1.4043055 38:-0.11907394 39:-0.21418162 40:-0.20511942 41:-0.13776088 42:-0.16252463 43:-0.2478133 44:-0.17397934 45:-0.31722111 46:-0.15619448 47:-0.066107452 48:-0.14383133 49:-0.22159693 50:-0.64531434 51:-0.26362848 52:-0.52965069 53:0.58525288 54:-0.28615856 55:0.084019728 56:1.7736794 57:2.6715648 #
-0.026322065770049557498211356687534 1:-0.32373646 2:-0.17667121 3:-0.50017285 4:-0.098842546 5:-0.44537586 6:-0.34561899 7:-0.26157999 8:-0.31560028 9:-0.30961666 10:-0.41393355 11:-0.22640149 12:-0.60592264 13:-0.21933696 14:-0.16083114 15:-0.15391792 16:-0.30765641 17:-0.37343216 18:-0.36310151 19:1.6534696 20:-0.14419276 21:5.7146206 22:-0.062323686 23:-0.26375422 24:-0.25234732 25:-0.40743604 26:-0.4047187 27:-0.27057403 28:-0.30796358 29:-0.16733444 30:-0.27352092 31:-0.20108834 32:-0.16073692 33:-0.18338262 34:-0.16487801 35:-0.27398148 36:-0.30811864 37:-0.39074841 38:-0.11907394 39:-0.21418162 40:-0.20511942 41:-0.13776088 42:-0.16252463 43:-0.2478133 44:-0.17397934 45:-0.31722111 46:-0.15619448 47:-0.066107452 48:-0.14383133 49:-0.22159693 50:-0.64531434 51:-0.26362848 52:-0.52965069 53:-0.34909117 54:-0.28615856 55:-0.099646755 56:-0.32083806 57:-0.62192702 #
0.021718608067791946025781868456761 1:-0.32373646 2:-0.17667121 3:-0.50017285 4:-0.098842546 5:-0.44537586 6:-0.34561899 7:2.0539665 8:-0.31560028 9:-0.30961666 10:-0.41393355 11:-0.22640149 12:-0.60592264 13:-0.21933696 14:-0.16083114 15:-0.15391792 16:2.5789993 17:-0.37343216 18:-0.36310151 19:-0.88086981 20:-0.14419276 21:0.91029096 22:-0.062323686 23:-0.26375422 24:-0.25234732 25:-0.40743604 26:-0.4047187 27:-0.27057403 28:-0.30796358 29:-0.16733444 30:-0.27352092 31:-0.20108834 32:-0.16073692 33:-0.18338262 34:-0.16487801 35:-0.27398148 36:-0.30811864 37:-0.39074841 38:-0.11907394 39:-0.21418162 40:2.2637708 41:-0.13776088 42:-0.16252463 43:-0.2478133 44:-0.17397934 45:-0.31722111 46:-0.15619448 47:-0.066107452 48:-0.14383133 49:-0.22159693 50:-0.64531434 51:-0.26362848 52:-0.10784808 53:2.202836 54:5.8769407 55:-0.081456922 56:-0.2402797 57:-0.45172846 #
0.026322065770049557498211356687534 1:-0.32373646 2:0.90599734 3:-0.50017285 4:-0.098842546 5:-0.44537586 6:-0.34561899 7:-0.26157999 8:-0.31560028 9:-0.30961666 10:-0.41393355 11:-0.22640149 12:-0.60592264 13:-0.21933696 14:-0.16083114 15:-0.15391792 16:0.90071112 17:-0.37343216 18:3.0562301 19:1.1454852 20:-0.14419276 21:1.3048829 22:-0.062323686 23:-0.26375422 24:-0.25234732 25:-0.40743604 26:-0.4047187 27:-0.27057403 28:-0.30796358 29:-0.16733444 30:-0.27352092 31:-0.20108834 32:-0.16073692 33:-0.18338262 34:-0.16487801 35:-0.27398148 36:-0.30811864 37:-0.39074841 38:-0.11907394 39:-0.21418162 40:-0.20511942 41:-0.13776088 42:-0.16252463 43:-0.2478133 44:-0.17397934 45:0.42254475 46:-0.15619448 47:-0.066107452 48:-0.14383133 49:-0.22159693 50:-0.64531434 51:-0.26362848 52:-0.049668405 53:0.61445111 54:-0.28615856 55:0.016741656 56:0.03719911 57:-0.35617837 #
0.0060669562403623733190527467229458 1:0.28504682 2:-0.0082560908 3:0.054508116 4:-0.098842546 5:-0.44537586 6:-0.34561899 7:-0.26157999 8:-0.31560028 9:5.2022223 10:0.26267835 11:0.40345138 12:-0.028774185 13:-0.21933696 14:-0.16083114 15:-0.15391792 16:-0.11968812 17:-0.37343216 18:-0.098622821 19:0.43095782 20:0.54486334 21:0.031112511 22:-0.062323686 23:-0.26375422 24:2.0263598 25:-0.40743604 26:-0.4047187 27:-0.27057403 28:-0.30796358 29:-0.16733444 30:-0.27352092 31:-0.20108834 32:-0.16073692 33:-0.18338262 34:-0.16487801 35:-0.27398148 36:-0.30811864 37:-0.39074841 38:4.6110144 39:-0.21418162 40:-0.20511942 41:-0.13776088 42:-0.16252463 43:-0.2478133 44:-0.17397934 45:-0.31722111 46:-0.15619448 47:-0.066107452 48:-0.14383133 49:-0.22159693 50:0.28170732 51:-0.26362848 52:0.063781954 53:0.39254439 54:1.8741031 55:-0.056282897 56:0.32362884 57:0.55751926 #
-0.026322065770049557498211356687534 1:1.0677682 2:-0.17667121 3:-0.50017285 4:-0.098842546 5:-0.021361919 6:-0.34561899 7:-0.26157999 8:-0.31560028 9:-0.30961666 10:-0.41393355 11:-0.22640149 12:-0.28749591 13:-0.21933696 14:-0.16083114 15:-0.15391792 16:-0.30765641 17:-0.37343216 18:-0.36310151 19:-0.34497425 20:-0.14419276 21:1.1941203 22:-0.062323686 23:-0.26375422 24:-0.25234732 25:-0.40743604 26:-0.4047187 27:-0.06854222 28:-0.30796358 29:-0.16733444 30:-0.27352092 31:-0.20108834 32:-0.16073692 33:-0.18338262 34:-0.16487801 35:-0.27398148 36:-0.30811864 37:-0.39074841 38:-0.11907394 39:-0.21418162 40:-0.20511942 41:-0.13776088 42:-0.16252463 43:-0.2478133 44:-0.17397934 45:-0.31722111 46:-0.15619448 47:-0.066107452 48:-0.14383133 49:-0.22159693 50:0.41803405 51:-0.26362848 52:-0.36092964 53:-0.34909117 54:-0.28615856 55:-0.098143823 56:-0.3029362 57:-0.49651754 #
-0.026322065770049557498211356687534 1:-0.32373646 2:-0.17667121 3:-0.50017285 4:-0.098842546 5:2.3107147 6:-0.34561899 7:-0.26157999 8:-0.31560028 9:-0.30961666 10:-0.41393355 11:3.5077262 12:0.21999671 13:-0.21933696 14:-0.16083114 15:-0.15391792 16:0.80672699 17:-0.37343216 18:2.7728601 19:0.74356353 20:-0.14419276 21:-0.29425275 22:-0.062323686 23:-0.26375422 24:-0.25234732 25:-0.40743604 26:-0.4047187 27:-0.27057403 28:-0.30796358 29:-0.16733444 30:-0.27352092 31:-0.20108834 32:-0.16073692 33:-0.18338262 34:-0.16487801 35:-0.27398148 36:-0.30811864 37:-0.39074841 38:-0.11907394 39:-0.21418162 40:-0.20511942 41:-0.13776088 42:-0.16252463 43:-0.2478133 44:-0.17397934 45:-0.31722111 46:-0.15619448 47:-0.066107452 48:-0.14383133 49:-0.22159693 50:-0.050021019 51:-0.26362848 52:0.42740488 53:-0.34909117 54:1.0904788 55:-0.056282897 56:-0.23132877 57:-0.16806415 #
-0.026322065770049557498211356687534 1:0.58943844 2:-0.17667121 3:-0.09850733 4:7.2782841 5:0.38940158 6:-0.34561899 7:-0.26157999 8:-0.31560028 9:-0.30961666 10:-0.41393355 11:1.6631571 12:-0.60592264 13:0.41457093 14:-0.16083114 15:-0.15391792 16:0.8201533 17:-0.37343216 18:0.43033454 19:0.17975679 20:-0.14419276 21:-0.57808203 22:-0.062323686 23:0.66586578 24:-0.25234732 25:-0.40743604 26:-0.4047187 27:-0.27057403 28:-0.30796358 29:-0.16733444 30:-0.27352092 31:-0.20108834 32:-0.16073692 33:-0.18338262 34:-0.16487801 35:-0.27398148 36:-0.30811864 37:0.11865877 38:-0.11907394 39:-0.21418162 40:-0.20511942 41:-0.13776088 42:-0.16252463 43:-0.2478133 44:-0.17397934 45:-0.31722111 46:-0.15619448 47:-0.066107452 48:-0.14383133 49:-0.22159693 50:-0.50444341 51:-0.26362848 52:0.55830914 53:0.012967132 54:-0.28615856 55:-0.057830028 56:0.30572698 57:0.57244897 #
0.026322065770049557498211356687534 1:-0.32373646 2:-0.17667121 3:-0.50017285 4:-0.098842546 5:-0.44537586 6:-0.34561899 7:-0.26157999 8:2.7458875 9:-0.30961666 10:1.1492733 11:-0.22640149 12:-0.60592264 13:-0.21933696 14:-0.16083114 15:-0.15391792 16:-0.30765641 17:-0.37343216 18:-0.36310151 19:-0.88086981 20:-0.14419276 21:-0.57808203 22:-0.062323686 23:-0.26375422 24:-0.25234732 25:-0.40743604 26:-0.4047187 27:-0.27057403 28:-0.30796358 29:-0.16733444 30:-0.27352092 31:-0.20108834 32:-0.16073692 33:-0.18338262 34:-0.16487801 35:-0.27398148 36:-0.30811864 37:2.8597546 38:-0.11907394 39:-0.21418162 40:-0.20511942 41:-0.13776088 42:-0.16252463 43:-0.2478133 44:-0.17397934 45:-0.31722111 46:-0.15619448 47:-0.066107452 48:-0.14383133 49:1.221923 50:1.676784 51:1.3259642 52:0.95683992 53:-0.34909117 54:-0.28615856 55:-0.019704314 56:-0.088113904 57:0.011092257 #
0.026322065770049557498211356687534 1:0.024139695 2:0.02783286 3:0.15014276 4:-0.098842546 5:1.4891877 6:0.42720547 7:-0.088455014 8:-0.31560028 9:0.86812675 10:-0.22728199 11:-0.22640149 12:0.75734186 13:-0.21933696 14:0.41028905 15:-0.15391792 16:0.37708521 17:-0.17544772 18:-0.21197082 19:1.0338403 20:-0.14419276 21:-0.045036808 22:-0.062323686 23:0.090386741 24:0.62806225 25:-0.40743604 26:-0.4047187 27:-0.27057403 28:-0.30796358 29:-0.16733444 30:-0.27352092 31:-0.20108834 32:-0.16073692 33:-0.18338262 34:-0.16487801 35:-0.27398148 36:-0.30811864 37:-0.39074841 38:-0.11907394 39:-0.21418162 40:-0.20511942 41:-0.13776088 42:-0.16252463 43:-0.2478133 44:-0.17397934 45:-0.31722111 46:-0.15619448 47:-0.066107452 48:-0.14383133 49:-0.22159693 50:-0.29540911 51:0.93324131 52:0.48267558 53:0.2523928 54:-0.032010138 55:-0.0025753712 56:0.73537159 57:3.7106719 #
0.026322065770049557498211356687534 1:0.024139695 2:0.01580321 3:0.11188891 4:-0.098842546 5:1.3831843 6:0.38174522 7:-0.088455014 8:-0.31560028 9:0.82101703 10:-0.22728199 11:-0.22640149 12:0.68768597 13:-0.21933696 14:0.41028905 15:-0.15391792 16:0.3368063 17:-0.17544772 18:-0.21197082 19:1.072916 20:-0.14419276 21:-0.072727464 22:-0.062323686 23:0.090386741 24:0.57627344 25:-0.40743604 26:-0.4047187 27:-0.27057403 28:-0.30796358 29:-0.16733444 30:-0.27352092 31:-0.20108834 32:-0.16073692 33:-0.18338262 34:-0.16487801 35:-0.11387676 36:-0.30811864 37:-0.39074841 38:-0.11907394 39:-0.21418162 40:-0.20511942 41:-0.13776088 42:-0.16252463 43:-0.2478133 44:-0.17397934 45:-0.31722111 46:-0.15619448 47:-0.066107452 48:-0.14383133 49:-0.22159693 50:-0.25905532 51:0.87713802 52:0.60485291 53:0.21735489 54:-0.032010138 55:0.0018892051 56:0.73537159 57:4.0241957 #
-0.026322065770049557498211356687534 1:-0.062829345 2:-0.1285526 3:0.054508116 4:-0.098842546 5:-0.3393724 6:-0.072857417 7:-0.26157999 8:0.27841973 9:-0.21539718 10:-0.15728766 11:-0.22640149 12:-0.13823338 13:-0.21933696 14:-0.01805109 15:-0.028785268 16:-0.13311443 17:-0.051707439 18:-0.21197082 19:-0.74689591 20:-0.14419276 21:-0.46039671 22:-0.062323686 23:-0.26375422 24:-0.25234732 25:-0.40743604 26:-0.4047187 27:-0.27057403 28:-0.27380672 29:-0.1464598 30:-0.27352092 31:-0.20108834 32:-0.16073692 33:2.436955 34:-0.16487801 35:-0.27398148 36:0.14447707 37:1.6226228 38:0.20713905 39:-0.21418162 40:-0.20511942 41:0.0040901271 42:-0.11792415 43:-0.18350655 44:-0.042809062 45:-0.31722111 46:0.40573728 47:0.33822417 48:0.37482917 49:0.050124459 50:0.15446906 51:-0.26362848 52:-0.52092373 53:-0.33157223 54:-0.28615856 55:-0.073102415 56:0.37733442 57:7.2191515 #
-0.026322065770049557498211356687534 1:-0.32373646 2:0.087981112 3:-0.50017285 4:-0.098842546 5:0.42915291 6:0.6545068 7:-0.26157999 8:1.694929 9:1.7632117 10:1.6625651 11:-0.22640149 12:-0.60592264 13:0.44475701 14:1.4097494 15:-0.15391792 16:1.4780422 17:-0.37343216 18:-0.36310151 19:-0.38404998 20:-0.14419276 21:-0.27348477 22:-0.062323686 23:-0.26375422 24:0.88700628 25:1.2470189 26:3.2720716 27:-0.062228724 28:0.067761727 29:0.062286589 30:0.19304512 31:0.30379218 32:0.35839441 33:-0.18338262 34:0.35387358 35:0.16630648 36:0.14447707 37:2.3018324 38:-0.11907394 39:-0.21418162 40:0.30250287 41:-0.13776088 42:-0.16252463 43:0.45956102 44:-0.17397934 45:-0.13638945 46:-0.15619448 47:-0.066107452 48:-0.14383133 49:1.0351145 50:1.0451369 51:1.8121926 52:0.55249119 53:0.95315081 54:-0.28615856 55:-0.046049736 56:0.04615004 57:0.59036463 #
-0.014200413241353392404531241766108 1:-0.1932829 2:-0.14058225 3:-0.50017285 4:-0.098842546 5:-0.44537586 6:-0.34561899 7:-0.26157999 8:-0.31560028 9:-0.026958233 10:-0.20395054 11:-0.091433018 12:-0.45666012 13:-0.21933696 14:-0.16083114 15:-0.15391792 16:-0.30765641 17:-0.29918799 18:-0.13640548 19:-0.86412305 20:-0.14419276 21:-0.57808203 22:-0.062323686 23:-0.26375422 24:-0.25234732 25:-0.17957698 26:-0.12586099 27:-0.27057403 28:-0.30796358 29:-0.13602248 30:-0.14627562 31:-0.20108834 32:-0.16073692 33:-0.18338262 34:-0.16487801 35:-0.27398148 36:-0.24640106 37:-0.026886148 38:-0.11907394 39:-0.21418162 40:-0.20511942 41:0.71334511 42:-0.16252463 43:-0.15135317 44:-0.17397934 45:-0.21858566 46:2.1496634 47:-0.066107452 48:-0.14383133 49:-0.017805887 50:0.1635575 51:-0.26362848 52:-0.1573008 53:-0.34909117 54:-0.28615856 55:-0.046005532 56:0.10880654 57:4.8184557 #
0.018770812213141762486712238455766 1:-0.32373646 2:-0.17667121 3:-0.17501505 4:18.168327 5:-0.22011846 6:-0.34561899 7:0.10631058 8:-0.31560028 9:2.9409552 10:-0.01729898 11:0.53841984 12:-0.60592264 13:-0.21933696 14:-0.16083114 15:-0.15391792 16:2.0285208 17:-0.37343216 18:0.94040054 19:-0.3003163 20:-0.14419276 21:-0.46039671 22:-0.062323686 23:-0.26375422 24:-0.25234732 25:-0.32322726 26:-0.4047187 27:-0.27057403 28:-0.30796358 29:-0.16733444 30:-0.27352092 31:-0.20108834 32:-0.16073692 33:-0.18338262 34:0.23597549 35:-0.27398148 36:-0.30811864 37:0.43400607 38:-0.11907394 39:-0.21418162 40:0.18713418 41:-0.13776088 42:-0.16252463 43:-0.2478133 44:-0.17397934 45:-0.31722111 46:-0.15619448 47:-0.066107452 48:-0.14383133 49:-0.22159693 50:-0.31813022 51:-0.26362848 52:1.6637229 53:3.6277106 54:-0.28615856 55:-0.016985785 56:0.13565934 57:2.2505474 #
0.026322065770049557498211356687534 1:-0.32373646 2:-0.17667121 3:-0.50017285 4:-0.098842546 5:-0.44537586 6:-0.34561899 7:-0.26157999 8:-0.31560028 9:-0.30961666 10:-0.41393355 11:-0.22640149 12:1.1951786 13:-0.21933696 14:-0.16083114 15:-0.15391792 16:-0.30765641 17:-0.37343216 18:-0.36310151 19:-0.88086981 20:-0.14419276 21:0.67492038 22:-0.062323686 23:-0.26375422 24:-0.25234732 25:-0.40743604 26:-0.4047187 27:-0.27057403 28:-0.30796358 29:-0.16733444 30:-0.27352092 31:-0.20108834 32:-0.16073692 33:-0.18338262 34:-0.16487801 35:-0.27398148 36:-0.30811864 37:-0.39074841 38:-0.11907394 39:-0.21418162 40:-0.20511942 41:-0.13776088 42:-0.16252463 43:-0.2478133 44:-0.17397934 45:-0.31722111 46:-0.15619448 47:-0.066107452 48:-0.14383133 49:-0.22159693 50:-0.64531434 51:-0.26362848 52:0.36922523 53:-0.34909117 54:-0.28615856 55:-0.092286833 56:-0.23132877 57:-0.4696441 #
0.026322065770049557498211356687534 1:-0.32373646 2:-0.17667121 3:-0.50017285 4:-0.098842546 5:-0.44537586 6:-0.34561899 7:-0.26157999 8:-0.31560028 9:-0.30961666 10:-0.41393355 11:-0.22640149 12:-0.60592264 13:-0.21933696 14:-0.16083114 15:-0.15391792 16:-0.30765641 17:-0.37343216 18:-0.36310151 19:-0.16076016 20:-0.14419276 21:-0.13503145 22:-0.062323686 23:-0.26375422 24:-0.25234732 25:-0.40743604 26:-0.4047187 27:-0.27057403 28:-0.30796358 29:-0.16733444 30:-0.27352092 31:-0.20108834 32:-0.16073692 33:-0.18338262 34:-0.16487801 35:-0.27398148 36:-0.30811864 37:-0.39074841 38:-0.11907394 39:-0.21418162 40:-0.20511942 41:-0.13776088 42:-0.16252463 43:-0.2478133 44:-0.17397934 45:-0.31722111 46:-0.15619448 47:-0.066107452 48:-0.14383133 49:-0.22159693 50:-0.64531434 51:-0.26362848 52:-0.52965069 53:-0.34909117 54:-0.28615856 55:-0.097370259 56:-0.3029362 57:-0.54130667 #
-0.026322065770049557498211356687534 1:-0.32373646 2:-0.17667121 3:-0.50017285 4:-0.098842546 5:-0.44537586 6:-0.34561899 7:-0.26157999 8:-0.31560028 9:-0.30961666 10:-0.41393355 11:-0.22640149 12:-0.60592264 13:-0.21933696 14:-0.16083114 15:-0.15391792 16:-0.30765641 17:-0.37343216 18:-0.36310151 19:1.4413441 20:-0.14419276 21:-0.57808203 22:-0.062323686 23:-0.26375422 24:-0.25234732 25:-0.40743604 26:-0.4047187 27:-0.27057403 28:-0.30796358 29:-0.16733444 30:-0.27352092 31:-0.20108834 32:-0.16073692 33:-0.18338262 34:-0.16487801 35:-0.27398148 36:-0.30811864 37:-0.39074841 38:-0.11907394 39:-0.21418162 40:-0.20511942 41:-0.13776088 42:-0.16252463 43:-0.2478133 44:-0.17397934 45:-0.31722111 46:-0.15619448 47:-0.066107452 48:-0.14383133 49:-0.22159693 50:-0.64531434 51:-0.26362848 52:1.6229972 53:-0.34909117 54:-0.28615856 55:-0.085833088 56:-0.27608341 57:-0.59803951 #
-0.026322065770049557498211356687534 1:-0.32373646 2:-0.17667121 3:-0.50017285 4:-0.098842546 5:-0.44537586 6:-0.34561899 7:-0.26157999 8:-0.31560028 9:-0.30961666 10:-0.41393355 11:-0.22640149 12:2.7574599 13:-0.21933696 14:-0.16083114 15:-0.15391792 16:-0.30765641 17:3.8089893 18:-0.36310151 19:-0.88086981 20:-0.14419276 21:-0.57808203 22:-0.062323686 23:-0.26375422 24:-0.25234732 25:-0.40743604 26:-0.4047187 27:-0.27057403 28:-0.30796358 29:-0.16733444 30:-0.27352092 31:-0.20108834 32:-0.16073692 33:-0.18338262 34:-0.16487801 35:-0.27398148 36:-0.30811864 37:-0.39074841 38:-0.11907394 39:-0.21418162 40:-0.20511942 41:-0.13776088 42:-0.16252463 43:-0.2478133 44:-0.17397934 45:-0.31722111 46:-0.15619448 47:-0.066107452 48:-0.14383133 49:-0.22159693 50:0.28170732 51:-0.26362848 52:0.65721458 53:-0.34909117 54:-0.28615856 55:0.014995609 56:0.090904683 57:-0.34124866 #
0.00072305695979935687839335045623557 1:-0.32373646 2:-0.17667121 3:-0.50017285 4:-0.098842546 5:-0.44537586 6:-0.34561899 7:-0.26157999 8:5.5789061 9:-0.30961666 10:0.58931857 11:-0.22640149 12:-0.60592264 13:-0.21933696 14:-0.16083114 15:-0.15391792 16:0.26967475 17:-0.37343216 18:2.9050994 19:-0.64083326 20:-0.14419276 21:-0.28040743 22:-0.062323686 23:-0.26375422 24:-0.25234732 25:-0.40743604 26:-0.4047187 27:-0.27057403 28:-0.30796358 29:-0.16733444 30:-0.27352092 31:-0.20108834 32:-0.16073692 33:-0.18338262 34:-0.16487801 35:-0.27398148 36:0.57650024 37:-0.39074841 38:-0.11907394 39:-0.21418162 40:-0.20511942 41:-0.13776088 42:-0.16252463 43:-0.2478133 44:-0.17397934 45:-0.31722111 46:-0.15619448 47:-0.066107452 48:-0.14383133 49:-0.22159693 50:-0.081830591 51:-0.26362848 52:0.37213421 53:0.012967132 54:-0.28615856 55:-0.089104161 56:-0.25818154 57:-0.44277063 #
-0.00011779264008082002525637510537138 1:-0.32373646 2:-0.17667121 3:-0.50017285 4:-0.098842546 5:-0.44537586 6:-0.34561899 7:-0.26157999 8:-0.31560028 9:-0.30961666 10:6.538837 11:-0.22640149 12:-0.60592264 13:-0.21933696 14:-0.16083114 15:9.1684647 16:-0.30765641 17:-0.37343216 18:-0.36310151 19:-0.88086981 20:-0.14419276 21:-0.57808203 22:-0.062323686 23:-0.26375422 24:-0.25234732 25:0.3306292 26:1.1341627 27:-0.27057403 28:-0.30796358 29:-0.16733444 30:-0.27352092 31:-0.20108834 32:-0.16073692 33:-0.18338262 34:-0.16487801 35:-0.27398148 36:-0.30811864 37:3.2236168 38:-0.11907394 39:-0.21418162 40:-0.20511942 41:-0.13776088 42:-0.16252463 43:4.5430403 44:-0.17397934 45:-0.31722111 46:-0.15619448 47:-0.066107452 48:-0.14383133 49:-0.22159693 50:0.30442846 51:3.6448994 52:-0.52965069 53:-0.34909117 54:-0.28615856 55:-0.044392094 56:-0.1776232 57:-0.49054566 #
0.026322065770049557498211356687534 1:-0.32373646 2:-0.17667121 3:-0.50017285 4:-0.098842546 5:-0.44537586 6:-0.34561899 7:-0.26157999 8:2.7458875 9:-0.30961666 10:1.1492733 11:-0.22640149 12:-0.60592264 13:-0.21933696 14:-0.16083114 15:-0.15391792 16:-0.30765641 17:-0.37343216 18:-0.36310151 19:-0.88086981 20:-0.14419276 21:-0.57808203 22:-0.062323686 23:-0.26375422 24:-0.25234732 25:-0.40743604 26:-0.4047187 27:-0.27057403 28:-0.30796358 29:-0.16733444 30:-0.27352092 31:-0.20108834 32:-0.16073692 33:-0.18338262 34:-0.16487801 35:-0.27398148 36:-0.30811864 37:2.8597546 38:-0.11907394 39:-0.21418162 40:-0.20511942 41:-0.13776088 42:-0.16252463 43:-0.2478133 44:-0.17397934 45:-0.31722111 46:-0.15619448 47:-0.066107452 48:-0.14383133 49:1.221923 50:1.676784 51:1.3259642 52:0.95683992 53:-0.34909117 54:-0.28615856 55:-0.019704314 56:-0.088113904 57:0.011092257 #
0.026322065770049557498211356687534 1:-0.019344825 2:-0.1526119 3:-0.21326891 4:-0.098842546 5:-0.11411497 6:0.56358629 7:-0.26157999 8:-0.22421259 9:0.3970294 10:-0.41393355 11:-0.22640149 12:-0.35715175 13:0.53531528 14:0.33889902 15:-0.15391792 16:-0.24052487 17:0.17102507 18:-0.36310151 19:-0.85295856 20:-0.14419276 21:-0.5642367 22:-0.062323686 23:1.3741478 24:-0.14876972 25:-0.40743604 26:-0.4047187 27:-0.27057403 28:-0.30796358 29:-0.1464598 30:-0.27352092 31:-0.20108834 32:-0.16073692 33:-0.18338262 34:-0.16487801 35:-0.27398148 36:-0.20525599 37:0.33697614 38:0.20713905 39:-0.21418162 40:-0.15897194 41:-0.13776088 42:-0.16252463 43:-0.18350655 44:-0.17397934 45:-0.30078185 46:-0.15619448 47:-0.066107452 48:-0.14383133 49:-0.12819271 50:-0.54534143 51:-0.26362848 52:-0.52965069 53:-0.22061887 54:-0.28615856 55:-0.090297662 56:-0.15077041 57:2.2445755 #
0.026322065770049557498211356687534 1:-0.32373646 2:0.23233692 3:0.81958532 4:-0.098842546 5:0.0051389523 6:-0.34561899 7:0.10631058 8:-0.31560028 9:-0.30961666 10:0.77597016 11:0.53841984 12:-0.60592264 13:0.29382658 14:-0.16083114 15:0.90970963 16:-0.079409197 17:-0.37343216 18:1.2615533 19:-0.69107348 20:0.69251823 21:-0.2250261 22:-0.062323686 23:-0.26375422 24:-0.25234732 25:-0.40743604 26:-0.4047187 27:-0.27057403 28:-0.30796358 29:-0.16733444 30:-0.27352092 31:-0.20108834 32:-0.16073692 33:-0.18338262 34:-0.16487801 35:-0.27398148 36:-0.30811864 37:-0.39074841 38:-0.11907394 39:-0.21418162 40:-0.20511942 41:-0.13776088 42:-0.16252463 43:-0.2478133 44:-0.17397934 45:-0.31722111 46:-0.15619448 47:-0.066107452 48:-0.14383133 49:-0.22159693 50:-0.64531434 51:-0.26362848 52:0.38667911 53:-0.34909117 54:0.26449636 55:0.018907638 56:1.0038995 57:2.1758988 #
-0.026322065770049557498211356687534 1:-0.32373646 2:-0.17667121 3:5.065764 4:-0.098842546 5:-0.44537586 6:-0.34561899 7:-0.26157999 8:-0.31560028 9:-0.30961666 10:-0.41393355 11:-0.22640149 12:-0.60592264 13:-0.21933696 14:-0.16083114 15:-0.15391792 16:-0.30765641 17:-0.37343216 18:-0.36310151 19:0.20208576 20:-0.14419276 21:-0.57808203 22:-0.062323686 23:-0.26375422 24:-0.25234732 25:-0.40743604 26:-0.4047187 27:-0.27057403 28:-0.30796358 29:-0.16733444 30:-0.27352092 31:-0.20108834 32:-0.16073692 33:-0.18338262 34:-0.16487801 35:-0.27398148 36:-0.30811864 37:-0.39074841 38:-0.11907394 39:-0.21418162 40:-0.20511942 41:-0.13776088 42:-0.16252463 43:-0.2478133 44:-0.17397934 45:-0.31722111 46:-0.15619448 47:-0.066107452 48:-0.14383133 49:-0.22159693 50:1.1223887 51:-0.26362848 52:0.60194391 53:-0.34909117 54:-0.28615856 55:-0.093900271 56:-0.3029362 57:-0.55026448 #
-0.026322065770049557498211356687534 1:-0.32373646 2:-0.17667121 3:-0.50017285 4:-0.098842546 5:-0.44537586 6:-0.34561899 7:-0.26157999 8:-0.31560028 9:-0.30961666 10:-0.41393355 11:-0.22640149 12:-0.60592264 13:-0.21933696 14:-0.16083114 15:-0.15391792 16:-0.30765641 17:-0.37343216 18:-0.36310151 19:-0.88086981 20:-0.14419276 21:-0.57808203 22:-0.062323686 23:-0.26375422 24:-0.25234732 25:-0.40743604 26:-0.4047187 27:3.9373696 28:-0.30796358 29:-0.16733444 30:-0.27352092 31:-0.20108834 32:-0.16073692 33:-0.18338262 34:-0.16487801 35:-0.27398148 36:-0.30811864 37:-0.39074841 38:-0.11907394 39:-0.21418162 40:-0.20511942 41:-0.13776088 42:-0.16252463 43:-0.2478133 44:-0.17397934 45:5.1570463 46:-0.15619448 47:-0.066107452 48:-0.14383133 49:-0.22159693 50:-0.64531434 51:-0.26362848 52:2.8127713 53:-0.34909117 54:-0.28615856 55:-0.088595822 56:-0.3029362 57:-0.60102546 #
-0.026322065770049557498211356687534 1:-0.32373646 2:-0.17667121 3:-0.50017285 4:-0.098842546 5:0.56165725 6:0.79088759 7:-0.26157999 8:5.4875183 9:-0.30961666 10:-0.41393355 11:-0.22640149 12:0.15034086 13:-0.21933696 14:-0.16083114 15:-0.15391792 16:-0.30765641 17:-0.37343216 18:-0.36310151 19:-0.88086981 20:-0.14419276 21:-0.57808203 22:-0.062323686 23:-0.26375422 24:-0.25234732 25:-0.40743604 26:-0.4047187 27:-0.27057403 28:-0.30796358 29:-0.16733444 30:-0.27352092 31:-0.20108834 32:-0.16073692 33:-0.18338262 34:-0.16487801 35:-0.27398148 36:-0.30811864 37:-0.39074841 38:-0.11907394 39:-0.21418162 40:-0.20511942 41:-0.13776088 42:-0.16252463 43:-0.2478133 44:-0.17397934 45:-0.31722111 46:-0.15619448 47:-0.066107452 48:-0.14383133 49:-0.22159693 50:-0.64531434 51:-0.26362848 52:-0.52965069 53:-0.34909117 54:-0.28615856 55:-0.096552491 56:-0.28503433 57:-0.44277063 #
-0.026322065770049557498211356687534 1:-0.32373646 2:1.0142642 3:-0.50017285 4:-0.098842546 5:0.20389549 6:-0.34561899 7:-0.26157999 8:1.9233983 9:-0.30961666 10:-0.41393355 11:-0.22640149 12:-0.11833171 13:-0.21933696 14:-0.16083114 15:-0.15391792 16:-0.30765641 17:-0.37343216 18:3.3773828 19:0.77705699 20:-0.14419276 21:0.44647241 22:-0.062323686 23:-0.26375422 24:-0.25234732 25:-0.40743604 26:-0.4047187 27:-0.27057403 28:-0.30796358 29:-0.16733444 30:-0.27352092 31:-0.20108834 32:-0.16073692 33:-0.18338262 34:-0.16487801 35:-0.27398148 36:0.69993544 37:-0.39074841 38:-0.11907394 39:-0.21418162 40:-0.20511942 41:-0.13776088 42:-0.16252463 43:-0.2478133 44:-0.17397934 45:-0.31722111 46:-0.15619448 47:-0.066107452 48:-0.14383133 49:-0.22159693 50:-0.64531434 51:-0.26362848 52:-0.29402301 53:-0.34909117 54:-0.28615856 55:-0.091955304 56:-0.29398528 57:-0.46367222 #
0.026322065770049557498211356687534 1:-0.019344825 2:0.26842588 3:1.0491085 4:-0.098842546 5:0.23039636 6:0.97272867 7:-0.11009564 8:-0.31560028 9:0.020151503 10:0.44932991 11:0.088524953 12:0.86680102 13:0.2032683 14:-0.16083114 15:0.28404635 16:-0.30765641 17:-0.026959384 18:0.46811721 19:1.1008272 20:-0.14419276 21:0.70261103 22:-0.062323686 23:-0.26375422 24:0.47269586 25:-0.40743604 26:-0.4047187 27:-0.27057403 28:-0.30796358 29:-0.16733444 30:-0.27352092 31:-0.20108834 32:-0.16073692 33:-0.18338262 34:-0.16487801 35:-0.27398148 36:-0.30811864 37:-0.051143631 38:-0.11907394 39:-0.21418162 40:-0.20511942 41:-0.13776088 42:-0.16252463 43:-0.2478133 44:-0.17397934 45:-0.31722111 46:-0.15619448 47:-0.066107452 48:-0.14383133 49:0.19447646 50:-0.33176291 51:-0.26362848 52:-0.067122303 53:0.57941324 54:-0.095547244 55:-0.045364577 56:0.064051896 57:1.7578672 #
-0.026322065770049557498211356687534 1:-0.32373646 2:-0.17667121 3:1.3551394 4:-0.098842546 5:-0.44537586 6:-0.34561899 7:-0.26157999 8:-0.31560028 9:-0.30961666 10:4.1123667 11:-0.22640149 12:0.35930839 13:-0.21933696 14:-0.16083114 15:-0.15391792 16:-0.30765641 17:-0.37343216 18:1.469358 19:2.3679969 20:-0.14419276 21:0.093416497 22:-0.062323686 23:-0.26375422 24:-0.25234732 25:-0.40743604 26:-0.4047187 27:-0.27057403 28:-0.30796358 29:-0.16733444 30:-0.27352092 31:-0.20108834 32:-0.16073692 33:-0.18338262 34:-0.16487801 35:-0.27398148 36:-0.30811864 37:-0.39074841 38:-0.11907394 39:-0.21418162 40:-0.20511942 41:-0.13776088 42:-0.16252463 43:-0.2478133 44:-0.17397934 45:-0.31722111 46:-0.15619448 47:-0.066107452 48:-0.14383133 49:-0.22159693 50:0.68614328 51:-0.26362848 52:-0.52965069 53:-0.34909117 54:-0.28615856 55:-0.073411837 56:-0.20447598 57:-0.42784092 #
-0.026322065770049557498211356687534 1:-0.32373646 2:-0.17667121 3:-0.50017285 4:-0.098842546 5:-0.44537586 6:-0.34561899 7:-0.26157999 8:-0.31560028 9:-0.30961666 10:-0.41393355 11:-0.22640149 12:-0.60592264 13:-0.21933696 14:-0.16083114 15:-0.15391792 16:-0.30765641 17:-0.37343216 18:-0.36310151 19:0.97801787 20:-0.14419276 21:4.032413 22:-0.062323686 23:-0.26375422 24:-0.25234732 25:-0.40743604 26:-0.4047187 27:-0.27057403 28:-0.30796358 29:-0.16733444 30:-0.27352092 31:-0.20108834 32:-0.16073692 33:-0.18338262 34:-0.16487801 35:-0.27398148 36:-0.30811864 37:-0.39074841 38:-0.11907394 39:-0.21418162 40:-0.20511942 41:-0.13776088 42:-0.16252463 43:-0.2478133 44:-0.17397934 45:-0.31722111 46:-0.15619448 47:-0.066107452 48:-0.14383133 49:-0.22159693 50:-0.64531434 51:-0.26362848 52:-0.52965069 53:-0.34909117 54:-0.28615856 55:-0.093016192 56:-0.3029362 57:-0.59803951 #
-0.026322065770049557498211356687534 1:0.58943844 2:-0.17667121 3:-0.09850733 4:7.2782841 5:0.38940158 6:-0.34561899 7:-0.26157999 8:-0.31560028 9:-0.30961666 10:-0.41393355 11:1.6631571 12:-0.60592264 13:0.41457093 14:-0.16083114 15:-0.15391792 16:0.8201533 17:-0.37343216 18:0.43033454 19:0.17975679 20:-0.14419276 21:-0.57808203 22:-0.062323686 23:0.66586578 24:-0.25234732 25:-0.40743604 26:-0.4047187 27:-0.27057403 28:-0.30796358 29:-0.16733444 30:-0.27352092 31:-0.20108834 32:-0.16073692 33:-0.18338262 34:-0.16487801 35:-0.27398148 36:-0.30811864 37:0.11865877 38:-0.11907394 39:-0.21418162 40:-0.20511942 41:-0.13776088 42:-0.16252463 43:-0.2478133 44:-0.17397934 45:-0.31722111 46:-0.15619448 47:-0.066107452 48:-0.14383133 49:-0.22159693 50:-0.50444341 51:-0.26362848 52:0.55830914 53:0.012967132 54:-0.28615856 55:-0.057830028 56:0.30572698 57:0.57244897 #
-0.026322065770049557498211356687534 1:-0.32373646 2:-0.17667121 3:-0.50017285 4:-0.098842546 5:-0.44537586 6:-0.34561899 7:-0.26157999 8:-0.31560028 9:-0.30961666 10:-0.41393355 11:-0.22640149 12:-0.60592264 13:-0.21933696 14:-0.16083114 15:-0.15391792 16:4.6600766 17:-0.37343216 18:-0.36310151 19:1.1845609 20:-0.14419276 21:-0.57808203 22:-0.062323686 23:-0.26375422 24:-0.25234732 25:-0.40743604 26:-0.4047187 27:-0.27057403 28:-0.30796358 29:-0.16733444 30:-0.27352092 31:-0.20108834 32:-0.16073692 33:-0.18338262 34:-0.16487801 35:-0.27398148 36:-0.30811864 37:-0.39074841 38:-0.11907394 39:-0.21418162 40:-0.20511942 41:-0.13776088 42:-0.16252463 43:-0.2478133 44:-0.17397934 45:-0.31722111 46:-0.15619448 47:-0.066107452 48:-0.14383133 49:-0.22159693 50:-0.64531434 51:-0.26362848 52:-0.52965069 53:-0.34909117 54:-0.28615856 55:-0.095977843 56:-0.31188715 57:-0.61595517 #
0.026322065770049557498211356687534 1:-0.32373646 2:-0.17667121 3:-0.50017285 4:-0.098842546 5:-0.44537586 6:-0.34561899 7:-0.26157999 8:5.5789061 9:-0.30961666 10:0.58931857 11:-0.22640149 12:-0.60592264 13:-0.21933696 14:-0.16083114 15:-0.15391792 16:0.26967475 17:-0.37343216 18:2.9050994 19:-0.64083326 20:-0.14419276 21:-0.28040743 22:-0.062323686 23:-0.26375422 24:-0.25234732 25:-0.40743604 26:-0.4047187 27:-0.27057403 28:-0.30796358 29:-0.16733444 30:-0.27352092 31:-0.20108834 32:-0.16073692 33:-0.18338262 34:-0.16487801 35:-0.27398148 36:0.57650024 37:-0.39074841 38:-0.11907394 39:-0.21418162 40:-0.20511942 41:-0.13776088 42:-0.16252463 43:-0.2478133 44:-0.17397934 45:-0.31722111 46:-0.15619448 47:-0.066107452 48:-0.14383133 49:-0.22159693 50:-0.081830591 51:-0.26362848 52:0.37213421 53:0.012967132 54:-0.28615856 55:-0.089104161 56:-0.25818154 57:-0.44277063 #
-0.026322065770049557498211356687534 1:-0.32373646 2:1.0142642 3:-0.50017285 4:-0.098842546 5:0.20389549 6:-0.34561899 7:-0.26157999 8:1.9233983 9:-0.30961666 10:-0.41393355 11:-0.22640149 12:-0.11833171 13:-0.21933696 14:-0.16083114 15:-0.15391792 16:-0.30765641 17:-0.37343216 18:3.3773828 19:0.77705699 20:-0.14419276 21:0.44647241 22:-0.062323686 23:-0.26375422 24:-0.25234732 25:-0.40743604 26:-0.4047187 27:-0.27057403 28:-0.30796358 29:-0.16733444 30:-0.27352092 31:-0.20108834 32:-0.16073692 33:-0.18338262 34:-0.16487801 35:-0.27398148 36:0.69993544 37:-0.39074841 38:-0.11907394 39:-0.21418162 40:-0.20511942 41:-0.13776088 42:-0.16252463 43:-0.2478133 44:-0.17397934 45:-0.31722111 46:-0.15619448 47:-0.066107452 48:-0.14383133 49:-0.22159693 50:-0.64531434 51:-0.26362848 52:-0.29402301 53:-0.34909117 54:-0.28615856 55:-0.091955304 56:-0.29398528 57:-0.46367222 #
-0.026322065770049557498211356687534 1:-0.32373646 2:0.43684098 3:-0.50017285 4:-0.098842546 5:0.90616858 6:-0.34561899 7:-0.26157999 8:2.014786 9:-0.30961666 10:-0.41393355 11:-0.22640149 12:-0.60592264 13:-0.21933696 14:-0.16083114 15:-0.15391792 16:0.37708521 17:0.88871866 18:-0.36310151 19:-0.59617531 20:-0.14419276 21:-0.57808203 22:-0.062323686 23:-0.26375422 24:-0.25234732 25:-0.40743604 26:-0.4047187 27:-0.27057403 28:-0.30796358 29:-0.16733444 30:-0.27352092 31:-0.20108834 32:-0.16073692 33:-0.18338262 34:-0.16487801 35:-0.27398148 36:0.74108052 37:-0.39074841 38:-0.11907394 39:-0.21418162 40:0.97164136 41:-0.13776088 42:-0.16252463 43:-0.2478133 44:0.9409681 45:-0.31722111 46:-0.15619448 47:-0.066107452 48:-0.14383133 49:-0.22159693 50:-0.32267445 51:-0.26362848 52:-0.52965069 53:-0.34909117 54:-0.28615856 55:-0.075865149 56:-0.24923062 57:-0.31437522 #
0.026322065770049557498211356687534 1:-0.32373646 2:-0.17667121 3:-0.50017285 4:-0.098842546 5:-0.44537586 6:-0.34561899 7:-0.26157999 8:-0.31560028 9:-0.30961666 10:-0.41393355 11:-0.22640149 12:-0.60592264 13:-0.21933696 14:-0.16083114 15:-0.15391792 16:1.4109107 17:-0.37343216 18:-0.36310151 19:1.2627124 20:-0.14419276 21:2.0802214 22:-0.062323686 23:-0.26375422 24:-0.25234732 25:-0.40743604 26:-0.4047187 27:-0.27057403 28:-0.30796358 29:-0.16733444 30:-0.27352092 31:-0.20108834 32:-0.16073692 33:-0.18338262 34:-0.16487801 35:-0.27398148 36:-0.30811864 37:-0.39074841 38:-0.11907394 39:-0.21418162 40:-0.20511942 41:-0.13776088 42:-0.16252463 43:-0.2478133 44:-0.17397934 45:0.73489034 46:-0.15619448 47:-0.066107452 48:-0.14383133 49:-0.22159693 50:-0.64531434 51:-0.26362848 52:0.13941552 53:0.99402839 54:-0.28615856 55:0.00065150071 56:0.03719911 57:-0.42186904 #
0.026322065770049557498211356687534 1:-0.32373646 2:0.90599734 3:-0.50017285 4:-0.098842546 5:-0.44537586 6:-0.34561899 7:-0.26157999 8:-0.31560028 9:-0.30961666 10:-0.41393355 11:-0.22640149 12:-0.60592264 13:-0.21933696 14:-0.16083114 15:-0.15391792 16:0.90071112 17:-0.37343216 18:3.0562301 19:1.1454852 20:-0.14419276 21:1.3048829 22:-0.062323686 23:-0.26375422 24:-0.25234732 25:-0.40743604 26:-0.4047187 27:-0.27057403 28:-0.30796358 29:-0.16733444 30:-0.27352092 31:-0.20108834 32:-0.16073692 33:-0.18338262 34:-0.16487801 35:-0.27398148 36:-0.30811864 37:-0.39074841 38:-0.11907394 39:-0.21418162 40:-0.20511942 41:-0.13776088 42:-0.16252463 43:-0.2478133 44:-0.17397934 45:0.42254475 46:-0.15619448 47:-0.066107452 48:-0.14383133 49:-0.22159693 50:-0.64531434 51:-0.26362848 52:-0.049668405 53:0.61445111 54:-0.28615856 55:0.016741656 56:0.03719911 57:-0.35617837 #
0.026322065770049557498211356687534 1:-0.32373646 2:-0.17667121 3:0.5518083 4:-0.098842546 5:0.28339812 6:-0.34561899 7:-0.26157999 8:-0.31560028 9:-0.30961666 10:0.86929595 11:-0.22640149 12:-0.60592264 13:-0.21933696 14:-0.16083114 15:-0.15391792 16:0.43079042 17:-0.37343216 18:-0.36310151 19:0.051365145 20:-0.14419276 21:-0.19733544 22:-0.062323686 23:-0.26375422 24:-0.25234732 25:-0.40743604 26:-0.4047187 27:-0.27057403 28:-0.30796358 29:-0.16733444 30:-0.27352092 31:-0.20108834 32:-0.16073692 33:-0.18338262 34:-0.16487801 35:-0.27398148 36:-0.30811864 37:-0.39074841 38:-0.11907394 39:-0.21418162 40:-0.20511942 41:-0.13776088 42:-0.16252463 43:-0.2478133 44:-0.17397934 45:0.13485803 46:-0.15619448 47:-0.066107452 48:-0.14383133 49:-0.22159693 50:-0.19543619 51:-0.26362848 52:2.0680716 53:-0.34909117 54:-0.28615856 55:-0.074848458 56:-0.18657412 57:-0.27555799 #
0.026322065770049557498211356687534 1:-0.32373646 2:-0.17667121 3:-0.50017285 4:-0.098842546 5:-0.44537586 6:-0.34561899 7:-0.26157999 8:5.5789061 9:-0.30961666 10:0.58931857 11:-0.22640149 12:-0.60592264 13:-0.21933696 14:-0.16083114 15:-0.15391792 16:0.26967475 17:-0.37343216 18:2.9050994 19:-0.64083326 20:-0.14419276 21:-0.28040743 22:-0.062323686 23:-0.26375422 24:-0.25234732 25:-0.40743604 26:-0.4047187 27:-0.27057403 28:-0.30796358 29:-0.16733444 30:-0.27352092 31:-0.20108834 32:-0.16073692 33:-0.18338262 34:-0.16487801 35:-0.27398148 36:0.57650024 37:-0.39074841 38:-0.11907394 39:-0.21418162 40:-0.20511942 41:-0.13776088 42:-0.16252463 43:-0.2478133 44:-0.17397934 45:-0.31722111 46:-0.15619448 47:-0.066107452 48:-0.14383133 49:-0.22159693 50:-0.081830591 51:-0.26362848 52:0.37213421 53:0.012967132 54:-0.28615856 55:-0.089104161 56:-0.25818154 57:-0.44277063 #
-0.026322065770049557498211356687534 1:-0.32373646 2:1.0142642 3:-0.50017285 4:-0.098842546 5:0.20389549 6:-0.34561899 7:-0.26157999 8:1.9233983 9:-0.30961666 10:-0.41393355 11:-0.22640149 12:-0.11833171 13:-0.21933696 14:-0.16083114 15:-0.15391792 16:-0.30765641 17:-0.37343216 18:3.3773828 19:0.77705699 20:-0.14419276 21:0.44647241 22:-0.062323686 23:-0.26375422 24:-0.25234732 25:-0.40743604 26:-0.4047187 27:-0.27057403 28:-0.30796358 29:-0.16733444 30:-0.27352092 31:-0.20108834 32:-0.16073692 33:-0.18338262 34:-0.16487801 35:-0.27398148 36:0.69993544 37:-0.39074841 38:-0.11907394 39:-0.21418162 40:-0.20511942 41:-0.13776088 42:-0.16252463 43:-0.2478133 44:-0.17397934 45:-0.31722111 46:-0.15619448 47:-0.066107452 48:-0.14383133 49:-0.22159693 50:-0.64531434 51:-0.26362848 52:-0.29402301 53:-0.34909117 54:-0.28615856 55:-0.091955304 56:-0.29398528 57:-0.46367222 #
-0.026322065770049557498211356687534 1:-0.32373646 2:-0.17667121 3:-0.50017285 4:-0.098842546 5:2.3107147 6:-0.34561899 7:-0.26157999 8:-0.31560028 9:-0.30961666 10:-0.41393355 11:3.5077262 12:0.21999671 13:-0.21933696 14:-0.16083114 15:-0.15391792 16:0.80672699 17:-0.37343216 18:2.7728601 19:0.74356353 20:-0.14419276 21:-0.29425275 22:-0.062323686 23:-0.26375422 24:-0.25234732 25:-0.40743604 26:-0.4047187 27:-0.27057403 28:-0.30796358 29:-0.16733444 30:-0.27352092 31:-0.20108834 32:-0.16073692 33:-0.18338262 34:-0.16487801 35:-0.27398148 36:-0.30811864 37:-0.39074841 38:-0.11907394 39:-0.21418162 40:-0.20511942 41:-0.13776088 42:-0.16252463 43:-0.2478133 44:-0.17397934 45:-0.31722111 46:-0.15619448 47:-0.066107452 48:-0.14383133 49:-0.22159693 50:-0.050021019 51:-0.26362848 52:0.42740488 53:-0.34909117 54:1.0904788 55:-0.056282897 56:-0.23132877 57:-0.16806415 #
0.026322065770049557498211356687534 1:-0.32373646 2:-0.17667121 3:0.68569684 4:-0.098842546 5:1.1976782 6:2.4729173 7:-0.26157999 8:-0.31560028 9:-0.30961666 10:-0.41393355 11:-0.22640149 12:-0.60592264 13:-0.21933696 14:-0.16083114 15:-0.15391792 16:0.10855909 17:-0.37343216 18:-0.36310151 19:0.50352699 20:-0.14419276 21:0.065725833 22:-0.062323686 23:1.108542 24:-0.25234732 25:-0.40743604 26:-0.4047187 27:-0.27057403 28:-0.30796358 29:-0.16733444 30:-0.27352092 31:-0.20108834 32:-0.16073692 33:-0.18338262 34:-0.16487801 35:-0.27398148 36:-0.30811864 37:0.36123362 38:-0.11907394 39:-0.21418162 40:-0.20511942 41:-0.13776088 42:-0.16252463 43:-0.2478133 44:-0.17397934 45:-0.31722111 46:-0.15619448 47:-0.066107452 48:-0.14383133 49:-0.22159693 50:-0.25451109 51:-0.26362848 52:-0.40456438 53:-0.34909117 54:-0.28615856 55:-0.083269268 56:-0.20447598 57:-0.17403603 #
0.026322065770049557498211356687534 1:-0.32373646 2:-0.17667121 3:1.4125202 4:-0.098842546 5:-0.44537586 6:0.79088759 7:-0.26157999 8:0.82674593 9:-0.30961666 10:-0.41393355 11:-0.22640149 12:0.88670272 13:0.53531528 14:-0.16083114 15:-0.15391792 16:0.028001251 17:0.86397064 18:-0.36310151 19:0.51469147 20:-0.14419276 21:0.46031776 22:-0.062323686 23:-0.26375422 24:1.0423727 25:-0.40743604 26:-0.4047187 27:-0.27057403 28:-0.30796358 29:-0.16733444 30:-0.27352092 31:-0.20108834 32:-0.16073692 33:-0.18338262 34:-0.16487801 35:-0.27398148 36:-0.30811864 37:-0.39074841 38:-0.11907394 39:-0.21418162 40:-0.20511942 41:-0.13776088 42:-0.16252463 43:-0.2478133 44:-0.17397934 45:-0.31722111 46:-0.15619448 47:-0.066107452 48:-0.14383133 49:-0.22159693 50:-0.64531434 51:-0.26362848 52:0.060872968 53:0.83635783 54:-0.28615856 55:-0.058404677 56:-0.025457395 57:-0.25167048 #
0.026322065770049557498211356687534 1:-0.32373646 2:-0.044345044 3:-0.060253467 4:-0.098842546 5:0.32314941 6:1.20003 7:-0.023533149 8:-0.31560028 9:1.2921144 10:-0.41393355 11:0.80835682 12:0.30955422 13:1.1692232 14:-0.16083114 15:-0.15391792 16:0.30995369 17:0.19577312 18:0.27920386 19:-0.55709958 20:-0.14419276 21:-0.17656745 22:-0.062323686 23:0.22318961 24:-0.25234732 25:-0.40743604 26:-0.4047187 27:-0.27057403 28:-0.30796358 29:-0.16733444 30:-0.27352092 31:-0.20108834 32:-0.16073692 33:-0.18338262 34:-0.16487801 35:-0.27398148 36:-0.30811864 37:-0.39074841 38:-0.11907394 39:-0.21418162 40:-0.20511942 41:-0.13776088 42:-0.16252463 43:0.10587386 44:-0.17397934 45:-0.31722111 46:-0.15619448 47:-0.066107452 48:-0.14383133 49:0.41525009 50:-0.47717807 51:-0.26362848 52:0.407042 53:0.19983594 54:0.095064074 55:-0.064814217 56:0.099855617 57:0.52467394 #
-0.026322065770049557498211356687534 1:0.024139695 2:-0.080433995 3:-0.021999607 4:-0.098842546 5:-0.44537586 6:0.79088759 7:-0.26157999 8:-0.31560028 9:3.2707233 10:-0.41393355 11:-0.22640149 12:-0.35715175 13:-0.21933696 14:-0.16083114 15:-0.15391792 16:-0.30765641 17:-0.37343216 18:-0.36310151 19:-0.69665569 20:-0.14419276 21:-0.46731937 22:-0.062323686 23:-0.26375422 24:-0.25234732 25:-0.15976314 26:0.20463702 27:-0.24532005 28:-0.30796358 29:-0.16733444 30:-0.27352092 31:-0.20108834 32:-0.16073692 33:0.46399492 34:-0.16487801 35:-0.27398148 36:0.20619465 37:-0.19668855 38:-0.11907394 39:-0.21418162 40:-0.20511942 41:-0.13776088 42:-0.073323682 43:-0.2478133 44:-0.17397934 45:-0.31722111 46:-0.15619448 47:-0.066107452 48:-0.14383133 49:1.0351145 50:-0.027299901 51:0.57792056 52:-0.52965069 53:-0.22061887 54:-0.28615856 55:-0.033451673 56:0.16251212 57:1.7727969 #
0.026322065770049557498211356687534 1:-0.32373646 2:0.90599734 3:-0.50017285 4:-0.098842546 5:-0.44537586 6:-0.34561899 7:-0.26157999 8:-0.31560028 9:-0.30961666 10:-0.41393355 11:-0.22640149 12:-0.60592264 13:-0.21933696 14:-0.16083114 15:-0.15391792 16:0.90071112 17:-0.37343216 18:3.0562301 19:1.1454852 20:-0.14419276 21:1.3048829 22:-0.062323686 23:-0.26375422 24:-0.25234732 25:-0.40743604 26:-0.4047187 27:-0.27057403 28:-0.30796358 29:-0.16733444 30:-0.27352092 31:-0.20108834 32:-0.16073692 33:-0.18338262 34:-0.16487801 35:-0.27398148 36:-0.30811864 37:-0.39074841 38:-0.11907394 39:-0.21418162 40:-0.20511942 41:-0.13776088 42:-0.16252463 43:-0.2478133 44:-0.17397934 45:0.42254475 46:-0.15619448 47:-0.066107452 48:-0.14383133 49:-0.22159693 50:-0.64531434 51:-0.26362848 52:-0.049668405 53:0.61445111 54:-0.28615856 55:0.016741656 56:0.03719911 57:-0.35617837 #
0.026322065770049557498211356687534 1:-0.32373646 2:-0.17667121 3:-0.50017285 4:-0.098842546 5:-0.44537586 6:-0.34561899 7:-0.26157999 8:5.5789061 9:-0.30961666 10:0.58931857 11:-0.22640149 12:-0.60592264 13:-0.21933696 14:-0.16083114 15:-0.15391792 16:0.26967475 17:-0.37343216 18:2.9050994 19:-0.64083326 20:-0.14419276 21:-0.28040743 22:-0.062323686 23:-0.26375422 24:-0.25234732 25:-0.40743604 26:-0.4047187 27:-0.27057403 28:-0.30796358 29:-0.16733444 30:-0.27352092 31:-0.20108834 32:-0.16073692 33:-0.18338262 34:-0.16487801 35:-0.27398148 36:0.57650024 37:-0.39074841 38:-0.11907394 39:-0.21418162 40:-0.20511942 41:-0.13776088 42:-0.16252463 43:-0.2478133 44:-0.17397934 45:-0.31722111 46:-0.15619448 47:-0.066107452 48:-0.14383133 49:-0.22159693 50:-0.081830591 51:-0.26362848 52:0.37213421 53:0.012967132 54:-0.28615856 55:-0.089104161 56:-0.25818154 57:-0.44277063 #
-0.026322065770049557498211356687534 1:-0.32373646 2:-0.17667121 3:-0.50017285 4:-0.098842546 5:-0.44537586 6:-0.34561899 7:-0.26157999 8:-0.31560028 9:-0.30961666 10:-0.41393355 11:-0.22640149 12:-0.60592264 13:-0.21933696 14:-0.16083114 15:-0.15391792 16:4.6600766 17:-0.37343216 18:-0.36310151 19:1.1845609 20:-0.14419276 21:-0.57808203 22:-0.062323686 23:-0.26375422 24:-0.25234732 25:-0.40743604 26:-0.4047187 27:-0.27057403 28:-0.30796358 29:-0.16733444 30:-0.27352092 31:-0.20108834 32:-0.16073692 33:-0.18338262 34:-0.16487801 35:-0.27398148 36:-0.30811864 37:-0.39074841 38:-0.11907394 39:-0.21418162 40:-0.20511942 41:-0.13776088 42:-0.16252463 43:-0.2478133 44:-0.17397934 45:-0.31722111 46:-0.15619448 47:-0.066107452 48:-0.14383133 49:-0.22159693 50:-0.64531434 51:-0.26362848 52:-0.52965069 53:-0.34909117 54:-0.28615856 55:-0.095977843 56:-0.31188715 57:-0.61595517 #
-0.026322065770049557498211356687534 1:-0.32373646 2:1.3029758 3:-0.50017285 4:-0.098842546 5:-0.44537586 6:-0.34561899 7:-0.26157999 8:-0.31560028 9:-0.30961666 10:2.4558342 11:-0.22640149 12:0.0010783225 13:7.2064414 14:-0.16083114 15:-0.15391792 16:-0.30765641 17:-0.37343216 18:-0.36310151 19:0.8384617 20:-0.14419276 21:0.27340579 22:-0.062323686 23:-0.26375422 24:-0.25234732 25:-0.40743604 26:-0.4047187 27:-0.078012459 28:-0.30796358 29:-0.16733444 30:-0.27352092 31:-0.20108834 32:-0.16073692 33:-0.18338262 34:-0.16487801 35:-0.27398148 36:-0.30811864 37:-0.39074841 38:-0.11907394 39:-0.21418162 40:-0.20511942 41:-0.13776088 42:-0.16252463 43:-0.2478133 44:-0.17397934 45:-0.31722111 46:-0.15619448 47:-0.066107452 48:-0.14383133 49:-0.22159693 50:0.37259182 51:-0.26362848 52:-0.52965069 53:-0.34909117 54:-0.28615856 55:-0.099646755 56:-0.32083806 57:-0.57713795 #
0.026322065770049557498211356687534 1:0.28504682 2:-0.0082560908 3:0.054508116 4:-0.098842546 5:-0.44537586 6:-0.34561899 7:-0.26157999 8:-0.31560028 9:5.2022223 10:0.26267835 11:0.40345138 12:-0.028774185 13:-0.21933696 14:-0.16083114 15:-0.15391792 16:-0.11968812 17:-0.37343216 18:-0.098622821 19:0.43095782 20:0.54486334 21:0.031112511 22:-0.062323686 23:-0.26375422 24:2.0263598 25:-0.40743604 26:-0.4047187 27:-0.27057403 28:-0.30796358 29:-0.16733444 30:-0.27352092 31:-0.20108834 32:-0.16073692 33:-0.18338262 34:-0.16487801 35:-0.27398148 36:-0.30811864 37:-0.39074841 38:4.6110144 39:-0.21418162 40:-0.20511942 41:-0.13776088 42:-0.16252463 43:-0.2478133 44:-0.17397934 45:-0.31722111 46:-0.15619448 47:-0.066107452 48:-0.14383133 49:-0.22159693 50:0.28170732 51:-0.26362848 52:0.063781954 53:0.39254439 54:1.8741031 55:-0.056282897 56:0.32362884 57:0.55751926 #
0.026322065770049557498211356687534 1:-0.32373646 2:0.90599734 3:-0.50017285 4:-0.098842546 5:-0.44537586 6:-0.34561899 7:-0.26157999 8:-0.31560028 9:-0.30961666 10:-0.41393355 11:-0.22640149 12:-0.60592264 13:-0.21933696 14:-0.16083114 15:-0.15391792 16:0.90071112 17:-0.37343216 18:3.0562301 19:1.1454852 20:-0.14419276 21:1.3048829 22:-0.062323686 23:-0.26375422 24:-0.25234732 25:-0.40743604 26:-0.4047187 27:-0.27057403 28:-0.30796358 29:-0.16733444 30:-0.27352092 31:-0.20108834 32:-0.16073692 33:-0.18338262 34:-0.16487801 35:-0.27398148 36:-0.30811864 37:-0.39074841 38:-0.11907394 39:-0.21418162 40:-0.20511942 41:-0.13776088 42:-0.16252463 43:-0.2478133 44:-0.17397934 45:0.42254475 46:-0.15619448 47:-0.066107452 48:-0.14383133 49:-0.22159693 50:-0.64531434 51:-0.26362848 52:-0.049668405 53:0.61445111 54:-0.28615856 55:0.016741656 56:0.03719911 57:-0.35617837 #
0.026322065770049557498211356687534 1:-0.32373646 2:-0.17667121 3:-0.50017285 4:-0.098842546 5:1.0254226 6:-0.34561899 7:-0.26157999 8:-0.31560028 9:-0.30961666 10:-0.41393355 11:-0.22640149 12:-0.60592264 13:-0.21933696 14:-0.16083114 15:-0.15391792 16:-0.30765641 17:-0.37343216 18:-0.36310151 19:0.35838863 20:-0.14419276 21:1.7271655 22:-0.062323686 23:-0.26375422 24:-0.25234732 25:-0.40743604 26:-0.4047187 27:-0.27057403 28:-0.30796358 29:-0.16733444 30:-0.27352092 31:-0.20108834 32:-0.16073692 33:-0.18338262 34:-0.16487801 35:-0.27398148 36:-0.30811864 37:-0.39074841 38:-0.11907394 39:-0.21418162 40:-0.20511942 41:-0.13776088 42:-0.16252463 43:-0.2478133 44:-0.17397934 45:-0.31722111 46:-0.15619448 47:-0.066107452 48:-0.14383133 49:-0.22159693 50:-0.64531434 51:-0.26362848 52:1.7509924 53:-0.34909117 54:-0.28615856 55:0.0039446782 56:0.01929725 57:-0.36513618 #
-0.026322065770049557498211356687534 1:-0.32373646 2:-0.17667121 3:-0.50017285 4:-0.098842546 5:-0.44537586 6:-0.34561899 7:-0.26157999 8:-0.31560028 9:-0.30961666 10:-0.41393355 11:-0.22640149 12:-0.60592264 13:-0.21933696 14:-0.16083114 15:-0.15391792 16:-0.30765641 17:-0.37343216 18:-0.36310151 19:-0.049115267 20:-0.14419276 21:2.5163493 22:-0.062323686 23:-0.26375422 24:-0.25234732 25:-0.40743604 26:-0.4047187 27:0.19978127 28:-0.30796358 29:-0.16733444 30:-0.27352092 31:-0.20108834 32:-0.16073692 33:-0.18338262 34:-0.16487801 35:-0.27398148 36:-0.30811864 37:-0.39074841 38:-0.11907394 39:-0.21418162 40:-0.20511942 41:-0.13776088 42:-0.16252463 43:-0.2478133 44:-0.17397934 45:-0.31722111 46:-0.15619448 47:-0.066107452 48:-0.14383133 49:-0.22159693 50:-0.64531434 51:-0.26362848 52:-0.52965069 53:-0.34909117 54:-0.28615856 55:-0.099646755 56:-0.32083806 57:-0.5890817 #
-0.026322065770049557498211356687534 1:-0.32373646 2:-0.17667121 3:1.2786317 4:-0.098842546 5:-0.034612354 6:-0.34561899 7:-0.26157999 8:-0.31560028 9:1.1507852 10:-0.41393355 11:1.1682727 12:0.31950507 13:-0.21933696 14:-0.16083114 15:-0.15391792 16:-0.30765641 17:1.1609473 18:-0.36310151 19:1.2124722 20:-0.14419276 21:1.7963921 22:-0.062323686 23:-0.26375422 24:-0.25234732 25:-0.40743604 26:-0.4047187 27:-0.27057403 28:-0.30796358 29:-0.16733444 30:-0.27352092 31:-0.20108834 32:-0.16073692 33:-0.18338262 34:-0.16487801 35:-0.27398148 36:-0.30811864 37:0.36123362 38:-0.11907394 39:-0.21418162 40:-0.20511942 41:-0.13776088 42:-0.16252463 43:-0.2478133 44:-0.17397934 45:-0.31722111 46:-0.15619448 47:-0.066107452 48:-0.14383133 49:0.23693292 50:-0.15453817 51:-0.26362848 52:-0.37256557 53:-0.34909117 54:0.85750937 55:-0.061300021 56:-0.20447598 57:-0.20389542 #
-0.0022378407748315084710433175985145 1:-0.32373646 2:-0.17667121 3:-0.50017285 4:-0.098842546 5:-0.44537586 6:-0.34561899 7:-0.26157999 8:-0.31560028 9:-0.30961666 10:6.538837 11:-0.22640149 12:-0.60592264 13:-0.21933696 14:-0.16083114 15:9.1684647 16:-0.30765641 17:-0.37343216 18:-0.36310151 19:-0.88086981 20:-0.14419276 21:-0.57808203 22:-0.062323686 23:-0.26375422 24:-0.25234732 25:0.3306292 26:1.1341627 27:-0.27057403 28:-0.30796358 29:-0.16733444 30:-0.27352092 31:-0.20108834 32:-0.16073692 33:-0.18338262 34:-0.16487801 35:-0.27398148 36:-0.30811864 37:3.2236168 38:-0.11907394 39:-0.21418162 40:-0.20511942 41:-0.13776088 42:-0.16252463 43:4.5430403 44:-0.17397934 45:-0.31722111 46:-0.15619448 47:-0.066107452 48:-0.14383133 49:-0.22159693 50:0.30442846 51:3.6448994 52:-0.52965069 53:-0.34909117 54:-0.28615856 55:-0.044392094 56:-0.1776232 57:-0.49054566 #
-0.006172735519876110417414327713459 1:-0.32373646 2:-0.17667121 3:-0.50017285 4:-0.098842546 5:-0.44537586 6:-0.34561899 7:-0.26157999 8:-0.31560028 9:-0.30961666 10:-0.41393355 11:-0.22640149 12:0.27970171 13:-0.21933696 14:-0.16083114 15:-0.15391792 16:-0.30765641 17:-0.37343216 18:-0.36310151 19:1.1119918 20:-0.14419276 21:1.2702696 22:-0.062323686 23:-0.26375422 24:-0.25234732 25:-0.40743604 26:-0.4047187 27:-0.27057403 28:-0.30796358 29:-0.16733444 30:-0.27352092 31:-0.20108834 32:-0.16073692 33:-0.18338262 34:-0.16487801 35:-0.27398148 36:-0.30811864 37:-0.39074841 38:-0.11907394 39:-0.21418162 40:-0.20511942 41:-0.13776088 42:-0.16252463 43:-0.2478133 44:-0.17397934 45:-0.31722111 46:-0.15619448 47:-0.066107452 48:-0.14383133 49:-0.22159693 50:-0.64531434 51:-0.26362848 52:-0.52965069 53:-0.34909117 54:-0.28615856 55:-0.069256693 56:-0.12391762 57:-0.52339101 #
0.026322065770049557498211356687534 1:-0.32373646 2:-0.17667121 3:1.4125202 4:-0.098842546 5:-0.44537586 6:0.79088759 7:-0.26157999 8:0.82674593 9:-0.30961666 10:-0.41393355 11:-0.22640149 12:0.88670272 13:0.53531528 14:-0.16083114 15:-0.15391792 16:0.028001251 17:0.86397064 18:-0.36310151 19:0.51469147 20:-0.14419276 21:0.46031776 22:-0.062323686 23:-0.26375422 24:1.0423727 25:-0.40743604 26:-0.4047187 27:-0.27057403 28:-0.30796358 29:-0.16733444 30:-0.27352092 31:-0.20108834 32:-0.16073692 33:-0.18338262 34:-0.16487801 35:-0.27398148 36:-0.30811864 37:-0.39074841 38:-0.11907394 39:-0.21418162 40:-0.20511942 41:-0.13776088 42:-0.16252463 43:-0.2478133 44:-0.17397934 45:-0.31722111 46:-0.15619448 47:-0.066107452 48:-0.14383133 49:-0.22159693 50:-0.64531434 51:-0.26362848 52:0.060872968 53:0.83635783 54:-0.28615856 55:-0.058404677 56:-0.025457395 57:-0.25167048 #
0.026322065770049557498211356687534 1:-0.32373646 2:-0.17667121 3:0.5518083 4:-0.098842546 5:0.28339812 6:-0.34561899 7:-0.26157999 8:-0.31560028 9:-0.30961666 10:0.86929595 11:-0.22640149 12:-0.60592264 13:-0.21933696 14:-0.16083114 15:-0.15391792 16:0.43079042 17:-0.37343216 18:-0.36310151 19:0.051365145 20:-0.14419276 21:-0.19733544 22:-0.062323686 23:-0.26375422 24:-0.25234732 25:-0.40743604 26:-0.4047187 27:-0.27057403 28:-0.30796358 29:-0.16733444 30:-0.27352092 31:-0.20108834 32:-0.16073692 33:-0.18338262 34:-0.16487801 35:-0.27398148 36:-0.30811864 37:-0.39074841 38:-0.11907394 39:-0.21418162 40:-0.20511942 41:-0.13776088 42:-0.16252463 43:-0.2478133 44:-0.17397934 45:0.13485803 46:-0.15619448 47:-0.066107452 48:-0.14383133 49:-0.22159693 50:-0.19543619 51:-0.26362848 52:2.0680716 53:-0.34909117 54:-0.28615856 55:-0.074848458 56:-0.18657412 57:-0.27555799 #
-0.026322065770049557498211356687534 1:-0.019344825 2:-0.17667121 3:-0.23239584 4:-0.098842546 5:-0.35262281 6:-0.34561899 7:-0.26157999 8:-0.31560028 9:3.1765039 10:-0.41393355 11:-0.22640149 12:-0.38700426 13:-0.21933696 14:0.33889902 15:-0.15391792 16:-0.30765641 17:-0.37343216 18:-0.23086216 19:-0.71898466 20:-0.14419276 21:-0.4257834 22:-0.062323686 23:-0.26375422 24:-0.25234732 25:-0.040880155 26:0.4318544 27:-0.24847679 28:-0.30796358 29:-0.16733444 30:-0.27352092 31:-0.20108834 32:-0.16073692 33:0.15571991 34:-0.16487801 35:-0.27398148 36:-0.30811864 37:0.67658091 38:-0.11907394 39:-0.21418162 40:-0.20511942 41:-0.13776088 42:-0.16252463 43:-0.2478133 44:-0.17397934 45:-0.31722111 46:-0.15619448 47:-0.066107452 48:-0.14383133 49:0.7633931 50:0.26353043 51:0.52181733 52:-0.52965069 53:-0.22645853 54:-0.28615856 55:-0.060084417 56:-0.0075555374 57:1.3965684 #
-0.0023378058624227726104705116227933 1:-0.32373646 2:-0.17667121 3:-0.50017285 4:-0.098842546 5:-0.44537586 6:-0.34561899 7:-0.26157999 8:-0.31560028 9:-0.30961666 10:-0.41393355 11:-0.22640149 12:2.5982463 13:-0.21933696 14:-0.16083114 15:-0.15391792 16:-0.30765641 17:-0.37343216 18:-0.36310151 19:-0.88086981 20:-0.14419276 21:-0.57808203 22:-0.062323686 23:-0.26375422 24:-0.25234732 25:-0.40743604 26:-0.4047187 27:-0.27057403 28:-0.30796358 29:-0.16733444 30:-0.27352092 31:-0.20108834 32:-0.16073692 33:-0.18338262 34:-0.16487801 35:-0.27398148 36:-0.30811864 37:-0.39074841 38:-0.11907394 39:6.6602488 40:-0.20511942 41:-0.13776088 42:-0.16252463 43:-0.2478133 44:-0.17397934 45:-0.31722111 46:-0.15619448 47:-0.066107452 48:-0.14383133 49:-0.22159693 50:-0.64531434 51:-0.26362848 52:1.111016 53:-0.34909117 54:-0.28615856 55:-0.081567429 56:-0.24923062 57:-0.57713795 #
0.026322065770049557498211356687534 1:-0.32373646 2:-0.17667121 3:-0.50017285 4:-0.098842546 5:-0.44537586 6:-0.34561899 7:1.9890447 8:-0.31560028 9:-0.30961666 10:-0.41393355 11:-0.22640149 12:-0.60592264 13:-0.21933696 14:-0.16083114 15:-0.15391792 16:2.4850152 17:-0.37343216 18:-0.36310151 19:0.2802372 20:-0.14419276 21:0.86183232 22:-0.062323686 23:-0.26375422 24:-0.25234732 25:-0.40743604 26:-0.4047187 27:-0.27057403 28:-0.30796358 29:-0.16733444 30:-0.27352092 31:-0.20108834 32:-0.16073692 33:-0.18338262 34:-0.16487801 35:-0.27398148 36:-0.30811864 37:-0.39074841 38:-0.11907394 39:-0.21418162 40:-0.20511942 41:-0.13776088 42:-0.16252463 43:-0.2478133 44:-0.17397934 45:-0.31722111 46:-0.15619448 47:-0.066107452 48:-0.14383133 49:-0.22159693 50:-0.64531434 51:-0.26362848 52:-0.52965069 53:-0.34909117 54:-0.28615856 55:-0.037496313 56:-0.23132877 57:-0.45471439 #
0.026322065770049557498211356687534 1:-0.32373646 2:-0.17667121 3:-0.50017285 4:-0.098842546 5:1.2639303 6:1.6091723 7:0.66896677 8:-0.31560028 9:-0.30961666 10:-0.41393355 11:-0.22640149 12:-0.60592264 13:1.0786649 14:-0.16083114 15:-0.15391792 16:0.26967475 17:0.69073427 18:0.44922587 19:0.079276368 20:-0.14419276 21:0.017267181 22:-0.062323686 23:-0.26375422 24:-0.25234732 25:-0.40743604 26:-0.4047187 27:-0.27057403 28:-0.30796358 29:-0.16733444 30:-0.27352092 31:-0.20108834 32:-0.16073692 33:-0.18338262 34:-0.16487801 35:-0.27398148 36:-0.30811864 37:-0.39074841 38:-0.11907394 39:-0.21418162 40:-0.20511942 41:-0.13776088 42:-0.16252463 43:-0.2478133 44:-0.17397934 45:-0.31722111 46:-0.15619448 47:-0.066107452 48:-0.14383133 49:-0.22159693 50:-0.059109468 51:-0.26362848 52:-0.15439181 53:-0.34909117 54:-0.28615856 55:0.0064421888 56:0.081953757 57:-0.29048768 #
0.026322065770049557498211356687534 1:-0.32373646 2:-0.17667121 3:-0.50017285 4:-0.098842546 5:1.0254226 6:-0.34561899 7:-0.26157999 8:-0.31560028 9:-0.30961666 10:-0.41393355 11:-0.22640149 12:-0.60592264 13:-0.21933696 14:-0.16083114 15:-0.15391792 16:-0.30765641 17:-0.37343216 18:-0.36310151 19:0.35838863 20:-0.14419276 21:1.7271655 22:-0.062323686 23:-0.26375422 24:-0.25234732 25:-0.40743604 26:-0.4047187 27:-0.27057403 28:-0.30796358 29:-0.16733444 30:-0.27352092 31:-0.20108834 32:-0.16073692 33:-0.18338262 34:-0.16487801 35:-0.27398148 36:-0.30811864 37:-0.39074841 38:-0.11907394 39:-0.21418162 40:-0.20511942 41:-0.13776088 42:-0.16252463 43:-0.2478133 44:-0.17397934 45:-0.31722111 46:-0.15619448 47:-0.066107452 48:-0.14383133 49:-0.22159693 50:-0.64531434 51:-0.26362848 52:1.7509924 53:-0.34909117 54:-0.28615856 55:0.0039446782 56:0.01929725 57:-0.36513618 #
-0.026322065770049557498211356687534 1:-0.32373646 2:-0.17667121 3:1.0299816 4:-0.098842546 5:2.7612295 6:-0.34561899 7:-0.26157999 8:-0.31560028 9:-0.30961666 10:-0.41393355 11:-0.22640149 12:-0.20788923 13:-0.21933696 14:-0.16083114 15:-0.15391792 16:-0.30765641 17:-0.37343216 18:0.39255187 19:2.0553911 20:-0.14419276 21:0.53646708 22:-0.062323686 23:-0.26375422 24:-0.25234732 25:-0.20929773 26:0.0084038228 27:-0.27057403 28:-0.30796358 29:-0.16733444 30:-0.27352092 31:-0.20108834 32:-0.16073692 33:-0.18338262 34:-0.16487801 35:-0.27398148 36:-0.30811864 37:-0.39074841 38:-0.11907394 39:-0.21418162 40:-0.20511942 41:-0.13776088 42:-0.16252463 43:-0.2478133 44:-0.17397934 45:1.0061378 46:-0.15619448 47:-0.066107452 48:-0.14383133 49:-0.22159693 50:-0.64531434 51:-0.26362848 52:0.25577486 53:-0.34909117 54:-0.28615856 55:-0.069588222 56:-0.016506467 57:-0.46068627 #
-0.026322065770049557498211356687534 1:-0.32373646 2:-0.17667121 3:-0.50017285 4:-0.098842546 5:-0.021361919 6:1.1091094 7:-0.26157999 8:-0.31560028 9:-0.30961666 10:-0.41393355 11:-0.22640149 12:-0.28749591 13:-0.21933696 14:-0.16083114 15:-0.15391792 16:-0.30765641 17:-0.37343216 18:-0.36310151 19:-0.15517792 20:-0.14419276 21:0.10033916 22:-0.062323686 23:-0.26375422 24:-0.25234732 25:-0.40743604 26:-0.4047187 27:-0.27057403 28:-0.30796358 29:0.16665979 30:-0.27352092 31:-0.20108834 32:-0.16073692 33:-0.18338262 34:-0.16487801 35:-0.27398148 36:-0.30811864 37:-0.39074841 38:-0.11907394 39:-0.21418162 40:-0.20511942 41:-0.13776088 42:-0.16252463 43:-0.2478133 44:1.247032 45:-0.31722111 46:-0.15619448 47:-0.066107452 48:-0.14383133 49:-0.22159693 50:0.52255118 51:-0.26362848 52:-0.52965069 53:-0.34909117 54:-0.28615856 55:-0.093016192 56:-0.26713249 57:-0.32631898 #
-0.026322065770049557498211356687534 1:1.0677682 2:-0.17667121 3:-0.50017285 4:-0.098842546 5:-0.021361919 6:-0.34561899 7:-0.26157999 8:-0.31560028 9:-0.30961666 10:-0.41393355 11:-0.22640149 12:-0.28749591 13:-0.21933696 14:-0.16083114 15:-0.15391792 16:-0.30765641 17:-0.37343216 18:-0.36310151 19:-0.34497425 20:-0.14419276 21:1.1941203 22:-0.062323686 23:-0.26375422 24:-0.25234732 25:-0.40743604 26:-0.4047187 27:-0.06854222 28:-0.30796358 29:-0.16733444 30:-0.27352092 31:-0.20108834 32:-0.16073692 33:-0.18338262 34:-0.16487801 35:-0.27398148 36:-0.30811864 37:-0.39074841 38:-0.11907394 39:-0.21418162 40:-0.20511942 41:-0.13776088 42:-0.16252463 43:-0.2478133 44:-0.17397934 45:-0.31722111 46:-0.15619448 47:-0.066107452 48:-0.14383133 49:-0.22159693 50:0.41803405 51:-0.26362848 52:-0.36092964 53:-0.34909117 54:-0.28615856 55:-0.098143823 56:-0.3029362 57:-0.49651754 #
0.026322065770049557498211356687534 1:0.45898491 2:-0.17667121 3:-0.15588811 4:-0.098842546 5:1.6349425 6:1.2909505 7:-0.13173626 8:-0.041437197 9:-0.026958233 10:-0.13395621 11:0.04353546 12:-0.068577528 13:0.68624574 14:0.26750898 15:-0.15391792 16:-0.30765641 17:1.4084278 18:-0.24975349 19:1.6255583 20:1.0370463 21:0.17648847 22:-0.062323686 23:3.4989936 24:0.058385473 25:-0.40743604 26:-0.4047187 27:-0.27057403 28:-0.30796358 29:-0.16733444 30:-0.27352092 31:-0.20108834 32:-0.16073692 33:-0.18338262 34:-0.16487801 35:-0.27398148 36:-0.30811864 37:-0.39074841 38:-0.11907394 39:-0.21418162 40:-0.20511942 41:-0.13776088 42:-0.16252463 43:-0.054893032 44:-0.17397934 45:-0.26790336 46:-0.15619448 47:-0.066107452 48:-0.14383133 49:-0.136684 50:-0.4090147 51:-0.26362848 52:-0.50056088 53:0.6261304 54:-0.28615856 55:-0.083379783 56:-0.22237784 57:0.67994285 #
-0.016809293626893095918717335734982 1:-0.32373646 2:-0.17667121 3:-0.50017285 4:-0.098842546 5:-0.44537586 6:-0.34561899 7:-0.26157999 8:-0.31560028 9:-0.30961666 10:-0.41393355 11:-0.22640149 12:-0.60592264 13:-0.21933696 14:-0.16083114 15:-0.15391792 16:-0.30765641 17:-0.37343216 18:-0.36310151 19:-0.88086981 20:-0.14419276 21:-0.57808203 22:-0.062323686 23:-0.26375422 24:-0.25234732 25:-0.40743604 26:-0.4047187 27:3.9373696 28:-0.30796358 29:-0.16733444 30:-0.27352092 31:-0.20108834 32:-0.16073692 33:-0.18338262 34:-0.16487801 35:-0.27398148 36:-0.30811864 37:-0.39074841 38:-0.11907394 39:-0.21418162 40:-0.20511942 41:-0.13776088 42:-0.16252463 43:-0.2478133 44:-0.17397934 45:5.1570463 46:-0.15619448 47:-0.066107452 48:-0.14383133 49:-0.22159693 50:-0.64531434 51:-0.26362848 52:2.8127713 53:-0.34909117 54:-0.28615856 55:-0.088595822 56:-0.3029362 57:-0.60102546 #
0.026322065770049557498211356687534 1:-0.32373646 2:-0.17667121 3:-0.50017285 4:-0.098842546 5:1.0254226 6:-0.34561899 7:-0.26157999 8:-0.31560028 9:-0.30961666 10:-0.41393355 11:-0.22640149 12:-0.60592264 13:-0.21933696 14:-0.16083114 15:-0.15391792 16:-0.30765641 17:-0.37343216 18:-0.36310151 19:0.35838863 20:-0.14419276 21:1.7271655 22:-0.062323686 23:-0.26375422 24:-0.25234732 25:-0.40743604 26:-0.4047187 27:-0.27057403 28:-0.30796358 29:-0.16733444 30:-0.27352092 31:-0.20108834 32:-0.16073692 33:-0.18338262 34:-0.16487801 35:-0.27398148 36:-0.30811864 37:-0.39074841 38:-0.11907394 39:-0.21418162 40:-0.20511942 41:-0.13776088 42:-0.16252463 43:-0.2478133 44:-0.17397934 45:-0.31722111 46:-0.15619448 47:-0.066107452 48:-0.14383133 49:-0.22159693 50:-0.64531434 51:-0.26362848 52:1.7509924 53:-0.34909117 54:-0.28615856 55:0.0039446782 56:0.01929725 57:-0.36513618 #
-0.0090910639072853110381755570301721 1:-0.32373646 2:-0.17667121 3:-0.50017285 4:-0.098842546 5:-0.021361919 6:1.1091094 7:-0.26157999 8:-0.31560028 9:-0.30961666 10:-0.41393355 11:-0.22640149 12:-0.28749591 13:-0.21933696 14:-0.16083114 15:-0.15391792 16:-0.30765641 17:-0.37343216 18:-0.36310151 19:-0.15517792 20:-0.14419276 21:0.10033916 22:-0.062323686 23:-0.26375422 24:-0.25234732 25:-0.40743604 26:-0.4047187 27:-0.27057403 28:-0.30796358 29:0.16665979 30:-0.27352092 31:-0.20108834 32:-0.16073692 33:-0.18338262 34:-0.16487801 35:-0.27398148 36:-0.30811864 37:-0.39074841 38:-0.11907394 39:-0.21418162 40:-0.20511942 41:-0.13776088 42:-0.16252463 43:-0.2478133 44:1.247032 45:-0.31722111 46:-0.15619448 47:-0.066107452 48:-0.14383133 49:-0.22159693 50:0.52255118 51:-0.26362848 52:-0.52965069 53:-0.34909117 54:-0.28615856 55:-0.093016192 56:-0.26713249 57:-0.32631898 #
0.026322065770049557498211356687534 1:-0.32373646 2:-0.17667121 3:-0.50017285 4:-0.098842546 5:-0.44537586 6:-0.34561899 7:1.9890447 8:-0.31560028 9:-0.30961666 10:-0.41393355 11:-0.22640149 12:-0.60592264 13:-0.21933696 14:-0.16083114 15:-0.15391792 16:2.4850152 17:-0.37343216 18:-0.36310151 19:0.2802372 20:-0.14419276 21:0.86183232 22:-0.062323686 23:-0.26375422 24:-0.25234732 25:-0.40743604 26:-0.4047187 27:-0.27057403 28:-0.30796358 29:-0.16733444 30:-0.27352092 31:-0.20108834 32:-0.16073692 33:-0.18338262 34:-0.16487801 35:-0.27398148 36:-0.30811864 37:-0.39074841 38:-0.11907394 39:-0.21418162 40:-0.20511942 41:-0.13776088 42:-0.16252463 43:-0.2478133 44:-0.17397934 45:-0.31722111 46:-0.15619448 47:-0.066107452 48:-0.14383133 49:-0.22159693 50:-0.64531434 51:-0.26362848 52:-0.52965069 53:-0.34909117 54:-0.28615856 55:-0.037496313 56:-0.23132877 57:-0.45471439 #
0.026322065770049557498211356687534 1:-0.32373646 2:-0.17667121 3:1.1256162 4:-0.098842546 5:0.11114244 6:-0.34561899 7:-0.26157999 8:-0.31560028 9:-0.30961666 10:-0.41393355 11:-0.22640149 12:-0.60592264 13:-0.21933696 14:-0.16083114 15:-0.15391792 16:0.25624844 17:-0.37343216 18:-0.36310151 19:0.31373066 20:-0.14419276 21:0.30801913 22:-0.062323686 23:-0.26375422 24:-0.25234732 25:-0.40743604 26:-0.4047187 27:-0.27057403 28:-0.30796358 29:-0.16733444 30:-0.27352092 31:-0.20108834 32:-0.16073692 33:-0.18338262 34:-0.16487801 35:-0.27398148 36:-0.30811864 37:-0.39074841 38:-0.11907394 39:-0.21418162 40:-0.20511942 41:-0.13776088 42:-0.16252463 43:-0.2478133 44:-0.17397934 45:0.028002966 46:-0.15619448 47:-0.066107452 48:-0.14383133 49:-0.22159693 50:0.077217251 51:-0.26362848 52:2.7196839 53:-0.34909117 54:-0.28615856 55:-0.095093764 56:-0.26713249 57:-0.28750175 #
0.026322065770049557498211356687534 1:-0.32373646 2:-0.17667121 3:0.89609307 4:-0.098842546 5:0.031639826 6:-0.34561899 7:-0.26157999 8:-0.31560028 9:-0.30961666 10:-0.41393355 11:-0.22640149 12:0.12048835 13:-0.21933696 14:-0.16083114 15:-0.15391792 16:0.17569062 17:1.4331759 18:-0.36310151 19:-0.27240509 20:-0.14419276 21:0.43262708 22:1.3392931 23:1.3298801 24:-0.25234732 25:-0.40743604 26:-0.4047187 27:-0.27057403 28:-0.30796358 29:-0.16733444 30:-0.27352092 31:-0.20108834 32:-0.16073692 33:-0.18338262 34:-0.16487801 35:-0.27398148 36:-0.30811864 37:-0.39074841 38:-0.11907394 39:-0.21418162 40:0.62553525 41:-0.13776088 42:-0.16252463 43:-0.2478133 44:-0.17397934 45:-0.31722111 46:-0.15619448 47:-0.066107452 48:-0.14383133 49:-0.22159693 50:-0.64531434 51:-0.26362848 52:1.2273754 53:0.7078855 54:-0.28615856 55:-0.03804886 56:0.18936491 57:0.42613792 #
