SVM-light Version V6.02
0 # kernel type
3 # kernel parameter -d 
1 # kernel parameter -g 
1 # kernel parameter -s 
1 # kernel parameter -r 
empty# kernel parameter -u 
57 # highest feature index 
526 # number of training documents 
131 # number of support vectors plus 1 
0.80288941 # threshold b, each following line is a SV (starting with alpha*y)
-0.028575457257748623079995908824458 1:-0.32373646 2:-0.17667121 3:-0.50017285 4:-0.098842546 5:-0.44537586 6:1.6546326 7:-0.26157999 8:-0.31560028 9:-0.30961666 10:-0.41393355 11:-0.22640149 12:-0.16808589 13:1.108851 14:-0.16083114 15:-0.15391792 16:-0.30765641 17:-0.37343216 18:-0.36310151 19:-0.14401343 20:-0.14419276 21:-0.57808203 22:-0.062323686 23:-0.26375422 24:-0.25234732 25:-0.40743604 26:-0.4047187 27:0.0072197081 28:-0.30796358 29:-0.16733444 30:-0.27352092 31:-0.20108834 32:-0.16073692 33:-0.18338262 34:-0.16487801 35:-0.27398148 36:-0.30811864 37:-0.39074841 38:-0.11907394 39:-0.21418162 40:-0.20511942 41:-0.13776088 42:-0.16252463 43:-0.2478133 44:-0.17397934 45:0.044442207 46:0.69639164 47:-0.066107452 48:-0.14383133 49:-0.22159693 50:0.036319233 51:-0.26362848 52:-0.52965069 53:-0.34909117 54:-0.28615856 55:-0.086098313 56:-0.23132877 57:-0.42485499 #
0.028575457257748623079995908824458 1:0.41550037 2:-0.17667121 3:-0.34715742 4:-0.098842546 5:0.12439287 6:0.018063109 7:-0.088455014 8:1.6492351 9:0.067261241 10:-0.22728199 11:-0.22640149 12:-0.0088725127 13:0.29382658 14:1.0527992 15:-0.15391792 16:-0.30765641 17:0.047284782 18:-0.21197082 19:-0.21100038 20:-0.14419276 21:1.5956348 22:-0.062323686 23:1.2413449 24:0.16196308 25:-0.40743604 26:-0.4047187 27:-0.27057403 28:-0.30796358 29:-0.16733444 30:-0.27352092 31:-0.20108834 32:-0.16073692 33:-0.18338262 34:-0.16487801 35:-0.27398148 36:-0.30811864 37:-0.39074841 38:-0.11907394 39:-0.21418162 40:-0.20511942 41:-0.13776088 42:-0.16252463 43:-0.2478133 44:-0.17397934 45:-0.31722111 46:-0.15619448 47:-0.066107452 48:-0.14383133 49:-0.22159693 50:-0.27723223 51:0.24130096 52:-0.27366012 53:-0.27317575 54:-0.28615856 55:-0.029804867 56:0.099855617 57:2.7671149 #
-0.016804138946556686912137124068067 1:-0.32373646 2:-0.17667121 3:-0.50017285 4:-0.098842546 5:-0.27312019 6:-0.34561899 7:-0.26157999 8:2.1975613 9:-0.30961666 10:-0.41393355 11:-0.22640149 12:-0.47656178 13:0.17308222 14:-0.16083114 15:-0.15391792 16:-0.30765641 17:0.29476535 18:-0.36310151 19:-0.88086981 20:-0.14419276 21:-0.57808203 22:-0.062323686 23:1.5512183 24:-0.25234732 25:0.97457874 26:-0.4047187 27:-0.27057403 28:-0.30796358 29:-0.16733444 30:-0.27352092 31:-0.20108834 32:-0.16073692 33:-0.18338262 34:-0.16487801 35:-0.27398148 36:-0.04067573 37:0.26420367 38:-0.11907394 39:-0.21418162 40:-0.20511942 41:-0.13776088 42:-0.16252463 43:-0.2478133 44:-0.17397934 45:-0.31722111 46:-0.15619448 47:-0.066107452 48:-0.14383133 49:0.38128489 50:0.0045096669 51:-0.26362848 52:-0.52965069 53:-0.039589722 54:-0.28615856 55:-0.062913455 56:-0.13286854 57:0.6112662 #
-0.028575457257748623079995908824458 1:-0.32373646 2:-0.17667121 3:-0.50017285 4:-0.098842546 5:-0.44537586 6:-0.34561899 7:-0.26157999 8:-0.31560028 9:-0.30961666 10:2.1991882 11:-0.22640149 12:-0.60592264 13:-0.21933696 14:-0.16083114 15:-0.15391792 16:-0.30765641 17:-0.37343216 18:-0.36310151 19:-0.25565833 20:-0.14419276 21:0.19725648 22:-0.062323686 23:-0.26375422 24:-0.25234732 25:-0.40743604 26:-0.4047187 27:0.082981631 28:-0.30796358 29:-0.16733444 30:-0.27352092 31:-0.20108834 32:-0.16073692 33:-0.18338262 34:-0.16487801 35:-0.27398148 36:-0.30811864 37:-0.39074841 38:-0.11907394 39:-0.21418162 40:-0.20511942 41:-0.13776088 42:-0.16252463 43:-0.2478133 44:-0.17397934 45:1.5239739 46:-0.15619448 47:-0.066107452 48:-0.14383133 49:-0.22159693 50:-0.64531434 51:-0.26362848 52:0.060872968 53:-0.34909117 54:4.0131855 55:-0.072638273 56:-0.15077041 57:-0.51741916 #
0.01326986188316041544166257182269 1:-0.32373646 2:-0.17667121 3:1.9672011 4:-0.098842546 5:-0.44537586 6:-0.34561899 7:-0.26157999 8:-0.31560028 9:-0.30961666 10:-0.41393355 11:-0.22640149 12:0.67773515 13:-0.21933696 14:-0.16083114 15:-0.15391792 16:-0.30765641 17:-0.37343216 18:-0.36310151 19:-0.16076016 20:-0.14419276 21:3.0147812 22:-0.062323686 23:-0.26375422 24:6.4284077 25:-0.40743604 26:-0.4047187 27:-0.27057403 28:-0.30796358 29:-0.16733444 30:-0.27352092 31:-0.20108834 32:-0.16073692 33:-0.18338262 34:-0.16487801 35:-0.27398148 36:-0.30811864 37:-0.39074841 38:-0.11907394 39:-0.21418162 40:-0.20511942 41:-0.13776088 42:-0.16252463 43:-0.2478133 44:-0.17397934 45:-0.31722111 46:-0.15619448 47:-0.066107452 48:-0.14383133 49:-0.22159693 50:-0.64531434 51:-0.26362848 52:-0.52965069 53:0.80715954 54:-0.28615856 55:-0.028257735 56:-0.10601576 57:-0.47263002 #
0.028575457257748623079995908824458 1:0.41550037 2:-0.17667121 3:-0.34715742 4:-0.098842546 5:0.11114244 6:0.018063109 7:-0.088455014 8:1.6035413 9:0.067261241 10:-0.22728199 11:-0.22640149 12:-0.0088725127 13:0.29382658 14:1.0527992 15:-0.15391792 16:-0.30765641 17:0.047284782 18:-0.21197082 19:-0.21100038 20:-0.14419276 21:1.6164029 22:-0.062323686 23:1.2413449 24:0.16196308 25:-0.40743604 26:-0.4047187 27:-0.27057403 28:-0.30796358 29:-0.16733444 30:-0.27352092 31:-0.20108834 32:-0.16073692 33:-0.18338262 34:-0.16487801 35:-0.27398148 36:-0.30811864 37:-0.39074841 38:-0.11907394 39:-0.21418162 40:-0.20511942 41:-0.13776088 42:-0.16252463 43:-0.2478133 44:-0.17397934 45:-0.31722111 46:-0.15619448 47:-0.066107452 48:-0.14383133 49:-0.22159693 50:-0.27723223 51:0.24130096 52:-0.21548046 53:-0.27317575 54:-0.28615856 55:-0.031794034 56:0.099855617 57:1.0770729 #
0.028575457257748623079995908824458 1:-0.32373646 2:-0.17667121 3:0.68569684 4:-0.098842546 5:1.1976782 6:2.4729173 7:-0.26157999 8:-0.31560028 9:-0.30961666 10:-0.41393355 11:-0.22640149 12:-0.60592264 13:-0.21933696 14:-0.16083114 15:-0.15391792 16:0.10855909 17:-0.37343216 18:-0.36310151 19:0.50352699 20:-0.14419276 21:0.065725833 22:-0.062323686 23:1.108542 24:-0.25234732 25:-0.40743604 26:-0.4047187 27:-0.27057403 28:-0.30796358 29:-0.16733444 30:-0.27352092 31:-0.20108834 32:-0.16073692 33:-0.18338262 34:-0.16487801 35:-0.27398148 36:-0.30811864 37:0.36123362 38:-0.11907394 39:-0.21418162 40:-0.20511942 41:-0.13776088 42:-0.16252463 43:-0.2478133 44:-0.17397934 45:-0.31722111 46:-0.15619448 47:-0.066107452 48:-0.14383133 49:-0.22159693 50:-0.25451109 51:-0.26362848 52:-0.40456438 53:-0.34909117 54:-0.28615856 55:-0.083269268 56:-0.20447598 57:-0.17403603 #
0.028575457257748623079995908824458 1:-0.32373646 2:-0.17667121 3:-0.50017285 4:-0.098842546 5:-0.44537586 6:-0.34561899 7:-0.26157999 8:-0.31560028 9:-0.30961666 10:-0.41393355 11:-0.22640149 12:-0.60592264 13:-0.21933696 14:-0.16083114 15:-0.15391792 16:1.4109107 17:-0.37343216 18:-0.36310151 19:1.2627124 20:-0.14419276 21:2.0802214 22:-0.062323686 23:-0.26375422 24:-0.25234732 25:-0.40743604 26:-0.4047187 27:-0.27057403 28:-0.30796358 29:-0.16733444 30:-0.27352092 31:-0.20108834 32:-0.16073692 33:-0.18338262 34:-0.16487801 35:-0.27398148 36:-0.30811864 37:-0.39074841 38:-0.11907394 39:-0.21418162 40:-0.20511942 41:-0.13776088 42:-0.16252463 43:-0.2478133 44:-0.17397934 45:0.73489034 46:-0.15619448 47:-0.066107452 48:-0.14383133 49:-0.22159693 50:-0.64531434 51:-0.26362848 52:0.13941552 53:0.99402839 54:-0.28615856 55:0.00065150071 56:0.03719911 57:-0.42186904 #
-0.0042642829168681103957361244738422 1:-0.32373646 2:-0.17667121 3:3.2487054 4:-0.098842546 5:-0.44537586 6:-0.34561899 7:-0.26157999 8:-0.31560028 9:-0.30961666 10:-0.41393355 11:-0.22640149 12:-0.60592264 13:-0.21933696 14:-0.16083114 15:-0.15391792 16:2.3238995 17:-0.37343216 18:-0.36310151 19:-0.88086981 20:-0.14419276 21:-0.57808203 22:-0.062323686 23:-0.26375422 24:-0.25234732 25:-0.40743604 26:-0.4047187 27:-0.27057403 28:-0.30796358 29:-0.16733444 30:-0.27352092 31:-0.20108834 32:-0.16073692 33:-0.18338262 34:-0.16487801 35:-0.27398148 36:-0.30811864 37:-0.39074841 38:-0.11907394 39:-0.21418162 40:-0.20511942 41:-0.13776088 42:4.2083216 43:-0.2478133 44:-0.17397934 45:2.90487 46:-0.15619448 47:-0.066107452 48:-0.14383133 49:-0.22159693 50:-0.64531434 51:-0.26362848 52:-0.52965069 53:-0.34909117 54:-0.28615856 55:-0.085346848 56:-0.29398528 57:-0.55325043 #
-0.0037607629709328349587593720571022 1:-0.32373646 2:-0.17667121 3:3.2487054 4:-0.098842546 5:-0.44537586 6:-0.34561899 7:-0.26157999 8:-0.31560028 9:-0.30961666 10:-0.41393355 11:-0.22640149 12:-0.60592264 13:-0.21933696 14:-0.16083114 15:-0.15391792 16:2.3238995 17:-0.37343216 18:-0.36310151 19:-0.88086981 20:-0.14419276 21:-0.57808203 22:-0.062323686 23:-0.26375422 24:-0.25234732 25:-0.40743604 26:-0.4047187 27:-0.27057403 28:-0.30796358 29:-0.16733444 30:-0.27352092 31:-0.20108834 32:-0.16073692 33:-0.18338262 34:-0.16487801 35:-0.27398148 36:-0.30811864 37:-0.39074841 38:-0.11907394 39:-0.21418162 40:-0.20511942 41:-0.13776088 42:4.2083216 43:-0.2478133 44:-0.17397934 45:2.90487 46:-0.15619448 47:-0.066107452 48:-0.14383133 49:-0.22159693 50:-0.64531434 51:-0.26362848 52:-0.52965069 53:-0.34909117 54:-0.28615856 55:-0.085346848 56:-0.29398528 57:-0.55325043 #
0.028479928469737712110054772551848 1:-0.32373646 2:-0.17667121 3:-0.50017285 4:-0.098842546 5:-0.44537586 6:-0.34561899 7:1.9890447 8:-0.31560028 9:-0.30961666 10:-0.41393355 11:-0.22640149 12:-0.60592264 13:-0.21933696 14:-0.16083114 15:-0.15391792 16:2.4850152 17:-0.37343216 18:-0.36310151 19:0.2802372 20:-0.14419276 21:0.86183232 22:-0.062323686 23:-0.26375422 24:-0.25234732 25:-0.40743604 26:-0.4047187 27:-0.27057403 28:-0.30796358 29:-0.16733444 30:-0.27352092 31:-0.20108834 32:-0.16073692 33:-0.18338262 34:-0.16487801 35:-0.27398148 36:-0.30811864 37:-0.39074841 38:-0.11907394 39:-0.21418162 40:-0.20511942 41:-0.13776088 42:-0.16252463 43:-0.2478133 44:-0.17397934 45:-0.31722111 46:-0.15619448 47:-0.066107452 48:-0.14383133 49:-0.22159693 50:-0.64531434 51:-0.26362848 52:-0.52965069 53:-0.34909117 54:-0.28615856 55:-0.037496313 56:-0.23132877 57:-0.45471439 #
0.028575457257748623079995908824458 1:-0.32373646 2:-0.17667121 3:-0.50017285 4:-0.098842546 5:-0.44537586 6:-0.34561899 7:-0.26157999 8:-0.31560028 9:-0.30961666 10:-0.41393355 11:-0.22640149 12:-0.60592264 13:-0.21933696 14:-0.16083114 15:-0.15391792 16:-0.30765641 17:-0.37343216 18:-0.36310151 19:-0.16076016 20:-0.14419276 21:-0.13503145 22:-0.062323686 23:-0.26375422 24:-0.25234732 25:-0.40743604 26:-0.4047187 27:-0.27057403 28:-0.30796358 29:-0.16733444 30:-0.27352092 31:-0.20108834 32:-0.16073692 33:-0.18338262 34:-0.16487801 35:-0.27398148 36:-0.30811864 37:-0.39074841 38:-0.11907394 39:-0.21418162 40:-0.20511942 41:-0.13776088 42:-0.16252463 43:-0.2478133 44:-0.17397934 45:-0.31722111 46:-0.15619448 47:-0.066107452 48:-0.14383133 49:-0.22159693 50:-0.64531434 51:-0.26362848 52:-0.52965069 53:-0.34909117 54:-0.28615856 55:-0.097370259 56:-0.3029362 57:-0.54130667 #
-0.028575457257748623079995908824458 1:-0.32373646 2:0.43684098 3:-0.50017285 4:-0.098842546 5:0.90616858 6:-0.34561899 7:-0.26157999 8:2.014786 9:-0.30961666 10:-0.41393355 11:-0.22640149 12:-0.60592264 13:-0.21933696 14:-0.16083114 15:-0.15391792 16:0.37708521 17:0.88871866 18:-0.36310151 19:-0.59617531 20:-0.14419276 21:-0.57808203 22:-0.062323686 23:-0.26375422 24:-0.25234732 25:-0.40743604 26:-0.4047187 27:-0.27057403 28:-0.30796358 29:-0.16733444 30:-0.27352092 31:-0.20108834 32:-0.16073692 33:-0.18338262 34:-0.16487801 35:-0.27398148 36:0.74108052 37:-0.39074841 38:-0.11907394 39:-0.21418162 40:0.97164136 41:-0.13776088 42:-0.16252463 43:-0.2478133 44:0.9409681 45:-0.31722111 46:-0.15619448 47:-0.066107452 48:-0.14383133 49:-0.22159693 50:-0.32267445 51:-0.26362848 52:-0.52965069 53:-0.34909117 54:-0.28615856 55:-0.075865149 56:-0.24923062 57:-0.31437522 #
-0.028575457257748623079995908824458 1:-0.32373646 2:-0.17667121 3:-0.50017285 4:-0.098842546 5:0.56165725 6:0.79088759 7:-0.26157999 8:5.4875183 9:-0.30961666 10:-0.41393355 11:-0.22640149 12:0.15034086 13:-0.21933696 14:-0.16083114 15:-0.15391792 16:-0.30765641 17:-0.37343216 18:-0.36310151 19:-0.88086981 20:-0.14419276 21:-0.57808203 22:-0.062323686 23:-0.26375422 24:-0.25234732 25:-0.40743604 26:-0.4047187 27:-0.27057403 28:-0.30796358 29:-0.16733444 30:-0.27352092 31:-0.20108834 32:-0.16073692 33:-0.18338262 34:-0.16487801 35:-0.27398148 36:-0.30811864 37:-0.39074841 38:-0.11907394 39:-0.21418162 40:-0.20511942 41:-0.13776088 42:-0.16252463 43:-0.2478133 44:-0.17397934 45:-0.31722111 46:-0.15619448 47:-0.066107452 48:-0.14383133 49:-0.22159693 50:-0.64531434 51:-0.26362848 52:-0.52965069 53:-0.34909117 54:-0.28615856 55:-0.096552491 56:-0.28503433 57:-0.44277063 #
-0.028575457257748623079995908824458 1:-0.32373646 2:-0.17667121 3:-0.50017285 4:-0.098842546 5:-0.44537586 6:5.7460566 7:-0.26157999 8:-0.31560028 9:-0.30961666 10:-0.41393355 11:-0.22640149 12:-0.60592264 13:-0.21933696 14:-0.16083114 15:-0.15391792 16:-0.30765641 17:-0.37343216 18:0.90261787 19:-0.13284895 20:-0.14419276 21:-0.57808203 22:-0.062323686 23:-0.26375422 24:-0.25234732 25:-0.40743604 26:-0.4047187 27:-0.059071977 28:-0.30796358 29:-0.16733444 30:-0.27352092 31:-0.20108834 32:-0.16073692 33:1.8820601 34:-0.16487801 35:-0.27398148 36:-0.30811864 37:-0.39074841 38:-0.11907394 39:-0.21418162 40:-0.20511942 41:-0.13776088 42:-0.16252463 43:-0.2478133 44:1.2907555 45:0.23349348 46:-0.15619448 47:-0.066107452 48:-0.14383133 49:-0.22159693 50:-0.1409055 51:-0.26362848 52:-0.52965069 53:-0.34909117 54:-0.28615856 55:-0.093347721 56:-0.28503433 57:-0.55623633 #
-0.0056114002805982294425080070254808 1:-0.32373646 2:-0.17667121 3:-0.50017285 4:-0.098842546 5:9.0154352 6:-0.34561899 7:-0.26157999 8:-0.31560028 9:-0.30961666 10:-0.41393355 11:-0.22640149 12:-0.60592264 13:-0.21933696 14:-0.16083114 15:-0.15391792 16:-0.30765641 17:-0.37343216 18:-0.36310151 19:-0.88086981 20:-0.14419276 21:-0.57808203 22:-0.062323686 23:-0.26375422 24:-0.25234732 25:-0.40743604 26:-0.4047187 27:-0.27057403 28:-0.30796358 29:-0.16733444 30:-0.27352092 31:-0.20108834 32:-0.16073692 33:-0.18338262 34:-0.16487801 35:-0.27398148 36:-0.30811864 37:-0.39074841 38:-0.11907394 39:-0.21418162 40:-0.20511942 41:-0.13776088 42:-0.16252463 43:-0.2478133 44:-0.17397934 45:5.5515881 46:-0.15619448 47:-0.066107452 48:-0.14383133 49:-0.22159693 50:-0.64531434 51:-0.26362848 52:-0.52965069 53:-0.34909117 54:-0.28615856 55:-0.086385638 56:-0.29398528 57:-0.61296922 #
0.01487021964191394089727094041109 1:1.1547372 2:1.0623828 3:0.15014276 4:-0.098842546 5:0.91941905 6:-0.34561899 7:4.9538097 8:1.2379905 9:-0.30961666 10:3.5990751 11:9.0414333 12:1.4439495 13:1.8333172 14:-0.16083114 15:1.9733372 16:-0.30765641 17:-0.37343216 18:6.1355176 19:1.4245975 20:-0.14419276 21:0.847987 22:-0.062323686 23:-0.26375422 24:-0.25234732 25:-0.40743604 26:-0.4047187 27:-0.27057403 28:-0.30796358 29:-0.16733444 30:-0.27352092 31:-0.20108834 32:-0.16073692 33:-0.18338262 34:-0.16487801 35:-0.27398148 36:-0.30811864 37:-0.39074841 38:-0.11907394 39:-0.21418162 40:-0.20511942 41:-0.13776088 42:-0.16252463 43:-0.2478133 44:-0.17397934 45:-0.31722111 46:-0.15619448 47:-0.066107452 48:-0.14383133 49:-0.22159693 50:-0.11818438 51:-0.26362848 52:-0.52965069 53:-0.34909117 54:-0.28615856 55:-0.080020301 56:-0.27608341 57:-0.4338128 #
0.028575457257748623079995908824458 1:-0.32373646 2:-0.17667121 3:-0.50017285 4:-0.098842546 5:-0.44537586 6:-0.34561899 7:-0.26157999 8:-0.31560028 9:-0.30961666 10:-0.41393355 11:5.3073058 12:0.61803013 13:-0.21933696 14:-0.16083114 15:-0.15391792 16:-0.30765641 17:-0.37343216 18:-0.36310151 19:0.49236253 20:-0.14419276 21:-0.57808203 22:-0.062323686 23:-0.26375422 24:-0.25234732 25:-0.40743604 26:-0.4047187 27:-0.27057403 28:-0.30796358 29:-0.16733444 30:-0.27352092 31:-0.20108834 32:-0.16073692 33:-0.18338262 34:-0.16487801 35:-0.27398148 36:-0.30811864 37:-0.39074841 38:-0.11907394 39:-0.21418162 40:-0.20511942 41:-0.13776088 42:-0.16252463 43:-0.2478133 44:-0.17397934 45:-0.31722111 46:-0.15619448 47:-0.066107452 48:-0.14383133 49:-0.22159693 50:-0.64531434 51:-0.26362848 52:3.2054842 53:-0.34909117 54:-0.28615856 55:-0.091756389 56:-0.28503433 57:-0.5801239 #
0.028575457257748623079995908824458 1:-0.32373646 2:0.64134502 3:0.15014276 4:-0.098842546 5:0.0051389523 6:-0.34561899 7:-0.26157999 8:-0.31560028 9:-0.30961666 10:-0.41393355 11:-0.22640149 12:0.070734173 13:-0.21933696 14:-0.16083114 15:-0.15391792 16:0.148838 17:-0.37343216 18:2.2250113 19:0.079276368 20:-0.14419276 21:0.13495249 22:-0.062323686 23:-0.26375422 24:-0.25234732 25:-0.40743604 26:-0.4047187 27:-0.27057403 28:-0.30796358 29:-0.16733444 30:-0.27352092 31:-0.20108834 32:-0.16073692 33:-0.18338262 34:-0.16487801 35:-0.27398148 36:-0.30811864 37:-0.39074841 38:-0.11907394 39:-0.21418162 40:-0.20511942 41:-0.13776088 42:-0.16252463 43:-0.2478133 44:-0.17397934 45:-0.31722111 46:-0.15619448 47:-0.066107452 48:-0.14383133 49:-0.22159693 50:-0.39538205 51:-0.26362848 52:1.5589995 53:-0.34909117 54:-0.28615856 55:-0.039573889 56:0.2162177 57:0.15143144 #
0.028575457257748623079995908824458 1:-0.32373646 2:-0.17667121 3:-0.50017285 4:-0.098842546 5:-0.44537586 6:-0.34561899 7:-0.26157999 8:-0.31560028 9:-0.30961666 10:-0.41393355 11:-0.22640149 12:1.1951786 13:-0.21933696 14:-0.16083114 15:-0.15391792 16:-0.30765641 17:-0.37343216 18:-0.36310151 19:-0.88086981 20:-0.14419276 21:0.67492038 22:-0.062323686 23:-0.26375422 24:-0.25234732 25:-0.40743604 26:-0.4047187 27:-0.27057403 28:-0.30796358 29:-0.16733444 30:-0.27352092 31:-0.20108834 32:-0.16073692 33:-0.18338262 34:-0.16487801 35:-0.27398148 36:-0.30811864 37:-0.39074841 38:-0.11907394 39:-0.21418162 40:-0.20511942 41:-0.13776088 42:-0.16252463 43:-0.2478133 44:-0.17397934 45:-0.31722111 46:-0.15619448 47:-0.066107452 48:-0.14383133 49:-0.22159693 50:-0.64531434 51:-0.26362848 52:0.36922523 53:-0.34909117 54:-0.28615856 55:-0.092286833 56:-0.23132877 57:-0.4696441 #
-0.028575457257748623079995908824458 1:-0.32373646 2:-0.17667121 3:-0.50017285 4:-0.098842546 5:0.70741206 6:-0.34561899 7:1.6211542 8:-0.31560028 9:-0.30961666 10:-0.41393355 11:-0.22640149 12:-0.60592264 13:-0.21933696 14:-0.16083114 15:-0.15391792 16:3.2234621 17:-0.37343216 18:1.2804446 19:0.58726066 20:-0.14419276 21:-0.57808203 22:-0.062323686 23:-0.26375422 24:-0.25234732 25:-0.40743604 26:-0.4047187 27:-0.27057403 28:-0.30796358 29:-0.16733444 30:-0.27352092 31:-0.20108834 32:-0.16073692 33:-0.18338262 34:-0.16487801 35:-0.27398148 36:-0.30811864 37:-0.39074841 38:-0.11907394 39:-0.21418162 40:-0.20511942 41:-0.13776088 42:-0.16252463 43:-0.2478133 44:-0.17397934 45:-0.31722111 46:-0.15619448 47:-0.066107452 48:-0.14383133 49:-0.22159693 50:-0.64531434 51:-0.26362848 52:1.7917181 53:0.57941324 54:-0.28615856 55:0.28611916 56:0.88753736 57:-0.030710904 #
-0.028575457257748623079995908824458 1:-0.32373646 2:-0.17667121 3:1.1447431 4:-0.098842546 5:-0.44537586 6:-0.34561899 7:-0.26157999 8:-0.31560028 9:-0.30961666 10:-0.41393355 11:3.6426947 12:0.24984922 13:-0.21933696 14:-0.16083114 15:-0.15391792 16:-0.30765641 17:-0.37343216 18:1.2615533 19:2.9987905 20:-0.14419276 21:2.4263546 22:-0.062323686 23:-0.26375422 24:-0.25234732 25:-0.40743604 26:-0.4047187 27:0.00090621441 28:-0.30796358 29:-0.16733444 30:-0.27352092 31:-0.20108834 32:-0.16073692 33:-0.18338262 34:-0.16487801 35:-0.27398148 36:-0.30811864 37:-0.39074841 38:-0.11907394 39:-0.21418162 40:-0.20511942 41:-0.13776088 42:-0.16252463 43:-0.2478133 44:-0.17397934 45:-0.31722111 46:-0.15619448 47:-0.066107452 48:-0.14383133 49:-0.22159693 50:-0.64531434 51:-0.26362848 52:-0.52965069 53:-0.34909117 54:-0.28615856 55:-0.098607965 56:-0.31188715 57:-0.57116604 #
-0.028575457257748623079995908824458 1:-0.32373646 2:-0.17667121 3:-0.50017285 4:-0.098842546 5:2.3107147 6:-0.34561899 7:-0.26157999 8:-0.31560028 9:-0.30961666 10:-0.41393355 11:3.5077262 12:0.21999671 13:-0.21933696 14:-0.16083114 15:-0.15391792 16:0.80672699 17:-0.37343216 18:2.7728601 19:0.74356353 20:-0.14419276 21:-0.29425275 22:-0.062323686 23:-0.26375422 24:-0.25234732 25:-0.40743604 26:-0.4047187 27:-0.27057403 28:-0.30796358 29:-0.16733444 30:-0.27352092 31:-0.20108834 32:-0.16073692 33:-0.18338262 34:-0.16487801 35:-0.27398148 36:-0.30811864 37:-0.39074841 38:-0.11907394 39:-0.21418162 40:-0.20511942 41:-0.13776088 42:-0.16252463 43:-0.2478133 44:-0.17397934 45:-0.31722111 46:-0.15619448 47:-0.066107452 48:-0.14383133 49:-0.22159693 50:-0.050021019 51:-0.26362848 52:0.42740488 53:-0.34909117 54:1.0904788 55:-0.056282897 56:-0.23132877 57:-0.16806415 #
-0.00018903038358464134289366187502424 1:0.58943844 2:-0.17667121 3:-0.09850733 4:7.2782841 5:0.38940158 6:-0.34561899 7:-0.26157999 8:-0.31560028 9:-0.30961666 10:-0.41393355 11:1.6631571 12:-0.60592264 13:0.41457093 14:-0.16083114 15:-0.15391792 16:0.8201533 17:-0.37343216 18:0.43033454 19:0.17975679 20:-0.14419276 21:-0.57808203 22:-0.062323686 23:0.66586578 24:-0.25234732 25:-0.40743604 26:-0.4047187 27:-0.27057403 28:-0.30796358 29:-0.16733444 30:-0.27352092 31:-0.20108834 32:-0.16073692 33:-0.18338262 34:-0.16487801 35:-0.27398148 36:-0.30811864 37:0.11865877 38:-0.11907394 39:-0.21418162 40:-0.20511942 41:-0.13776088 42:-0.16252463 43:-0.2478133 44:-0.17397934 45:-0.31722111 46:-0.15619448 47:-0.066107452 48:-0.14383133 49:-0.22159693 50:-0.50444341 51:-0.26362848 52:0.55830914 53:0.012967132 54:-0.28615856 55:-0.057830028 56:0.30572698 57:0.57244897 #
-0.028575457257748623079995908824458 1:-0.32373646 2:-0.17667121 3:-0.50017285 4:-0.098842546 5:-0.44537586 6:-0.34561899 7:-0.26157999 8:-0.31560028 9:-0.30961666 10:-0.41393355 11:-0.22640149 12:-0.60592264 13:-0.21933696 14:-0.16083114 15:-0.15391792 16:-0.30765641 17:-0.37343216 18:-0.36310151 19:1.4413441 20:-0.14419276 21:-0.57808203 22:-0.062323686 23:-0.26375422 24:-0.25234732 25:-0.40743604 26:-0.4047187 27:-0.27057403 28:-0.30796358 29:-0.16733444 30:-0.27352092 31:-0.20108834 32:-0.16073692 33:-0.18338262 34:-0.16487801 35:-0.27398148 36:-0.30811864 37:-0.39074841 38:-0.11907394 39:-0.21418162 40:-0.20511942 41:-0.13776088 42:-0.16252463 43:-0.2478133 44:-0.17397934 45:-0.31722111 46:-0.15619448 47:-0.066107452 48:-0.14383133 49:-0.22159693 50:-0.64531434 51:-0.26362848 52:1.6229972 53:-0.34909117 54:-0.28615856 55:-0.085833088 56:-0.27608341 57:-0.59803951 #
-0.028575457257748623079995908824458 1:-0.14979838 2:-0.068404347 3:0.092761979 4:-0.098842546 5:-0.39237413 6:0.6545068 7:-0.17501751 8:-0.31560028 9:-0.30961666 10:0.93929029 11:0.17850393 12:0.55832511 13:-0.21933696 14:-0.16083114 15:-0.15391792 16:-0.13311443 17:-0.27443993 18:-0.36310151 19:-0.15517792 20:-0.14419276 21:0.2318698 22:-0.062323686 23:-0.086683743 24:-0.25234732 25:0.038375173 26:0.1529967 27:-0.27057403 28:-0.23964988 29:-0.16733444 30:0.10821494 31:0.21199572 32:-0.16073692 33:-0.18338262 34:-0.16487801 35:0.086254127 36:-0.22582853 37:0.36123362 38:-0.11907394 39:0.25549996 40:-0.20511942 41:-0.043193541 42:-0.16252463 43:-0.2478133 44:-0.17397934 45:-0.21036603 46:-0.078686655 47:-0.066107452 48:0.16736497 49:-0.11121012 50:0.37259182 51:-0.26362848 52:-0.45110813 53:-0.3140533 54:-0.28615856 55:-0.082318895 56:-0.070212044 57:2.9223838 #
0.028575457257748623079995908824458 1:-0.32373646 2:-0.17667121 3:0.87696612 4:-0.098842546 5:1.952953 6:-0.34561899 7:-0.26157999 8:-0.31560028 9:-0.30961666 10:0.42599848 11:-0.22640149 12:-0.24769257 13:-0.21933696 14:-0.16083114 15:-0.15391792 16:-0.30765641 17:1.4084278 18:-0.36310151 19:-0.47894815 20:-0.14419276 21:-0.32886606 22:-0.062323686 23:-0.26375422 24:-0.25234732 25:-0.40743604 26:-0.4047187 27:-0.27057403 28:-0.30796358 29:-0.16733444 30:-0.27352092 31:-0.20108834 32:-0.16073692 33:0.37151241 34:-0.16487801 35:-0.27398148 36:-0.30811864 37:-0.39074841 38:-0.11907394 39:-0.21418162 40:-0.20511942 41:-0.13776088 42:-0.16252463 43:-0.2478133 44:-0.17397934 45:-0.31722111 46:-0.15619448 47:-0.066107452 48:-0.14383133 49:0.22844163 50:0.55890501 51:-0.26362848 52:-0.52965069 53:-0.34909117 54:-0.28615856 55:-0.087645441 56:-0.2134269 57:-0.37409401 #
0.028575457257748623079995908824458 1:-0.32373646 2:-0.17667121 3:-0.50017285 4:-0.098842546 5:-0.44537586 6:-0.34561899 7:-0.26157999 8:5.5789061 9:-0.30961666 10:0.58931857 11:-0.22640149 12:-0.60592264 13:-0.21933696 14:-0.16083114 15:-0.15391792 16:0.26967475 17:-0.37343216 18:2.9050994 19:-0.64083326 20:-0.14419276 21:-0.28040743 22:-0.062323686 23:-0.26375422 24:-0.25234732 25:-0.40743604 26:-0.4047187 27:-0.27057403 28:-0.30796358 29:-0.16733444 30:-0.27352092 31:-0.20108834 32:-0.16073692 33:-0.18338262 34:-0.16487801 35:-0.27398148 36:0.57650024 37:-0.39074841 38:-0.11907394 39:-0.21418162 40:-0.20511942 41:-0.13776088 42:-0.16252463 43:-0.2478133 44:-0.17397934 45:-0.31722111 46:-0.15619448 47:-0.066107452 48:-0.14383133 49:-0.22159693 50:-0.081830591 51:-0.26362848 52:0.37213421 53:0.012967132 54:-0.28615856 55:-0.089104161 56:-0.25818154 57:-0.44277063 #
-0.028575457257748623079995908824458 1:-0.32373646 2:-0.17667121 3:3.2487054 4:-0.098842546 5:-0.44537586 6:-0.34561899 7:-0.26157999 8:-0.31560028 9:-0.30961666 10:-0.41393355 11:-0.22640149 12:-0.60592264 13:-0.21933696 14:-0.16083114 15:-0.15391792 16:2.3238995 17:-0.37343216 18:-0.36310151 19:-0.88086981 20:-0.14419276 21:-0.57808203 22:-0.062323686 23:-0.26375422 24:-0.25234732 25:-0.40743604 26:-0.4047187 27:-0.27057403 28:-0.30796358 29:-0.16733444 30:-0.27352092 31:-0.20108834 32:-0.16073692 33:-0.18338262 34:-0.16487801 35:-0.27398148 36:-0.30811864 37:-0.39074841 38:-0.11907394 39:-0.21418162 40:-0.20511942 41:-0.13776088 42:4.2083216 43:-0.2478133 44:-0.17397934 45:2.90487 46:-0.15619448 47:-0.066107452 48:-0.14383133 49:-0.22159693 50:-0.64531434 51:-0.26362848 52:-0.52965069 53:-0.34909117 54:-0.28615856 55:-0.085346848 56:-0.29398528 57:-0.55325043 #
-0.028575457257748623079995908824458 1:-0.32373646 2:0.087981112 3:-0.50017285 4:-0.098842546 5:0.42915291 6:0.6545068 7:-0.26157999 8:1.694929 9:1.7632117 10:1.6625651 11:-0.22640149 12:-0.60592264 13:0.44475701 14:1.4097494 15:-0.15391792 16:1.4780422 17:-0.37343216 18:-0.36310151 19:-0.38404998 20:-0.14419276 21:-0.27348477 22:-0.062323686 23:-0.26375422 24:0.88700628 25:1.2470189 26:3.2720716 27:-0.062228724 28:0.067761727 29:0.062286589 30:0.19304512 31:0.30379218 32:0.35839441 33:-0.18338262 34:0.35387358 35:0.16630648 36:0.14447707 37:2.3018324 38:-0.11907394 39:-0.21418162 40:0.30250287 41:-0.13776088 42:-0.16252463 43:0.45956102 44:-0.17397934 45:-0.13638945 46:-0.15619448 47:-0.066107452 48:-0.14383133 49:1.0351145 50:1.0451369 51:1.8121926 52:0.55249119 53:0.95315081 54:-0.28615856 55:-0.046049736 56:0.04615004 57:0.59036463 #
-0.00057320960741515222715974919864834 1:-0.32373646 2:-0.17667121 3:-0.50017285 4:-0.098842546 5:-0.44537586 6:-0.34561899 7:-0.26157999 8:-0.31560028 9:-0.30961666 10:6.538837 11:-0.22640149 12:-0.60592264 13:-0.21933696 14:-0.16083114 15:9.1684647 16:-0.30765641 17:-0.37343216 18:-0.36310151 19:-0.88086981 20:-0.14419276 21:-0.57808203 22:-0.062323686 23:-0.26375422 24:-0.25234732 25:0.3306292 26:1.1341627 27:-0.27057403 28:-0.30796358 29:-0.16733444 30:-0.27352092 31:-0.20108834 32:-0.16073692 33:-0.18338262 34:-0.16487801 35:-0.27398148 36:-0.30811864 37:3.2236168 38:-0.11907394 39:-0.21418162 40:-0.20511942 41:-0.13776088 42:-0.16252463 43:4.5430403 44:-0.17397934 45:-0.31722111 46:-0.15619448 47:-0.066107452 48:-0.14383133 49:-0.22159693 50:0.30442846 51:3.6448994 52:-0.52965069 53:-0.34909117 54:-0.28615856 55:-0.044392094 56:-0.1776232 57:-0.49054566 #
-0.028575457257748623079995908824458 1:-0.019344825 2:-0.17667121 3:-0.23239584 4:-0.098842546 5:-0.35262281 6:-0.34561899 7:-0.26157999 8:-0.31560028 9:3.1765039 10:-0.41393355 11:-0.22640149 12:-0.38700426 13:-0.21933696 14:0.33889902 15:-0.15391792 16:-0.30765641 17:-0.37343216 18:-0.23086216 19:-0.71898466 20:-0.14419276 21:-0.4257834 22:-0.062323686 23:-0.26375422 24:-0.25234732 25:-0.040880155 26:0.4318544 27:-0.24847679 28:-0.30796358 29:-0.16733444 30:-0.27352092 31:-0.20108834 32:-0.16073692 33:0.15571991 34:-0.16487801 35:-0.27398148 36:-0.30811864 37:0.67658091 38:-0.11907394 39:-0.21418162 40:-0.20511942 41:-0.13776088 42:-0.16252463 43:-0.2478133 44:-0.17397934 45:-0.31722111 46:-0.15619448 47:-0.066107452 48:-0.14383133 49:0.7633931 50:0.26353043 51:0.52181733 52:-0.52965069 53:-0.22645853 54:-0.28615856 55:-0.060084417 56:-0.0075555374 57:1.3965684 #
0.028575457257748623079995908824458 1:-0.32373646 2:-0.17667121 3:-0.50017285 4:-0.098842546 5:1.2639303 6:1.6091723 7:0.66896677 8:-0.31560028 9:-0.30961666 10:-0.41393355 11:-0.22640149 12:-0.60592264 13:1.0786649 14:-0.16083114 15:-0.15391792 16:0.26967475 17:0.69073427 18:0.44922587 19:0.079276368 20:-0.14419276 21:0.017267181 22:-0.062323686 23:-0.26375422 24:-0.25234732 25:-0.40743604 26:-0.4047187 27:-0.27057403 28:-0.30796358 29:-0.16733444 30:-0.27352092 31:-0.20108834 32:-0.16073692 33:-0.18338262 34:-0.16487801 35:-0.27398148 36:-0.30811864 37:-0.39074841 38:-0.11907394 39:-0.21418162 40:-0.20511942 41:-0.13776088 42:-0.16252463 43:-0.2478133 44:-0.17397934 45:-0.31722111 46:-0.15619448 47:-0.066107452 48:-0.14383133 49:-0.22159693 50:-0.059109468 51:-0.26362848 52:-0.15439181 53:-0.34909117 54:-0.28615856 55:0.0064421888 56:0.081953757 57:-0.29048768 #
-0.028575457257748623079995908824458 1:-0.32373646 2:-0.17667121 3:6.0794911 4:-0.098842546 5:-0.44537586 6:-0.34561899 7:-0.26157999 8:-0.31560028 9:-0.30961666 10:-0.41393355 11:-0.22640149 12:-0.60592264 13:-0.21933696 14:-0.16083114 15:-0.15391792 16:-0.30765641 17:-0.37343216 18:6.1355176 19:-0.88086981 20:-0.14419276 21:1.8033148 22:-0.062323686 23:-0.26375422 24:-0.25234732 25:-0.40743604 26:-0.4047187 27:-0.27057403 28:-0.30796358 29:-0.16733444 30:-0.27352092 31:-0.20108834 32:-0.16073692 33:-0.18338262 34:-0.16487801 35:-0.27398148 36:-0.30811864 37:-0.39074841 38:-0.11907394 39:-0.21418162 40:-0.20511942 41:-0.13776088 42:-0.16252463 43:-0.2478133 44:-0.17397934 45:-0.31722111 46:-0.15619448 47:-0.066107452 48:-0.14383133 49:-0.22159693 50:-0.64531434 51:-0.26362848 52:-0.52965069 53:-0.34909117 54:-0.28615856 55:-0.083578698 56:-0.29398528 57:-0.5801239 #
-0.028575457257748623079995908824458 1:-0.32373646 2:1.0142642 3:-0.50017285 4:-0.098842546 5:0.20389549 6:-0.34561899 7:-0.26157999 8:1.9233983 9:-0.30961666 10:-0.41393355 11:-0.22640149 12:-0.11833171 13:-0.21933696 14:-0.16083114 15:-0.15391792 16:-0.30765641 17:-0.37343216 18:3.3773828 19:0.77705699 20:-0.14419276 21:0.44647241 22:-0.062323686 23:-0.26375422 24:-0.25234732 25:-0.40743604 26:-0.4047187 27:-0.27057403 28:-0.30796358 29:-0.16733444 30:-0.27352092 31:-0.20108834 32:-0.16073692 33:-0.18338262 34:-0.16487801 35:-0.27398148 36:0.69993544 37:-0.39074841 38:-0.11907394 39:-0.21418162 40:-0.20511942 41:-0.13776088 42:-0.16252463 43:-0.2478133 44:-0.17397934 45:-0.31722111 46:-0.15619448 47:-0.066107452 48:-0.14383133 49:-0.22159693 50:-0.64531434 51:-0.26362848 52:-0.29402301 53:-0.34909117 54:-0.28615856 55:-0.091955304 56:-0.29398528 57:-0.46367222 #
0.028575457257748623079995908824458 1:-0.32373646 2:0.23233692 3:0.81958532 4:-0.098842546 5:0.0051389523 6:-0.34561899 7:0.10631058 8:-0.31560028 9:-0.30961666 10:0.77597016 11:0.53841984 12:-0.60592264 13:0.29382658 14:-0.16083114 15:0.90970963 16:-0.079409197 17:-0.37343216 18:1.2615533 19:-0.69107348 20:0.69251823 21:-0.2250261 22:-0.062323686 23:-0.26375422 24:-0.25234732 25:-0.40743604 26:-0.4047187 27:-0.27057403 28:-0.30796358 29:-0.16733444 30:-0.27352092 31:-0.20108834 32:-0.16073692 33:-0.18338262 34:-0.16487801 35:-0.27398148 36:-0.30811864 37:-0.39074841 38:-0.11907394 39:-0.21418162 40:-0.20511942 41:-0.13776088 42:-0.16252463 43:-0.2478133 44:-0.17397934 45:-0.31722111 46:-0.15619448 47:-0.066107452 48:-0.14383133 49:-0.22159693 50:-0.64531434 51:-0.26362848 52:0.38667911 53:-0.34909117 54:0.26449636 55:0.018907638 56:1.0038995 57:2.1758988 #
0.028575457257748623079995908824458 1:-0.32373646 2:-0.17667121 3:-0.50017285 4:-0.098842546 5:-0.44537586 6:-0.34561899 7:-0.26157999 8:2.7458875 9:-0.30961666 10:1.1492733 11:-0.22640149 12:-0.60592264 13:-0.21933696 14:-0.16083114 15:-0.15391792 16:-0.30765641 17:-0.37343216 18:-0.36310151 19:-0.88086981 20:-0.14419276 21:-0.57808203 22:-0.062323686 23:-0.26375422 24:-0.25234732 25:-0.40743604 26:-0.4047187 27:-0.27057403 28:-0.30796358 29:-0.16733444 30:-0.27352092 31:-0.20108834 32:-0.16073692 33:-0.18338262 34:-0.16487801 35:-0.27398148 36:-0.30811864 37:2.8597546 38:-0.11907394 39:-0.21418162 40:-0.20511942 41:-0.13776088 42:-0.16252463 43:-0.2478133 44:-0.17397934 45:-0.31722111 46:-0.15619448 47:-0.066107452 48:-0.14383133 49:1.221923 50:1.676784 51:1.3259642 52:0.95683992 53:-0.34909117 54:-0.28615856 55:-0.019704314 56:-0.088113904 57:0.011092257 #
0.028575457257748623079995908824458 1:0.024139695 2:-0.17667121 3:-0.34715742 4:-0.098842546 5:-0.23336889 6:-0.34561899 7:-0.26157999 8:-0.31560028 9:-0.30961666 10:-0.41393355 11:-0.22640149 12:-0.37705344 13:-0.21933696 14:-0.16083114 15:-0.15391792 16:-0.20024595 17:0.19577312 18:-0.36310151 19:-0.65758002 20:0.64329994 21:-0.41886073 22:-0.062323686 23:-0.26375422 24:-0.25234732 25:-0.40743604 26:-0.4047187 27:-0.27057403 28:-0.30796358 29:-0.16733444 30:-0.27352092 31:-0.20108834 32:-0.16073692 33:-0.18338262 34:-0.16487801 35:-0.27398148 36:-0.30811864 37:-0.19668855 38:-0.11907394 39:-0.21418162 40:-0.20511942 41:-0.13776088 42:-0.16252463 43:-0.2478133 44:0.17580809 45:-0.31722111 46:-0.15619448 47:-0.066107452 48:-0.14383133 49:-0.22159693 50:0.39076871 51:-0.26362848 52:0.65139663 53:-0.12718448 54:-0.28615856 55:-0.05962028 56:0.26992327 57:3.107512 #
-0.0116965014998998799444773766254 1:-0.062829345 2:-0.1285526 3:0.054508116 4:-0.098842546 5:-0.3393724 6:-0.072857417 7:-0.26157999 8:0.27841973 9:-0.21539718 10:-0.15728766 11:-0.22640149 12:-0.13823338 13:-0.21933696 14:-0.01805109 15:-0.028785268 16:-0.13311443 17:-0.051707439 18:-0.21197082 19:-0.74689591 20:-0.14419276 21:-0.46039671 22:-0.062323686 23:-0.26375422 24:-0.25234732 25:-0.40743604 26:-0.4047187 27:-0.27057403 28:-0.27380672 29:-0.1464598 30:-0.27352092 31:-0.20108834 32:-0.16073692 33:2.436955 34:-0.16487801 35:-0.27398148 36:0.14447707 37:1.6226228 38:0.20713905 39:-0.21418162 40:-0.20511942 41:0.0040901271 42:-0.11792415 43:-0.18350655 44:-0.042809062 45:-0.31722111 46:0.40573728 47:0.33822417 48:0.37482917 49:0.050124459 50:0.15446906 51:-0.26362848 52:-0.52092373 53:-0.33157223 54:-0.28615856 55:-0.073102415 56:0.37733442 57:7.2191515 #
-0.028575457257748623079995908824458 1:-0.062829345 2:-0.17667121 3:-0.13676119 4:-0.098842546 5:-0.10086454 6:-0.072857417 7:-0.26157999 8:0.5525828 9:-0.30961666 10:-0.27394488 11:-0.22640149 12:0.50857097 13:-0.038220409 14:1.1955793 15:-0.15391792 16:-0.30765641 17:0.91346675 18:-0.36310151 19:-0.88086981 20:2.7596867 21:-0.53654605 22:-0.062323686 23:1.462683 24:-0.25234732 25:1.1925309 26:-0.4047187 27:-0.27057403 28:-0.30796358 29:-0.16733444 30:-0.27352092 31:-0.20108834 32:-0.16073692 33:-0.090900108 34:-0.16487801 35:-0.27398148 36:0.082759462 37:-0.07540112 38:-0.11907394 39:-0.21418162 40:-0.20511942 41:-0.13776088 42:-0.16252463 43:-0.2478133 44:-0.042809062 45:-0.31722111 46:-0.15619448 47:-0.066107452 48:-0.14383133 49:0.3897762 50:-0.11364016 51:-0.26362848 52:-0.52965069 53:0.018806782 54:-0.28615856 55:-0.074870564 56:-0.10601576 57:1.6055843 #
-0.028575457257748623079995908824458 1:-0.28025195 2:-0.17667121 3:-0.44279206 4:-0.098842546 5:-0.0081114834 6:-0.20923822 7:-0.26157999 8:-0.31560028 9:0.7739073 10:-0.39060211 11:-0.22640149 12:-0.51636511 13:-0.21933696 14:-0.16083114 15:-0.15391792 16:-0.13311443 17:-0.37343216 18:-0.34421018 19:-0.84179407 20:-0.14419276 21:-0.54346871 22:-0.062323686 23:-0.26375422 24:-0.25234732 25:-0.14490277 26:0.16332476 27:-0.26741728 28:-0.30796358 29:-0.16733444 30:-0.27352092 31:-0.20108834 32:-0.16073692 33:0.54106367 34:-0.16487801 35:-0.25396839 36:-0.28754613 37:0.70083839 38:0.044032551 39:-0.21418162 40:-0.20511942 41:-0.13776088 42:-0.16252463 43:-0.21565992 44:-0.17397934 45:-0.31722111 46:-0.15619448 47:0.94472158 48:-0.14383133 49:1.4766618 50:-0.068197913 51:0.93324131 52:-0.52965069 53:-0.31989294 54:-0.28615856 55:-0.064526893 56:0.010346321 57:6.3771162 #
0.028575457257748623079995908824458 1:-0.32373646 2:0.90599734 3:-0.50017285 4:-0.098842546 5:-0.44537586 6:-0.34561899 7:-0.26157999 8:-0.31560028 9:-0.30961666 10:-0.41393355 11:-0.22640149 12:-0.60592264 13:-0.21933696 14:-0.16083114 15:-0.15391792 16:0.90071112 17:-0.37343216 18:3.0562301 19:1.1454852 20:-0.14419276 21:1.3048829 22:-0.062323686 23:-0.26375422 24:-0.25234732 25:-0.40743604 26:-0.4047187 27:-0.27057403 28:-0.30796358 29:-0.16733444 30:-0.27352092 31:-0.20108834 32:-0.16073692 33:-0.18338262 34:-0.16487801 35:-0.27398148 36:-0.30811864 37:-0.39074841 38:-0.11907394 39:-0.21418162 40:-0.20511942 41:-0.13776088 42:-0.16252463 43:-0.2478133 44:-0.17397934 45:0.42254475 46:-0.15619448 47:-0.066107452 48:-0.14383133 49:-0.22159693 50:-0.64531434 51:-0.26362848 52:-0.049668405 53:0.61445111 54:-0.28615856 55:0.016741656 56:0.03719911 57:-0.35617837 #
0.028575457257748623079995908824458 1:-0.32373646 2:0.64134502 3:0.15014276 4:-0.098842546 5:0.0051389523 6:-0.34561899 7:-0.26157999 8:-0.31560028 9:-0.30961666 10:-0.41393355 11:-0.22640149 12:0.070734173 13:-0.21933696 14:-0.16083114 15:-0.15391792 16:0.148838 17:-0.37343216 18:2.2250113 19:0.079276368 20:-0.14419276 21:0.13495249 22:-0.062323686 23:-0.26375422 24:-0.25234732 25:-0.40743604 26:-0.4047187 27:-0.27057403 28:-0.30796358 29:-0.16733444 30:-0.27352092 31:-0.20108834 32:-0.16073692 33:-0.18338262 34:-0.16487801 35:-0.27398148 36:-0.30811864 37:-0.39074841 38:-0.11907394 39:-0.21418162 40:-0.20511942 41:-0.13776088 42:-0.16252463 43:-0.2478133 44:-0.17397934 45:-0.31722111 46:-0.15619448 47:-0.066107452 48:-0.14383133 49:-0.22159693 50:-0.39538205 51:-0.26362848 52:1.5589995 53:-0.34909117 54:-0.28615856 55:-0.039573889 56:0.2162177 57:0.15143144 #
-0.028575457257748623079995908824458 1:-0.32373646 2:-0.17667121 3:-0.50017285 4:-0.098842546 5:-0.44537586 6:-0.34561899 7:-0.26157999 8:-0.31560028 9:-0.30961666 10:-0.41393355 11:-0.22640149 12:-0.60592264 13:-0.21933696 14:-0.16083114 15:-0.15391792 16:-0.30765641 17:-0.37343216 18:-0.36310151 19:1.3520283 20:-0.14419276 21:-0.57808203 22:-0.062323686 23:-0.26375422 24:-0.25234732 25:-0.40743604 26:-0.4047187 27:-0.27057403 28:-0.30796358 29:-0.16733444 30:-0.27352092 31:-0.20108834 32:-0.16073692 33:-0.18338262 34:-0.16487801 35:-0.27398148 36:-0.30811864 37:-0.39074841 38:-0.11907394 39:-0.21418162 40:-0.20511942 41:-0.13776088 42:-0.16252463 43:-0.2478133 44:-0.17397934 45:-0.31722111 46:-0.15619448 47:-0.066107452 48:-0.14383133 49:-0.22159693 50:-0.64531434 51:-0.26362848 52:1.5909983 53:-0.34909117 54:-0.28615856 55:-0.080307625 56:-0.29398528 57:-0.59206766 #
-0.028575457257748623079995908824458 1:-0.32373646 2:-0.17667121 3:-0.50017285 4:-0.098842546 5:-0.44537586 6:-0.34561899 7:-0.26157999 8:-0.31560028 9:-0.30961666 10:-0.41393355 11:-0.22640149 12:-0.60592264 13:-0.21933696 14:-0.16083114 15:-0.15391792 16:-0.30765641 17:-0.37343216 18:-0.36310151 19:1.6534696 20:-0.14419276 21:5.7146206 22:-0.062323686 23:-0.26375422 24:-0.25234732 25:-0.40743604 26:-0.4047187 27:-0.27057403 28:-0.30796358 29:-0.16733444 30:-0.27352092 31:-0.20108834 32:-0.16073692 33:-0.18338262 34:-0.16487801 35:-0.27398148 36:-0.30811864 37:-0.39074841 38:-0.11907394 39:-0.21418162 40:-0.20511942 41:-0.13776088 42:-0.16252463 43:-0.2478133 44:-0.17397934 45:-0.31722111 46:-0.15619448 47:-0.066107452 48:-0.14383133 49:-0.22159693 50:-0.64531434 51:-0.26362848 52:-0.52965069 53:-0.34909117 54:-0.28615856 55:-0.099646755 56:-0.32083806 57:-0.62192702 #
-0.028575457257748623079995908824458 1:-0.32373646 2:-0.17667121 3:-0.50017285 4:-0.098842546 5:-0.44537586 6:-0.34561899 7:-0.26157999 8:-0.31560028 9:-0.30961666 10:-0.41393355 11:-0.22640149 12:2.9465256 13:-0.21933696 14:-0.16083114 15:-0.15391792 16:-0.30765641 17:-0.37343216 18:-0.36310151 19:-0.88086981 20:-0.14419276 21:6.8360925 22:-0.062323686 23:-0.26375422 24:-0.25234732 25:-0.40743604 26:-0.4047187 27:0.85638463 28:-0.30796358 29:-0.16733444 30:-0.27352092 31:-0.20108834 32:-0.16073692 33:-0.18338262 34:-0.16487801 35:-0.27398148 36:-0.30811864 37:-0.39074841 38:-0.11907394 39:-0.21418162 40:-0.20511942 41:-0.13776088 42:-0.16252463 43:-0.2478133 44:-0.17397934 45:-0.31722111 46:-0.15619448 47:-0.066107452 48:-0.14383133 49:-0.22159693 50:-0.64531434 51:-0.26362848 52:-0.52965069 53:-0.34909117 54:-0.28615856 55:-0.099646755 56:-0.32083806 57:-0.61595517 #
0.026616873120215808756761077802366 1:-0.32373646 2:-0.17667121 3:-0.50017285 4:-0.098842546 5:-0.44537586 6:-0.34561899 7:1.9890447 8:-0.31560028 9:-0.30961666 10:-0.41393355 11:-0.22640149 12:-0.60592264 13:-0.21933696 14:-0.16083114 15:-0.15391792 16:2.4850152 17:-0.37343216 18:-0.36310151 19:0.2802372 20:-0.14419276 21:0.86183232 22:-0.062323686 23:-0.26375422 24:-0.25234732 25:-0.40743604 26:-0.4047187 27:-0.27057403 28:-0.30796358 29:-0.16733444 30:-0.27352092 31:-0.20108834 32:-0.16073692 33:-0.18338262 34:-0.16487801 35:-0.27398148 36:-0.30811864 37:-0.39074841 38:-0.11907394 39:-0.21418162 40:-0.20511942 41:-0.13776088 42:-0.16252463 43:-0.2478133 44:-0.17397934 45:-0.31722111 46:-0.15619448 47:-0.066107452 48:-0.14383133 49:-0.22159693 50:-0.64531434 51:-0.26362848 52:-0.52965069 53:-0.34909117 54:-0.28615856 55:-0.037496313 56:-0.23132877 57:-0.45471439 #
-0.028575457257748623079995908824458 1:-0.32373646 2:-0.17667121 3:-0.50017285 4:-0.098842546 5:-0.44537586 6:-0.34561899 7:-0.26157999 8:-0.31560028 9:-0.30961666 10:3.9023838 11:-0.22640149 12:-0.60592264 13:-0.21933696 14:-0.16083114 15:-0.15391792 16:-0.30765641 17:-0.37343216 18:-0.36310151 19:1.1845609 20:-0.14419276 21:-0.57808203 22:-0.062323686 23:-0.26375422 24:-0.25234732 25:-0.40743604 26:-0.4047187 27:0.31342417 28:-0.30796358 29:-0.16733444 30:-0.27352092 31:-0.20108834 32:-0.16073692 33:-0.18338262 34:-0.16487801 35:-0.27398148 36:-0.30811864 37:-0.39074841 38:-0.11907394 39:-0.21418162 40:-0.20511942 41:-0.13776088 42:-0.16252463 43:-0.2478133 44:-0.17397934 45:-0.31722111 46:-0.15619448 47:-0.066107452 48:-0.14383133 49:-0.22159693 50:-0.64531434 51:-0.26362848 52:0.48558456 53:-0.34909117 54:-0.28615856 55:-0.089258879 56:-0.29398528 57:-0.56220824 #
0.028575457257748623079995908824458 1:-0.019344825 2:-0.1526119 3:-0.21326891 4:-0.098842546 5:-0.11411497 6:0.56358629 7:-0.26157999 8:-0.22421259 9:0.3970294 10:-0.41393355 11:-0.22640149 12:-0.35715175 13:0.53531528 14:0.33889902 15:-0.15391792 16:-0.24052487 17:0.17102507 18:-0.36310151 19:-0.85295856 20:-0.14419276 21:-0.5642367 22:-0.062323686 23:1.3741478 24:-0.14876972 25:-0.40743604 26:-0.4047187 27:-0.27057403 28:-0.30796358 29:-0.1464598 30:-0.27352092 31:-0.20108834 32:-0.16073692 33:-0.18338262 34:-0.16487801 35:-0.27398148 36:-0.20525599 37:0.33697614 38:0.20713905 39:-0.21418162 40:-0.15897194 41:-0.13776088 42:-0.16252463 43:-0.18350655 44:-0.17397934 45:-0.30078185 46:-0.15619448 47:-0.066107452 48:-0.14383133 49:-0.12819271 50:-0.54534143 51:-0.26362848 52:-0.52965069 53:-0.22061887 54:-0.28615856 55:-0.090297662 56:-0.15077041 57:2.2445755 #
-0.017229481898438550602215002527373 1:-0.32373646 2:-0.17667121 3:-0.50017285 4:-0.098842546 5:-0.44537586 6:-0.34561899 7:-0.26157999 8:-0.31560028 9:-0.30961666 10:-0.41393355 11:-0.22640149 12:0.27970171 13:-0.21933696 14:-0.16083114 15:-0.15391792 16:-0.30765641 17:-0.37343216 18:-0.36310151 19:1.1119918 20:-0.14419276 21:1.2702696 22:-0.062323686 23:-0.26375422 24:-0.25234732 25:-0.40743604 26:-0.4047187 27:-0.27057403 28:-0.30796358 29:-0.16733444 30:-0.27352092 31:-0.20108834 32:-0.16073692 33:-0.18338262 34:-0.16487801 35:-0.27398148 36:-0.30811864 37:-0.39074841 38:-0.11907394 39:-0.21418162 40:-0.20511942 41:-0.13776088 42:-0.16252463 43:-0.2478133 44:-0.17397934 45:-0.31722111 46:-0.15619448 47:-0.066107452 48:-0.14383133 49:-0.22159693 50:-0.64531434 51:-0.26362848 52:-0.52965069 53:-0.34909117 54:-0.28615856 55:-0.069256693 56:-0.12391762 57:-0.52339101 #
-0.028575457257748623079995908824458 1:-0.32373646 2:-0.17667121 3:-0.50017285 4:-0.098842546 5:0.32314941 6:-0.34561899 7:-0.26157999 8:-0.31560028 9:-0.30961666 10:-0.41393355 11:-0.22640149 12:-0.60592264 13:-0.21933696 14:-0.16083114 15:-0.15391792 16:-0.30765641 17:-0.37343216 18:-0.36310151 19:-0.39521447 20:-0.14419276 21:-0.37732473 22:-0.062323686 23:-0.26375422 24:-0.25234732 25:-0.26378575 26:-0.10520487 27:-0.17902836 28:0.68258494 29:-0.16733444 30:-0.27352092 31:-0.20108834 32:-0.16073692 33:-0.18338262 34:0.51893091 35:0.8867777 36:-0.30811864 37:-0.39074841 38:-0.11907394 39:-0.21418162 40:-0.20511942 41:-0.13776088 42:-0.16252463 43:-0.2478133 44:-0.17397934 45:-0.31722111 46:-0.15619448 47:-0.066107452 48:-0.14383133 49:-0.22159693 50:0.35441491 51:-0.26362848 52:-0.52965069 53:11.552116 54:-0.28615856 55:0.17799684 56:2.8119872 57:0.65904123 #
-0.024305635891565424699933828378562 1:0.58943844 2:-0.17667121 3:-0.09850733 4:7.2782841 5:0.38940158 6:-0.34561899 7:-0.26157999 8:-0.31560028 9:-0.30961666 10:-0.41393355 11:1.6631571 12:-0.60592264 13:0.41457093 14:-0.16083114 15:-0.15391792 16:0.8201533 17:-0.37343216 18:0.43033454 19:0.17975679 20:-0.14419276 21:-0.57808203 22:-0.062323686 23:0.66586578 24:-0.25234732 25:-0.40743604 26:-0.4047187 27:-0.27057403 28:-0.30796358 29:-0.16733444 30:-0.27352092 31:-0.20108834 32:-0.16073692 33:-0.18338262 34:-0.16487801 35:-0.27398148 36:-0.30811864 37:0.11865877 38:-0.11907394 39:-0.21418162 40:-0.20511942 41:-0.13776088 42:-0.16252463 43:-0.2478133 44:-0.17397934 45:-0.31722111 46:-0.15619448 47:-0.066107452 48:-0.14383133 49:-0.22159693 50:-0.50444341 51:-0.26362848 52:0.55830914 53:0.012967132 54:-0.28615856 55:-0.057830028 56:0.30572698 57:0.57244897 #
0.028575457257748623079995908824458 1:-0.32373646 2:-0.17667121 3:0.57093525 4:-0.098842546 5:-0.44537586 6:0.47266576 7:-0.26157999 8:-0.31560028 9:-0.30961666 10:2.6658173 11:-0.22640149 12:0.14039002 13:2.0446198 14:1.1241893 15:-0.15391792 16:-0.065982893 17:-0.37343216 18:-0.36310151 19:-0.35613877 20:-0.14419276 21:-0.57808203 22:-0.062323686 23:0.53306293 24:-0.25234732 25:-0.40743604 26:-0.4047187 27:-0.27057403 28:-0.30796358 29:-0.16733444 30:-0.27352092 31:-0.20108834 32:-0.16073692 33:-0.18338262 34:-0.16487801 35:-0.27398148 36:-0.30811864 37:-0.39074841 38:-0.11907394 39:-0.21418162 40:-0.20511942 41:-0.13776088 42:-0.16252463 43:-0.2478133 44:-0.17397934 45:-0.31722111 46:-0.15619448 47:-0.066107452 48:-0.14383133 49:-0.22159693 50:-0.009123005 51:-0.26362848 52:-0.32602185 53:0.059684336 54:-0.28615856 55:-0.063930139 56:-0.12391762 57:-0.066542186 #
0.028575457257748623079995908824458 1:-0.32373646 2:-0.17667121 3:0.24577741 4:-0.098842546 5:0.58815813 6:-0.34561899 7:-0.26157999 8:-0.041437197 9:-0.026958233 10:0.02936391 11:0.35846189 12:-0.34720093 13:0.17308222 14:-0.16083114 15:-0.15391792 16:-0.30765641 17:-0.37343216 18:-0.36310151 19:-0.70223796 20:-0.14419276 21:-0.53654605 22:-0.062323686 23:-0.26375422 24:-0.25234732 25:-0.40743604 26:-0.4047187 27:-0.27057403 28:-0.30796358 29:-0.16733444 30:-0.14627562 31:-0.20108834 32:-0.16073692 33:-0.18338262 34:-0.16487801 35:-0.27398148 36:-0.30811864 37:-0.39074841 38:-0.11907394 39:-0.21418162 40:-0.20511942 41:-0.13776088 42:-0.16252463 43:-0.054893032 44:-0.17397934 45:-0.31722111 46:-0.15619448 47:-0.066107452 48:-0.14383133 49:-0.22159693 50:-0.49989921 51:-0.26362848 52:-0.52965069 53:-0.16222237 54:-0.28615856 55:-0.095093764 56:-0.19552505 57:0.079768874 #
0.028575457257748623079995908824458 1:-0.32373646 2:-0.17667121 3:0.68569684 4:-0.098842546 5:1.1976782 6:2.4729173 7:-0.26157999 8:-0.31560028 9:-0.30961666 10:-0.41393355 11:-0.22640149 12:-0.60592264 13:-0.21933696 14:-0.16083114 15:-0.15391792 16:0.10855909 17:-0.37343216 18:-0.36310151 19:0.50352699 20:-0.14419276 21:0.065725833 22:-0.062323686 23:1.108542 24:-0.25234732 25:-0.40743604 26:-0.4047187 27:-0.27057403 28:-0.30796358 29:-0.16733444 30:-0.27352092 31:-0.20108834 32:-0.16073692 33:-0.18338262 34:-0.16487801 35:-0.27398148 36:-0.30811864 37:0.36123362 38:-0.11907394 39:-0.21418162 40:-0.20511942 41:-0.13776088 42:-0.16252463 43:-0.2478133 44:-0.17397934 45:-0.31722111 46:-0.15619448 47:-0.066107452 48:-0.14383133 49:-0.22159693 50:-0.25451109 51:-0.26362848 52:-0.40456438 53:-0.34909117 54:-0.28615856 55:-0.083269268 56:-0.20447598 57:-0.17403603 #
-0.028575457257748623079995908824458 1:-0.32373646 2:-0.17667121 3:2.6175168 4:-0.098842546 5:-0.44537586 6:-0.34561899 7:-0.26157999 8:-0.31560028 9:-0.30961666 10:-0.41393355 11:-0.22640149 12:1.0160636 13:-0.21933696 14:-0.16083114 15:-0.15391792 16:1.8808315 17:-0.37343216 18:-0.36310151 19:0.029036164 20:-0.14419276 21:0.5503124 22:-0.062323686 23:-0.26375422 24:-0.25234732 25:-0.40743604 26:-0.4047187 27:-0.27057403 28:-0.30796358 29:-0.16733444 30:-0.27352092 31:-0.20108834 32:-0.16073692 33:-0.18338262 34:-0.16487801 35:-0.27398148 36:-0.30811864 37:-0.39074841 38:-0.11907394 39:-0.21418162 40:-0.20511942 41:-0.13776088 42:-0.16252463 43:-0.2478133 44:-0.17397934 45:-0.31722111 46:-0.15619448 47:-0.066107452 48:-0.14383133 49:-0.22159693 50:-0.64531434 51:-0.26362848 52:-0.52965069 53:-0.34909117 54:-0.28615856 55:-0.095646314 56:-0.3029362 57:-0.59803951 #
-0.028575457257748623079995908824458 1:-0.32373646 2:-0.17667121 3:1.2786317 4:-0.098842546 5:-0.034612354 6:-0.34561899 7:-0.26157999 8:-0.31560028 9:1.1507852 10:-0.41393355 11:1.1682727 12:0.31950507 13:-0.21933696 14:-0.16083114 15:-0.15391792 16:-0.30765641 17:1.1609473 18:-0.36310151 19:1.2124722 20:-0.14419276 21:1.7963921 22:-0.062323686 23:-0.26375422 24:-0.25234732 25:-0.40743604 26:-0.4047187 27:-0.27057403 28:-0.30796358 29:-0.16733444 30:-0.27352092 31:-0.20108834 32:-0.16073692 33:-0.18338262 34:-0.16487801 35:-0.27398148 36:-0.30811864 37:0.36123362 38:-0.11907394 39:-0.21418162 40:-0.20511942 41:-0.13776088 42:-0.16252463 43:-0.2478133 44:-0.17397934 45:-0.31722111 46:-0.15619448 47:-0.066107452 48:-0.14383133 49:0.23693292 50:-0.15453817 51:-0.26362848 52:-0.37256557 53:-0.34909117 54:0.85750937 55:-0.061300021 56:-0.20447598 57:-0.20389542 #
-0.028575457257748623079995908824458 1:-0.32373646 2:-0.17667121 3:-0.50017285 4:-0.098842546 5:-0.27312019 6:-0.34561899 7:-0.26157999 8:2.1975613 9:-0.30961666 10:-0.41393355 11:-0.22640149 12:-0.47656178 13:0.17308222 14:-0.16083114 15:-0.15391792 16:-0.30765641 17:0.29476535 18:-0.36310151 19:-0.88086981 20:-0.14419276 21:-0.57808203 22:-0.062323686 23:1.5512183 24:-0.25234732 25:0.97457874 26:-0.4047187 27:-0.27057403 28:-0.30796358 29:-0.16733444 30:-0.27352092 31:-0.20108834 32:-0.16073692 33:-0.18338262 34:-0.16487801 35:-0.27398148 36:-0.04067573 37:0.26420367 38:-0.11907394 39:-0.21418162 40:-0.20511942 41:-0.13776088 42:-0.16252463 43:-0.2478133 44:-0.17397934 45:-0.31722111 46:-0.15619448 47:-0.066107452 48:-0.14383133 49:0.38128489 50:0.0045096669 51:-0.26362848 52:-0.52965069 53:-0.039589722 54:-0.28615856 55:-0.062913455 56:-0.13286854 57:0.6112662 #
0.019252791895797996546413344276516 1:-0.32373646 2:-0.17667121 3:-0.50017285 4:-0.098842546 5:0.76041383 6:-0.34561899 7:1.7077166 8:-0.31560028 9:-0.30961666 10:1.7092279 11:-0.22640149 12:-0.60592264 13:-0.21933696 14:-0.16083114 15:-0.15391792 16:-0.30765641 17:-0.37343216 18:-0.36310151 19:-0.88086981 20:-0.14419276 21:-0.57808203 22:-0.062323686 23:-0.26375422 24:-0.25234732 25:-0.40743604 26:-0.4047187 27:-0.27057403 28:-0.30796358 29:-0.16733444 30:-0.27352092 31:-0.20108834 32:-0.16073692 33:-0.18338262 34:-0.16487801 35:-0.27398148 36:-0.30811864 37:-0.39074841 38:-0.11907394 39:-0.21418162 40:-0.20511942 41:-0.13776088 42:-0.16252463 43:-0.2478133 44:-0.17397934 45:-0.31722111 46:-0.15619448 47:-0.066107452 48:-0.14383133 49:-0.22159693 50:-0.036388349 51:-0.26362848 52:1.4251863 53:1.2217747 54:-0.28615856 55:-0.025605513 56:-0.052310184 57:-0.37707996 #
0.028575457257748623079995908824458 1:0.41550037 2:-0.17667121 3:-0.34715742 4:-0.098842546 5:0.12439287 6:0.018063109 7:-0.088455014 8:1.6492351 9:0.067261241 10:-0.22728199 11:-0.22640149 12:-0.0088725127 13:0.29382658 14:1.0527992 15:-0.15391792 16:-0.30765641 17:0.047284782 18:-0.21197082 19:-0.21100038 20:-0.14419276 21:1.5956348 22:-0.062323686 23:1.2413449 24:0.16196308 25:-0.40743604 26:-0.4047187 27:-0.27057403 28:-0.30796358 29:-0.16733444 30:-0.27352092 31:-0.20108834 32:-0.16073692 33:-0.18338262 34:-0.16487801 35:-0.27398148 36:-0.30811864 37:-0.39074841 38:-0.11907394 39:-0.21418162 40:-0.20511942 41:-0.13776088 42:-0.16252463 43:-0.2478133 44:-0.17397934 45:-0.31722111 46:-0.15619448 47:-0.066107452 48:-0.14383133 49:-0.22159693 50:-0.27723223 51:0.24130096 52:-0.27366012 53:-0.27317575 54:-0.28615856 55:-0.029804867 56:0.099855617 57:2.7671149 #
0.028575457257748623079995908824458 1:-0.32373646 2:-0.17667121 3:-0.50017285 4:-0.098842546 5:-0.44537586 6:-0.34561899 7:-0.26157999 8:-0.31560028 9:-0.30961666 10:-0.41393355 11:-0.22640149 12:-0.60592264 13:-0.21933696 14:-0.16083114 15:-0.15391792 16:1.4109107 17:-0.37343216 18:-0.36310151 19:1.2627124 20:-0.14419276 21:2.0802214 22:-0.062323686 23:-0.26375422 24:-0.25234732 25:-0.40743604 26:-0.4047187 27:-0.27057403 28:-0.30796358 29:-0.16733444 30:-0.27352092 31:-0.20108834 32:-0.16073692 33:-0.18338262 34:-0.16487801 35:-0.27398148 36:-0.30811864 37:-0.39074841 38:-0.11907394 39:-0.21418162 40:-0.20511942 41:-0.13776088 42:-0.16252463 43:-0.2478133 44:-0.17397934 45:0.73489034 46:-0.15619448 47:-0.066107452 48:-0.14383133 49:-0.22159693 50:-0.64531434 51:-0.26362848 52:0.13941552 53:0.99402839 54:-0.28615856 55:0.00065150071 56:0.03719911 57:-0.42186904 #
-0.028575457257748623079995908824458 1:-0.1932829 2:-0.14058225 3:-0.50017285 4:-0.098842546 5:-0.44537586 6:-0.34561899 7:-0.26157999 8:-0.31560028 9:-0.026958233 10:-0.20395054 11:-0.091433018 12:-0.45666012 13:-0.21933696 14:-0.16083114 15:-0.15391792 16:-0.30765641 17:-0.29918799 18:-0.13640548 19:-0.86412305 20:-0.14419276 21:-0.57808203 22:-0.062323686 23:-0.26375422 24:-0.25234732 25:-0.17957698 26:-0.12586099 27:-0.27057403 28:-0.30796358 29:-0.13602248 30:-0.14627562 31:-0.20108834 32:-0.16073692 33:-0.18338262 34:-0.16487801 35:-0.27398148 36:-0.24640106 37:-0.026886148 38:-0.11907394 39:-0.21418162 40:-0.20511942 41:0.71334511 42:-0.16252463 43:-0.15135317 44:-0.17397934 45:-0.21858566 46:2.1496634 47:-0.066107452 48:-0.14383133 49:-0.017805887 50:0.1635575 51:-0.26362848 52:-0.1573008 53:-0.34909117 54:-0.28615856 55:-0.046005532 56:0.10880654 57:4.8184557 #
-0.028575457257748623079995908824458 1:-0.32373646 2:-0.17667121 3:-0.50017285 4:-0.098842546 5:-0.44537586 6:-0.34561899 7:-0.26157999 8:-0.31560028 9:-0.30961666 10:-0.41393355 11:-0.22640149 12:-0.60592264 13:-0.21933696 14:-0.16083114 15:-0.15391792 16:-0.30765641 17:-0.37343216 18:-0.36310151 19:0.97801787 20:-0.14419276 21:4.032413 22:-0.062323686 23:-0.26375422 24:-0.25234732 25:-0.40743604 26:-0.4047187 27:-0.27057403 28:-0.30796358 29:-0.16733444 30:-0.27352092 31:-0.20108834 32:-0.16073692 33:-0.18338262 34:-0.16487801 35:-0.27398148 36:-0.30811864 37:-0.39074841 38:-0.11907394 39:-0.21418162 40:-0.20511942 41:-0.13776088 42:-0.16252463 43:-0.2478133 44:-0.17397934 45:-0.31722111 46:-0.15619448 47:-0.066107452 48:-0.14383133 49:-0.22159693 50:-0.64531434 51:-0.26362848 52:-0.52965069 53:-0.34909117 54:-0.28615856 55:-0.093016192 56:-0.3029362 57:-0.59803951 #
0.028575457257748623079995908824458 1:-0.32373646 2:0.23233692 3:0.81958532 4:-0.098842546 5:0.0051389523 6:-0.34561899 7:0.10631058 8:-0.31560028 9:-0.30961666 10:0.77597016 11:0.53841984 12:-0.60592264 13:0.29382658 14:-0.16083114 15:0.90970963 16:-0.079409197 17:-0.37343216 18:1.2615533 19:-0.69107348 20:0.69251823 21:-0.2250261 22:-0.062323686 23:-0.26375422 24:-0.25234732 25:-0.40743604 26:-0.4047187 27:-0.27057403 28:-0.30796358 29:-0.16733444 30:-0.27352092 31:-0.20108834 32:-0.16073692 33:-0.18338262 34:-0.16487801 35:-0.27398148 36:-0.30811864 37:-0.39074841 38:-0.11907394 39:-0.21418162 40:-0.20511942 41:-0.13776088 42:-0.16252463 43:-0.2478133 44:-0.17397934 45:-0.31722111 46:-0.15619448 47:-0.066107452 48:-0.14383133 49:-0.22159693 50:-0.64531434 51:-0.26362848 52:0.38667911 53:-0.34909117 54:0.26449636 55:0.018907638 56:1.0038995 57:2.1758988 #
-0.028575457257748623079995908824458 1:-0.32373646 2:-0.17667121 3:-0.50017285 4:-0.098842546 5:-0.44537586 6:-0.34561899 7:-0.26157999 8:-0.31560028 9:-0.30961666 10:-0.41393355 11:-0.22640149 12:-0.60592264 13:-0.21933696 14:-0.16083114 15:-0.15391792 16:1.6928632 17:-0.37343216 18:-0.36310151 19:0.78263927 20:-0.14419276 21:-0.57808203 22:-0.062323686 23:-0.26375422 24:-0.25234732 25:-0.40743604 26:-0.4047187 27:0.19978127 28:-0.30796358 29:-0.16733444 30:-0.27352092 31:-0.20108834 32:-0.16073692 33:-0.18338262 34:-0.16487801 35:-0.27398148 36:-0.30811864 37:-0.39074841 38:-0.11907394 39:-0.21418162 40:-0.20511942 41:-0.13776088 42:-0.16252463 43:-0.2478133 44:-0.17397934 45:-0.31722111 46:-0.15619448 47:-0.066107452 48:-0.14383133 49:-0.22159693 50:-0.64531434 51:-0.26362848 52:-0.52965069 53:-0.34909117 54:-0.28615856 55:-0.082827233 56:-0.28503433 57:-0.52637696 #
0.028575457257748623079995908824458 1:-0.32373646 2:-0.17667121 3:-0.50017285 4:-0.098842546 5:-0.44537586 6:-0.34561899 7:-0.26157999 8:2.7458875 9:-0.30961666 10:1.1492733 11:-0.22640149 12:-0.60592264 13:-0.21933696 14:-0.16083114 15:-0.15391792 16:-0.30765641 17:-0.37343216 18:-0.36310151 19:-0.88086981 20:-0.14419276 21:-0.57808203 22:-0.062323686 23:-0.26375422 24:-0.25234732 25:-0.40743604 26:-0.4047187 27:-0.27057403 28:-0.30796358 29:-0.16733444 30:-0.27352092 31:-0.20108834 32:-0.16073692 33:-0.18338262 34:-0.16487801 35:-0.27398148 36:-0.30811864 37:2.8597546 38:-0.11907394 39:-0.21418162 40:-0.20511942 41:-0.13776088 42:-0.16252463 43:-0.2478133 44:-0.17397934 45:-0.31722111 46:-0.15619448 47:-0.066107452 48:-0.14383133 49:1.221923 50:1.676784 51:1.3259642 52:0.95683992 53:-0.34909117 54:-0.28615856 55:-0.019704314 56:-0.088113904 57:0.011092257 #
0.028575457257748623079995908824458 1:-0.32373646 2:-0.17667121 3:0.68569684 4:-0.098842546 5:1.1976782 6:2.4729173 7:-0.26157999 8:-0.31560028 9:-0.30961666 10:-0.41393355 11:-0.22640149 12:-0.60592264 13:-0.21933696 14:-0.16083114 15:-0.15391792 16:0.10855909 17:-0.37343216 18:-0.36310151 19:0.50352699 20:-0.14419276 21:0.065725833 22:-0.062323686 23:1.108542 24:-0.25234732 25:-0.40743604 26:-0.4047187 27:-0.27057403 28:-0.30796358 29:-0.16733444 30:-0.27352092 31:-0.20108834 32:-0.16073692 33:-0.18338262 34:-0.16487801 35:-0.27398148 36:-0.30811864 37:0.36123362 38:-0.11907394 39:-0.21418162 40:-0.20511942 41:-0.13776088 42:-0.16252463 43:-0.2478133 44:-0.17397934 45:-0.31722111 46:-0.15619448 47:-0.066107452 48:-0.14383133 49:-0.22159693 50:-0.25451109 51:-0.26362848 52:-0.40456438 53:-0.34909117 54:-0.28615856 55:-0.083269268 56:-0.20447598 57:-0.17403603 #
0.028575457257748623079995908824458 1:-0.019344825 2:-0.1526119 3:-0.21326891 4:-0.098842546 5:-0.11411497 6:0.56358629 7:-0.26157999 8:-0.22421259 9:0.3970294 10:-0.41393355 11:-0.22640149 12:-0.35715175 13:0.53531528 14:0.33889902 15:-0.15391792 16:-0.24052487 17:0.17102507 18:-0.36310151 19:-0.85295856 20:-0.14419276 21:-0.5642367 22:-0.062323686 23:1.3741478 24:-0.14876972 25:-0.40743604 26:-0.4047187 27:-0.27057403 28:-0.30796358 29:-0.1464598 30:-0.27352092 31:-0.20108834 32:-0.16073692 33:-0.18338262 34:-0.16487801 35:-0.27398148 36:-0.20525599 37:0.33697614 38:0.20713905 39:-0.21418162 40:-0.15897194 41:-0.13776088 42:-0.16252463 43:-0.18350655 44:-0.17397934 45:-0.30078185 46:-0.15619448 47:-0.066107452 48:-0.14383133 49:-0.12819271 50:-0.54534143 51:-0.26362848 52:-0.52965069 53:-0.22061887 54:-0.28615856 55:-0.090297662 56:-0.15077041 57:2.2445755 #
-0.028575457257748623079995908824458 1:-0.28025195 2:-0.17667121 3:-0.44279206 4:-0.098842546 5:-0.0081114834 6:-0.20923822 7:-0.26157999 8:-0.31560028 9:0.7739073 10:-0.39060211 11:-0.22640149 12:-0.51636511 13:-0.21933696 14:-0.16083114 15:-0.15391792 16:-0.13311443 17:-0.37343216 18:-0.34421018 19:-0.84179407 20:-0.14419276 21:-0.54346871 22:-0.062323686 23:-0.26375422 24:-0.25234732 25:-0.14490277 26:0.16332476 27:-0.26741728 28:-0.30796358 29:-0.16733444 30:-0.27352092 31:-0.20108834 32:-0.16073692 33:0.54106367 34:-0.16487801 35:-0.25396839 36:-0.28754613 37:0.70083839 38:0.044032551 39:-0.21418162 40:-0.20511942 41:-0.13776088 42:-0.16252463 43:-0.21565992 44:-0.17397934 45:-0.31722111 46:-0.15619448 47:0.94472158 48:-0.14383133 49:1.4766618 50:-0.068197913 51:0.93324131 52:-0.52965069 53:-0.31989294 54:-0.28615856 55:-0.064526893 56:0.010346321 57:6.3771162 #
0.028575457257748623079995908824458 1:-0.32373646 2:-0.17667121 3:-0.50017285 4:-0.098842546 5:-0.44537586 6:-0.34561899 7:-0.26157999 8:-0.31560028 9:-0.30961666 10:-0.41393355 11:-0.22640149 12:-0.60592264 13:-0.21933696 14:-0.16083114 15:-0.15391792 16:1.4109107 17:-0.37343216 18:-0.36310151 19:1.2627124 20:-0.14419276 21:2.0802214 22:-0.062323686 23:-0.26375422 24:-0.25234732 25:-0.40743604 26:-0.4047187 27:-0.27057403 28:-0.30796358 29:-0.16733444 30:-0.27352092 31:-0.20108834 32:-0.16073692 33:-0.18338262 34:-0.16487801 35:-0.27398148 36:-0.30811864 37:-0.39074841 38:-0.11907394 39:-0.21418162 40:-0.20511942 41:-0.13776088 42:-0.16252463 43:-0.2478133 44:-0.17397934 45:0.73489034 46:-0.15619448 47:-0.066107452 48:-0.14383133 49:-0.22159693 50:-0.64531434 51:-0.26362848 52:0.13941552 53:0.99402839 54:-0.28615856 55:0.00065150071 56:0.03719911 57:-0.42186904 #
-0.0063854618449895967843832345067767 1:-0.32373646 2:-0.17667121 3:-0.50017285 4:-0.098842546 5:0.32314941 6:-0.34561899 7:-0.26157999 8:-0.31560028 9:-0.30961666 10:-0.41393355 11:-0.22640149 12:-0.60592264 13:-0.21933696 14:-0.16083114 15:-0.15391792 16:-0.30765641 17:-0.37343216 18:-0.36310151 19:-0.39521447 20:-0.14419276 21:-0.37732473 22:-0.062323686 23:-0.26375422 24:-0.25234732 25:-0.26378575 26:-0.10520487 27:-0.17902836 28:0.68258494 29:-0.16733444 30:-0.27352092 31:-0.20108834 32:-0.16073692 33:-0.18338262 34:0.51893091 35:0.8867777 36:-0.30811864 37:-0.39074841 38:-0.11907394 39:-0.21418162 40:-0.20511942 41:-0.13776088 42:-0.16252463 43:-0.2478133 44:-0.17397934 45:-0.31722111 46:-0.15619448 47:-0.066107452 48:-0.14383133 49:-0.22159693 50:0.35441491 51:-0.26362848 52:-0.52965069 53:11.552116 54:-0.28615856 55:0.17799684 56:2.8119872 57:0.65904123 #
-0.028575457257748623079995908824458 1:-0.32373646 2:-0.17667121 3:-0.50017285 4:-0.098842546 5:-0.44537586 6:-0.34561899 7:-0.26157999 8:-0.31560028 9:-0.30961666 10:-0.41393355 11:-0.22640149 12:-0.60592264 13:-0.21933696 14:-0.16083114 15:-0.15391792 16:1.6928632 17:-0.37343216 18:-0.36310151 19:0.78263927 20:-0.14419276 21:-0.57808203 22:-0.062323686 23:-0.26375422 24:-0.25234732 25:-0.40743604 26:-0.4047187 27:0.19978127 28:-0.30796358 29:-0.16733444 30:-0.27352092 31:-0.20108834 32:-0.16073692 33:-0.18338262 34:-0.16487801 35:-0.27398148 36:-0.30811864 37:-0.39074841 38:-0.11907394 39:-0.21418162 40:-0.20511942 41:-0.13776088 42:-0.16252463 43:-0.2478133 44:-0.17397934 45:-0.31722111 46:-0.15619448 47:-0.066107452 48:-0.14383133 49:-0.22159693 50:-0.64531434 51:-0.26362848 52:-0.52965069 53:-0.34909117 54:-0.28615856 55:-0.082827233 56:-0.28503433 57:-0.52637696 #
-0.028575457257748623079995908824458 1:-0.32373646 2:-0.17667121 3:0.83871228 4:-0.098842546 5:-0.44537586 6:2.8365993 7:-0.26157999 8:-0.31560028 9:-0.30961666 10:-0.41393355 11:-0.22640149 12:-0.60592264 13:-0.21933696 14:-0.16083114 15:-0.15391792 16:-0.30765641 17:-0.37343216 18:-0.36310151 19:1.095245 20:-0.14419276 21:-0.093495466 22:-0.062323686 23:-0.26375422 24:-0.25234732 25:-0.40743604 26:-0.4047187 27:0.1745273 28:-0.30796358 29:-0.16733444 30:-0.27352092 31:-0.20108834 32:-0.16073692 33:-0.18338262 34:-0.16487801 35:-0.27398148 36:-0.30811864 37:1.3072755 38:-0.11907394 39:-0.21418162 40:-0.20511942 41:-0.13776088 42:-0.16252463 43:-0.2478133 44:-0.17397934 45:0.25815234 46:-0.15619448 47:-0.066107452 48:-0.14383133 49:0.84830606 50:0.49983007 51:-0.26362848 52:-0.52965069 53:-0.34909117 54:-0.28615856 55:-0.09135855 56:-0.28503433 57:-0.47263002 #
-0.0013609817713482793427592909552004 1:-0.32373646 2:-0.17667121 3:3.2487054 4:-0.098842546 5:-0.44537586 6:-0.34561899 7:-0.26157999 8:-0.31560028 9:-0.30961666 10:-0.41393355 11:-0.22640149 12:-0.60592264 13:-0.21933696 14:-0.16083114 15:-0.15391792 16:2.3238995 17:-0.37343216 18:-0.36310151 19:-0.88086981 20:-0.14419276 21:-0.57808203 22:-0.062323686 23:-0.26375422 24:-0.25234732 25:-0.40743604 26:-0.4047187 27:-0.27057403 28:-0.30796358 29:-0.16733444 30:-0.27352092 31:-0.20108834 32:-0.16073692 33:-0.18338262 34:-0.16487801 35:-0.27398148 36:-0.30811864 37:-0.39074841 38:-0.11907394 39:-0.21418162 40:-0.20511942 41:-0.13776088 42:4.2083216 43:-0.2478133 44:-0.17397934 45:2.90487 46:-0.15619448 47:-0.066107452 48:-0.14383133 49:-0.22159693 50:-0.64531434 51:-0.26362848 52:-0.52965069 53:-0.34909117 54:-0.28615856 55:-0.085346848 56:-0.29398528 57:-0.55325043 #
0.028575457257748623079995908824458 1:0.024139695 2:-0.17667121 3:-0.34715742 4:-0.098842546 5:-0.23336889 6:-0.34561899 7:-0.26157999 8:-0.31560028 9:-0.30961666 10:-0.41393355 11:-0.22640149 12:-0.37705344 13:-0.21933696 14:-0.16083114 15:-0.15391792 16:-0.20024595 17:0.19577312 18:-0.36310151 19:-0.65758002 20:0.64329994 21:-0.41886073 22:-0.062323686 23:-0.26375422 24:-0.25234732 25:-0.40743604 26:-0.4047187 27:-0.27057403 28:-0.30796358 29:-0.16733444 30:-0.27352092 31:-0.20108834 32:-0.16073692 33:-0.18338262 34:-0.16487801 35:-0.27398148 36:-0.30811864 37:-0.19668855 38:-0.11907394 39:-0.21418162 40:-0.20511942 41:-0.13776088 42:-0.16252463 43:-0.2478133 44:0.17580809 45:-0.31722111 46:-0.15619448 47:-0.066107452 48:-0.14383133 49:-0.22159693 50:0.39076871 51:-0.26362848 52:0.65139663 53:-0.12718448 54:-0.28615856 55:-0.05962028 56:0.26992327 57:3.107512 #
0.028575457257748623079995908824458 1:-0.32373646 2:0.23233692 3:0.81958532 4:-0.098842546 5:0.0051389523 6:-0.34561899 7:0.10631058 8:-0.31560028 9:-0.30961666 10:0.77597016 11:0.53841984 12:-0.60592264 13:0.29382658 14:-0.16083114 15:0.90970963 16:-0.079409197 17:-0.37343216 18:1.2615533 19:-0.69107348 20:0.69251823 21:-0.2250261 22:-0.062323686 23:-0.26375422 24:-0.25234732 25:-0.40743604 26:-0.4047187 27:-0.27057403 28:-0.30796358 29:-0.16733444 30:-0.27352092 31:-0.20108834 32:-0.16073692 33:-0.18338262 34:-0.16487801 35:-0.27398148 36:-0.30811864 37:-0.39074841 38:-0.11907394 39:-0.21418162 40:-0.20511942 41:-0.13776088 42:-0.16252463 43:-0.2478133 44:-0.17397934 45:-0.31722111 46:-0.15619448 47:-0.066107452 48:-0.14383133 49:-0.22159693 50:-0.64531434 51:-0.26362848 52:0.38667911 53:-0.34909117 54:0.26449636 55:0.018907638 56:1.0038995 57:2.1758988 #
0.028575457257748623079995908824458 1:-0.32373646 2:-0.17667121 3:-0.50017285 4:-0.098842546 5:-0.44537586 6:-0.34561899 7:-0.26157999 8:-0.31560028 9:-0.30961666 10:-0.41393355 11:-0.22640149 12:-0.60592264 13:-0.21933696 14:-0.16083114 15:-0.15391792 16:1.4109107 17:-0.37343216 18:-0.36310151 19:1.2627124 20:-0.14419276 21:2.0802214 22:-0.062323686 23:-0.26375422 24:-0.25234732 25:-0.40743604 26:-0.4047187 27:-0.27057403 28:-0.30796358 29:-0.16733444 30:-0.27352092 31:-0.20108834 32:-0.16073692 33:-0.18338262 34:-0.16487801 35:-0.27398148 36:-0.30811864 37:-0.39074841 38:-0.11907394 39:-0.21418162 40:-0.20511942 41:-0.13776088 42:-0.16252463 43:-0.2478133 44:-0.17397934 45:0.73489034 46:-0.15619448 47:-0.066107452 48:-0.14383133 49:-0.22159693 50:-0.64531434 51:-0.26362848 52:0.13941552 53:0.99402839 54:-0.28615856 55:0.00065150071 56:0.03719911 57:-0.42186904 #
-0.022201303995202155416865963388773 1:-0.32373646 2:1.3029758 3:-0.50017285 4:-0.098842546 5:-0.44537586 6:-0.34561899 7:-0.26157999 8:-0.31560028 9:-0.30961666 10:2.4558342 11:-0.22640149 12:0.0010783225 13:7.2064414 14:-0.16083114 15:-0.15391792 16:-0.30765641 17:-0.37343216 18:-0.36310151 19:0.8384617 20:-0.14419276 21:0.27340579 22:-0.062323686 23:-0.26375422 24:-0.25234732 25:-0.40743604 26:-0.4047187 27:-0.078012459 28:-0.30796358 29:-0.16733444 30:-0.27352092 31:-0.20108834 32:-0.16073692 33:-0.18338262 34:-0.16487801 35:-0.27398148 36:-0.30811864 37:-0.39074841 38:-0.11907394 39:-0.21418162 40:-0.20511942 41:-0.13776088 42:-0.16252463 43:-0.2478133 44:-0.17397934 45:-0.31722111 46:-0.15619448 47:-0.066107452 48:-0.14383133 49:-0.22159693 50:0.37259182 51:-0.26362848 52:-0.52965069 53:-0.34909117 54:-0.28615856 55:-0.099646755 56:-0.32083806 57:-0.57713795 #
-0.028575457257748623079995908824458 1:-0.32373646 2:1.0142642 3:-0.50017285 4:-0.098842546 5:0.20389549 6:-0.34561899 7:-0.26157999 8:1.9233983 9:-0.30961666 10:-0.41393355 11:-0.22640149 12:-0.11833171 13:-0.21933696 14:-0.16083114 15:-0.15391792 16:-0.30765641 17:-0.37343216 18:3.3773828 19:0.77705699 20:-0.14419276 21:0.44647241 22:-0.062323686 23:-0.26375422 24:-0.25234732 25:-0.40743604 26:-0.4047187 27:-0.27057403 28:-0.30796358 29:-0.16733444 30:-0.27352092 31:-0.20108834 32:-0.16073692 33:-0.18338262 34:-0.16487801 35:-0.27398148 36:0.69993544 37:-0.39074841 38:-0.11907394 39:-0.21418162 40:-0.20511942 41:-0.13776088 42:-0.16252463 43:-0.2478133 44:-0.17397934 45:-0.31722111 46:-0.15619448 47:-0.066107452 48:-0.14383133 49:-0.22159693 50:-0.64531434 51:-0.26362848 52:-0.29402301 53:-0.34909117 54:-0.28615856 55:-0.091955304 56:-0.29398528 57:-0.46367222 #
0.028575457257748623079995908824458 1:-0.32373646 2:-0.17667121 3:0.68569684 4:-0.098842546 5:1.1976782 6:2.4729173 7:-0.26157999 8:-0.31560028 9:-0.30961666 10:-0.41393355 11:-0.22640149 12:-0.60592264 13:-0.21933696 14:-0.16083114 15:-0.15391792 16:0.10855909 17:-0.37343216 18:-0.36310151 19:0.50352699 20:-0.14419276 21:0.065725833 22:-0.062323686 23:1.108542 24:-0.25234732 25:-0.40743604 26:-0.4047187 27:-0.27057403 28:-0.30796358 29:-0.16733444 30:-0.27352092 31:-0.20108834 32:-0.16073692 33:-0.18338262 34:-0.16487801 35:-0.27398148 36:-0.30811864 37:0.36123362 38:-0.11907394 39:-0.21418162 40:-0.20511942 41:-0.13776088 42:-0.16252463 43:-0.2478133 44:-0.17397934 45:-0.31722111 46:-0.15619448 47:-0.066107452 48:-0.14383133 49:-0.22159693 50:-0.25451109 51:-0.26362848 52:-0.40456438 53:-0.34909117 54:-0.28615856 55:-0.083269268 56:-0.20447598 57:-0.17403603 #
0.028575457257748623079995908824458 1:0.024139695 2:-0.17667121 3:-0.34715742 4:-0.098842546 5:-0.23336889 6:-0.34561899 7:-0.26157999 8:-0.31560028 9:-0.30961666 10:-0.41393355 11:-0.22640149 12:-0.37705344 13:-0.21933696 14:-0.16083114 15:-0.15391792 16:-0.20024595 17:0.19577312 18:-0.36310151 19:-0.65758002 20:0.64329994 21:-0.41886073 22:-0.062323686 23:-0.26375422 24:-0.25234732 25:-0.40743604 26:-0.4047187 27:-0.27057403 28:-0.30796358 29:-0.16733444 30:-0.27352092 31:-0.20108834 32:-0.16073692 33:-0.18338262 34:-0.16487801 35:-0.27398148 36:-0.30811864 37:-0.19668855 38:-0.11907394 39:-0.21418162 40:-0.20511942 41:-0.13776088 42:-0.16252463 43:-0.2478133 44:0.17580809 45:-0.31722111 46:-0.15619448 47:-0.066107452 48:-0.14383133 49:-0.22159693 50:0.39076871 51:-0.26362848 52:0.65139663 53:-0.12718448 54:-0.28615856 55:-0.05962028 56:0.26992327 57:3.107512 #
-0.028575457257748623079995908824458 1:-0.062829345 2:-0.17667121 3:-0.13676119 4:-0.098842546 5:-0.10086454 6:-0.072857417 7:-0.26157999 8:0.5525828 9:-0.30961666 10:-0.27394488 11:-0.22640149 12:0.50857097 13:-0.038220409 14:1.1955793 15:-0.15391792 16:-0.30765641 17:0.91346675 18:-0.36310151 19:-0.88086981 20:2.7596867 21:-0.53654605 22:-0.062323686 23:1.462683 24:-0.25234732 25:1.1925309 26:-0.4047187 27:-0.27057403 28:-0.30796358 29:-0.16733444 30:-0.27352092 31:-0.20108834 32:-0.16073692 33:-0.090900108 34:-0.16487801 35:-0.27398148 36:0.082759462 37:-0.07540112 38:-0.11907394 39:-0.21418162 40:-0.20511942 41:-0.13776088 42:-0.16252463 43:-0.2478133 44:-0.042809062 45:-0.31722111 46:-0.15619448 47:-0.066107452 48:-0.14383133 49:0.3897762 50:-0.11364016 51:-0.26362848 52:-0.52965069 53:0.018806782 54:-0.28615856 55:-0.074870564 56:-0.10601576 57:1.6055843 #
-0.028575457257748623079995908824458 1:1.0677682 2:-0.17667121 3:-0.50017285 4:-0.098842546 5:-0.021361919 6:-0.34561899 7:-0.26157999 8:-0.31560028 9:-0.30961666 10:-0.41393355 11:-0.22640149 12:-0.28749591 13:-0.21933696 14:-0.16083114 15:-0.15391792 16:-0.30765641 17:-0.37343216 18:-0.36310151 19:-0.34497425 20:-0.14419276 21:1.1941203 22:-0.062323686 23:-0.26375422 24:-0.25234732 25:-0.40743604 26:-0.4047187 27:-0.06854222 28:-0.30796358 29:-0.16733444 30:-0.27352092 31:-0.20108834 32:-0.16073692 33:-0.18338262 34:-0.16487801 35:-0.27398148 36:-0.30811864 37:-0.39074841 38:-0.11907394 39:-0.21418162 40:-0.20511942 41:-0.13776088 42:-0.16252463 43:-0.2478133 44:-0.17397934 45:-0.31722111 46:-0.15619448 47:-0.066107452 48:-0.14383133 49:-0.22159693 50:0.41803405 51:-0.26362848 52:-0.36092964 53:-0.34909117 54:-0.28615856 55:-0.098143823 56:-0.3029362 57:-0.49651754 #
0.028575457257748623079995908824458 1:-0.32373646 2:-0.17667121 3:-0.50017285 4:-0.098842546 5:-0.44537586 6:-0.34561899 7:-0.26157999 8:5.5789061 9:-0.30961666 10:0.58931857 11:-0.22640149 12:-0.60592264 13:-0.21933696 14:-0.16083114 15:-0.15391792 16:0.26967475 17:-0.37343216 18:2.9050994 19:-0.64083326 20:-0.14419276 21:-0.28040743 22:-0.062323686 23:-0.26375422 24:-0.25234732 25:-0.40743604 26:-0.4047187 27:-0.27057403 28:-0.30796358 29:-0.16733444 30:-0.27352092 31:-0.20108834 32:-0.16073692 33:-0.18338262 34:-0.16487801 35:-0.27398148 36:0.57650024 37:-0.39074841 38:-0.11907394 39:-0.21418162 40:-0.20511942 41:-0.13776088 42:-0.16252463 43:-0.2478133 44:-0.17397934 45:-0.31722111 46:-0.15619448 47:-0.066107452 48:-0.14383133 49:-0.22159693 50:-0.081830591 51:-0.26362848 52:0.37213421 53:0.012967132 54:-0.28615856 55:-0.089104161 56:-0.25818154 57:-0.44277063 #
0.010788614691395187819566992004638 1:0.50246942 2:0.051892161 3:0.24577741 4:-0.098842546 5:-0.19361758 6:-0.34561899 7:-0.26157999 8:2.3803368 9:-0.30961666 10:-0.41393355 11:-0.22640149 12:-0.21784006 13:-0.21933696 14:-0.16083114 15:-0.15391792 16:0.48449567 17:0.59174204 18:2.2250113 19:1.642305 20:-0.14419276 21:1.5956348 22:-0.062323686 23:-0.26375422 24:0.73163986 25:-0.40743604 26:-0.4047187 27:-0.27057403 28:-0.30796358 29:-0.16733444 30:-0.27352092 31:-0.20108834 32:-0.16073692 33:-0.18338262 34:-0.16487801 35:-0.27398148 36:-0.30811864 37:0.070143789 38:-0.11907394 39:-0.21418162 40:-0.20511942 41:-0.13776088 42:-0.16252463 43:-0.2478133 44:-0.17397934 45:-0.31722111 46:-0.15619448 47:-0.066107452 48:-0.14383133 49:-0.22159693 50:-0.64531434 51:-0.26362848 52:0.22086707 53:-0.16222237 54:-0.28615856 55:-0.052967619 56:0.055100966 57:0.27385497 #
0.028575457257748623079995908824458 1:-0.32373646 2:-0.17667121 3:-0.50017285 4:-0.098842546 5:-0.44537586 6:-0.34561899 7:-0.26157999 8:-0.31560028 9:-0.30961666 10:-0.41393355 11:-0.22640149 12:-0.60592264 13:-0.21933696 14:-0.16083114 15:-0.15391792 16:1.4109107 17:-0.37343216 18:-0.36310151 19:1.2627124 20:-0.14419276 21:2.0802214 22:-0.062323686 23:-0.26375422 24:-0.25234732 25:-0.40743604 26:-0.4047187 27:-0.27057403 28:-0.30796358 29:-0.16733444 30:-0.27352092 31:-0.20108834 32:-0.16073692 33:-0.18338262 34:-0.16487801 35:-0.27398148 36:-0.30811864 37:-0.39074841 38:-0.11907394 39:-0.21418162 40:-0.20511942 41:-0.13776088 42:-0.16252463 43:-0.2478133 44:-0.17397934 45:0.73489034 46:-0.15619448 47:-0.066107452 48:-0.14383133 49:-0.22159693 50:-0.64531434 51:-0.26362848 52:0.13941552 53:0.99402839 54:-0.28615856 55:0.00065150071 56:0.03719911 57:-0.42186904 #
0.028575457257748623079995908824458 1:-0.019344825 2:-0.1526119 3:-0.21326891 4:-0.098842546 5:-0.11411497 6:0.56358629 7:-0.26157999 8:-0.22421259 9:0.3970294 10:-0.41393355 11:-0.22640149 12:-0.35715175 13:0.53531528 14:0.33889902 15:-0.15391792 16:-0.24052487 17:0.17102507 18:-0.36310151 19:-0.85295856 20:-0.14419276 21:-0.5642367 22:-0.062323686 23:1.3741478 24:-0.14876972 25:-0.40743604 26:-0.4047187 27:-0.27057403 28:-0.30796358 29:-0.1464598 30:-0.27352092 31:-0.20108834 32:-0.16073692 33:-0.18338262 34:-0.16487801 35:-0.27398148 36:-0.20525599 37:0.33697614 38:0.20713905 39:-0.21418162 40:-0.15897194 41:-0.13776088 42:-0.16252463 43:-0.18350655 44:-0.17397934 45:-0.30078185 46:-0.15619448 47:-0.066107452 48:-0.14383133 49:-0.12819271 50:-0.54534143 51:-0.26362848 52:-0.52965069 53:-0.22061887 54:-0.28615856 55:-0.090297662 56:-0.15077041 57:2.2445755 #
0.028575457257748623079995908824458 1:-0.32373646 2:-0.17667121 3:-0.50017285 4:-0.098842546 5:-0.44537586 6:-0.34561899 7:-0.26157999 8:-0.31560028 9:-0.30961666 10:-0.41393355 11:-0.22640149 12:-0.60592264 13:-0.21933696 14:-0.16083114 15:-0.15391792 16:1.4109107 17:-0.37343216 18:-0.36310151 19:1.2627124 20:-0.14419276 21:2.0802214 22:-0.062323686 23:-0.26375422 24:-0.25234732 25:-0.40743604 26:-0.4047187 27:-0.27057403 28:-0.30796358 29:-0.16733444 30:-0.27352092 31:-0.20108834 32:-0.16073692 33:-0.18338262 34:-0.16487801 35:-0.27398148 36:-0.30811864 37:-0.39074841 38:-0.11907394 39:-0.21418162 40:-0.20511942 41:-0.13776088 42:-0.16252463 43:-0.2478133 44:-0.17397934 45:0.73489034 46:-0.15619448 47:-0.066107452 48:-0.14383133 49:-0.22159693 50:-0.64531434 51:-0.26362848 52:0.13941552 53:0.99402839 54:-0.28615856 55:0.00065150071 56:0.03719911 57:-0.42186904 #
-0.028575457257748623079995908824458 1:-0.32373646 2:0.12407006 3:-0.50017285 4:-0.098842546 5:-0.44537586 6:-0.34561899 7:-0.26157999 8:-0.31560028 9:-0.30961666 10:0.77597016 11:3.2377894 12:-0.35715175 13:-0.21933696 14:-0.16083114 15:-0.15391792 16:-0.30765641 17:-0.37343216 18:-0.36310151 19:-0.31148079 20:-0.14419276 21:-0.2250261 22:-0.062323686 23:-0.26375422 24:-0.25234732 25:-0.28359959 26:0.12201251 27:-0.27057403 28:-0.30796358 29:-0.16733444 30:-0.27352092 31:-0.20108834 32:-0.16073692 33:-0.18338262 34:-0.16487801 35:-0.27398148 36:-0.30811864 37:-0.39074841 38:-0.11907394 39:-0.21418162 40:-0.20511942 41:-0.13776088 42:-0.16252463 43:-0.2478133 44:-0.17397934 45:-0.31722111 46:-0.15619448 47:-0.066107452 48:-0.14383133 49:-0.22159693 50:-0.081830591 51:-0.26362848 52:0.072508901 53:-0.34909117 54:-0.28615856 55:0.10830967 56:2.7403798 57:1.2592152 #
-0.012152621596829005223838748861453 1:-0.32373646 2:0.55713749 3:-0.50017285 4:-0.098842546 5:1.1711773 6:-0.34561899 7:-0.26157999 8:-0.31560028 9:-0.30961666 10:8.1720381 11:-0.22640149 12:-0.60592264 13:-0.21933696 14:-0.16083114 15:3.6626279 16:-0.30765641 17:-0.37343216 18:-0.36310151 19:0.14626332 20:-0.14419276 21:0.69568837 22:-0.062323686 23:-0.26375422 24:-0.25234732 25:-0.10527511 26:0.22529314 27:-0.27057403 28:-0.30796358 29:-0.16733444 30:4.922328 31:-0.20108834 32:-0.16073692 33:-0.18338262 34:-0.16487801 35:-0.27398148 36:-0.30811864 37:1.0889581 38:-0.11907394 39:-0.21418162 40:-0.20511942 41:-0.13776088 42:-0.16252463 43:-0.2478133 44:-0.17397934 45:-0.31722111 46:-0.15619448 47:-0.066107452 48:-0.14383133 49:-0.22159693 50:-0.64531434 51:-0.26362848 52:-0.52965069 53:-0.34909117 54:-0.28615856 55:-0.089126267 56:-0.25818154 57:-0.45172846 #
-0.028575457257748623079995908824458 1:-0.32373646 2:-0.17667121 3:-0.50017285 4:-0.098842546 5:-0.44537586 6:-0.34561899 7:-0.26157999 8:-0.31560028 9:-0.30961666 10:-0.41393355 11:-0.22640149 12:-0.60592264 13:-0.21933696 14:-0.16083114 15:-0.15391792 16:-0.30765641 17:-0.37343216 18:-0.36310151 19:-0.049115267 20:-0.14419276 21:2.5163493 22:-0.062323686 23:-0.26375422 24:-0.25234732 25:-0.40743604 26:-0.4047187 27:0.19978127 28:-0.30796358 29:-0.16733444 30:-0.27352092 31:-0.20108834 32:-0.16073692 33:-0.18338262 34:-0.16487801 35:-0.27398148 36:-0.30811864 37:-0.39074841 38:-0.11907394 39:-0.21418162 40:-0.20511942 41:-0.13776088 42:-0.16252463 43:-0.2478133 44:-0.17397934 45:-0.31722111 46:-0.15619448 47:-0.066107452 48:-0.14383133 49:-0.22159693 50:-0.64531434 51:-0.26362848 52:-0.52965069 53:-0.34909117 54:-0.28615856 55:-0.099646755 56:-0.32083806 57:-0.5890817 #
-0.028575457257748623079995908824458 1:-0.32373646 2:-0.17667121 3:0.22665049 4:-0.098842546 5:0.058140695 6:-0.34561899 7:-0.26157999 8:-0.31560028 9:-0.30961666 10:-0.41393355 11:-0.22640149 12:-0.22779089 13:0.92773449 14:-0.16083114 15:-0.15391792 16:-0.30765641 17:-0.37343216 18:-0.36310151 19:-0.24449384 20:-0.14419276 21:-0.31502074 22:-0.062323686 23:-0.26375422 24:-0.25234732 25:-0.40743604 26:-0.4047187 27:-0.27057403 28:-0.30796358 29:-0.16733444 30:-0.27352092 31:-0.20108834 32:-0.16073692 33:-0.18338262 34:-0.16487801 35:-0.27398148 36:-0.30811864 37:-0.39074841 38:-0.11907394 39:-0.21418162 40:-0.20511942 41:-0.13776088 42:-0.16252463 43:-0.2478133 44:-0.17397934 45:-0.0048755165 46:-0.15619448 47:-0.066107452 48:-0.14383133 49:-0.22159693 50:1.2359943 51:-0.26362848 52:0.27322876 53:-0.34909117 54:-0.28615856 55:-0.097348161 56:-0.31188715 57:-0.4786019 #
-0.028575457257748623079995908824458 1:-0.32373646 2:-0.17667121 3:-0.50017285 4:-0.098842546 5:0.23039636 6:-0.34561899 7:-0.26157999 8:-0.31560028 9:-0.30961666 10:-0.41393355 11:-0.22640149 12:-0.60592264 13:1.3201536 14:-0.16083114 15:-0.15391792 16:-0.30765641 17:-0.37343216 18:-0.36310151 19:-0.015621796 20:-0.14419276 21:-0.57808203 22:-0.062323686 23:-0.26375422 24:-0.25234732 25:-0.40743604 26:-0.4047187 27:-0.10957993 28:-0.30796358 29:-0.16733444 30:-0.27352092 31:-0.20108834 32:-0.16073692 33:1.4042337 34:-0.16487801 35:-0.27398148 36:-0.30811864 37:-0.39074841 38:-0.11907394 39:-0.21418162 40:-0.20511942 41:-0.13776088 42:-0.16252463 43:-0.2478133 44:-0.17397934 45:-0.31722111 46:-0.15619448 47:-0.066107452 48:-0.14383133 49:-0.22159693 50:-0.64531434 51:-0.26362848 52:0.28777367 53:-0.34909117 54:-0.28615856 55:-0.091623776 56:-0.28503433 57:-0.50248945 #
0.028575457257748623079995908824458 1:-0.32373646 2:-0.17667121 3:-0.50017285 4:-0.098842546 5:-0.44537586 6:-0.34561899 7:-0.26157999 8:-0.31560028 9:-0.30961666 10:-0.41393355 11:-0.22640149 12:-0.60592264 13:-0.21933696 14:-0.16083114 15:-0.15391792 16:1.4109107 17:-0.37343216 18:-0.36310151 19:1.2627124 20:-0.14419276 21:2.0802214 22:-0.062323686 23:-0.26375422 24:-0.25234732 25:-0.40743604 26:-0.4047187 27:-0.27057403 28:-0.30796358 29:-0.16733444 30:-0.27352092 31:-0.20108834 32:-0.16073692 33:-0.18338262 34:-0.16487801 35:-0.27398148 36:-0.30811864 37:-0.39074841 38:-0.11907394 39:-0.21418162 40:-0.20511942 41:-0.13776088 42:-0.16252463 43:-0.2478133 44:-0.17397934 45:0.73489034 46:-0.15619448 47:-0.066107452 48:-0.14383133 49:-0.22159693 50:-0.64531434 51:-0.26362848 52:0.13941552 53:0.99402839 54:-0.28615856 55:0.00065150071 56:0.03719911 57:-0.42186904 #
-0.028575457257748623079995908824458 1:-0.32373646 2:1.0142642 3:-0.50017285 4:-0.098842546 5:0.20389549 6:-0.34561899 7:-0.26157999 8:1.9233983 9:-0.30961666 10:-0.41393355 11:-0.22640149 12:-0.11833171 13:-0.21933696 14:-0.16083114 15:-0.15391792 16:-0.30765641 17:-0.37343216 18:3.3773828 19:0.77705699 20:-0.14419276 21:0.44647241 22:-0.062323686 23:-0.26375422 24:-0.25234732 25:-0.40743604 26:-0.4047187 27:-0.27057403 28:-0.30796358 29:-0.16733444 30:-0.27352092 31:-0.20108834 32:-0.16073692 33:-0.18338262 34:-0.16487801 35:-0.27398148 36:0.69993544 37:-0.39074841 38:-0.11907394 39:-0.21418162 40:-0.20511942 41:-0.13776088 42:-0.16252463 43:-0.2478133 44:-0.17397934 45:-0.31722111 46:-0.15619448 47:-0.066107452 48:-0.14383133 49:-0.22159693 50:-0.64531434 51:-0.26362848 52:-0.29402301 53:-0.34909117 54:-0.28615856 55:-0.091955304 56:-0.29398528 57:-0.46367222 #
-0.022568778770905659897261230639742 1:-0.32373646 2:-0.17667121 3:-0.50017285 4:-0.098842546 5:-0.44537586 6:-0.34561899 7:-0.26157999 8:2.7458875 9:-0.30961666 10:-0.41393355 11:-0.22640149 12:0.73744017 13:-0.21933696 14:-0.16083114 15:-0.15391792 16:0.59190613 17:-0.37343216 18:-0.36310151 19:1.3799396 20:-0.14419276 21:0.82029635 22:-0.062323686 23:-0.26375422 24:-0.25234732 25:-0.075554363 26:-0.4047187 27:-0.27057403 28:-0.30796358 29:-0.16733444 30:-0.27352092 31:-0.20108834 32:-0.16073692 33:-0.18338262 34:-0.16487801 35:1.0668955 36:-0.30811864 37:-0.39074841 38:-0.11907394 39:-0.21418162 40:-0.20511942 41:-0.13776088 42:-0.16252463 43:-0.2478133 44:-0.17397934 45:0.23349348 46:-0.15619448 47:-0.066107452 48:-0.14383133 49:-0.22159693 50:1.1087561 51:-0.26362848 52:-0.52965069 53:-0.34909117 54:-0.28615856 55:-0.049475525 56:-0.15972133 57:-0.27555799 #
0.028575457257748623079995908824458 1:-0.32373646 2:-0.17667121 3:-0.50017285 4:-0.098842546 5:-0.44537586 6:-0.34561899 7:-0.26157999 8:-0.31560028 9:-0.30961666 10:-0.41393355 11:-0.22640149 12:-0.60592264 13:-0.21933696 14:-0.16083114 15:-0.15391792 16:1.4109107 17:-0.37343216 18:-0.36310151 19:1.2627124 20:-0.14419276 21:2.0802214 22:-0.062323686 23:-0.26375422 24:-0.25234732 25:-0.40743604 26:-0.4047187 27:-0.27057403 28:-0.30796358 29:-0.16733444 30:-0.27352092 31:-0.20108834 32:-0.16073692 33:-0.18338262 34:-0.16487801 35:-0.27398148 36:-0.30811864 37:-0.39074841 38:-0.11907394 39:-0.21418162 40:-0.20511942 41:-0.13776088 42:-0.16252463 43:-0.2478133 44:-0.17397934 45:0.73489034 46:-0.15619448 47:-0.066107452 48:-0.14383133 49:-0.22159693 50:-0.64531434 51:-0.26362848 52:0.13941552 53:0.99402839 54:-0.28615856 55:0.00065150071 56:0.03719911 57:-0.42186904 #
-0.0043783481540060776443512580158313 1:-0.32373646 2:-0.17667121 3:-0.50017285 4:-0.098842546 5:7.8361464 6:-0.34561899 7:-0.26157999 8:-0.31560028 9:-0.30961666 10:-0.41393355 11:-0.22640149 12:-0.60592264 13:-0.21933696 14:-0.16083114 15:-0.15391792 16:-0.30765641 17:-0.37343216 18:-0.36310151 19:-0.88086981 20:-0.14419276 21:-0.57808203 22:-0.062323686 23:-0.26375422 24:-0.25234732 25:-0.40743604 26:-0.4047187 27:-0.27057403 28:-0.30796358 29:-0.16733444 30:-0.27352092 31:-0.20108834 32:-0.16073692 33:-0.18338262 34:-0.16487801 35:-0.27398148 36:-0.30811864 37:-0.39074841 38:-0.11907394 39:-0.21418162 40:-0.20511942 41:-0.13776088 42:-0.16252463 43:-0.2478133 44:-0.17397934 45:-0.31722111 46:-0.15619448 47:-0.066107452 48:-0.14383133 49:-0.22159693 50:-0.64531434 51:-0.26362848 52:-0.52965069 53:-0.34909117 54:-0.28615856 55:-0.07754489 56:-0.27608341 57:-0.60699731 #
-0.028575457257748623079995908824458 1:-0.14979838 2:-0.068404347 3:0.092761979 4:-0.098842546 5:-0.39237413 6:0.6545068 7:-0.17501751 8:-0.31560028 9:-0.30961666 10:0.93929029 11:0.17850393 12:0.55832511 13:-0.21933696 14:-0.16083114 15:-0.15391792 16:-0.13311443 17:-0.27443993 18:-0.36310151 19:-0.15517792 20:-0.14419276 21:0.2318698 22:-0.062323686 23:-0.086683743 24:-0.25234732 25:0.038375173 26:0.1529967 27:-0.27057403 28:-0.23964988 29:-0.16733444 30:0.10821494 31:0.21199572 32:-0.16073692 33:-0.18338262 34:-0.16487801 35:0.086254127 36:-0.22582853 37:0.36123362 38:-0.11907394 39:0.25549996 40:-0.20511942 41:-0.043193541 42:-0.16252463 43:-0.2478133 44:-0.17397934 45:-0.21036603 46:-0.078686655 47:-0.066107452 48:0.16736497 49:-0.11121012 50:0.37259182 51:-0.26362848 52:-0.45110813 53:-0.3140533 54:-0.28615856 55:-0.082318895 56:-0.070212044 57:2.9223838 #
0.020742122026512953281152107365415 1:-0.32373646 2:-0.17667121 3:-0.50017285 4:-0.098842546 5:-0.44537586 6:-0.34561899 7:-0.26157999 8:-0.31560028 9:3.9773693 10:-0.41393355 11:-0.22640149 12:-0.60592264 13:-0.21933696 14:-0.16083114 15:-0.15391792 16:-0.30765641 17:-0.37343216 18:-0.36310151 19:-0.3728855 20:-0.14419276 21:1.3256509 22:-0.062323686 23:-0.26375422 24:-0.25234732 25:-0.40743604 26:-0.4047187 27:-0.27057403 28:-0.30796358 29:-0.16733444 30:-0.27352092 31:-0.20108834 32:-0.16073692 33:-0.18338262 34:-0.16487801 35:-0.27398148 36:-0.30811864 37:-0.39074841 38:-0.11907394 39:-0.21418162 40:-0.20511942 41:-0.13776088 42:-0.16252463 43:-0.2478133 44:-0.17397934 45:-0.31722111 46:-0.15619448 47:-0.066107452 48:-0.14383133 49:-0.22159693 50:-0.045476798 51:-0.26362848 52:1.0150195 53:-0.34909117 54:-0.28615856 55:-0.057653211 56:-0.07916297 57:-0.37707996 #
0.028575457257748623079995908824458 1:0.28504682 2:-0.0082560908 3:0.054508116 4:-0.098842546 5:-0.44537586 6:-0.34561899 7:-0.26157999 8:-0.31560028 9:5.2022223 10:0.26267835 11:0.40345138 12:-0.028774185 13:-0.21933696 14:-0.16083114 15:-0.15391792 16:-0.11968812 17:-0.37343216 18:-0.098622821 19:0.43095782 20:0.54486334 21:0.031112511 22:-0.062323686 23:-0.26375422 24:2.0263598 25:-0.40743604 26:-0.4047187 27:-0.27057403 28:-0.30796358 29:-0.16733444 30:-0.27352092 31:-0.20108834 32:-0.16073692 33:-0.18338262 34:-0.16487801 35:-0.27398148 36:-0.30811864 37:-0.39074841 38:4.6110144 39:-0.21418162 40:-0.20511942 41:-0.13776088 42:-0.16252463 43:-0.2478133 44:-0.17397934 45:-0.31722111 46:-0.15619448 47:-0.066107452 48:-0.14383133 49:-0.22159693 50:0.28170732 51:-0.26362848 52:0.063781954 53:0.39254439 54:1.8741031 55:-0.056282897 56:0.32362884 57:0.55751926 #
-0.016254503163050486314045173230625 1:-0.32373646 2:-0.17667121 3:1.0491085 4:-0.098842546 5:1.7144452 6:-0.34561899 7:-0.26157999 8:-0.31560028 9:-0.30961666 10:-0.41393355 11:-0.22640149 12:-0.60592264 13:-0.21933696 14:-0.16083114 15:-0.15391792 16:-0.30765641 17:-0.37343216 18:-0.36310151 19:-0.42870793 20:-0.14419276 21:-0.57808203 22:-0.062323686 23:-0.26375422 24:-0.25234732 25:-0.40743604 26:-0.4047187 27:-0.014877521 28:-0.30796358 29:-0.16733444 30:-0.27352092 31:-0.20108834 32:-0.16073692 33:-0.18338262 34:-0.16487801 35:-0.27398148 36:-0.30811864 37:-0.39074841 38:13.092552 39:-0.21418162 40:-0.20511942 41:-0.13776088 42:-0.16252463 43:-0.2478133 44:-0.17397934 45:-0.31722111 46:-0.15619448 47:-0.066107452 48:-0.14383133 49:-0.22159693 50:-0.64531434 51:-0.26362848 52:-0.52965069 53:-0.34909117 54:-0.28615856 55:-0.097657584 56:-0.31188715 57:-0.60102546 #
-0.021639106776781085600402931845565 1:-0.32373646 2:-0.17667121 3:-0.50017285 4:-0.098842546 5:-0.021361919 6:1.1091094 7:-0.26157999 8:-0.31560028 9:-0.30961666 10:-0.41393355 11:-0.22640149 12:-0.28749591 13:-0.21933696 14:-0.16083114 15:-0.15391792 16:-0.30765641 17:-0.37343216 18:-0.36310151 19:-0.15517792 20:-0.14419276 21:0.10033916 22:-0.062323686 23:-0.26375422 24:-0.25234732 25:-0.40743604 26:-0.4047187 27:-0.27057403 28:-0.30796358 29:0.16665979 30:-0.27352092 31:-0.20108834 32:-0.16073692 33:-0.18338262 34:-0.16487801 35:-0.27398148 36:-0.30811864 37:-0.39074841 38:-0.11907394 39:-0.21418162 40:-0.20511942 41:-0.13776088 42:-0.16252463 43:-0.2478133 44:1.247032 45:-0.31722111 46:-0.15619448 47:-0.066107452 48:-0.14383133 49:-0.22159693 50:0.52255118 51:-0.26362848 52:-0.52965069 53:-0.34909117 54:-0.28615856 55:-0.093016192 56:-0.26713249 57:-0.32631898 #
-0.028575457257748623079995908824458 1:-0.32373646 2:-0.17667121 3:-0.50017285 4:-0.098842546 5:-0.44537586 6:-0.34561899 7:-0.26157999 8:-0.31560028 9:-0.30961666 10:-0.41393355 11:-0.22640149 12:0.74739099 13:-0.21933696 14:-0.16083114 15:-0.15391792 16:-0.30765641 17:-0.37343216 18:-0.36310151 19:-0.12168445 20:-0.14419276 21:3.2086158 22:-0.062323686 23:-0.26375422 24:-0.25234732 25:-0.40743604 26:-0.4047187 27:0.15874356 28:-0.30796358 29:-0.16733444 30:-0.27352092 31:-0.20108834 32:-0.16073692 33:-0.18338262 34:-0.16487801 35:-0.27398148 36:-0.30811864 37:-0.39074841 38:-0.11907394 39:-0.21418162 40:-0.20511942 41:-0.13776088 42:-0.16252463 43:-0.2478133 44:-0.17397934 45:-0.31722111 46:-0.15619448 47:-0.066107452 48:-0.14383133 49:-0.22159693 50:-0.64531434 51:-0.26362848 52:-0.52965069 53:-0.34909117 54:-0.28615856 55:-0.070759617 56:-0.25818154 57:-0.54727852 #
0.028575457257748623079995908824458 1:0.41550037 2:-0.17667121 3:-0.34715742 4:-0.098842546 5:0.11114244 6:0.018063109 7:-0.088455014 8:1.6035413 9:0.067261241 10:-0.22728199 11:-0.22640149 12:-0.0088725127 13:0.29382658 14:1.0527992 15:-0.15391792 16:-0.30765641 17:0.047284782 18:-0.21197082 19:-0.21100038 20:-0.14419276 21:1.6164029 22:-0.062323686 23:1.2413449 24:0.16196308 25:-0.40743604 26:-0.4047187 27:-0.27057403 28:-0.30796358 29:-0.16733444 30:-0.27352092 31:-0.20108834 32:-0.16073692 33:-0.18338262 34:-0.16487801 35:-0.27398148 36:-0.30811864 37:-0.39074841 38:-0.11907394 39:-0.21418162 40:-0.20511942 41:-0.13776088 42:-0.16252463 43:-0.2478133 44:-0.17397934 45:-0.31722111 46:-0.15619448 47:-0.066107452 48:-0.14383133 49:-0.22159693 50:-0.27723223 51:0.24130096 52:-0.21548046 53:-0.27317575 54:-0.28615856 55:-0.031794034 56:0.099855617 57:1.0770729 #
0.028575457257748623079995908824458 1:-0.32373646 2:0.23233692 3:0.81958532 4:-0.098842546 5:0.0051389523 6:-0.34561899 7:0.10631058 8:-0.31560028 9:-0.30961666 10:0.77597016 11:0.53841984 12:-0.60592264 13:0.29382658 14:-0.16083114 15:0.90970963 16:-0.079409197 17:-0.37343216 18:1.2615533 19:-0.69107348 20:0.69251823 21:-0.2250261 22:-0.062323686 23:-0.26375422 24:-0.25234732 25:-0.40743604 26:-0.4047187 27:-0.27057403 28:-0.30796358 29:-0.16733444 30:-0.27352092 31:-0.20108834 32:-0.16073692 33:-0.18338262 34:-0.16487801 35:-0.27398148 36:-0.30811864 37:-0.39074841 38:-0.11907394 39:-0.21418162 40:-0.20511942 41:-0.13776088 42:-0.16252463 43:-0.2478133 44:-0.17397934 45:-0.31722111 46:-0.15619448 47:-0.066107452 48:-0.14383133 49:-0.22159693 50:-0.64531434 51:-0.26362848 52:0.38667911 53:-0.34909117 54:0.26449636 55:0.018907638 56:1.0038995 57:2.1758988 #
0.028575457257748623079995908824458 1:-0.32373646 2:-0.17667121 3:-0.50017285 4:-0.098842546 5:1.2639303 6:1.6091723 7:0.66896677 8:-0.31560028 9:-0.30961666 10:-0.41393355 11:-0.22640149 12:-0.60592264 13:1.0786649 14:-0.16083114 15:-0.15391792 16:0.26967475 17:0.69073427 18:0.44922587 19:0.079276368 20:-0.14419276 21:0.017267181 22:-0.062323686 23:-0.26375422 24:-0.25234732 25:-0.40743604 26:-0.4047187 27:-0.27057403 28:-0.30796358 29:-0.16733444 30:-0.27352092 31:-0.20108834 32:-0.16073692 33:-0.18338262 34:-0.16487801 35:-0.27398148 36:-0.30811864 37:-0.39074841 38:-0.11907394 39:-0.21418162 40:-0.20511942 41:-0.13776088 42:-0.16252463 43:-0.2478133 44:-0.17397934 45:-0.31722111 46:-0.15619448 47:-0.066107452 48:-0.14383133 49:-0.22159693 50:-0.059109468 51:-0.26362848 52:-0.15439181 53:-0.34909117 54:-0.28615856 55:0.0064421888 56:0.081953757 57:-0.29048768 #
-0.028575457257748623079995908824458 1:-0.32373646 2:0.12407006 3:-0.50017285 4:-0.098842546 5:-0.44537586 6:-0.34561899 7:-0.26157999 8:-0.31560028 9:-0.30961666 10:0.77597016 11:3.2377894 12:-0.35715175 13:-0.21933696 14:-0.16083114 15:-0.15391792 16:-0.30765641 17:-0.37343216 18:-0.36310151 19:-0.31148079 20:-0.14419276 21:-0.2250261 22:-0.062323686 23:-0.26375422 24:-0.25234732 25:-0.28359959 26:0.12201251 27:-0.27057403 28:-0.30796358 29:-0.16733444 30:-0.27352092 31:-0.20108834 32:-0.16073692 33:-0.18338262 34:-0.16487801 35:-0.27398148 36:-0.30811864 37:-0.39074841 38:-0.11907394 39:-0.21418162 40:-0.20511942 41:-0.13776088 42:-0.16252463 43:-0.2478133 44:-0.17397934 45:-0.31722111 46:-0.15619448 47:-0.066107452 48:-0.14383133 49:-0.22159693 50:-0.081830591 51:-0.26362848 52:0.072508901 53:-0.34909117 54:-0.28615856 55:0.10830967 56:2.7403798 57:1.2592152 #
0.028575457257748623079995908824458 1:-0.32373646 2:-0.17667121 3:1.6420434 4:-0.098842546 5:0.29664853 6:-0.34561899 7:-0.26157999 8:-0.31560028 9:-0.30961666 10:0.89262736 11:-0.22640149 12:-0.60592264 13:-0.21933696 14:-0.16083114 15:-0.15391792 16:0.44421673 17:-0.37343216 18:-0.36310151 19:0.37513536 20:-0.14419276 21:0.19725648 22:-0.062323686 23:-0.26375422 24:-0.25234732 25:-0.40743604 26:-0.4047187 27:-0.27057403 28:-0.30796358 29:-0.16733444 30:-0.27352092 31:-0.20108834 32:-0.16073692 33:-0.18338262 34:-0.16487801 35:-0.27398148 36:-0.30811864 37:-0.39074841 38:-0.11907394 39:-0.21418162 40:-0.20511942 41:-0.13776088 42:-0.16252463 43:-0.2478133 44:-0.17397934 45:0.14307766 46:-0.15619448 47:-0.066107452 48:-0.14383133 49:-0.22159693 50:-0.18180351 51:-0.26362848 52:1.2593741 53:-0.34909117 54:-0.28615856 55:-0.06863784 56:-0.15972133 57:-0.22778295 #
0.028575457257748623079995908824458 1:-0.32373646 2:-0.17667121 3:-0.50017285 4:-0.098842546 5:-0.44537586 6:-0.34561899 7:-0.26157999 8:-0.31560028 9:-0.30961666 10:-0.41393355 11:-0.22640149 12:-0.60592264 13:-0.21933696 14:-0.16083114 15:-0.15391792 16:1.1021057 17:2.2251136 18:-0.36310151 19:0.87753743 20:-0.14419276 21:0.87567765 22:-0.062323686 23:-0.26375422 24:-0.25234732 25:-0.40743604 26:-0.4047187 27:-0.27057403 28:-0.30796358 29:-0.16733444 30:-0.27352092 31:-0.20108834 32:-0.16073692 33:-0.18338262 34:-0.16487801 35:-0.27398148 36:-0.30811864 37:-0.39074841 38:-0.11907394 39:-0.21418162 40:-0.20511942 41:-0.13776088 42:-0.16252463 43:-0.2478133 44:-0.17397934 45:0.54583907 46:-0.15619448 47:-0.066107452 48:-0.14383133 49:-0.22159693 50:0.94970828 51:-0.26362848 52:0.49140254 53:0.67284763 54:-0.28615856 55:-0.047862086 56:-0.07916297 57:-0.31736115 #
-0.028575457257748623079995908824458 1:-0.32373646 2:0.43684098 3:-0.50017285 4:-0.098842546 5:0.90616858 6:-0.34561899 7:-0.26157999 8:2.014786 9:-0.30961666 10:-0.41393355 11:-0.22640149 12:-0.60592264 13:-0.21933696 14:-0.16083114 15:-0.15391792 16:0.37708521 17:0.88871866 18:-0.36310151 19:-0.59617531 20:-0.14419276 21:-0.57808203 22:-0.062323686 23:-0.26375422 24:-0.25234732 25:-0.40743604 26:-0.4047187 27:-0.27057403 28:-0.30796358 29:-0.16733444 30:-0.27352092 31:-0.20108834 32:-0.16073692 33:-0.18338262 34:-0.16487801 35:-0.27398148 36:0.74108052 37:-0.39074841 38:-0.11907394 39:-0.21418162 40:0.97164136 41:-0.13776088 42:-0.16252463 43:-0.2478133 44:0.9409681 45:-0.31722111 46:-0.15619448 47:-0.066107452 48:-0.14383133 49:-0.22159693 50:-0.32267445 51:-0.26362848 52:-0.52965069 53:-0.34909117 54:-0.28615856 55:-0.075865149 56:-0.24923062 57:-0.31437522 #
-0.028575457257748623079995908824458 1:-0.32373646 2:-0.17667121 3:-0.50017285 4:-0.098842546 5:-0.44537586 6:1.6546326 7:-0.26157999 8:-0.31560028 9:-0.30961666 10:-0.41393355 11:-0.22640149 12:-0.16808589 13:1.108851 14:-0.16083114 15:-0.15391792 16:-0.30765641 17:-0.37343216 18:-0.36310151 19:-0.14401343 20:-0.14419276 21:-0.57808203 22:-0.062323686 23:-0.26375422 24:-0.25234732 25:-0.40743604 26:-0.4047187 27:0.0072197081 28:-0.30796358 29:-0.16733444 30:-0.27352092 31:-0.20108834 32:-0.16073692 33:-0.18338262 34:-0.16487801 35:-0.27398148 36:-0.30811864 37:-0.39074841 38:-0.11907394 39:-0.21418162 40:-0.20511942 41:-0.13776088 42:-0.16252463 43:-0.2478133 44:-0.17397934 45:0.044442207 46:0.69639164 47:-0.066107452 48:-0.14383133 49:-0.22159693 50:0.036319233 51:-0.26362848 52:-0.52965069 53:-0.34909117 54:-0.28615856 55:-0.086098313 56:-0.23132877 57:-0.42485499 #
-0.028575457257748623079995908824458 1:-0.32373646 2:-0.17667121 3:-0.50017285 4:-0.098842546 5:0.23039636 6:-0.34561899 7:-0.26157999 8:-0.31560028 9:-0.30961666 10:-0.41393355 11:-0.22640149 12:-0.60592264 13:1.3201536 14:-0.16083114 15:-0.15391792 16:-0.30765641 17:-0.37343216 18:-0.36310151 19:-0.015621796 20:-0.14419276 21:-0.57808203 22:-0.062323686 23:-0.26375422 24:-0.25234732 25:-0.40743604 26:-0.4047187 27:-0.10957993 28:-0.30796358 29:-0.16733444 30:-0.27352092 31:-0.20108834 32:-0.16073692 33:1.4042337 34:-0.16487801 35:-0.27398148 36:-0.30811864 37:-0.39074841 38:-0.11907394 39:-0.21418162 40:-0.20511942 41:-0.13776088 42:-0.16252463 43:-0.2478133 44:-0.17397934 45:-0.31722111 46:-0.15619448 47:-0.066107452 48:-0.14383133 49:-0.22159693 50:-0.64531434 51:-0.26362848 52:0.28777367 53:-0.34909117 54:-0.28615856 55:-0.091623776 56:-0.28503433 57:-0.50248945 #
