SVM-light Version V6.02
0 # kernel type
3 # kernel parameter -d 
1 # kernel parameter -g 
1 # kernel parameter -s 
1 # kernel parameter -r 
empty# kernel parameter -u 
57 # highest feature index 
526 # number of training documents 
142 # number of support vectors plus 1 
0.59052933 # threshold b, each following line is a SV (starting with alpha*y)
-0.027083409392982607521993543286953 1:-0.32373646 2:-0.17667121 3:0.22665049 4:-0.098842546 5:0.058140695 6:-0.34561899 7:-0.26157999 8:-0.31560028 9:-0.30961666 10:-0.41393355 11:-0.22640149 12:-0.22779089 13:0.92773449 14:-0.16083114 15:-0.15391792 16:-0.30765641 17:-0.37343216 18:-0.36310151 19:-0.24449384 20:-0.14419276 21:-0.31502074 22:-0.062323686 23:-0.26375422 24:-0.25234732 25:-0.40743604 26:-0.4047187 27:-0.27057403 28:-0.30796358 29:-0.16733444 30:-0.27352092 31:-0.20108834 32:-0.16073692 33:-0.18338262 34:-0.16487801 35:-0.27398148 36:-0.30811864 37:-0.39074841 38:-0.11907394 39:-0.21418162 40:-0.20511942 41:-0.13776088 42:-0.16252463 43:-0.2478133 44:-0.17397934 45:-0.0048755165 46:-0.15619448 47:-0.066107452 48:-0.14383133 49:-0.22159693 50:1.2359943 51:-0.26362848 52:0.27322876 53:-0.34909117 54:-0.28615856 55:-0.097348161 56:-0.31188715 57:-0.4786019 #
-0.027083409392982607521993543286953 1:-0.32373646 2:0.13609971 3:-0.0028726759 4:-0.098842546 5:-0.10086454 6:-0.34561899 7:-0.26157999 8:0.87243974 9:-0.30961666 10:-0.41393355 11:0.94332528 12:0.45881677 13:-0.21933696 14:-0.16083114 15:-0.15391792 16:-0.30765641 17:0.93821478 18:-0.36310151 19:-0.28356957 20:-0.14419276 21:0.16264315 22:-0.062323686 23:-0.26375422 24:-0.25234732 25:0.25632733 26:-0.4047187 27:-0.27057403 28:-0.30796358 29:-0.16733444 30:-0.27352092 31:-0.20108834 32:-0.16073692 33:-0.18338262 34:-0.16487801 35:-0.27398148 36:-0.30811864 37:-0.39074841 38:-0.11907394 39:-0.21418162 40:-0.20511942 41:-0.13776088 42:-0.16252463 43:-0.2478133 44:-0.17397934 45:-0.31722111 46:-0.15619448 47:-0.066107452 48:-0.14383133 49:-0.22159693 50:-0.1409055 51:-0.26362848 52:-0.52965069 53:-0.13302413 54:-0.28615856 55:-0.0871813 56:-0.25818154 57:-0.057584364 #
-0.027083409392982607521993543286953 1:-0.32373646 2:-0.17667121 3:-0.50017285 4:-0.098842546 5:-0.44537586 6:-0.34561899 7:-0.26157999 8:-0.31560028 9:-0.30961666 10:-0.41393355 11:-0.22640149 12:-0.60592264 13:-0.21933696 14:-0.16083114 15:-0.15391792 16:-0.30765641 17:-0.37343216 18:-0.36310151 19:-0.049115267 20:-0.14419276 21:2.5163493 22:-0.062323686 23:-0.26375422 24:-0.25234732 25:-0.40743604 26:-0.4047187 27:0.19978127 28:-0.30796358 29:-0.16733444 30:-0.27352092 31:-0.20108834 32:-0.16073692 33:-0.18338262 34:-0.16487801 35:-0.27398148 36:-0.30811864 37:-0.39074841 38:-0.11907394 39:-0.21418162 40:-0.20511942 41:-0.13776088 42:-0.16252463 43:-0.2478133 44:-0.17397934 45:-0.31722111 46:-0.15619448 47:-0.066107452 48:-0.14383133 49:-0.22159693 50:-0.64531434 51:-0.26362848 52:-0.52965069 53:-0.34909117 54:-0.28615856 55:-0.099646755 56:-0.32083806 57:-0.5890817 #
-0.027083409392982607521993543286953 1:-0.32373646 2:-0.17667121 3:-0.50017285 4:-0.098842546 5:-0.44537586 6:-0.34561899 7:-0.26157999 8:-0.31560028 9:-0.30961666 10:-0.41393355 11:-0.22640149 12:-0.60592264 13:-0.21933696 14:-0.16083114 15:-0.15391792 16:1.6928632 17:-0.37343216 18:-0.36310151 19:0.78263927 20:-0.14419276 21:-0.57808203 22:-0.062323686 23:-0.26375422 24:-0.25234732 25:-0.40743604 26:-0.4047187 27:0.19978127 28:-0.30796358 29:-0.16733444 30:-0.27352092 31:-0.20108834 32:-0.16073692 33:-0.18338262 34:-0.16487801 35:-0.27398148 36:-0.30811864 37:-0.39074841 38:-0.11907394 39:-0.21418162 40:-0.20511942 41:-0.13776088 42:-0.16252463 43:-0.2478133 44:-0.17397934 45:-0.31722111 46:-0.15619448 47:-0.066107452 48:-0.14383133 49:-0.22159693 50:-0.64531434 51:-0.26362848 52:-0.52965069 53:-0.34909117 54:-0.28615856 55:-0.082827233 56:-0.28503433 57:-0.52637696 #
-0.027083409392982607521993543286953 1:-0.32373646 2:-0.17667121 3:2.1010897 4:-0.098842546 5:0.45565379 6:2.7456789 7:-0.26157999 8:-0.31560028 9:-0.30961666 10:-0.41393355 11:-0.22640149 12:-0.60592264 13:-0.21933696 14:-0.16083114 15:-0.15391792 16:-0.30765641 17:-0.37343216 18:-0.36310151 19:0.26349047 20:-0.14419276 21:-0.57808203 22:-0.062323686 23:-0.26375422 24:-0.25234732 25:-0.40743604 26:-0.4047187 27:0.15874356 28:-0.30796358 29:-0.16733444 30:-0.27352092 31:-0.20108834 32:-0.16073692 33:-0.18338262 34:-0.16487801 35:-0.27398148 36:-0.30811864 37:1.2587606 38:-0.11907394 39:-0.21418162 40:-0.20511942 41:-0.13776088 42:-0.16252463 43:-0.2478133 44:-0.17397934 45:-0.31722111 46:-0.15619448 47:-0.066107452 48:-0.14383133 49:-0.22159693 50:0.97697359 51:-0.26362848 52:-0.52965069 53:-0.34909117 54:-0.28615856 55:-0.093148805 56:-0.28503433 57:-0.50547534 #
-0.027083409392982607521993543286953 1:-0.32373646 2:-0.17667121 3:-0.50017285 4:-0.098842546 5:-0.44537586 6:-0.34561899 7:-0.26157999 8:-0.31560028 9:-0.30961666 10:-0.41393355 11:-0.22640149 12:-0.60592264 13:-0.21933696 14:-0.16083114 15:-0.15391792 16:-0.30765641 17:-0.37343216 18:-0.36310151 19:1.6534696 20:-0.14419276 21:5.7146206 22:-0.062323686 23:-0.26375422 24:-0.25234732 25:-0.40743604 26:-0.4047187 27:-0.27057403 28:-0.30796358 29:-0.16733444 30:-0.27352092 31:-0.20108834 32:-0.16073692 33:-0.18338262 34:-0.16487801 35:-0.27398148 36:-0.30811864 37:-0.39074841 38:-0.11907394 39:-0.21418162 40:-0.20511942 41:-0.13776088 42:-0.16252463 43:-0.2478133 44:-0.17397934 45:-0.31722111 46:-0.15619448 47:-0.066107452 48:-0.14383133 49:-0.22159693 50:-0.64531434 51:-0.26362848 52:-0.52965069 53:-0.34909117 54:-0.28615856 55:-0.099646755 56:-0.32083806 57:-0.62192702 #
0.027083409392982607521993543286953 1:-0.32373646 2:-0.17667121 3:0.39879286 4:-0.098842546 5:-0.44537586 6:-0.34561899 7:1.7726384 8:-0.31560028 9:-0.30961666 10:-0.41393355 11:-0.22640149 12:-0.13823338 13:-0.21933696 14:-0.16083114 15:-0.15391792 16:-0.30765641 17:0.78972644 18:-0.36310151 19:-0.35613877 20:-0.14419276 21:-0.25271675 22:-0.062323686 23:-0.26375422 24:-0.25234732 25:-0.40743604 26:-0.4047187 27:-0.27057403 28:-0.30796358 29:-0.16733444 30:-0.27352092 31:-0.20108834 32:-0.16073692 33:-0.18338262 34:-0.16487801 35:-0.27398148 36:-0.30811864 37:-0.39074841 38:-0.11907394 39:-0.21418162 40:-0.20511942 41:-0.13776088 42:-0.16252463 43:-0.2478133 44:-0.17397934 45:0.069101065 46:-0.15619448 47:-0.066107452 48:-0.14383133 49:-0.22159693 50:-0.31813022 51:-0.26362848 52:0.10159874 53:-0.34909117 54:-0.28615856 55:-0.089037858 56:-0.23132877 57:-0.40693936 #
-0.027083409392982607521993543286953 1:-0.32373646 2:-0.17667121 3:-0.50017285 4:-0.098842546 5:-0.44537586 6:-0.34561899 7:-0.26157999 8:-0.31560028 9:-0.30961666 10:-0.41393355 11:-0.22640149 12:-0.60592264 13:-0.21933696 14:-0.16083114 15:-0.15391792 16:-0.30765641 17:-0.37343216 18:-0.36310151 19:-0.88086981 20:-0.14419276 21:-0.57808203 22:-0.062323686 23:-0.26375422 24:-0.25234732 25:-0.40743604 26:-0.4047187 27:3.9373696 28:-0.30796358 29:-0.16733444 30:-0.27352092 31:-0.20108834 32:-0.16073692 33:-0.18338262 34:-0.16487801 35:-0.27398148 36:-0.30811864 37:-0.39074841 38:-0.11907394 39:-0.21418162 40:-0.20511942 41:-0.13776088 42:-0.16252463 43:-0.2478133 44:-0.17397934 45:5.1570463 46:-0.15619448 47:-0.066107452 48:-0.14383133 49:-0.22159693 50:-0.64531434 51:-0.26362848 52:2.8127713 53:-0.34909117 54:-0.28615856 55:-0.088595822 56:-0.3029362 57:-0.60102546 #
0.017790871470967695167075817153091 1:-0.32373646 2:-0.17667121 3:0.11188891 4:-0.098842546 5:0.41590247 6:2.6092982 7:0.43091992 8:1.1466029 9:-0.30961666 10:-0.41393355 11:-0.22640149 12:-0.28749591 13:0.74661791 14:-0.16083114 15:-0.15391792 16:0.12198539 17:0.41850561 18:-0.36310151 19:0.39188209 20:-0.14419276 21:1.6717842 22:-0.062323686 23:-0.26375422 24:1.4048942 25:-0.40743604 26:-0.4047187 27:-0.27057403 28:-0.30796358 29:-0.16733444 30:-0.27352092 31:-0.20108834 32:-0.16073692 33:-0.18338262 34:-0.16487801 35:-0.27398148 36:-0.30811864 37:-0.39074841 38:-0.11907394 39:-0.21418162 40:-0.20511942 41:-0.13776088 42:-0.16252463 43:-0.2478133 44:-0.17397934 45:-0.05419324 46:-0.15619448 47:-0.066107452 48:-0.14383133 49:-0.22159693 50:-0.16817084 51:-0.26362848 52:-0.52965069 53:0.56773388 54:-0.28615856 55:-0.088728428 56:-0.2402797 57:-0.22181107 #
0.027083409392982607521993543286953 1:-0.32373646 2:-0.17667121 3:0.11188891 4:-0.098842546 5:0.40265203 6:2.5638378 7:0.43091992 8:1.1466029 9:-0.30961666 10:-0.41393355 11:-0.22640149 12:-0.28749591 13:0.74661791 14:-0.16083114 15:-0.15391792 16:0.12198539 17:0.41850561 18:-0.36310151 19:0.38629985 20:-0.14419276 21:1.6648614 22:-0.062323686 23:-0.26375422 24:1.4048942 25:-0.40743604 26:-0.4047187 27:-0.27057403 28:-0.30796358 29:-0.16733444 30:-0.27352092 31:-0.20108834 32:-0.16073692 33:-0.18338262 34:-0.16487801 35:-0.27398148 36:-0.30811864 37:-0.39074841 38:-0.11907394 39:-0.21418162 40:-0.20511942 41:-0.13776088 42:-0.16252463 43:-0.2478133 44:-0.17397934 45:-0.05419324 46:-0.15619448 47:-0.066107452 48:-0.14383133 49:-0.22159693 50:-0.16362663 51:-0.26362848 52:-0.52965069 53:0.57941324 54:0.83633029 55:-0.087778054 56:-0.2402797 57:-0.20986731 #
-0.027083409392982607521993543286953 1:-0.32373646 2:-0.17667121 3:-0.50017285 4:-0.098842546 5:-0.44537586 6:-0.34561899 7:-0.26157999 8:-0.31560028 9:-0.30961666 10:-0.41393355 11:-0.22640149 12:-0.60592264 13:-0.21933696 14:-0.16083114 15:-0.15391792 16:-0.30765641 17:-0.37343216 18:-0.36310151 19:-0.049115267 20:-0.14419276 21:2.5163493 22:-0.062323686 23:-0.26375422 24:-0.25234732 25:-0.40743604 26:-0.4047187 27:0.19978127 28:-0.30796358 29:-0.16733444 30:-0.27352092 31:-0.20108834 32:-0.16073692 33:-0.18338262 34:-0.16487801 35:-0.27398148 36:-0.30811864 37:-0.39074841 38:-0.11907394 39:-0.21418162 40:-0.20511942 41:-0.13776088 42:-0.16252463 43:-0.2478133 44:-0.17397934 45:-0.31722111 46:-0.15619448 47:-0.066107452 48:-0.14383133 49:-0.22159693 50:-0.64531434 51:-0.26362848 52:-0.52965069 53:-0.34909117 54:-0.28615856 55:-0.099646755 56:-0.32083806 57:-0.5890817 #
-0.027083409392982607521993543286953 1:-0.32373646 2:-0.17667121 3:-0.50017285 4:-0.098842546 5:-0.44537586 6:-0.34561899 7:-0.26157999 8:-0.31560028 9:-0.30961666 10:-0.41393355 11:-0.22640149 12:2.2300656 13:-0.21933696 14:-0.16083114 15:-0.15391792 16:-0.30765641 17:-0.37343216 18:-0.36310151 19:-0.88086981 20:-0.14419276 21:-0.57808203 22:-0.062323686 23:-0.26375422 24:-0.25234732 25:-0.40743604 26:-0.4047187 27:-0.27057403 28:-0.30796358 29:-0.16733444 30:-0.27352092 31:-0.20108834 32:-0.16073692 33:-0.18338262 34:-0.16487801 35:-0.27398148 36:-0.30811864 37:-0.39074841 38:-0.11907394 39:-0.21418162 40:-0.20511942 41:-0.13776088 42:-0.16252463 43:-0.2478133 44:-0.17397934 45:-0.31722111 46:-0.15619448 47:-0.066107452 48:-0.14383133 49:-0.22159693 50:-0.64531434 51:-0.26362848 52:0.86666143 53:-0.34909117 54:-0.28615856 55:-0.07754489 56:-0.26713249 57:-0.55922228 #
0.027083409392982607521993543286953 1:-0.32373646 2:-0.17667121 3:-0.50017285 4:-0.098842546 5:-0.44537586 6:-0.34561899 7:-0.26157999 8:2.7458875 9:-0.30961666 10:1.1492733 11:-0.22640149 12:-0.60592264 13:-0.21933696 14:-0.16083114 15:-0.15391792 16:-0.30765641 17:-0.37343216 18:-0.36310151 19:-0.88086981 20:-0.14419276 21:-0.57808203 22:-0.062323686 23:-0.26375422 24:-0.25234732 25:-0.40743604 26:-0.4047187 27:-0.27057403 28:-0.30796358 29:-0.16733444 30:-0.27352092 31:-0.20108834 32:-0.16073692 33:-0.18338262 34:-0.16487801 35:-0.27398148 36:-0.30811864 37:2.8597546 38:-0.11907394 39:-0.21418162 40:-0.20511942 41:-0.13776088 42:-0.16252463 43:-0.2478133 44:-0.17397934 45:-0.31722111 46:-0.15619448 47:-0.066107452 48:-0.14383133 49:1.221923 50:1.676784 51:1.3259642 52:0.95683992 53:-0.34909117 54:-0.28615856 55:-0.019704314 56:-0.088113904 57:0.011092257 #
0.027083409392982607521993543286953 1:-0.32373646 2:-0.17667121 3:-0.50017285 4:-0.098842546 5:-0.44537586 6:-0.34561899 7:-0.26157999 8:-0.31560028 9:-0.30961666 10:-0.41393355 11:-0.22640149 12:-0.60592264 13:-0.21933696 14:-0.16083114 15:-0.15391792 16:-0.30765641 17:-0.37343216 18:-0.36310151 19:-0.88086981 20:-0.14419276 21:-0.57808203 22:-0.062323686 23:-0.26375422 24:-0.25234732 25:0.61297631 26:-0.4047187 27:-0.27057403 28:-0.30796358 29:-0.16733444 30:-0.27352092 31:-0.20108834 32:-0.16073692 33:1.4042337 34:-0.16487801 35:-0.27398148 36:-0.30811864 37:-0.39074841 38:-0.11907394 39:-0.21418162 40:-0.20511942 41:-0.13776088 42:-0.16252463 43:-0.2478133 44:-0.17397934 45:-0.31722111 46:-0.15619448 47:-0.066107452 48:-0.14383133 49:-0.22159693 50:0.90881026 51:-0.26362848 52:-0.52965069 53:-0.34909117 54:-0.28615856 55:-0.072748788 56:-0.2402797 57:-0.48457378 #
0.027083409392982607521993543286953 1:-0.32373646 2:-0.17667121 3:-0.50017285 4:-0.098842546 5:-0.44537586 6:-0.34561899 7:-0.26157999 8:-0.31560028 9:-0.30961666 10:-0.41393355 11:-0.22640149 12:-0.60592264 13:-0.21933696 14:-0.16083114 15:-0.15391792 16:-0.30765641 17:-0.37343216 18:-0.36310151 19:-0.66316223 20:-0.14419276 21:-0.30809808 22:-0.062323686 23:-0.26375422 24:-0.25234732 25:1.3659019 26:-0.0019242398 27:-0.27057403 28:-0.30796358 29:-0.16733444 30:0.55357343 31:-0.20108834 32:-0.16073692 33:-0.18338262 34:-0.16487801 35:-0.27398148 36:-0.30811864 37:-0.39074841 38:-0.11907394 39:-0.21418162 40:-0.20511942 41:-0.13776088 42:-0.16252463 43:-0.2478133 44:0.67862749 45:0.0033441042 46:-0.15619448 47:-0.066107452 48:-0.14383133 49:-0.22159693 50:-0.64531434 51:-0.26362848 52:-0.52965069 53:-0.34909117 54:-0.28615856 55:-0.066493958 56:-0.14181948 57:-0.24868453 #
-0.027083409392982607521993543286953 1:-0.28025195 2:-0.17667121 3:-0.44279206 4:-0.098842546 5:-0.0081114834 6:-0.20923822 7:-0.26157999 8:-0.31560028 9:0.7739073 10:-0.39060211 11:-0.22640149 12:-0.51636511 13:-0.21933696 14:-0.16083114 15:-0.15391792 16:-0.13311443 17:-0.37343216 18:-0.34421018 19:-0.84179407 20:-0.14419276 21:-0.54346871 22:-0.062323686 23:-0.26375422 24:-0.25234732 25:-0.14490277 26:0.16332476 27:-0.26741728 28:-0.30796358 29:-0.16733444 30:-0.27352092 31:-0.20108834 32:-0.16073692 33:0.54106367 34:-0.16487801 35:-0.25396839 36:-0.28754613 37:0.70083839 38:0.044032551 39:-0.21418162 40:-0.20511942 41:-0.13776088 42:-0.16252463 43:-0.21565992 44:-0.17397934 45:-0.31722111 46:-0.15619448 47:0.94472158 48:-0.14383133 49:1.4766618 50:-0.068197913 51:0.93324131 52:-0.52965069 53:-0.31989294 54:-0.28615856 55:-0.064526893 56:0.010346321 57:6.3771162 #
-0.027083409392982607521993543286953 1:-0.32373646 2:1.0142642 3:-0.50017285 4:-0.098842546 5:0.20389549 6:-0.34561899 7:-0.26157999 8:1.9233983 9:-0.30961666 10:-0.41393355 11:-0.22640149 12:-0.11833171 13:-0.21933696 14:-0.16083114 15:-0.15391792 16:-0.30765641 17:-0.37343216 18:3.3773828 19:0.77705699 20:-0.14419276 21:0.44647241 22:-0.062323686 23:-0.26375422 24:-0.25234732 25:-0.40743604 26:-0.4047187 27:-0.27057403 28:-0.30796358 29:-0.16733444 30:-0.27352092 31:-0.20108834 32:-0.16073692 33:-0.18338262 34:-0.16487801 35:-0.27398148 36:0.69993544 37:-0.39074841 38:-0.11907394 39:-0.21418162 40:-0.20511942 41:-0.13776088 42:-0.16252463 43:-0.2478133 44:-0.17397934 45:-0.31722111 46:-0.15619448 47:-0.066107452 48:-0.14383133 49:-0.22159693 50:-0.64531434 51:-0.26362848 52:-0.29402301 53:-0.34909117 54:-0.28615856 55:-0.091955304 56:-0.29398528 57:-0.46367222 #
-0.0057349447196686116623443041362407 1:-0.32373646 2:0.11204042 3:-0.50017285 4:-0.098842546 5:-0.12736541 6:-0.34561899 7:-0.26157999 8:0.78105205 9:-0.30961666 10:0.72930723 11:-0.22640149 12:-0.60592264 13:-0.21933696 14:10.404892 15:-0.15391792 16:-0.30765641 17:-0.37343216 18:-0.36310151 19:-0.32822752 20:-0.14419276 21:-0.57808203 22:-0.062323686 23:-0.26375422 24:-0.25234732 25:-0.1647166 26:-0.4047187 27:-0.19481209 28:-0.30796358 29:-0.16733444 30:-0.27352092 31:0.34969041 32:-0.16073692 33:-0.18338262 34:-0.16487801 35:0.20633267 36:-0.30811864 37:1.4043055 38:-0.11907394 39:-0.21418162 40:-0.20511942 41:-0.13776088 42:-0.16252463 43:-0.2478133 44:-0.17397934 45:-0.31722111 46:-0.15619448 47:-0.066107452 48:-0.14383133 49:-0.22159693 50:-0.64531434 51:-0.26362848 52:-0.52965069 53:0.58525288 54:-0.28615856 55:0.084019728 56:1.7736794 57:2.6715648 #
0.027083409392982607521993543286953 1:-0.32373646 2:-0.17667121 3:-0.50017285 4:-0.098842546 5:-0.44537586 6:-0.34561899 7:-0.26157999 8:-0.31560028 9:-0.30961666 10:-0.41393355 11:5.3073058 12:0.61803013 13:-0.21933696 14:-0.16083114 15:-0.15391792 16:-0.30765641 17:-0.37343216 18:-0.36310151 19:0.49236253 20:-0.14419276 21:-0.57808203 22:-0.062323686 23:-0.26375422 24:-0.25234732 25:-0.40743604 26:-0.4047187 27:-0.27057403 28:-0.30796358 29:-0.16733444 30:-0.27352092 31:-0.20108834 32:-0.16073692 33:-0.18338262 34:-0.16487801 35:-0.27398148 36:-0.30811864 37:-0.39074841 38:-0.11907394 39:-0.21418162 40:-0.20511942 41:-0.13776088 42:-0.16252463 43:-0.2478133 44:-0.17397934 45:-0.31722111 46:-0.15619448 47:-0.066107452 48:-0.14383133 49:-0.22159693 50:-0.64531434 51:-0.26362848 52:3.2054842 53:-0.34909117 54:-0.28615856 55:-0.091756389 56:-0.28503433 57:-0.5801239 #
0.027083409392982607521993543286953 1:-0.32373646 2:-0.17667121 3:0.57093525 4:-0.098842546 5:-0.44537586 6:0.47266576 7:-0.26157999 8:-0.31560028 9:-0.30961666 10:2.6658173 11:-0.22640149 12:0.14039002 13:2.0446198 14:1.1241893 15:-0.15391792 16:-0.065982893 17:-0.37343216 18:-0.36310151 19:-0.35613877 20:-0.14419276 21:-0.57808203 22:-0.062323686 23:0.53306293 24:-0.25234732 25:-0.40743604 26:-0.4047187 27:-0.27057403 28:-0.30796358 29:-0.16733444 30:-0.27352092 31:-0.20108834 32:-0.16073692 33:-0.18338262 34:-0.16487801 35:-0.27398148 36:-0.30811864 37:-0.39074841 38:-0.11907394 39:-0.21418162 40:-0.20511942 41:-0.13776088 42:-0.16252463 43:-0.2478133 44:-0.17397934 45:-0.31722111 46:-0.15619448 47:-0.066107452 48:-0.14383133 49:-0.22159693 50:-0.009123005 51:-0.26362848 52:-0.32602185 53:0.059684336 54:-0.28615856 55:-0.063930139 56:-0.12391762 57:-0.066542186 #
0.027083409392982607521993543286953 1:-0.32373646 2:-0.17667121 3:1.6037894 4:-0.098842546 5:0.28339812 6:-0.34561899 7:-0.26157999 8:-0.31560028 9:-0.30961666 10:0.86929595 11:-0.22640149 12:-0.60592264 13:-0.21933696 14:-0.16083114 15:-0.15391792 16:0.43079042 17:-0.37343216 18:-0.36310151 19:0.34722415 20:-0.14419276 21:0.18341115 22:-0.062323686 23:-0.26375422 24:-0.25234732 25:-0.40743604 26:-0.4047187 27:-0.27057403 28:-0.30796358 29:-0.16733444 30:-0.27352092 31:-0.20108834 32:-0.16073692 33:-0.18338262 34:-0.16487801 35:-0.27398148 36:-0.30811864 37:-0.39074841 38:-0.11907394 39:-0.21418162 40:-0.20511942 41:-0.13776088 42:-0.16252463 43:-0.2478133 44:-0.17397934 45:0.13485803 46:-0.15619448 47:-0.066107452 48:-0.14383133 49:-0.22159693 50:-0.20452464 51:-0.26362848 52:1.457185 53:-0.34909117 54:-0.28615856 55:-0.070074461 56:-0.15972133 57:-0.20389542 #
0.027083409392982607521993543286953 1:-0.32373646 2:-0.17667121 3:-0.50017285 4:-0.098842546 5:-0.44537586 6:-0.34561899 7:-0.26157999 8:-0.31560028 9:-0.30961666 10:-0.41393355 11:-0.22640149 12:-0.60592264 13:-0.21933696 14:-0.16083114 15:-0.15391792 16:1.4109107 17:-0.37343216 18:-0.36310151 19:1.2627124 20:-0.14419276 21:2.0802214 22:-0.062323686 23:-0.26375422 24:-0.25234732 25:-0.40743604 26:-0.4047187 27:-0.27057403 28:-0.30796358 29:-0.16733444 30:-0.27352092 31:-0.20108834 32:-0.16073692 33:-0.18338262 34:-0.16487801 35:-0.27398148 36:-0.30811864 37:-0.39074841 38:-0.11907394 39:-0.21418162 40:-0.20511942 41:-0.13776088 42:-0.16252463 43:-0.2478133 44:-0.17397934 45:0.73489034 46:-0.15619448 47:-0.066107452 48:-0.14383133 49:-0.22159693 50:-0.64531434 51:-0.26362848 52:0.13941552 53:0.99402839 54:-0.28615856 55:0.00065150071 56:0.03719911 57:-0.42186904 #
-0.013408328102823127356280075161976 1:-0.32373646 2:-0.17667121 3:-0.50017285 4:-0.098842546 5:-0.44537586 6:-0.34561899 7:-0.26157999 8:-0.31560028 9:-0.30961666 10:5.4189277 11:-0.22640149 12:4.3694954 13:-0.21933696 14:-0.16083114 15:-0.15391792 16:-0.30765641 17:-0.37343216 18:-0.36310151 19:-0.88086981 20:-0.14419276 21:-0.57808203 22:-0.062323686 23:-0.26375422 24:-0.25234732 25:-0.40743604 26:-0.4047187 27:-0.27057403 28:-0.30796358 29:-0.16733444 30:-0.27352092 31:-0.20108834 32:-0.16073692 33:-0.18338262 34:-0.16487801 35:-0.27398148 36:-0.30811864 37:-0.39074841 38:-0.11907394 39:-0.21418162 40:-0.20511942 41:-0.13776088 42:-0.16252463 43:-0.2478133 44:-0.17397934 45:-0.31722111 46:-0.15619448 47:-0.066107452 48:-0.14383133 49:-0.22159693 50:-0.64531434 51:-0.26362848 52:0.73866612 53:-0.34909117 54:-0.28615856 55:-0.084175445 56:-0.25818154 57:-0.58609575 #
-0.027083409392982607521993543286953 1:-0.32373646 2:-0.17667121 3:-0.50017285 4:-0.098842546 5:-0.44537586 6:-0.34561899 7:-0.26157999 8:-0.31560028 9:-0.30961666 10:-0.41393355 11:-0.22640149 12:-0.60592264 13:-0.21933696 14:-0.16083114 15:-0.15391792 16:-0.30765641 17:-0.37343216 18:-0.36310151 19:1.4413441 20:-0.14419276 21:-0.57808203 22:-0.062323686 23:-0.26375422 24:-0.25234732 25:-0.40743604 26:-0.4047187 27:-0.27057403 28:-0.30796358 29:-0.16733444 30:-0.27352092 31:-0.20108834 32:-0.16073692 33:-0.18338262 34:-0.16487801 35:-0.27398148 36:-0.30811864 37:-0.39074841 38:-0.11907394 39:-0.21418162 40:-0.20511942 41:-0.13776088 42:-0.16252463 43:-0.2478133 44:-0.17397934 45:-0.31722111 46:-0.15619448 47:-0.066107452 48:-0.14383133 49:-0.22159693 50:-0.64531434 51:-0.26362848 52:1.6229972 53:-0.34909117 54:-0.28615856 55:-0.085833088 56:-0.27608341 57:-0.59803951 #
0.027083409392982607521993543286953 1:0.76337653 2:0.12407006 3:-0.50017285 4:-0.098842546 5:0.54840684 6:-0.34561899 7:-0.26157999 8:-0.31560028 9:0.86812675 10:1.3359249 11:-0.22640149 12:0.89665353 13:-0.21933696 14:8.8343115 15:-0.15391792 16:-0.30765641 17:0.86397064 18:-0.36310151 19:0.95568883 20:-0.14419276 21:0.12110716 22:-0.062323686 23:-0.26375422 24:-0.25234732 25:-0.40743604 26:-0.4047187 27:-0.27057403 28:-0.30796358 29:-0.16733444 30:-0.27352092 31:-0.20108834 32:-0.16073692 33:0.20196116 34:-0.16487801 35:-0.27398148 36:-0.30811864 37:-0.39074841 38:-0.11907394 39:-0.21418162 40:-0.20511942 41:-0.13776088 42:-0.16252463 43:-0.2478133 44:-0.17397934 45:-0.31722111 46:-0.15619448 47:-0.066107452 48:-0.14383133 49:-0.22159693 50:-0.272688 51:-0.26362848 52:-0.41038236 53:0.37502545 54:2.3400419 55:-0.05144259 56:-0.043359254 57:-0.0098093236 #
0.027083409392982607521993543286953 1:-0.019344825 2:-0.1526119 3:-0.21326891 4:-0.098842546 5:-0.11411497 6:0.56358629 7:-0.26157999 8:-0.22421259 9:0.3970294 10:-0.41393355 11:-0.22640149 12:-0.35715175 13:0.53531528 14:0.33889902 15:-0.15391792 16:-0.24052487 17:0.17102507 18:-0.36310151 19:-0.85295856 20:-0.14419276 21:-0.5642367 22:-0.062323686 23:1.3741478 24:-0.14876972 25:-0.40743604 26:-0.4047187 27:-0.27057403 28:-0.30796358 29:-0.1464598 30:-0.27352092 31:-0.20108834 32:-0.16073692 33:-0.18338262 34:-0.16487801 35:-0.27398148 36:-0.20525599 37:0.33697614 38:0.20713905 39:-0.21418162 40:-0.15897194 41:-0.13776088 42:-0.16252463 43:-0.18350655 44:-0.17397934 45:-0.30078185 46:-0.15619448 47:-0.066107452 48:-0.14383133 49:-0.12819271 50:-0.54534143 51:-0.26362848 52:-0.52965069 53:-0.22061887 54:-0.28615856 55:-0.090297662 56:-0.15077041 57:2.2445755 #
0.027083409392982607521993543286953 1:0.024139695 2:0.02783286 3:0.15014276 4:-0.098842546 5:1.4891877 6:0.42720547 7:-0.088455014 8:-0.31560028 9:0.86812675 10:-0.22728199 11:-0.22640149 12:0.75734186 13:-0.21933696 14:0.41028905 15:-0.15391792 16:0.37708521 17:-0.17544772 18:-0.21197082 19:1.0338403 20:-0.14419276 21:-0.045036808 22:-0.062323686 23:0.090386741 24:0.62806225 25:-0.40743604 26:-0.4047187 27:-0.27057403 28:-0.30796358 29:-0.16733444 30:-0.27352092 31:-0.20108834 32:-0.16073692 33:-0.18338262 34:-0.16487801 35:-0.27398148 36:-0.30811864 37:-0.39074841 38:-0.11907394 39:-0.21418162 40:-0.20511942 41:-0.13776088 42:-0.16252463 43:-0.2478133 44:-0.17397934 45:-0.31722111 46:-0.15619448 47:-0.066107452 48:-0.14383133 49:-0.22159693 50:-0.29540911 51:0.93324131 52:0.48267558 53:0.2523928 54:-0.032010138 55:-0.0025753712 56:0.73537159 57:3.7106719 #
-0.0025128569504893230428244077501176 1:-0.32373646 2:-0.17667121 3:-0.50017285 4:-0.098842546 5:7.8361464 6:-0.34561899 7:-0.26157999 8:-0.31560028 9:-0.30961666 10:-0.41393355 11:-0.22640149 12:-0.60592264 13:-0.21933696 14:-0.16083114 15:-0.15391792 16:-0.30765641 17:-0.37343216 18:-0.36310151 19:-0.88086981 20:-0.14419276 21:-0.57808203 22:-0.062323686 23:-0.26375422 24:-0.25234732 25:-0.40743604 26:-0.4047187 27:-0.27057403 28:-0.30796358 29:-0.16733444 30:-0.27352092 31:-0.20108834 32:-0.16073692 33:-0.18338262 34:-0.16487801 35:-0.27398148 36:-0.30811864 37:-0.39074841 38:-0.11907394 39:-0.21418162 40:-0.20511942 41:-0.13776088 42:-0.16252463 43:-0.2478133 44:-0.17397934 45:-0.31722111 46:-0.15619448 47:-0.066107452 48:-0.14383133 49:-0.22159693 50:-0.64531434 51:-0.26362848 52:-0.52965069 53:-0.34909117 54:-0.28615856 55:-0.07754489 56:-0.27608341 57:-0.60699731 #
0.027083409392982607521993543286953 1:-0.32373646 2:-0.17667121 3:-0.50017285 4:-0.098842546 5:-0.44537586 6:-0.34561899 7:-0.26157999 8:-0.31560028 9:-0.30961666 10:-0.41393355 11:-0.22640149 12:-0.60592264 13:-0.21933696 14:-0.16083114 15:-0.15391792 16:-0.30765641 17:-0.37343216 18:-0.36310151 19:-0.16076016 20:-0.14419276 21:-0.13503145 22:-0.062323686 23:-0.26375422 24:-0.25234732 25:-0.40743604 26:-0.4047187 27:-0.27057403 28:-0.30796358 29:-0.16733444 30:-0.27352092 31:-0.20108834 32:-0.16073692 33:-0.18338262 34:-0.16487801 35:-0.27398148 36:-0.30811864 37:-0.39074841 38:-0.11907394 39:-0.21418162 40:-0.20511942 41:-0.13776088 42:-0.16252463 43:-0.2478133 44:-0.17397934 45:-0.31722111 46:-0.15619448 47:-0.066107452 48:-0.14383133 49:-0.22159693 50:-0.64531434 51:-0.26362848 52:-0.52965069 53:-0.34909117 54:-0.28615856 55:-0.097370259 56:-0.3029362 57:-0.54130667 #
-0.0034351104247441650862970874413804 1:-0.32373646 2:-0.17667121 3:2.3497398 4:-0.098842546 5:-0.44537586 6:1.3364108 7:-0.26157999 8:-0.31560028 9:-0.30961666 10:-0.41393355 11:-0.22640149 12:0.13043919 13:0.89754838 14:-0.16083114 15:-0.15391792 16:-0.30765641 17:-0.37343216 18:-0.36310151 19:0.36955312 20:-0.14419276 21:-0.065804802 22:-0.062323686 23:-0.26375422 24:-0.25234732 25:-0.40743604 26:-0.4047187 27:-0.27057403 28:-0.30796358 29:-0.16733444 30:-0.27352092 31:-0.20108834 32:-0.16073692 33:-0.18338262 34:-0.16487801 35:-0.27398148 36:2.7571886 37:-0.39074841 38:5.9158664 39:-0.21418162 40:-0.20511942 41:-0.13776088 42:-0.16252463 43:-0.2478133 44:-0.17397934 45:-0.31722111 46:-0.15619448 47:-0.066107452 48:-0.14383133 49:-0.22159693 50:-0.37266093 51:-0.26362848 52:-0.52965069 53:-0.34909117 54:-0.28615856 55:-0.082186282 56:-0.28503433 57:-0.30541739 #
-0.027083409392982607521993543286953 1:0.19807778 2:-0.17667121 3:-0.021999607 4:-0.098842546 5:-0.44537586 6:-0.34561899 7:-0.26157999 8:1.4207659 9:5.7204294 10:-0.41393355 11:-0.22640149 12:-0.22779089 13:-0.21933696 14:-0.16083114 15:-0.15391792 16:-0.30765641 17:-0.37343216 18:-0.36310151 19:-0.59617531 20:-0.14419276 21:-0.40501541 22:-0.062323686 23:-0.26375422 24:-0.25234732 25:-0.090414733 26:0.38021407 27:-0.23269306 28:-0.30796358 29:-0.16733444 30:-0.27352092 31:-0.20108834 32:-0.16073692 33:0.60271871 34:-0.16487801 35:-0.27398148 36:-0.30811864 37:-0.39074841 38:-0.11907394 39:-0.21418162 40:-0.20511942 41:-0.13776088 42:-0.16252463 43:-0.2478133 44:-0.17397934 45:-0.31722111 46:-0.15619448 47:-0.066107452 48:-0.14383133 49:0.23693292 50:0.090849921 51:0.40961075 52:-0.52965069 53:-0.13886377 54:-0.28615856 55:-0.051752016 56:-0.043359254 57:0.82923985 #
-0.027083409392982607521993543286953 1:-0.32373646 2:-0.17667121 3:-0.50017285 4:-0.098842546 5:-0.27312019 6:-0.34561899 7:-0.26157999 8:2.1975613 9:-0.30961666 10:-0.41393355 11:-0.22640149 12:-0.47656178 13:0.17308222 14:-0.16083114 15:-0.15391792 16:-0.30765641 17:0.29476535 18:-0.36310151 19:-0.88086981 20:-0.14419276 21:-0.57808203 22:-0.062323686 23:1.5512183 24:-0.25234732 25:0.97457874 26:-0.4047187 27:-0.27057403 28:-0.30796358 29:-0.16733444 30:-0.27352092 31:-0.20108834 32:-0.16073692 33:-0.18338262 34:-0.16487801 35:-0.27398148 36:-0.04067573 37:0.26420367 38:-0.11907394 39:-0.21418162 40:-0.20511942 41:-0.13776088 42:-0.16252463 43:-0.2478133 44:-0.17397934 45:-0.31722111 46:-0.15619448 47:-0.066107452 48:-0.14383133 49:0.38128489 50:0.0045096669 51:-0.26362848 52:-0.52965069 53:-0.039589722 54:-0.28615856 55:-0.062913455 56:-0.13286854 57:0.6112662 #
-0.027083409392982607521993543286953 1:-0.32373646 2:-0.17667121 3:-0.50017285 4:-0.098842546 5:-0.44537586 6:-0.34561899 7:-0.26157999 8:-0.31560028 9:-0.30961666 10:-0.41393355 11:-0.22640149 12:-0.60592264 13:-0.21933696 14:-0.16083114 15:-0.15391792 16:-0.30765641 17:-0.37343216 18:-0.36310151 19:-0.88086981 20:-0.14419276 21:-0.57808203 22:-0.062323686 23:-0.26375422 24:-0.25234732 25:2.2674313 26:-0.4047187 27:-0.27057403 28:-0.30796358 29:-0.16733444 30:-0.27352092 31:-0.20108834 32:-0.16073692 33:-0.18338262 34:-0.16487801 35:-0.27398148 36:-0.30811864 37:-0.39074841 38:-0.11907394 39:-0.21418162 40:-0.20511942 41:-0.13776088 42:-0.16252463 43:-0.2478133 44:-0.17397934 45:-0.31722111 46:-0.15619448 47:-0.066107452 48:-0.14383133 49:-0.22159693 50:-0.64531434 51:-0.26362848 52:0.62230676 53:-0.34909117 54:8.1007395 55:-0.065764599 56:-0.2402797 57:-0.52339101 #
0.0045855395429363213569140533820701 1:2.1983657 2:-0.17667121 3:-0.50017285 4:-0.098842546 5:2.6419756 6:-0.34561899 7:2.2487321 8:-0.31560028 9:-0.30961666 10:-0.41393355 11:2.3829889 12:-0.60592264 13:-0.21933696 14:3.9797902 15:-0.15391792 16:0.47106934 17:-0.37343216 18:0.73259586 19:0.74914581 20:5.5651293 21:1.4433362 22:-0.062323686 23:-0.26375422 24:-0.25234732 25:-0.40743604 26:-0.4047187 27:-0.27057403 28:-0.30796358 29:-0.16733444 30:-0.27352092 31:-0.20108834 32:-0.16073692 33:-0.18338262 34:-0.16487801 35:-0.27398148 36:-0.30811864 37:-0.39074841 38:-0.11907394 39:-0.21418162 40:-0.20511942 41:-0.13776088 42:-0.16252463 43:-0.2478133 44:-0.17397934 45:-0.31722111 46:-0.15619448 47:-0.066107452 48:-0.14383133 49:-0.22159693 50:0.58162612 51:-0.26362848 52:-0.26784217 53:0.17647734 54:-0.28615856 55:-0.081324309 56:-0.24923062 57:-0.41291124 #
0.027083409392982607521993543286953 1:-0.32373646 2:-0.17667121 3:-0.50017285 4:-0.098842546 5:-0.44537586 6:-0.34561899 7:-0.26157999 8:2.7458875 9:-0.30961666 10:1.1492733 11:-0.22640149 12:-0.60592264 13:-0.21933696 14:-0.16083114 15:-0.15391792 16:-0.30765641 17:-0.37343216 18:-0.36310151 19:-0.88086981 20:-0.14419276 21:-0.57808203 22:-0.062323686 23:-0.26375422 24:-0.25234732 25:-0.40743604 26:-0.4047187 27:-0.27057403 28:-0.30796358 29:-0.16733444 30:-0.27352092 31:-0.20108834 32:-0.16073692 33:-0.18338262 34:-0.16487801 35:-0.27398148 36:-0.30811864 37:2.8597546 38:-0.11907394 39:-0.21418162 40:-0.20511942 41:-0.13776088 42:-0.16252463 43:-0.2478133 44:-0.17397934 45:-0.31722111 46:-0.15619448 47:-0.066107452 48:-0.14383133 49:1.221923 50:1.676784 51:1.3259642 52:0.95683992 53:-0.34909117 54:-0.28615856 55:-0.019704314 56:-0.088113904 57:0.011092257 #
-0.0095723864133332881715121587262729 1:3.8942621 2:-0.17667121 3:1.3551394 4:-0.098842546 5:-0.44537586 6:-0.34561899 7:-0.26157999 8:-0.31560028 9:-0.30961666 10:-0.41393355 11:-0.22640149 12:-0.60592264 13:-0.21933696 14:-0.16083114 15:-0.15391792 16:-0.30765641 17:-0.37343216 18:-0.36310151 19:0.74356353 20:-0.14419276 21:-0.57808203 22:-0.062323686 23:-0.26375422 24:-0.25234732 25:-0.40743604 26:-0.4047187 27:0.035630431 28:-0.30796358 29:-0.16733444 30:-0.27352092 31:-0.20108834 32:-0.16073692 33:-0.18338262 34:-0.16487801 35:-0.27398148 36:-0.30811864 37:-0.39074841 38:-0.11907394 39:-0.21418162 40:-0.20511942 41:-0.13776088 42:-0.16252463 43:-0.2478133 44:-0.17397934 45:-0.31722111 46:-0.15619448 47:-0.066107452 48:-0.14383133 49:-0.22159693 50:-0.64531434 51:-0.26362848 52:-0.046759423 53:-0.34909117 54:-0.28615856 55:-0.073456042 56:-0.23132877 57:-0.46068627 #
-0.027083409392982607521993543286953 1:-0.32373646 2:-0.17667121 3:-0.50017285 4:-0.098842546 5:-0.44537586 6:-0.34561899 7:-0.26157999 8:-0.31560028 9:-0.30961666 10:-0.41393355 11:-0.22640149 12:-0.60592264 13:-0.21933696 14:5.5503707 15:-0.15391792 16:-0.30765641 17:-0.37343216 18:-0.36310151 19:2.2451875 20:-0.14419276 21:2.190984 22:-0.062323686 23:-0.26375422 24:8.0338602 25:-0.40743604 26:-0.4047187 27:-0.27057403 28:-0.30796358 29:-0.16733444 30:-0.27352092 31:-0.20108834 32:-0.16073692 33:-0.18338262 34:-0.16487801 35:-0.27398148 36:-0.30811864 37:-0.39074841 38:-0.11907394 39:-0.21418162 40:-0.20511942 41:-0.13776088 42:-0.16252463 43:-0.2478133 44:-0.17397934 45:-0.31722111 46:-0.15619448 47:-0.066107452 48:-0.14383133 49:0.81434089 50:0.4634763 51:-0.26362848 52:-0.52965069 53:-0.34909117 54:-0.28615856 55:-0.07955616 56:-0.27608341 57:-0.57415199 #
0.027083409392982607521993543286953 1:-0.32373646 2:-0.17667121 3:0.24577741 4:-0.098842546 5:0.58815813 6:-0.34561899 7:-0.26157999 8:-0.041437197 9:-0.026958233 10:0.02936391 11:0.35846189 12:-0.34720093 13:0.17308222 14:-0.16083114 15:-0.15391792 16:-0.30765641 17:-0.37343216 18:-0.36310151 19:-0.70223796 20:-0.14419276 21:-0.53654605 22:-0.062323686 23:-0.26375422 24:-0.25234732 25:-0.40743604 26:-0.4047187 27:-0.27057403 28:-0.30796358 29:-0.16733444 30:-0.14627562 31:-0.20108834 32:-0.16073692 33:-0.18338262 34:-0.16487801 35:-0.27398148 36:-0.30811864 37:-0.39074841 38:-0.11907394 39:-0.21418162 40:-0.20511942 41:-0.13776088 42:-0.16252463 43:-0.054893032 44:-0.17397934 45:-0.31722111 46:-0.15619448 47:-0.066107452 48:-0.14383133 49:-0.22159693 50:-0.49989921 51:-0.26362848 52:-0.52965069 53:-0.16222237 54:-0.28615856 55:-0.095093764 56:-0.19552505 57:0.079768874 #
-0.027083409232473643762917347999064 1:-0.32373646 2:-0.17667121 3:-0.50017285 4:-0.098842546 5:6.179842 6:-0.34561899 7:-0.26157999 8:-0.31560028 9:-0.30961666 10:-0.41393355 11:-0.22640149 12:-0.60592264 13:-0.21933696 14:-0.16083114 15:-0.15391792 16:-0.30765641 17:-0.37343216 18:-0.36310151 19:-0.88086981 20:-0.14419276 21:-0.57808203 22:-0.062323686 23:-0.26375422 24:-0.25234732 25:-0.40743604 26:-0.4047187 27:-0.27057403 28:-0.30796358 29:-0.16733444 30:-0.27352092 31:-0.20108834 32:-0.16073692 33:-0.18338262 34:-0.16487801 35:-0.27398148 36:-0.30811864 37:-0.39074841 38:-0.11907394 39:-0.21418162 40:-0.20511942 41:-0.13776088 42:-0.16252463 43:-0.2478133 44:-0.17397934 45:-0.31722111 46:-0.15619448 47:-0.066107452 48:-0.14383133 49:-0.22159693 50:-0.64531434 51:-0.26362848 52:-0.52965069 53:-0.34909117 54:-0.28615856 55:-0.044392094 56:-0.24923062 57:-0.57415199 #
-0.027083409392982607521993543286953 1:-0.32373646 2:-0.17667121 3:-0.50017285 4:-0.098842546 5:-0.44537586 6:-0.34561899 7:-0.26157999 8:-0.31560028 9:-0.30961666 10:-0.41393355 11:-0.22640149 12:-0.60592264 13:-0.21933696 14:-0.16083114 15:-0.15391792 16:4.6600766 17:-0.37343216 18:-0.36310151 19:1.1845609 20:-0.14419276 21:-0.57808203 22:-0.062323686 23:-0.26375422 24:-0.25234732 25:-0.40743604 26:-0.4047187 27:-0.27057403 28:-0.30796358 29:-0.16733444 30:-0.27352092 31:-0.20108834 32:-0.16073692 33:-0.18338262 34:-0.16487801 35:-0.27398148 36:-0.30811864 37:-0.39074841 38:-0.11907394 39:-0.21418162 40:-0.20511942 41:-0.13776088 42:-0.16252463 43:-0.2478133 44:-0.17397934 45:-0.31722111 46:-0.15619448 47:-0.066107452 48:-0.14383133 49:-0.22159693 50:-0.64531434 51:-0.26362848 52:-0.52965069 53:-0.34909117 54:-0.28615856 55:-0.095977843 56:-0.31188715 57:-0.61595517 #
-0.027083409392982607521993543286953 1:-0.32373646 2:-0.17667121 3:0.76220453 4:-0.098842546 5:-0.44537586 6:-0.34561899 7:-0.26157999 8:-0.31560028 9:-0.30961666 10:-0.41393355 11:-0.22640149 12:-0.60592264 13:-0.21933696 14:-0.16083114 15:-0.15391792 16:-0.30765641 17:-0.37343216 18:-0.36310151 19:0.60400742 20:-0.14419276 21:-0.57808203 22:-0.062323686 23:-0.26375422 24:-0.25234732 25:-0.40743604 26:-0.4047187 27:-0.27057403 28:-0.30796358 29:-0.16733444 30:-0.27352092 31:-0.20108834 32:-0.16073692 33:-0.18338262 34:-0.16487801 35:-0.27398148 36:-0.30811864 37:-0.39074841 38:-0.11907394 39:-0.21418162 40:-0.20511942 41:-0.13776088 42:-0.16252463 43:-0.2478133 44:-0.17397934 45:0.22527386 46:-0.15619448 47:-0.066107452 48:-0.14383133 49:-0.22159693 50:0.40440139 51:-0.26362848 52:0.14232451 53:-0.34909117 54:-0.28615856 55:-0.082827233 56:-0.1776232 57:-0.52637696 #
0.027083409392982607521993543286953 1:-0.32373646 2:-0.17667121 3:1.9672011 4:-0.098842546 5:-0.44537586 6:-0.34561899 7:-0.26157999 8:-0.31560028 9:-0.30961666 10:-0.41393355 11:-0.22640149 12:0.67773515 13:-0.21933696 14:-0.16083114 15:-0.15391792 16:-0.30765641 17:-0.37343216 18:-0.36310151 19:-0.16076016 20:-0.14419276 21:3.0147812 22:-0.062323686 23:-0.26375422 24:6.4284077 25:-0.40743604 26:-0.4047187 27:-0.27057403 28:-0.30796358 29:-0.16733444 30:-0.27352092 31:-0.20108834 32:-0.16073692 33:-0.18338262 34:-0.16487801 35:-0.27398148 36:-0.30811864 37:-0.39074841 38:-0.11907394 39:-0.21418162 40:-0.20511942 41:-0.13776088 42:-0.16252463 43:-0.2478133 44:-0.17397934 45:-0.31722111 46:-0.15619448 47:-0.066107452 48:-0.14383133 49:-0.22159693 50:-0.64531434 51:-0.26362848 52:-0.52965069 53:0.80715954 54:-0.28615856 55:-0.028257735 56:-0.10601576 57:-0.47263002 #
0.027083409392982607521993543286953 1:-0.32373646 2:-0.17667121 3:-0.50017285 4:-0.098842546 5:-0.44537586 6:-0.34561899 7:-0.26157999 8:-0.31560028 9:3.9773693 10:-0.41393355 11:-0.22640149 12:-0.60592264 13:-0.21933696 14:-0.16083114 15:-0.15391792 16:-0.30765641 17:-0.37343216 18:-0.36310151 19:-0.3728855 20:-0.14419276 21:1.3256509 22:-0.062323686 23:-0.26375422 24:-0.25234732 25:-0.40743604 26:-0.4047187 27:-0.27057403 28:-0.30796358 29:-0.16733444 30:-0.27352092 31:-0.20108834 32:-0.16073692 33:-0.18338262 34:-0.16487801 35:-0.27398148 36:-0.30811864 37:-0.39074841 38:-0.11907394 39:-0.21418162 40:-0.20511942 41:-0.13776088 42:-0.16252463 43:-0.2478133 44:-0.17397934 45:-0.31722111 46:-0.15619448 47:-0.066107452 48:-0.14383133 49:-0.22159693 50:-0.040932573 51:-0.26362848 52:1.0179286 53:-0.34909117 54:-0.28615856 55:-0.057653211 56:-0.07916297 57:-0.37707996 #
0.027083409392982607521993543286953 1:-0.32373646 2:-0.17667121 3:0.11188891 4:-0.098842546 5:0.41590247 6:2.6092982 7:0.43091992 8:1.1466029 9:-0.30961666 10:-0.41393355 11:-0.22640149 12:-0.28749591 13:0.74661791 14:-0.16083114 15:-0.15391792 16:0.12198539 17:0.41850561 18:-0.36310151 19:0.39188209 20:-0.14419276 21:1.6717842 22:-0.062323686 23:-0.26375422 24:1.4048942 25:-0.40743604 26:-0.4047187 27:-0.27057403 28:-0.30796358 29:-0.16733444 30:-0.27352092 31:-0.20108834 32:-0.16073692 33:-0.18338262 34:-0.16487801 35:-0.27398148 36:-0.30811864 37:-0.39074841 38:-0.11907394 39:-0.21418162 40:-0.20511942 41:-0.13776088 42:-0.16252463 43:-0.2478133 44:-0.17397934 45:-0.05419324 46:-0.15619448 47:-0.066107452 48:-0.14383133 49:-0.22159693 50:-0.17271507 51:-0.26362848 52:-0.52965069 53:0.56773388 54:0.81515127 55:-0.087778054 56:-0.2402797 57:-0.20986731 #
-0.014867757304489401248837054936303 1:-0.32373646 2:-0.17667121 3:1.0491085 4:-0.098842546 5:1.7144452 6:-0.34561899 7:-0.26157999 8:-0.31560028 9:-0.30961666 10:-0.41393355 11:-0.22640149 12:-0.60592264 13:-0.21933696 14:-0.16083114 15:-0.15391792 16:-0.30765641 17:-0.37343216 18:-0.36310151 19:-0.42870793 20:-0.14419276 21:-0.57808203 22:-0.062323686 23:-0.26375422 24:-0.25234732 25:-0.40743604 26:-0.4047187 27:-0.014877521 28:-0.30796358 29:-0.16733444 30:-0.27352092 31:-0.20108834 32:-0.16073692 33:-0.18338262 34:-0.16487801 35:-0.27398148 36:-0.30811864 37:-0.39074841 38:13.092552 39:-0.21418162 40:-0.20511942 41:-0.13776088 42:-0.16252463 43:-0.2478133 44:-0.17397934 45:-0.31722111 46:-0.15619448 47:-0.066107452 48:-0.14383133 49:-0.22159693 50:-0.64531434 51:-0.26362848 52:-0.52965069 53:-0.34909117 54:-0.28615856 55:-0.097657584 56:-0.31188715 57:-0.60102546 #
0.027083409392982607521993543286953 1:-0.32373646 2:-0.17667121 3:0.11188891 4:-0.098842546 5:0.40265203 6:2.5638378 7:0.43091992 8:1.1466029 9:-0.30961666 10:-0.41393355 11:-0.22640149 12:-0.28749591 13:0.74661791 14:-0.16083114 15:-0.15391792 16:0.12198539 17:0.41850561 18:-0.36310151 19:0.38629985 20:-0.14419276 21:1.6648614 22:-0.062323686 23:-0.26375422 24:1.4048942 25:-0.40743604 26:-0.4047187 27:-0.27057403 28:-0.30796358 29:-0.16733444 30:-0.27352092 31:-0.20108834 32:-0.16073692 33:-0.18338262 34:-0.16487801 35:-0.27398148 36:-0.30811864 37:-0.39074841 38:-0.11907394 39:-0.21418162 40:-0.20511942 41:-0.13776088 42:-0.16252463 43:-0.2478133 44:-0.17397934 45:-0.05419324 46:-0.15619448 47:-0.066107452 48:-0.14383133 49:-0.22159693 50:-0.16362663 51:-0.26362848 52:-0.52965069 53:0.57941324 54:0.83633029 55:-0.087778054 56:-0.2402797 57:-0.20986731 #
0.027083409392982607521993543286953 1:-0.32373646 2:-0.17667121 3:-0.50017285 4:-0.098842546 5:-0.44537586 6:-0.34561899 7:-0.26157999 8:-0.31560028 9:-0.30961666 10:-0.41393355 11:-0.22640149 12:-0.60592264 13:-0.21933696 14:-0.16083114 15:-0.15391792 16:-0.30765641 17:-0.37343216 18:-0.36310151 19:-0.16076016 20:-0.14419276 21:-0.13503145 22:-0.062323686 23:-0.26375422 24:-0.25234732 25:-0.40743604 26:-0.4047187 27:-0.27057403 28:-0.30796358 29:-0.16733444 30:-0.27352092 31:-0.20108834 32:-0.16073692 33:-0.18338262 34:-0.16487801 35:-0.27398148 36:-0.30811864 37:-0.39074841 38:-0.11907394 39:-0.21418162 40:-0.20511942 41:-0.13776088 42:-0.16252463 43:-0.2478133 44:-0.17397934 45:-0.31722111 46:-0.15619448 47:-0.066107452 48:-0.14383133 49:-0.22159693 50:-0.64531434 51:-0.26362848 52:-0.52965069 53:-0.34909117 54:-0.28615856 55:-0.097370259 56:-0.3029362 57:-0.54130667 #
-0.027083409392982607521993543286953 1:-0.32373646 2:-0.17667121 3:-0.50017285 4:-0.098842546 5:-0.44537586 6:-0.34561899 7:-0.26157999 8:-0.31560028 9:-0.30961666 10:-0.41393355 11:-0.22640149 12:-0.60592264 13:-0.21933696 14:5.5503707 15:-0.15391792 16:-0.30765641 17:-0.37343216 18:-0.36310151 19:2.2451875 20:-0.14419276 21:2.190984 22:-0.062323686 23:-0.26375422 24:8.0338602 25:-0.40743604 26:-0.4047187 27:-0.27057403 28:-0.30796358 29:-0.16733444 30:-0.27352092 31:-0.20108834 32:-0.16073692 33:-0.18338262 34:-0.16487801 35:-0.27398148 36:-0.30811864 37:-0.39074841 38:-0.11907394 39:-0.21418162 40:-0.20511942 41:-0.13776088 42:-0.16252463 43:-0.2478133 44:-0.17397934 45:-0.31722111 46:-0.15619448 47:-0.066107452 48:-0.14383133 49:0.81434089 50:0.4634763 51:-0.26362848 52:-0.52965069 53:-0.34909117 54:-0.28615856 55:-0.07955616 56:-0.27608341 57:-0.57415199 #
-0.027083409392982607521993543286953 1:-0.32373646 2:-0.17667121 3:5.065764 4:-0.098842546 5:-0.44537586 6:-0.34561899 7:-0.26157999 8:-0.31560028 9:-0.30961666 10:-0.41393355 11:-0.22640149 12:-0.60592264 13:-0.21933696 14:-0.16083114 15:-0.15391792 16:-0.30765641 17:-0.37343216 18:-0.36310151 19:0.20208576 20:-0.14419276 21:-0.57808203 22:-0.062323686 23:-0.26375422 24:-0.25234732 25:-0.40743604 26:-0.4047187 27:-0.27057403 28:-0.30796358 29:-0.16733444 30:-0.27352092 31:-0.20108834 32:-0.16073692 33:-0.18338262 34:-0.16487801 35:-0.27398148 36:-0.30811864 37:-0.39074841 38:-0.11907394 39:-0.21418162 40:-0.20511942 41:-0.13776088 42:-0.16252463 43:-0.2478133 44:-0.17397934 45:-0.31722111 46:-0.15619448 47:-0.066107452 48:-0.14383133 49:-0.22159693 50:1.1223887 51:-0.26362848 52:0.60194391 53:-0.34909117 54:-0.28615856 55:-0.093900271 56:-0.3029362 57:-0.55026448 #
-0.027083409392982607521993543286953 1:0.58943844 2:-0.17667121 3:-0.09850733 4:7.2782841 5:0.38940158 6:-0.34561899 7:-0.26157999 8:-0.31560028 9:-0.30961666 10:-0.41393355 11:1.6631571 12:-0.60592264 13:0.41457093 14:-0.16083114 15:-0.15391792 16:0.8201533 17:-0.37343216 18:0.43033454 19:0.17975679 20:-0.14419276 21:-0.57808203 22:-0.062323686 23:0.66586578 24:-0.25234732 25:-0.40743604 26:-0.4047187 27:-0.27057403 28:-0.30796358 29:-0.16733444 30:-0.27352092 31:-0.20108834 32:-0.16073692 33:-0.18338262 34:-0.16487801 35:-0.27398148 36:-0.30811864 37:0.11865877 38:-0.11907394 39:-0.21418162 40:-0.20511942 41:-0.13776088 42:-0.16252463 43:-0.2478133 44:-0.17397934 45:-0.31722111 46:-0.15619448 47:-0.066107452 48:-0.14383133 49:-0.22159693 50:-0.50444341 51:-0.26362848 52:0.55830914 53:0.012967132 54:-0.28615856 55:-0.057830028 56:0.30572698 57:0.57244897 #
-0.027083409392982607521993543286953 1:-0.32373646 2:-0.17667121 3:-0.50017285 4:-0.098842546 5:-0.44537586 6:-0.34561899 7:-0.26157999 8:-0.31560028 9:-0.30961666 10:-0.41393355 11:-0.22640149 12:-0.60592264 13:-0.21933696 14:-0.16083114 15:-0.15391792 16:-0.30765641 17:-0.37343216 18:-0.36310151 19:1.3520283 20:-0.14419276 21:-0.57808203 22:-0.062323686 23:-0.26375422 24:-0.25234732 25:-0.40743604 26:-0.4047187 27:-0.27057403 28:-0.30796358 29:-0.16733444 30:-0.27352092 31:-0.20108834 32:-0.16073692 33:-0.18338262 34:-0.16487801 35:-0.27398148 36:-0.30811864 37:-0.39074841 38:-0.11907394 39:-0.21418162 40:-0.20511942 41:-0.13776088 42:-0.16252463 43:-0.2478133 44:-0.17397934 45:-0.31722111 46:-0.15619448 47:-0.066107452 48:-0.14383133 49:-0.22159693 50:-0.64531434 51:-0.26362848 52:1.5909983 53:-0.34909117 54:-0.28615856 55:-0.080307625 56:-0.29398528 57:-0.59206766 #
-0.027083409392982607521993543286953 1:-0.32373646 2:-0.17667121 3:1.2786317 4:-0.098842546 5:-0.034612354 6:-0.34561899 7:-0.26157999 8:-0.31560028 9:1.1507852 10:-0.41393355 11:1.1682727 12:0.31950507 13:-0.21933696 14:-0.16083114 15:-0.15391792 16:-0.30765641 17:1.1609473 18:-0.36310151 19:1.2124722 20:-0.14419276 21:1.7963921 22:-0.062323686 23:-0.26375422 24:-0.25234732 25:-0.40743604 26:-0.4047187 27:-0.27057403 28:-0.30796358 29:-0.16733444 30:-0.27352092 31:-0.20108834 32:-0.16073692 33:-0.18338262 34:-0.16487801 35:-0.27398148 36:-0.30811864 37:0.36123362 38:-0.11907394 39:-0.21418162 40:-0.20511942 41:-0.13776088 42:-0.16252463 43:-0.2478133 44:-0.17397934 45:-0.31722111 46:-0.15619448 47:-0.066107452 48:-0.14383133 49:0.23693292 50:-0.15453817 51:-0.26362848 52:-0.37256557 53:-0.34909117 54:0.85750937 55:-0.061300021 56:-0.20447598 57:-0.20389542 #
0.027083409392982607521993543286953 1:-0.32373646 2:-0.17667121 3:-0.50017285 4:-0.098842546 5:-0.44537586 6:-0.34561899 7:-0.26157999 8:-0.31560028 9:-0.30961666 10:-0.41393355 11:-0.22640149 12:-0.60592264 13:-0.21933696 14:-0.16083114 15:-0.15391792 16:-0.30765641 17:-0.37343216 18:-0.36310151 19:-0.88086981 20:-0.14419276 21:-0.57808203 22:-0.062323686 23:-0.26375422 24:-0.25234732 25:0.61297631 26:-0.4047187 27:-0.27057403 28:-0.30796358 29:-0.16733444 30:-0.27352092 31:-0.20108834 32:-0.16073692 33:1.4042337 34:-0.16487801 35:-0.27398148 36:-0.30811864 37:-0.39074841 38:-0.11907394 39:-0.21418162 40:-0.20511942 41:-0.13776088 42:-0.16252463 43:-0.2478133 44:-0.17397934 45:-0.31722111 46:-0.15619448 47:-0.066107452 48:-0.14383133 49:-0.22159693 50:0.90881026 51:-0.26362848 52:-0.52965069 53:-0.34909117 54:-0.28615856 55:-0.072748788 56:-0.2402797 57:-0.48457378 #
0.0082627701238141629258571185800974 1:1.8939741 2:0.43684098 3:-0.50017285 4:-0.098842546 5:-0.44537586 6:-0.34561899 7:0.84209174 8:-0.31560028 9:-0.30961666 10:0.77597016 11:-0.22640149 12:-0.60592264 13:-0.21933696 14:-0.16083114 15:3.0369647 16:2.4715889 17:-0.37343216 18:3.5474048 19:-0.30589855 20:-0.14419276 21:0.13495249 22:-0.062323686 23:-0.26375422 24:-0.25234732 25:-0.40743604 26:-0.4047187 27:-0.27057403 28:-0.30796358 29:-0.16733444 30:-0.27352092 31:-0.20108834 32:-0.16073692 33:-0.18338262 34:-0.16487801 35:-0.27398148 36:-0.30811864 37:-0.39074841 38:-0.11907394 39:-0.21418162 40:-0.20511942 41:-0.13776088 42:-0.16252463 43:-0.2478133 44:-0.17397934 45:-0.31722111 46:-0.15619448 47:-0.066107452 48:-0.14383133 49:-0.22159693 50:-0.031844124 51:-0.26362848 52:-0.33474877 53:-0.34909117 54:-0.28615856 55:-0.062604032 56:-0.1776232 57:-0.36513618 #
0.027083409392982607521993543286953 1:-0.32373646 2:-0.17667121 3:0.87696612 4:-0.098842546 5:1.952953 6:-0.34561899 7:-0.26157999 8:-0.31560028 9:-0.30961666 10:0.42599848 11:-0.22640149 12:-0.24769257 13:-0.21933696 14:-0.16083114 15:-0.15391792 16:-0.30765641 17:1.4084278 18:-0.36310151 19:-0.47894815 20:-0.14419276 21:-0.32886606 22:-0.062323686 23:-0.26375422 24:-0.25234732 25:-0.40743604 26:-0.4047187 27:-0.27057403 28:-0.30796358 29:-0.16733444 30:-0.27352092 31:-0.20108834 32:-0.16073692 33:0.37151241 34:-0.16487801 35:-0.27398148 36:-0.30811864 37:-0.39074841 38:-0.11907394 39:-0.21418162 40:-0.20511942 41:-0.13776088 42:-0.16252463 43:-0.2478133 44:-0.17397934 45:-0.31722111 46:-0.15619448 47:-0.066107452 48:-0.14383133 49:0.22844163 50:0.55890501 51:-0.26362848 52:-0.52965069 53:-0.34909117 54:-0.28615856 55:-0.087645441 56:-0.2134269 57:-0.37409401 #
-0.027083409392982607521993543286953 1:-0.32373646 2:-0.17667121 3:-0.50017285 4:-0.098842546 5:-0.44537586 6:5.7460566 7:-0.26157999 8:-0.31560028 9:-0.30961666 10:-0.41393355 11:-0.22640149 12:-0.60592264 13:-0.21933696 14:-0.16083114 15:-0.15391792 16:-0.30765641 17:-0.37343216 18:0.90261787 19:-0.13284895 20:-0.14419276 21:-0.57808203 22:-0.062323686 23:-0.26375422 24:-0.25234732 25:-0.40743604 26:-0.4047187 27:-0.059071977 28:-0.30796358 29:-0.16733444 30:-0.27352092 31:-0.20108834 32:-0.16073692 33:1.8820601 34:-0.16487801 35:-0.27398148 36:-0.30811864 37:-0.39074841 38:-0.11907394 39:-0.21418162 40:-0.20511942 41:-0.13776088 42:-0.16252463 43:-0.2478133 44:1.2907555 45:0.23349348 46:-0.15619448 47:-0.066107452 48:-0.14383133 49:-0.22159693 50:-0.1409055 51:-0.26362848 52:-0.52965069 53:-0.34909117 54:-0.28615856 55:-0.093347721 56:-0.28503433 57:-0.55623633 #
-0.004041639261757191958768231643262 1:-0.32373646 2:-0.17667121 3:-0.50017285 4:-0.098842546 5:-0.44537586 6:-0.34561899 7:-0.26157999 8:2.7458875 9:-0.30961666 10:-0.41393355 11:-0.22640149 12:0.73744017 13:-0.21933696 14:-0.16083114 15:-0.15391792 16:0.59190613 17:-0.37343216 18:-0.36310151 19:1.3799396 20:-0.14419276 21:0.82029635 22:-0.062323686 23:-0.26375422 24:-0.25234732 25:-0.075554363 26:-0.4047187 27:-0.27057403 28:-0.30796358 29:-0.16733444 30:-0.27352092 31:-0.20108834 32:-0.16073692 33:-0.18338262 34:-0.16487801 35:1.0668955 36:-0.30811864 37:-0.39074841 38:-0.11907394 39:-0.21418162 40:-0.20511942 41:-0.13776088 42:-0.16252463 43:-0.2478133 44:-0.17397934 45:0.23349348 46:-0.15619448 47:-0.066107452 48:-0.14383133 49:-0.22159693 50:1.1087561 51:-0.26362848 52:-0.52965069 53:-0.34909117 54:-0.28615856 55:-0.049475525 56:-0.15972133 57:-0.27555799 #
0.027083409392982607521993543286953 1:-0.32373646 2:0.23233692 3:0.81958532 4:-0.098842546 5:0.0051389523 6:-0.34561899 7:0.10631058 8:-0.31560028 9:-0.30961666 10:0.77597016 11:0.53841984 12:-0.60592264 13:0.29382658 14:-0.16083114 15:0.90970963 16:-0.079409197 17:-0.37343216 18:1.2615533 19:-0.69107348 20:0.69251823 21:-0.2250261 22:-0.062323686 23:-0.26375422 24:-0.25234732 25:-0.40743604 26:-0.4047187 27:-0.27057403 28:-0.30796358 29:-0.16733444 30:-0.27352092 31:-0.20108834 32:-0.16073692 33:-0.18338262 34:-0.16487801 35:-0.27398148 36:-0.30811864 37:-0.39074841 38:-0.11907394 39:-0.21418162 40:-0.20511942 41:-0.13776088 42:-0.16252463 43:-0.2478133 44:-0.17397934 45:-0.31722111 46:-0.15619448 47:-0.066107452 48:-0.14383133 49:-0.22159693 50:-0.64531434 51:-0.26362848 52:0.38667911 53:-0.34909117 54:0.26449636 55:0.018907638 56:1.0038995 57:2.1758988 #
0.025397069443736743077355555442409 1:0.28504682 2:-0.0082560908 3:0.054508116 4:-0.098842546 5:-0.44537586 6:-0.34561899 7:-0.26157999 8:-0.31560028 9:5.2022223 10:0.26267835 11:0.40345138 12:-0.028774185 13:-0.21933696 14:-0.16083114 15:-0.15391792 16:-0.11968812 17:-0.37343216 18:-0.098622821 19:0.43095782 20:0.54486334 21:0.031112511 22:-0.062323686 23:-0.26375422 24:2.0263598 25:-0.40743604 26:-0.4047187 27:-0.27057403 28:-0.30796358 29:-0.16733444 30:-0.27352092 31:-0.20108834 32:-0.16073692 33:-0.18338262 34:-0.16487801 35:-0.27398148 36:-0.30811864 37:-0.39074841 38:4.6110144 39:-0.21418162 40:-0.20511942 41:-0.13776088 42:-0.16252463 43:-0.2478133 44:-0.17397934 45:-0.31722111 46:-0.15619448 47:-0.066107452 48:-0.14383133 49:-0.22159693 50:0.28170732 51:-0.26362848 52:0.063781954 53:0.39254439 54:1.8741031 55:-0.056282897 56:0.32362884 57:0.55751926 #
-0.027083409392982607521993543286953 1:-0.32373646 2:-0.17667121 3:-0.50017285 4:-0.098842546 5:2.3107147 6:-0.34561899 7:-0.26157999 8:-0.31560028 9:-0.30961666 10:-0.41393355 11:3.5077262 12:0.21999671 13:-0.21933696 14:-0.16083114 15:-0.15391792 16:0.80672699 17:-0.37343216 18:2.7728601 19:0.74356353 20:-0.14419276 21:-0.29425275 22:-0.062323686 23:-0.26375422 24:-0.25234732 25:-0.40743604 26:-0.4047187 27:-0.27057403 28:-0.30796358 29:-0.16733444 30:-0.27352092 31:-0.20108834 32:-0.16073692 33:-0.18338262 34:-0.16487801 35:-0.27398148 36:-0.30811864 37:-0.39074841 38:-0.11907394 39:-0.21418162 40:-0.20511942 41:-0.13776088 42:-0.16252463 43:-0.2478133 44:-0.17397934 45:-0.31722111 46:-0.15619448 47:-0.066107452 48:-0.14383133 49:-0.22159693 50:-0.050021019 51:-0.26362848 52:0.42740488 53:-0.34909117 54:1.0904788 55:-0.056282897 56:-0.23132877 57:-0.16806415 #
0.027083409392982607521993543286953 1:-0.32373646 2:-0.17667121 3:0.68569684 4:-0.098842546 5:1.1976782 6:2.4729173 7:-0.26157999 8:-0.31560028 9:-0.30961666 10:-0.41393355 11:-0.22640149 12:-0.60592264 13:-0.21933696 14:-0.16083114 15:-0.15391792 16:0.10855909 17:-0.37343216 18:-0.36310151 19:0.50352699 20:-0.14419276 21:0.065725833 22:-0.062323686 23:1.108542 24:-0.25234732 25:-0.40743604 26:-0.4047187 27:-0.27057403 28:-0.30796358 29:-0.16733444 30:-0.27352092 31:-0.20108834 32:-0.16073692 33:-0.18338262 34:-0.16487801 35:-0.27398148 36:-0.30811864 37:0.36123362 38:-0.11907394 39:-0.21418162 40:-0.20511942 41:-0.13776088 42:-0.16252463 43:-0.2478133 44:-0.17397934 45:-0.31722111 46:-0.15619448 47:-0.066107452 48:-0.14383133 49:-0.22159693 50:-0.25451109 51:-0.26362848 52:-0.40456438 53:-0.34909117 54:-0.28615856 55:-0.083269268 56:-0.20447598 57:-0.17403603 #
0.027083409392982607521993543286953 1:-0.32373646 2:-0.17667121 3:-0.50017285 4:-0.098842546 5:2.867233 6:-0.34561899 7:-0.26157999 8:-0.31560028 9:-0.30961666 10:-0.41393355 11:-0.22640149 12:0.011029158 13:-0.21933696 14:-0.16083114 15:-0.15391792 16:-0.30765641 17:2.7200749 18:-0.36310151 19:0.86079067 20:-0.14419276 21:-0.14887679 22:-0.062323686 23:-0.26375422 24:-0.25234732 25:-0.40743604 26:-0.4047187 27:-0.27057403 28:-0.30796358 29:-0.16733444 30:-0.27352092 31:-0.20108834 32:-0.16073692 33:-0.18338262 34:-0.16487801 35:-0.27398148 36:-0.30811864 37:-0.39074841 38:-0.11907394 39:-0.21418162 40:-0.20511942 41:-0.13776088 42:-0.16252463 43:-0.2478133 44:-0.17397934 45:-0.31722111 46:-0.15619448 47:-0.066107452 48:-0.14383133 49:-0.22159693 50:-0.64531434 51:-0.26362848 52:-0.29693201 53:-0.34909117 54:-0.28615856 55:-0.075091586 56:-0.16867226 57:-0.46665815 #
-0.00885486647564874031213211225122 1:-0.32373646 2:-0.17667121 3:2.5218821 4:-0.098842546 5:-0.44537586 6:-0.34561899 7:-0.26157999 8:-0.31560028 9:-0.30961666 10:-0.41393355 11:-0.22640149 12:-0.60592264 13:-0.21933696 14:-0.16083114 15:-0.15391792 16:-0.30765641 17:-0.37343216 18:-0.36310151 19:-0.88086981 20:-0.14419276 21:-0.57808203 22:-0.062323686 23:-0.26375422 24:-0.25234732 25:1.95041 26:1.2271153 27:0.22819199 28:5.1058965 29:-0.16733444 30:3.0772715 31:-0.20108834 32:-0.16073692 33:-0.18338262 34:-0.16487801 35:2.8880866 36:-0.30811864 37:-0.39074841 38:-0.11907394 39:-0.21418162 40:-0.20511942 41:-0.13776088 42:-0.16252463 43:-0.2478133 44:-0.17397934 45:-0.31722111 46:-0.15619448 47:-0.066107452 48:-0.14383133 49:-0.22159693 50:1.1723752 51:-0.26362848 52:-0.52965069 53:3.1605387 54:-0.28615856 55:-0.047486357 56:-0.2134269 57:-0.38603777 #
-0.027083409392982607521993543286953 1:-0.32373646 2:-0.17667121 3:-0.50017285 4:-0.098842546 5:-0.44537586 6:-0.34561899 7:-0.26157999 8:-0.31560028 9:-0.30961666 10:-0.41393355 11:-0.22640149 12:2.7574599 13:-0.21933696 14:-0.16083114 15:-0.15391792 16:-0.30765641 17:3.8089893 18:-0.36310151 19:-0.88086981 20:-0.14419276 21:-0.57808203 22:-0.062323686 23:-0.26375422 24:-0.25234732 25:-0.40743604 26:-0.4047187 27:-0.27057403 28:-0.30796358 29:-0.16733444 30:-0.27352092 31:-0.20108834 32:-0.16073692 33:-0.18338262 34:-0.16487801 35:-0.27398148 36:-0.30811864 37:-0.39074841 38:-0.11907394 39:-0.21418162 40:-0.20511942 41:-0.13776088 42:-0.16252463 43:-0.2478133 44:-0.17397934 45:-0.31722111 46:-0.15619448 47:-0.066107452 48:-0.14383133 49:-0.22159693 50:0.28170732 51:-0.26362848 52:0.65721458 53:-0.34909117 54:-0.28615856 55:0.014995609 56:0.090904683 57:-0.34124866 #
0.019295609131400773966769079947881 1:0.28504682 2:-0.0082560908 3:0.054508116 4:-0.098842546 5:-0.44537586 6:-0.34561899 7:-0.26157999 8:-0.31560028 9:5.2022223 10:0.26267835 11:0.40345138 12:-0.028774185 13:-0.21933696 14:-0.16083114 15:-0.15391792 16:-0.11968812 17:-0.37343216 18:-0.098622821 19:0.43095782 20:0.54486334 21:0.031112511 22:-0.062323686 23:-0.26375422 24:2.0263598 25:-0.40743604 26:-0.4047187 27:-0.27057403 28:-0.30796358 29:-0.16733444 30:-0.27352092 31:-0.20108834 32:-0.16073692 33:-0.18338262 34:-0.16487801 35:-0.27398148 36:-0.30811864 37:-0.39074841 38:4.6110144 39:-0.21418162 40:-0.20511942 41:-0.13776088 42:-0.16252463 43:-0.2478133 44:-0.17397934 45:-0.31722111 46:-0.15619448 47:-0.066107452 48:-0.14383133 49:-0.22159693 50:0.28170732 51:-0.26362848 52:0.063781954 53:0.39254439 54:1.8741031 55:-0.056282897 56:0.32362884 57:0.55751926 #
-0.027083409392982607521993543286953 1:0.41550037 2:-0.17667121 3:0.47530058 4:-0.098842546 5:-0.22011846 6:-0.34561899 7:-0.26157999 8:-0.31560028 9:-0.30961666 10:2.7591429 11:-0.22640149 12:-0.43675846 13:-0.21933696 14:-0.16083114 15:-0.15391792 16:-0.079409197 17:0.46800172 18:-0.36310151 19:-0.21658263 20:-0.14419276 21:0.010344515 22:-0.062323686 23:-0.26375422 24:-0.25234732 25:0.35044304 26:0.29758957 27:-0.27057403 28:-0.30796358 29:-0.16733444 30:-0.27352092 31:-0.20108834 32:-0.16073692 33:-0.18338262 34:-0.16487801 35:-0.27398148 36:-0.30811864 37:-0.39074841 38:-0.11907394 39:-0.21418162 40:-0.20511942 41:-0.13776088 42:-0.16252463 43:-0.2478133 44:-0.17397934 45:-0.31722111 46:-0.15619448 47:-0.066107452 48:-0.14383133 49:0.0076679932 50:-0.1409055 51:-0.26362848 52:-0.043850437 53:-0.34909117 54:-0.28615856 55:-0.079887688 56:-0.13286854 57:0.0081063164 #
-0.027083409392982607521993543286953 1:-0.32373646 2:-0.17667121 3:-0.50017285 4:-0.098842546 5:-0.44537586 6:-0.34561899 7:-0.26157999 8:-0.31560028 9:-0.30961666 10:3.9023838 11:-0.22640149 12:-0.60592264 13:-0.21933696 14:-0.16083114 15:-0.15391792 16:-0.30765641 17:-0.37343216 18:-0.36310151 19:1.1845609 20:-0.14419276 21:-0.57808203 22:-0.062323686 23:-0.26375422 24:-0.25234732 25:-0.40743604 26:-0.4047187 27:0.31342417 28:-0.30796358 29:-0.16733444 30:-0.27352092 31:-0.20108834 32:-0.16073692 33:-0.18338262 34:-0.16487801 35:-0.27398148 36:-0.30811864 37:-0.39074841 38:-0.11907394 39:-0.21418162 40:-0.20511942 41:-0.13776088 42:-0.16252463 43:-0.2478133 44:-0.17397934 45:-0.31722111 46:-0.15619448 47:-0.066107452 48:-0.14383133 49:-0.22159693 50:-0.64531434 51:-0.26362848 52:0.48558456 53:-0.34909117 54:-0.28615856 55:-0.089258879 56:-0.29398528 57:-0.56220824 #
-0.027083409392982607521993543286953 1:-0.32373646 2:-0.1285526 3:-0.021999607 4:-0.098842546 5:-0.39237413 6:-0.16377795 7:-0.26157999 8:-0.31560028 9:0.44413912 10:-0.22728199 11:0.67338836 12:0.011029158 13:-0.21933696 14:-0.16083114 15:-0.15391792 16:-0.092835501 17:-0.27443993 18:-0.36310151 19:-0.48453039 20:-0.14419276 21:-0.29425275 22:-0.062323686 23:0.26745722 24:-0.25234732 25:0.58820903 26:0.018731885 27:-0.27057403 28:-0.1030225 29:-0.16733444 30:-0.10386053 31:0.074301034 32:-0.16073692 33:-0.18338262 34:-0.16487801 35:-0.19392912 36:-0.30811864 37:0.094401278 38:-0.11907394 39:-0.21418162 40:-0.20511942 41:-0.13776088 42:-0.16252463 43:-0.2478133 44:0.00091436831 45:-0.25146413 46:-0.15619448 47:-0.066107452 48:-0.0055218609 49:-0.11970141 50:0.59980303 51:-0.039215405 52:-0.4394722 53:-0.022070769 54:-0.28615856 55:-0.081302203 56:-0.12391762 57:3.7793486 #
0.027083409392982607521993543286953 1:-0.32373646 2:-0.17667121 3:0.24577741 4:-0.098842546 5:0.58815813 6:-0.34561899 7:-0.26157999 8:-0.041437197 9:-0.026958233 10:0.02936391 11:0.35846189 12:-0.34720093 13:0.17308222 14:-0.16083114 15:-0.15391792 16:-0.30765641 17:-0.37343216 18:-0.36310151 19:-0.70223796 20:-0.14419276 21:-0.53654605 22:-0.062323686 23:-0.26375422 24:-0.25234732 25:-0.40743604 26:-0.4047187 27:-0.27057403 28:-0.30796358 29:-0.16733444 30:-0.14627562 31:-0.20108834 32:-0.16073692 33:-0.18338262 34:-0.16487801 35:-0.27398148 36:-0.30811864 37:-0.39074841 38:-0.11907394 39:-0.21418162 40:-0.20511942 41:-0.13776088 42:-0.16252463 43:-0.054893032 44:-0.17397934 45:-0.31722111 46:-0.15619448 47:-0.066107452 48:-0.14383133 49:-0.22159693 50:-0.49989921 51:-0.26362848 52:-0.52965069 53:-0.16222237 54:-0.28615856 55:-0.095093764 56:-0.19552505 57:0.079768874 #
0.027083409392982607521993543286953 1:-0.32373646 2:-0.17667121 3:-0.50017285 4:-0.098842546 5:-0.44537586 6:-0.34561899 7:-0.26157999 8:-0.31560028 9:-0.30961666 10:-0.41393355 11:5.3073058 12:0.61803013 13:-0.21933696 14:-0.16083114 15:-0.15391792 16:-0.30765641 17:-0.37343216 18:-0.36310151 19:0.49236253 20:-0.14419276 21:-0.57808203 22:-0.062323686 23:-0.26375422 24:-0.25234732 25:-0.40743604 26:-0.4047187 27:-0.27057403 28:-0.30796358 29:-0.16733444 30:-0.27352092 31:-0.20108834 32:-0.16073692 33:-0.18338262 34:-0.16487801 35:-0.27398148 36:-0.30811864 37:-0.39074841 38:-0.11907394 39:-0.21418162 40:-0.20511942 41:-0.13776088 42:-0.16252463 43:-0.2478133 44:-0.17397934 45:-0.31722111 46:-0.15619448 47:-0.066107452 48:-0.14383133 49:-0.22159693 50:-0.64531434 51:-0.26362848 52:3.2054842 53:-0.34909117 54:-0.28615856 55:-0.091756389 56:-0.28503433 57:-0.5801239 #
0.027083409392982607521993543286953 1:-0.32373646 2:-0.17667121 3:-0.50017285 4:-0.098842546 5:-0.44537586 6:-0.34561899 7:-0.26157999 8:-0.31560028 9:-0.30961666 10:-0.41393355 11:-0.22640149 12:-0.60592264 13:-0.21933696 14:-0.16083114 15:-0.15391792 16:1.4109107 17:-0.37343216 18:-0.36310151 19:1.2627124 20:-0.14419276 21:2.0802214 22:-0.062323686 23:-0.26375422 24:-0.25234732 25:-0.40743604 26:-0.4047187 27:-0.27057403 28:-0.30796358 29:-0.16733444 30:-0.27352092 31:-0.20108834 32:-0.16073692 33:-0.18338262 34:-0.16487801 35:-0.27398148 36:-0.30811864 37:-0.39074841 38:-0.11907394 39:-0.21418162 40:-0.20511942 41:-0.13776088 42:-0.16252463 43:-0.2478133 44:-0.17397934 45:0.73489034 46:-0.15619448 47:-0.066107452 48:-0.14383133 49:-0.22159693 50:-0.64531434 51:-0.26362848 52:0.13941552 53:0.99402839 54:-0.28615856 55:0.00065150071 56:0.03719911 57:-0.42186904 #
-0.027083409392982607521993543286953 1:-0.32373646 2:-0.17667121 3:-0.50017285 4:-0.098842546 5:2.3107147 6:-0.34561899 7:-0.26157999 8:-0.31560028 9:-0.30961666 10:-0.41393355 11:3.5077262 12:0.21999671 13:-0.21933696 14:-0.16083114 15:-0.15391792 16:0.80672699 17:-0.37343216 18:2.7728601 19:0.74356353 20:-0.14419276 21:-0.29425275 22:-0.062323686 23:-0.26375422 24:-0.25234732 25:-0.40743604 26:-0.4047187 27:-0.27057403 28:-0.30796358 29:-0.16733444 30:-0.27352092 31:-0.20108834 32:-0.16073692 33:-0.18338262 34:-0.16487801 35:-0.27398148 36:-0.30811864 37:-0.39074841 38:-0.11907394 39:-0.21418162 40:-0.20511942 41:-0.13776088 42:-0.16252463 43:-0.2478133 44:-0.17397934 45:-0.31722111 46:-0.15619448 47:-0.066107452 48:-0.14383133 49:-0.22159693 50:-0.050021019 51:-0.26362848 52:0.42740488 53:-0.34909117 54:1.0904788 55:-0.056282897 56:-0.23132877 57:-0.16806415 #
-0.027083409392982607521993543286953 1:-0.32373646 2:-0.17667121 3:-0.50017285 4:-0.098842546 5:-0.44537586 6:-0.34561899 7:-0.26157999 8:-0.31560028 9:-0.30961666 10:-0.41393355 11:-0.22640149 12:2.7574599 13:-0.21933696 14:-0.16083114 15:-0.15391792 16:-0.30765641 17:3.8089893 18:-0.36310151 19:-0.88086981 20:-0.14419276 21:-0.57808203 22:-0.062323686 23:-0.26375422 24:-0.25234732 25:-0.40743604 26:-0.4047187 27:-0.27057403 28:-0.30796358 29:-0.16733444 30:-0.27352092 31:-0.20108834 32:-0.16073692 33:-0.18338262 34:-0.16487801 35:-0.27398148 36:-0.30811864 37:-0.39074841 38:-0.11907394 39:-0.21418162 40:-0.20511942 41:-0.13776088 42:-0.16252463 43:-0.2478133 44:-0.17397934 45:-0.31722111 46:-0.15619448 47:-0.066107452 48:-0.14383133 49:-0.22159693 50:0.28170732 51:-0.26362848 52:0.65721458 53:-0.34909117 54:-0.28615856 55:0.014995609 56:0.090904683 57:-0.34124866 #
0.027083409392982607521993543286953 1:-0.32373646 2:-0.17667121 3:0.24577741 4:-0.098842546 5:0.58815813 6:-0.34561899 7:-0.26157999 8:-0.041437197 9:-0.026958233 10:0.02936391 11:0.35846189 12:-0.34720093 13:0.17308222 14:-0.16083114 15:-0.15391792 16:-0.30765641 17:-0.37343216 18:-0.36310151 19:-0.70223796 20:-0.14419276 21:-0.53654605 22:-0.062323686 23:-0.26375422 24:-0.25234732 25:-0.40743604 26:-0.4047187 27:-0.27057403 28:-0.30796358 29:-0.16733444 30:-0.14627562 31:-0.20108834 32:-0.16073692 33:-0.18338262 34:-0.16487801 35:-0.27398148 36:-0.30811864 37:-0.39074841 38:-0.11907394 39:-0.21418162 40:-0.20511942 41:-0.13776088 42:-0.16252463 43:-0.054893032 44:-0.17397934 45:-0.31722111 46:-0.15619448 47:-0.066107452 48:-0.14383133 49:-0.22159693 50:-0.49989921 51:-0.26362848 52:-0.52965069 53:-0.16222237 54:-0.28615856 55:-0.095093764 56:-0.19552505 57:0.079768874 #
0.027083409392982607521993543286953 1:-0.32373646 2:1.4112427 3:0.57093525 4:-0.098842546 5:-0.44537586 6:3.9276457 7:-0.26157999 8:0.50688899 9:1.4334437 10:1.3359249 11:-0.22640149 12:1.4539003 13:-0.21933696 14:-0.16083114 15:-0.15391792 16:-0.30765641 17:0.54224592 18:-0.36310151 19:0.48678026 20:-0.14419276 21:0.072648503 22:-0.062323686 23:-0.26375422 24:0.67985106 25:-0.40743604 26:-0.4047187 27:-0.21375258 28:-0.30796358 29:-0.16733444 30:-0.27352092 31:-0.20108834 32:-0.16073692 33:-0.18338262 34:-0.16487801 35:-0.27398148 36:-0.30811864 37:-0.39074841 38:-0.11907394 39:-0.21418162 40:-0.20511942 41:-0.13776088 42:-0.16252463 43:-0.2478133 44:-0.17397934 45:-0.31722111 46:-0.15619448 47:-0.066107452 48:-0.14383133 49:-0.22159693 50:-0.28177646 51:-0.26362848 52:0.17141435 53:0.27575138 54:-0.28615856 55:-0.063775428 56:-0.016506467 57:0.091712639 #
0.027083409392982607521993543286953 1:-0.019344825 2:0.26842588 3:1.0491085 4:-0.098842546 5:0.23039636 6:0.97272867 7:-0.11009564 8:-0.31560028 9:0.020151503 10:0.44932991 11:0.088524953 12:0.86680102 13:0.2032683 14:-0.16083114 15:0.28404635 16:-0.30765641 17:-0.026959384 18:0.46811721 19:1.1008272 20:-0.14419276 21:0.70261103 22:-0.062323686 23:-0.26375422 24:0.47269586 25:-0.40743604 26:-0.4047187 27:-0.27057403 28:-0.30796358 29:-0.16733444 30:-0.27352092 31:-0.20108834 32:-0.16073692 33:-0.18338262 34:-0.16487801 35:-0.27398148 36:-0.30811864 37:-0.051143631 38:-0.11907394 39:-0.21418162 40:-0.20511942 41:-0.13776088 42:-0.16252463 43:-0.2478133 44:-0.17397934 45:-0.31722111 46:-0.15619448 47:-0.066107452 48:-0.14383133 49:0.19447646 50:-0.33176291 51:-0.26362848 52:-0.067122303 53:0.57941324 54:-0.095547244 55:-0.045364577 56:0.064051896 57:1.7578672 #
0.026740763874936974292539915154521 1:0.45898491 2:-0.17667121 3:-0.15588811 4:-0.098842546 5:1.6349425 6:1.2909505 7:-0.13173626 8:-0.041437197 9:-0.026958233 10:-0.13395621 11:0.04353546 12:-0.068577528 13:0.68624574 14:0.26750898 15:-0.15391792 16:-0.30765641 17:1.4084278 18:-0.24975349 19:1.6255583 20:1.0370463 21:0.17648847 22:-0.062323686 23:3.4989936 24:0.058385473 25:-0.40743604 26:-0.4047187 27:-0.27057403 28:-0.30796358 29:-0.16733444 30:-0.27352092 31:-0.20108834 32:-0.16073692 33:-0.18338262 34:-0.16487801 35:-0.27398148 36:-0.30811864 37:-0.39074841 38:-0.11907394 39:-0.21418162 40:-0.20511942 41:-0.13776088 42:-0.16252463 43:-0.054893032 44:-0.17397934 45:-0.26790336 46:-0.15619448 47:-0.066107452 48:-0.14383133 49:-0.136684 50:-0.4090147 51:-0.26362848 52:-0.50056088 53:0.6261304 54:-0.28615856 55:-0.083379783 56:-0.22237784 57:0.67994285 #
-0.025093756716612247020803394548238 1:-0.32373646 2:-0.17667121 3:2.1010897 4:-0.098842546 5:0.45565379 6:2.7456789 7:-0.26157999 8:-0.31560028 9:-0.30961666 10:-0.41393355 11:-0.22640149 12:-0.60592264 13:-0.21933696 14:-0.16083114 15:-0.15391792 16:-0.30765641 17:-0.37343216 18:-0.36310151 19:0.26349047 20:-0.14419276 21:-0.57808203 22:-0.062323686 23:-0.26375422 24:-0.25234732 25:-0.40743604 26:-0.4047187 27:0.15874356 28:-0.30796358 29:-0.16733444 30:-0.27352092 31:-0.20108834 32:-0.16073692 33:-0.18338262 34:-0.16487801 35:-0.27398148 36:-0.30811864 37:1.2587606 38:-0.11907394 39:-0.21418162 40:-0.20511942 41:-0.13776088 42:-0.16252463 43:-0.2478133 44:-0.17397934 45:-0.31722111 46:-0.15619448 47:-0.066107452 48:-0.14383133 49:-0.22159693 50:0.97697359 51:-0.26362848 52:-0.52965069 53:-0.34909117 54:-0.28615856 55:-0.093148805 56:-0.28503433 57:-0.50547534 #
0.027083409392982607521993543286953 1:-0.32373646 2:-0.17667121 3:1.6420434 4:-0.098842546 5:0.29664853 6:-0.34561899 7:-0.26157999 8:-0.31560028 9:-0.30961666 10:0.89262736 11:-0.22640149 12:-0.60592264 13:-0.21933696 14:-0.16083114 15:-0.15391792 16:0.44421673 17:-0.37343216 18:-0.36310151 19:0.37513536 20:-0.14419276 21:0.19725648 22:-0.062323686 23:-0.26375422 24:-0.25234732 25:-0.40743604 26:-0.4047187 27:-0.27057403 28:-0.30796358 29:-0.16733444 30:-0.27352092 31:-0.20108834 32:-0.16073692 33:-0.18338262 34:-0.16487801 35:-0.27398148 36:-0.30811864 37:-0.39074841 38:-0.11907394 39:-0.21418162 40:-0.20511942 41:-0.13776088 42:-0.16252463 43:-0.2478133 44:-0.17397934 45:0.14307766 46:-0.15619448 47:-0.066107452 48:-0.14383133 49:-0.22159693 50:-0.18180351 51:-0.26362848 52:1.2593741 53:-0.34909117 54:-0.28615856 55:-0.06863784 56:-0.15972133 57:-0.22778295 #
-0.0014523603038484674161712195683549 1:-0.32373646 2:-0.17667121 3:4.2815595 4:-0.098842546 5:-0.44537586 6:-0.34561899 7:-0.26157999 8:-0.31560028 9:-0.30961666 10:-0.41393355 11:-0.22640149 12:-0.60592264 13:-0.21933696 14:-0.16083114 15:-0.15391792 16:-0.30765641 17:-0.37343216 18:-0.36310151 19:-0.88086981 20:-0.14419276 21:-0.57808203 22:-0.062323686 23:-0.26375422 24:-0.25234732 25:-0.40743604 26:-0.4047187 27:-0.27057403 28:-0.30796358 29:-0.16733444 30:-0.27352092 31:-0.20108834 32:-0.16073692 33:-0.18338262 34:-0.16487801 35:-0.27398148 36:-0.30811864 37:-0.39074841 38:-0.11907394 39:-0.21418162 40:-0.20511942 41:-0.13776088 42:2.6250048 43:-0.2478133 44:-0.17397934 45:-0.31722111 46:-0.15619448 47:-0.066107452 48:-0.14383133 49:-0.22159693 50:-0.64531434 51:-0.26362848 52:-0.52965069 53:-0.34909117 54:-0.28615856 55:-0.099646755 56:-0.32083806 57:-0.59206766 #
0.0023993235195709961167509494117667 1:-0.32373646 2:-0.17667121 3:-0.17501505 4:18.168327 5:-0.22011846 6:-0.34561899 7:0.10631058 8:-0.31560028 9:2.9409552 10:-0.01729898 11:0.53841984 12:-0.60592264 13:-0.21933696 14:-0.16083114 15:-0.15391792 16:2.0285208 17:-0.37343216 18:0.94040054 19:-0.3003163 20:-0.14419276 21:-0.46039671 22:-0.062323686 23:-0.26375422 24:-0.25234732 25:-0.32322726 26:-0.4047187 27:-0.27057403 28:-0.30796358 29:-0.16733444 30:-0.27352092 31:-0.20108834 32:-0.16073692 33:-0.18338262 34:0.23597549 35:-0.27398148 36:-0.30811864 37:0.43400607 38:-0.11907394 39:-0.21418162 40:0.18713418 41:-0.13776088 42:-0.16252463 43:-0.2478133 44:-0.17397934 45:-0.31722111 46:-0.15619448 47:-0.066107452 48:-0.14383133 49:-0.22159693 50:-0.31813022 51:-0.26362848 52:1.6637229 53:3.6277106 54:-0.28615856 55:-0.016985785 56:0.13565934 57:2.2505474 #
0.027083409392982607521993543286953 1:-0.32373646 2:-0.17667121 3:-0.50017285 4:-0.098842546 5:-0.44537586 6:-0.34561899 7:1.9890447 8:-0.31560028 9:-0.30961666 10:-0.41393355 11:-0.22640149 12:-0.60592264 13:-0.21933696 14:-0.16083114 15:-0.15391792 16:2.4850152 17:-0.37343216 18:-0.36310151 19:0.2802372 20:-0.14419276 21:0.86183232 22:-0.062323686 23:-0.26375422 24:-0.25234732 25:-0.40743604 26:-0.4047187 27:-0.27057403 28:-0.30796358 29:-0.16733444 30:-0.27352092 31:-0.20108834 32:-0.16073692 33:-0.18338262 34:-0.16487801 35:-0.27398148 36:-0.30811864 37:-0.39074841 38:-0.11907394 39:-0.21418162 40:-0.20511942 41:-0.13776088 42:-0.16252463 43:-0.2478133 44:-0.17397934 45:-0.31722111 46:-0.15619448 47:-0.066107452 48:-0.14383133 49:-0.22159693 50:-0.64531434 51:-0.26362848 52:-0.52965069 53:-0.34909117 54:-0.28615856 55:-0.037496313 56:-0.23132877 57:-0.45471439 #
-0.027083409392982607521993543286953 1:-0.32373646 2:-0.17667121 3:-0.50017285 4:-0.098842546 5:-0.44537586 6:-0.34561899 7:-0.26157999 8:-0.31560028 9:-0.30961666 10:-0.41393355 11:-0.22640149 12:-0.60592264 13:-0.21933696 14:-0.16083114 15:-0.15391792 16:1.6928632 17:-0.37343216 18:-0.36310151 19:0.78263927 20:-0.14419276 21:-0.57808203 22:-0.062323686 23:-0.26375422 24:-0.25234732 25:-0.40743604 26:-0.4047187 27:0.19978127 28:-0.30796358 29:-0.16733444 30:-0.27352092 31:-0.20108834 32:-0.16073692 33:-0.18338262 34:-0.16487801 35:-0.27398148 36:-0.30811864 37:-0.39074841 38:-0.11907394 39:-0.21418162 40:-0.20511942 41:-0.13776088 42:-0.16252463 43:-0.2478133 44:-0.17397934 45:-0.31722111 46:-0.15619448 47:-0.066107452 48:-0.14383133 49:-0.22159693 50:-0.64531434 51:-0.26362848 52:-0.52965069 53:-0.34909117 54:-0.28615856 55:-0.082827233 56:-0.28503433 57:-0.52637696 #
0.027083409392982607521993543286953 1:-0.32373646 2:-0.17667121 3:-0.50017285 4:-0.098842546 5:-0.44537586 6:-0.34561899 7:-0.26157999 8:5.5789061 9:-0.30961666 10:0.58931857 11:-0.22640149 12:-0.60592264 13:-0.21933696 14:-0.16083114 15:-0.15391792 16:0.26967475 17:-0.37343216 18:2.9050994 19:-0.64083326 20:-0.14419276 21:-0.28040743 22:-0.062323686 23:-0.26375422 24:-0.25234732 25:-0.40743604 26:-0.4047187 27:-0.27057403 28:-0.30796358 29:-0.16733444 30:-0.27352092 31:-0.20108834 32:-0.16073692 33:-0.18338262 34:-0.16487801 35:-0.27398148 36:0.57650024 37:-0.39074841 38:-0.11907394 39:-0.21418162 40:-0.20511942 41:-0.13776088 42:-0.16252463 43:-0.2478133 44:-0.17397934 45:-0.31722111 46:-0.15619448 47:-0.066107452 48:-0.14383133 49:-0.22159693 50:-0.081830591 51:-0.26362848 52:0.37213421 53:0.012967132 54:-0.28615856 55:-0.089104161 56:-0.25818154 57:-0.44277063 #
0.027083409392982607521993543286953 1:-0.32373646 2:0.64134502 3:0.15014276 4:-0.098842546 5:0.0051389523 6:-0.34561899 7:-0.26157999 8:-0.31560028 9:-0.30961666 10:-0.41393355 11:-0.22640149 12:0.070734173 13:-0.21933696 14:-0.16083114 15:-0.15391792 16:0.148838 17:-0.37343216 18:2.2250113 19:0.079276368 20:-0.14419276 21:0.13495249 22:-0.062323686 23:-0.26375422 24:-0.25234732 25:-0.40743604 26:-0.4047187 27:-0.27057403 28:-0.30796358 29:-0.16733444 30:-0.27352092 31:-0.20108834 32:-0.16073692 33:-0.18338262 34:-0.16487801 35:-0.27398148 36:-0.30811864 37:-0.39074841 38:-0.11907394 39:-0.21418162 40:-0.20511942 41:-0.13776088 42:-0.16252463 43:-0.2478133 44:-0.17397934 45:-0.31722111 46:-0.15619448 47:-0.066107452 48:-0.14383133 49:-0.22159693 50:-0.39538205 51:-0.26362848 52:1.5589995 53:-0.34909117 54:-0.28615856 55:-0.039573889 56:0.2162177 57:0.15143144 #
-0.027083409392982607521993543286953 1:-0.32373646 2:-0.17667121 3:-0.50017285 4:-0.098842546 5:0.56165725 6:0.79088759 7:-0.26157999 8:5.4875183 9:-0.30961666 10:-0.41393355 11:-0.22640149 12:0.15034086 13:-0.21933696 14:-0.16083114 15:-0.15391792 16:-0.30765641 17:-0.37343216 18:-0.36310151 19:-0.88086981 20:-0.14419276 21:-0.57808203 22:-0.062323686 23:-0.26375422 24:-0.25234732 25:-0.40743604 26:-0.4047187 27:-0.27057403 28:-0.30796358 29:-0.16733444 30:-0.27352092 31:-0.20108834 32:-0.16073692 33:-0.18338262 34:-0.16487801 35:-0.27398148 36:-0.30811864 37:-0.39074841 38:-0.11907394 39:-0.21418162 40:-0.20511942 41:-0.13776088 42:-0.16252463 43:-0.2478133 44:-0.17397934 45:-0.31722111 46:-0.15619448 47:-0.066107452 48:-0.14383133 49:-0.22159693 50:-0.64531434 51:-0.26362848 52:-0.52965069 53:-0.34909117 54:-0.28615856 55:-0.096552491 56:-0.28503433 57:-0.44277063 #
0.027083409392982607521993543286953 1:-0.32373646 2:-0.17667121 3:-0.50017285 4:-0.098842546 5:-0.44537586 6:-0.34561899 7:-0.26157999 8:-0.31560028 9:-0.30961666 10:-0.41393355 11:-0.22640149 12:-0.60592264 13:-0.21933696 14:-0.16083114 15:-0.15391792 16:1.1021057 17:2.2251136 18:-0.36310151 19:0.87753743 20:-0.14419276 21:0.87567765 22:-0.062323686 23:-0.26375422 24:-0.25234732 25:-0.40743604 26:-0.4047187 27:-0.27057403 28:-0.30796358 29:-0.16733444 30:-0.27352092 31:-0.20108834 32:-0.16073692 33:-0.18338262 34:-0.16487801 35:-0.27398148 36:-0.30811864 37:-0.39074841 38:-0.11907394 39:-0.21418162 40:-0.20511942 41:-0.13776088 42:-0.16252463 43:-0.2478133 44:-0.17397934 45:0.54583907 46:-0.15619448 47:-0.066107452 48:-0.14383133 49:-0.22159693 50:0.94970828 51:-0.26362848 52:0.49140254 53:0.67284763 54:-0.28615856 55:-0.047862086 56:-0.07916297 57:-0.31736115 #
0.027083409392982607521993543286953 1:-0.32373646 2:-0.17667121 3:1.6420434 4:-0.098842546 5:0.29664853 6:-0.34561899 7:-0.26157999 8:-0.31560028 9:-0.30961666 10:0.89262736 11:-0.22640149 12:-0.60592264 13:-0.21933696 14:-0.16083114 15:-0.15391792 16:0.44421673 17:-0.37343216 18:-0.36310151 19:0.37513536 20:-0.14419276 21:0.19725648 22:-0.062323686 23:-0.26375422 24:-0.25234732 25:-0.40743604 26:-0.4047187 27:-0.27057403 28:-0.30796358 29:-0.16733444 30:-0.27352092 31:-0.20108834 32:-0.16073692 33:-0.18338262 34:-0.16487801 35:-0.27398148 36:-0.30811864 37:-0.39074841 38:-0.11907394 39:-0.21418162 40:-0.20511942 41:-0.13776088 42:-0.16252463 43:-0.2478133 44:-0.17397934 45:0.14307766 46:-0.15619448 47:-0.066107452 48:-0.14383133 49:-0.22159693 50:-0.18180351 51:-0.26362848 52:1.2593741 53:-0.34909117 54:-0.28615856 55:-0.06863784 56:-0.15972133 57:-0.22778295 #
0.027083409392982607521993543286953 1:-0.32373646 2:-0.17667121 3:-0.50017285 4:-0.098842546 5:-0.44537586 6:-0.34561899 7:-0.26157999 8:-0.31560028 9:-0.30961666 10:-0.41393355 11:-0.22640149 12:-0.60592264 13:-0.21933696 14:-0.16083114 15:-0.15391792 16:1.4109107 17:-0.37343216 18:-0.36310151 19:1.2627124 20:-0.14419276 21:2.0802214 22:-0.062323686 23:-0.26375422 24:-0.25234732 25:-0.40743604 26:-0.4047187 27:-0.27057403 28:-0.30796358 29:-0.16733444 30:-0.27352092 31:-0.20108834 32:-0.16073692 33:-0.18338262 34:-0.16487801 35:-0.27398148 36:-0.30811864 37:-0.39074841 38:-0.11907394 39:-0.21418162 40:-0.20511942 41:-0.13776088 42:-0.16252463 43:-0.2478133 44:-0.17397934 45:0.73489034 46:-0.15619448 47:-0.066107452 48:-0.14383133 49:-0.22159693 50:-0.64531434 51:-0.26362848 52:0.13941552 53:0.99402839 54:-0.28615856 55:0.00065150071 56:0.03719911 57:-0.42186904 #
0.01501174859264141348003107623299 1:-0.32373646 2:0.02783286 3:-0.50017285 4:-0.098842546 5:-0.44537586 6:-0.34561899 7:0.10631058 8:2.0604799 9:-0.30961666 10:-0.01729898 11:1.3482307 12:-0.088479199 13:-0.21933696 14:-0.16083114 15:-0.15391792 16:-0.30765641 17:0.047284782 18:0.95929188 19:-0.38963223 20:-0.14419276 21:-0.093495466 22:7.4518995 23:1.2856125 24:-0.25234732 25:-0.40743604 26:-0.4047187 27:-0.27057403 28:-0.30796358 29:-0.16733444 30:-0.27352092 31:-0.20108834 32:-0.16073692 33:-0.18338262 34:-0.16487801 35:-0.27398148 36:-0.30811864 37:-0.39074841 38:-0.11907394 39:-0.21418162 40:-0.20511942 41:-0.13776088 42:-0.16252463 43:-0.2478133 44:-0.17397934 45:-0.31722111 46:-0.15619448 47:-0.066107452 48:-0.14383133 49:0.016159287 50:0.0045096669 51:0.26000205 52:-0.28238708 53:-0.01623112 54:4.5638404 55:-0.042977575 56:0.01929725 57:0.60828024 #
0.027083409392982607521993543286953 1:-0.32373646 2:-0.17667121 3:-0.50017285 4:-0.098842546 5:-0.44537586 6:-0.34561899 7:-0.26157999 8:-0.31560028 9:-0.30961666 10:-0.41393355 11:-0.22640149 12:-0.60592264 13:-0.21933696 14:-0.16083114 15:-0.15391792 16:1.4109107 17:-0.37343216 18:-0.36310151 19:1.2627124 20:-0.14419276 21:2.0802214 22:-0.062323686 23:-0.26375422 24:-0.25234732 25:-0.40743604 26:-0.4047187 27:-0.27057403 28:-0.30796358 29:-0.16733444 30:-0.27352092 31:-0.20108834 32:-0.16073692 33:-0.18338262 34:-0.16487801 35:-0.27398148 36:-0.30811864 37:-0.39074841 38:-0.11907394 39:-0.21418162 40:-0.20511942 41:-0.13776088 42:-0.16252463 43:-0.2478133 44:-0.17397934 45:0.73489034 46:-0.15619448 47:-0.066107452 48:-0.14383133 49:-0.22159693 50:-0.64531434 51:-0.26362848 52:0.13941552 53:0.99402839 54:-0.28615856 55:0.00065150071 56:0.03719911 57:-0.42186904 #
-0.027083409392982607521993543286953 1:-0.32373646 2:-0.17667121 3:-0.50017285 4:-0.098842546 5:0.56165725 6:0.79088759 7:-0.26157999 8:5.4875183 9:-0.30961666 10:-0.41393355 11:-0.22640149 12:0.15034086 13:-0.21933696 14:-0.16083114 15:-0.15391792 16:-0.30765641 17:-0.37343216 18:-0.36310151 19:-0.88086981 20:-0.14419276 21:-0.57808203 22:-0.062323686 23:-0.26375422 24:-0.25234732 25:-0.40743604 26:-0.4047187 27:-0.27057403 28:-0.30796358 29:-0.16733444 30:-0.27352092 31:-0.20108834 32:-0.16073692 33:-0.18338262 34:-0.16487801 35:-0.27398148 36:-0.30811864 37:-0.39074841 38:-0.11907394 39:-0.21418162 40:-0.20511942 41:-0.13776088 42:-0.16252463 43:-0.2478133 44:-0.17397934 45:-0.31722111 46:-0.15619448 47:-0.066107452 48:-0.14383133 49:-0.22159693 50:-0.64531434 51:-0.26362848 52:-0.52965069 53:-0.34909117 54:-0.28615856 55:-0.096552491 56:-0.28503433 57:-0.44277063 #
0.027083409392982607521993543286953 1:-0.32373646 2:-0.17667121 3:0.39879286 4:-0.098842546 5:-0.44537586 6:-0.34561899 7:1.7726384 8:-0.31560028 9:-0.30961666 10:-0.41393355 11:-0.22640149 12:-0.13823338 13:-0.21933696 14:-0.16083114 15:-0.15391792 16:-0.30765641 17:0.78972644 18:-0.36310151 19:-0.35613877 20:-0.14419276 21:-0.25271675 22:-0.062323686 23:-0.26375422 24:-0.25234732 25:-0.40743604 26:-0.4047187 27:-0.27057403 28:-0.30796358 29:-0.16733444 30:-0.27352092 31:-0.20108834 32:-0.16073692 33:-0.18338262 34:-0.16487801 35:-0.27398148 36:-0.30811864 37:-0.39074841 38:-0.11907394 39:-0.21418162 40:-0.20511942 41:-0.13776088 42:-0.16252463 43:-0.2478133 44:-0.17397934 45:0.069101065 46:-0.15619448 47:-0.066107452 48:-0.14383133 49:-0.22159693 50:-0.31813022 51:-0.26362848 52:0.10159874 53:-0.34909117 54:-0.28615856 55:-0.089037858 56:-0.23132877 57:-0.40693936 #
0.027083409392982607521993543286953 1:-0.32373646 2:-0.17667121 3:0.11188891 4:-0.098842546 5:0.40265203 6:2.5638378 7:0.43091992 8:1.1466029 9:-0.30961666 10:-0.41393355 11:-0.22640149 12:-0.28749591 13:0.74661791 14:-0.16083114 15:-0.15391792 16:0.12198539 17:0.41850561 18:-0.36310151 19:0.38629985 20:-0.14419276 21:1.6648614 22:-0.062323686 23:-0.26375422 24:1.4048942 25:-0.40743604 26:-0.4047187 27:-0.27057403 28:-0.30796358 29:-0.16733444 30:-0.27352092 31:-0.20108834 32:-0.16073692 33:-0.18338262 34:-0.16487801 35:-0.27398148 36:-0.30811864 37:-0.39074841 38:-0.11907394 39:-0.21418162 40:-0.20511942 41:-0.13776088 42:-0.16252463 43:-0.2478133 44:-0.17397934 45:-0.05419324 46:-0.15619448 47:-0.066107452 48:-0.14383133 49:-0.22159693 50:-0.16362663 51:-0.26362848 52:-0.52965069 53:0.57941324 54:0.83633029 55:-0.087778054 56:-0.2402797 57:-0.20986731 #
-0.027083409392982607521993543286953 1:-0.32373646 2:-0.17667121 3:-0.50017285 4:-0.098842546 5:-0.44537586 6:-0.34561899 7:-0.26157999 8:-0.31560028 9:-0.30961666 10:-0.41393355 11:-0.22640149 12:-0.60592264 13:-0.21933696 14:-0.16083114 15:-0.15391792 16:-0.30765641 17:-0.37343216 18:-0.36310151 19:1.6534696 20:-0.14419276 21:5.7146206 22:-0.062323686 23:-0.26375422 24:-0.25234732 25:-0.40743604 26:-0.4047187 27:-0.27057403 28:-0.30796358 29:-0.16733444 30:-0.27352092 31:-0.20108834 32:-0.16073692 33:-0.18338262 34:-0.16487801 35:-0.27398148 36:-0.30811864 37:-0.39074841 38:-0.11907394 39:-0.21418162 40:-0.20511942 41:-0.13776088 42:-0.16252463 43:-0.2478133 44:-0.17397934 45:-0.31722111 46:-0.15619448 47:-0.066107452 48:-0.14383133 49:-0.22159693 50:-0.64531434 51:-0.26362848 52:-0.52965069 53:-0.34909117 54:-0.28615856 55:-0.099646755 56:-0.32083806 57:-0.62192702 #
-0.027083409392982607521993543286953 1:-0.32373646 2:-0.17667121 3:-0.50017285 4:-0.098842546 5:-0.44537586 6:-0.34561899 7:-0.26157999 8:-0.31560028 9:-0.30961666 10:-0.41393355 11:-0.22640149 12:-0.60592264 13:-0.21933696 14:-0.16083114 15:-0.15391792 16:-0.30765641 17:-0.37343216 18:-0.36310151 19:0.97801787 20:-0.14419276 21:4.032413 22:-0.062323686 23:-0.26375422 24:-0.25234732 25:-0.40743604 26:-0.4047187 27:-0.27057403 28:-0.30796358 29:-0.16733444 30:-0.27352092 31:-0.20108834 32:-0.16073692 33:-0.18338262 34:-0.16487801 35:-0.27398148 36:-0.30811864 37:-0.39074841 38:-0.11907394 39:-0.21418162 40:-0.20511942 41:-0.13776088 42:-0.16252463 43:-0.2478133 44:-0.17397934 45:-0.31722111 46:-0.15619448 47:-0.066107452 48:-0.14383133 49:-0.22159693 50:-0.64531434 51:-0.26362848 52:-0.52965069 53:-0.34909117 54:-0.28615856 55:-0.093016192 56:-0.3029362 57:-0.59803951 #
-0.027083409392982607521993543286953 1:-0.32373646 2:-0.17667121 3:1.1447431 4:-0.098842546 5:-0.44537586 6:-0.34561899 7:-0.26157999 8:-0.31560028 9:-0.30961666 10:-0.41393355 11:3.6426947 12:0.24984922 13:-0.21933696 14:-0.16083114 15:-0.15391792 16:-0.30765641 17:-0.37343216 18:1.2615533 19:2.9987905 20:-0.14419276 21:2.4263546 22:-0.062323686 23:-0.26375422 24:-0.25234732 25:-0.40743604 26:-0.4047187 27:0.00090621441 28:-0.30796358 29:-0.16733444 30:-0.27352092 31:-0.20108834 32:-0.16073692 33:-0.18338262 34:-0.16487801 35:-0.27398148 36:-0.30811864 37:-0.39074841 38:-0.11907394 39:-0.21418162 40:-0.20511942 41:-0.13776088 42:-0.16252463 43:-0.2478133 44:-0.17397934 45:-0.31722111 46:-0.15619448 47:-0.066107452 48:-0.14383133 49:-0.22159693 50:-0.64531434 51:-0.26362848 52:-0.52965069 53:-0.34909117 54:-0.28615856 55:-0.098607965 56:-0.31188715 57:-0.57116604 #
-0.020778293702939234360860254469117 1:-0.32373646 2:-0.17667121 3:-0.50017285 4:-0.098842546 5:-0.44537586 6:-0.34561899 7:-0.26157999 8:-0.31560028 9:-0.30961666 10:-0.41393355 11:-0.22640149 12:-0.60592264 13:-0.21933696 14:-0.16083114 15:-0.15391792 16:-0.30765641 17:-0.37343216 18:-0.36310151 19:3.6407487 20:-0.14419276 21:-0.57808203 22:-0.062323686 23:-0.26375422 24:-0.25234732 25:-0.40743604 26:-0.4047187 27:-0.27057403 28:-0.30796358 29:-0.16733444 30:-0.27352092 31:-0.20108834 32:-0.16073692 33:-0.18338262 34:-0.16487801 35:-0.27398148 36:-0.30811864 37:-0.39074841 38:-0.11907394 39:-0.21418162 40:-0.20511942 41:-0.13776088 42:-0.16252463 43:-0.2478133 44:-0.17397934 45:1.9020765 46:-0.15619448 47:-0.066107452 48:-0.14383133 49:-0.22159693 50:-0.64531434 51:-0.26362848 52:-0.52965069 53:-0.34909117 54:-0.28615856 55:-0.08196526 56:-0.28503433 57:-0.60998327 #
-0.0174732132565774272991987459136 1:-0.32373646 2:-0.17667121 3:-0.50017285 4:-0.098842546 5:-0.44537586 6:-0.34561899 7:-0.26157999 8:-0.31560028 9:-0.30961666 10:-0.41393355 11:-0.22640149 12:2.9465256 13:-0.21933696 14:-0.16083114 15:-0.15391792 16:-0.30765641 17:-0.37343216 18:-0.36310151 19:-0.88086981 20:-0.14419276 21:6.8360925 22:-0.062323686 23:-0.26375422 24:-0.25234732 25:-0.40743604 26:-0.4047187 27:0.85638463 28:-0.30796358 29:-0.16733444 30:-0.27352092 31:-0.20108834 32:-0.16073692 33:-0.18338262 34:-0.16487801 35:-0.27398148 36:-0.30811864 37:-0.39074841 38:-0.11907394 39:-0.21418162 40:-0.20511942 41:-0.13776088 42:-0.16252463 43:-0.2478133 44:-0.17397934 45:-0.31722111 46:-0.15619448 47:-0.066107452 48:-0.14383133 49:-0.22159693 50:-0.64531434 51:-0.26362848 52:-0.52965069 53:-0.34909117 54:-0.28615856 55:-0.099646755 56:-0.32083806 57:-0.61595517 #
0.027083409392982607521993543286953 1:-0.32373646 2:-0.17667121 3:-0.50017285 4:-0.098842546 5:-0.44537586 6:-0.34561899 7:-0.26157999 8:-0.31560028 9:-0.30961666 10:-0.41393355 11:-0.22640149 12:-0.60592264 13:-0.21933696 14:-0.16083114 15:-0.15391792 16:1.4109107 17:-0.37343216 18:-0.36310151 19:1.2627124 20:-0.14419276 21:2.0802214 22:-0.062323686 23:-0.26375422 24:-0.25234732 25:-0.40743604 26:-0.4047187 27:-0.27057403 28:-0.30796358 29:-0.16733444 30:-0.27352092 31:-0.20108834 32:-0.16073692 33:-0.18338262 34:-0.16487801 35:-0.27398148 36:-0.30811864 37:-0.39074841 38:-0.11907394 39:-0.21418162 40:-0.20511942 41:-0.13776088 42:-0.16252463 43:-0.2478133 44:-0.17397934 45:0.73489034 46:-0.15619448 47:-0.066107452 48:-0.14383133 49:-0.22159693 50:-0.64531434 51:-0.26362848 52:0.13941552 53:0.99402839 54:-0.28615856 55:0.00065150071 56:0.03719911 57:-0.42186904 #
-0.0088252867076328844753163593850331 1:-0.32373646 2:-0.17667121 3:2.4836283 4:-0.098842546 5:-0.44537586 6:-0.34561899 7:-0.26157999 8:-0.31560028 9:-0.30961666 10:-0.41393355 11:-0.22640149 12:-0.60592264 13:-0.21933696 14:-0.16083114 15:-0.15391792 16:-0.30765641 17:-0.37343216 18:-0.36310151 19:-0.88086981 20:-0.14419276 21:-0.57808203 22:-0.062323686 23:-0.26375422 24:-0.25234732 25:-0.40743604 26:-0.4047187 27:-0.27057403 28:-0.30796358 29:-0.16733444 30:-0.27352092 31:-0.20108834 32:-0.16073692 33:-0.18338262 34:-0.16487801 35:-0.27398148 36:-0.30811864 37:-0.39074841 38:-0.11907394 39:-0.21418162 40:-0.20511942 41:3.5503652 42:-0.16252463 43:-0.2478133 44:-0.17397934 45:-0.31722111 46:2.8666108 47:-0.066107452 48:-0.14383133 49:-0.22159693 50:-0.64531434 51:-0.26362848 52:-0.52965069 53:-0.34909117 54:-0.28615856 55:-0.083070353 56:-0.3029362 57:-0.57415199 #
0.021338690052819950238038870793389 1:0.50246942 2:0.051892161 3:0.24577741 4:-0.098842546 5:-0.19361758 6:-0.34561899 7:-0.26157999 8:2.3803368 9:-0.30961666 10:-0.41393355 11:-0.22640149 12:-0.21784006 13:-0.21933696 14:-0.16083114 15:-0.15391792 16:0.48449567 17:0.59174204 18:2.2250113 19:1.642305 20:-0.14419276 21:1.5956348 22:-0.062323686 23:-0.26375422 24:0.73163986 25:-0.40743604 26:-0.4047187 27:-0.27057403 28:-0.30796358 29:-0.16733444 30:-0.27352092 31:-0.20108834 32:-0.16073692 33:-0.18338262 34:-0.16487801 35:-0.27398148 36:-0.30811864 37:0.070143789 38:-0.11907394 39:-0.21418162 40:-0.20511942 41:-0.13776088 42:-0.16252463 43:-0.2478133 44:-0.17397934 45:-0.31722111 46:-0.15619448 47:-0.066107452 48:-0.14383133 49:-0.22159693 50:-0.64531434 51:-0.26362848 52:0.22086707 53:-0.16222237 54:-0.28615856 55:-0.052967619 56:0.055100966 57:0.27385497 #
0.027083409392982607521993543286953 1:-0.32373646 2:-0.17667121 3:1.6037894 4:-0.098842546 5:0.28339812 6:-0.34561899 7:-0.26157999 8:-0.31560028 9:-0.30961666 10:0.86929595 11:-0.22640149 12:-0.60592264 13:-0.21933696 14:-0.16083114 15:-0.15391792 16:0.43079042 17:-0.37343216 18:-0.36310151 19:0.34722415 20:-0.14419276 21:0.18341115 22:-0.062323686 23:-0.26375422 24:-0.25234732 25:-0.40743604 26:-0.4047187 27:-0.27057403 28:-0.30796358 29:-0.16733444 30:-0.27352092 31:-0.20108834 32:-0.16073692 33:-0.18338262 34:-0.16487801 35:-0.27398148 36:-0.30811864 37:-0.39074841 38:-0.11907394 39:-0.21418162 40:-0.20511942 41:-0.13776088 42:-0.16252463 43:-0.2478133 44:-0.17397934 45:0.13485803 46:-0.15619448 47:-0.066107452 48:-0.14383133 49:-0.22159693 50:-0.20452464 51:-0.26362848 52:1.457185 53:-0.34909117 54:-0.28615856 55:-0.070074461 56:-0.15972133 57:-0.20389542 #
0.027083409392982607521993543286953 1:-0.32373646 2:-0.17667121 3:0.39879286 4:-0.098842546 5:-0.44537586 6:-0.34561899 7:1.7726384 8:-0.31560028 9:-0.30961666 10:-0.41393355 11:-0.22640149 12:-0.13823338 13:-0.21933696 14:-0.16083114 15:-0.15391792 16:-0.30765641 17:0.78972644 18:-0.36310151 19:-0.35613877 20:-0.14419276 21:-0.25271675 22:-0.062323686 23:-0.26375422 24:-0.25234732 25:-0.40743604 26:-0.4047187 27:-0.27057403 28:-0.30796358 29:-0.16733444 30:-0.27352092 31:-0.20108834 32:-0.16073692 33:-0.18338262 34:-0.16487801 35:-0.27398148 36:-0.30811864 37:-0.39074841 38:-0.11907394 39:-0.21418162 40:-0.20511942 41:-0.13776088 42:-0.16252463 43:-0.2478133 44:-0.17397934 45:0.069101065 46:-0.15619448 47:-0.066107452 48:-0.14383133 49:-0.22159693 50:-0.31813022 51:-0.26362848 52:0.10159874 53:-0.34909117 54:-0.28615856 55:-0.089037858 56:-0.23132877 57:-0.40693936 #
-0.027083409392982607521993543286953 1:-0.32373646 2:0.087981112 3:-0.50017285 4:-0.098842546 5:0.42915291 6:0.6545068 7:-0.26157999 8:1.694929 9:1.7632117 10:1.6625651 11:-0.22640149 12:-0.60592264 13:0.44475701 14:1.4097494 15:-0.15391792 16:1.4780422 17:-0.37343216 18:-0.36310151 19:-0.38404998 20:-0.14419276 21:-0.27348477 22:-0.062323686 23:-0.26375422 24:0.88700628 25:1.2470189 26:3.2720716 27:-0.062228724 28:0.067761727 29:0.062286589 30:0.19304512 31:0.30379218 32:0.35839441 33:-0.18338262 34:0.35387358 35:0.16630648 36:0.14447707 37:2.3018324 38:-0.11907394 39:-0.21418162 40:0.30250287 41:-0.13776088 42:-0.16252463 43:0.45956102 44:-0.17397934 45:-0.13638945 46:-0.15619448 47:-0.066107452 48:-0.14383133 49:1.0351145 50:1.0451369 51:1.8121926 52:0.55249119 53:0.95315081 54:-0.28615856 55:-0.046049736 56:0.04615004 57:0.59036463 #
-0.027083409392982607521993543286953 1:-0.32373646 2:0.43684098 3:-0.50017285 4:-0.098842546 5:0.90616858 6:-0.34561899 7:-0.26157999 8:2.014786 9:-0.30961666 10:-0.41393355 11:-0.22640149 12:-0.60592264 13:-0.21933696 14:-0.16083114 15:-0.15391792 16:0.37708521 17:0.88871866 18:-0.36310151 19:-0.59617531 20:-0.14419276 21:-0.57808203 22:-0.062323686 23:-0.26375422 24:-0.25234732 25:-0.40743604 26:-0.4047187 27:-0.27057403 28:-0.30796358 29:-0.16733444 30:-0.27352092 31:-0.20108834 32:-0.16073692 33:-0.18338262 34:-0.16487801 35:-0.27398148 36:0.74108052 37:-0.39074841 38:-0.11907394 39:-0.21418162 40:0.97164136 41:-0.13776088 42:-0.16252463 43:-0.2478133 44:0.9409681 45:-0.31722111 46:-0.15619448 47:-0.066107452 48:-0.14383133 49:-0.22159693 50:-0.32267445 51:-0.26362848 52:-0.52965069 53:-0.34909117 54:-0.28615856 55:-0.075865149 56:-0.24923062 57:-0.31437522 #
-0.027083409392982607521993543286953 1:-0.32373646 2:-0.17667121 3:-0.50017285 4:-0.098842546 5:-0.44537586 6:-0.34561899 7:-0.26157999 8:-0.31560028 9:-0.30961666 10:-0.41393355 11:-0.22640149 12:4.1306753 13:-0.21933696 14:-0.16083114 15:-0.15391792 16:-0.30765641 17:-0.37343216 18:-0.36310151 19:-0.88086981 20:-0.14419276 21:-0.57808203 22:-0.062323686 23:-0.26375422 24:-0.25234732 25:-0.40743604 26:-0.4047187 27:-0.27057403 28:-0.30796358 29:-0.16733444 30:-0.27352092 31:-0.20108834 32:-0.16073692 33:-0.18338262 34:-0.16487801 35:-0.27398148 36:-0.30811864 37:-0.39074841 38:-0.11907394 39:-0.21418162 40:-0.20511942 41:-0.13776088 42:-0.16252463 43:-0.2478133 44:-0.17397934 45:-0.31722111 46:-0.15619448 47:-0.066107452 48:-0.14383133 49:-0.22159693 50:-0.64531434 51:-0.26362848 52:1.7073576 53:-0.34909117 54:-0.28615856 55:-0.090187155 56:-0.29398528 57:-0.60699731 #
0.027083409392982607521993543286953 1:-0.32373646 2:-0.17667121 3:-0.50017285 4:-0.098842546 5:-0.44537586 6:-0.34561899 7:-0.26157999 8:5.5789061 9:-0.30961666 10:0.58931857 11:-0.22640149 12:-0.60592264 13:-0.21933696 14:-0.16083114 15:-0.15391792 16:0.26967475 17:-0.37343216 18:2.9050994 19:-0.64083326 20:-0.14419276 21:-0.28040743 22:-0.062323686 23:-0.26375422 24:-0.25234732 25:-0.40743604 26:-0.4047187 27:-0.27057403 28:-0.30796358 29:-0.16733444 30:-0.27352092 31:-0.20108834 32:-0.16073692 33:-0.18338262 34:-0.16487801 35:-0.27398148 36:0.57650024 37:-0.39074841 38:-0.11907394 39:-0.21418162 40:-0.20511942 41:-0.13776088 42:-0.16252463 43:-0.2478133 44:-0.17397934 45:-0.31722111 46:-0.15619448 47:-0.066107452 48:-0.14383133 49:-0.22159693 50:-0.081830591 51:-0.26362848 52:0.37213421 53:0.012967132 54:-0.28615856 55:-0.089104161 56:-0.25818154 57:-0.44277063 #
-0.027083409392982607521993543286953 1:-0.32373646 2:0.43684098 3:-0.50017285 4:-0.098842546 5:0.90616858 6:-0.34561899 7:-0.26157999 8:2.014786 9:-0.30961666 10:-0.41393355 11:-0.22640149 12:-0.60592264 13:-0.21933696 14:-0.16083114 15:-0.15391792 16:0.37708521 17:0.88871866 18:-0.36310151 19:-0.59617531 20:-0.14419276 21:-0.57808203 22:-0.062323686 23:-0.26375422 24:-0.25234732 25:-0.40743604 26:-0.4047187 27:-0.27057403 28:-0.30796358 29:-0.16733444 30:-0.27352092 31:-0.20108834 32:-0.16073692 33:-0.18338262 34:-0.16487801 35:-0.27398148 36:0.74108052 37:-0.39074841 38:-0.11907394 39:-0.21418162 40:0.97164136 41:-0.13776088 42:-0.16252463 43:-0.2478133 44:0.9409681 45:-0.31722111 46:-0.15619448 47:-0.066107452 48:-0.14383133 49:-0.22159693 50:-0.32267445 51:-0.26362848 52:-0.52965069 53:-0.34909117 54:-0.28615856 55:-0.075865149 56:-0.24923062 57:-0.31437522 #
-0.027083409392982607521993543286953 1:-0.32373646 2:-0.17667121 3:-0.50017285 4:-0.098842546 5:-0.44537586 6:-0.34561899 7:-0.26157999 8:-0.31560028 9:-0.30961666 10:3.1091146 11:-0.22640149 12:-0.60592264 13:-0.21933696 14:-0.16083114 15:-0.15391792 16:-0.30765641 17:-0.37343216 18:-0.36310151 19:-0.88086981 20:-0.14419276 21:-0.57808203 22:-0.062323686 23:-0.26375422 24:-0.25234732 25:-0.40743604 26:-0.4047187 27:0.20609477 28:-0.30796358 29:-0.16733444 30:-0.27352092 31:-0.20108834 32:-0.16073692 33:-0.18338262 34:-0.16487801 35:-0.27398148 36:-0.30811864 37:-0.39074841 38:-0.11907394 39:-0.21418162 40:-0.20511942 41:-0.13776088 42:-0.16252463 43:-0.2478133 44:-0.17397934 45:-0.31722111 46:-0.15619448 47:-0.066107452 48:-0.14383133 49:-0.22159693 50:-0.64531434 51:-0.26362848 52:-0.52965069 53:-0.34909117 54:-0.28615856 55:-0.086054109 56:-0.29398528 57:-0.57415199 #
-0.027083409392982607521993543286953 1:-0.32373646 2:-0.17667121 3:2.1010897 4:-0.098842546 5:0.45565379 6:2.7456789 7:-0.26157999 8:-0.31560028 9:-0.30961666 10:-0.41393355 11:-0.22640149 12:-0.60592264 13:-0.21933696 14:-0.16083114 15:-0.15391792 16:-0.30765641 17:-0.37343216 18:-0.36310151 19:0.26349047 20:-0.14419276 21:-0.57808203 22:-0.062323686 23:-0.26375422 24:-0.25234732 25:-0.40743604 26:-0.4047187 27:0.15874356 28:-0.30796358 29:-0.16733444 30:-0.27352092 31:-0.20108834 32:-0.16073692 33:-0.18338262 34:-0.16487801 35:-0.27398148 36:-0.30811864 37:1.2587606 38:-0.11907394 39:-0.21418162 40:-0.20511942 41:-0.13776088 42:-0.16252463 43:-0.2478133 44:-0.17397934 45:-0.31722111 46:-0.15619448 47:-0.066107452 48:-0.14383133 49:-0.22159693 50:0.97697359 51:-0.26362848 52:-0.52965069 53:-0.34909117 54:-0.28615856 55:-0.093148805 56:-0.28503433 57:-0.50547534 #
-0.027083409392982607521993543286953 1:0.024139695 2:-0.080433995 3:-0.021999607 4:-0.098842546 5:-0.44537586 6:0.79088759 7:-0.26157999 8:-0.31560028 9:3.2707233 10:-0.41393355 11:-0.22640149 12:-0.35715175 13:-0.21933696 14:-0.16083114 15:-0.15391792 16:-0.30765641 17:-0.37343216 18:-0.36310151 19:-0.69665569 20:-0.14419276 21:-0.46731937 22:-0.062323686 23:-0.26375422 24:-0.25234732 25:-0.15976314 26:0.20463702 27:-0.24532005 28:-0.30796358 29:-0.16733444 30:-0.27352092 31:-0.20108834 32:-0.16073692 33:0.46399492 34:-0.16487801 35:-0.27398148 36:0.20619465 37:-0.19668855 38:-0.11907394 39:-0.21418162 40:-0.20511942 41:-0.13776088 42:-0.073323682 43:-0.2478133 44:-0.17397934 45:-0.31722111 46:-0.15619448 47:-0.066107452 48:-0.14383133 49:1.0351145 50:-0.027299901 51:0.57792056 52:-0.52965069 53:-0.22061887 54:-0.28615856 55:-0.033451673 56:0.16251212 57:1.7727969 #
-0.019609694253431390886799334793977 1:-0.32373646 2:0.087981112 3:-0.50017285 4:-0.098842546 5:0.42915291 6:0.6545068 7:-0.26157999 8:1.694929 9:1.7632117 10:1.6625651 11:-0.22640149 12:-0.60592264 13:0.44475701 14:1.4097494 15:-0.15391792 16:1.4780422 17:-0.37343216 18:-0.36310151 19:-0.38404998 20:-0.14419276 21:-0.27348477 22:-0.062323686 23:-0.26375422 24:0.88700628 25:1.2470189 26:3.2720716 27:-0.062228724 28:0.067761727 29:0.062286589 30:0.19304512 31:0.30379218 32:0.35839441 33:-0.18338262 34:0.35387358 35:0.16630648 36:0.14447707 37:2.3018324 38:-0.11907394 39:-0.21418162 40:0.30250287 41:-0.13776088 42:-0.16252463 43:0.45956102 44:-0.17397934 45:-0.13638945 46:-0.15619448 47:-0.066107452 48:-0.14383133 49:1.0351145 50:1.0451369 51:1.8121926 52:0.55249119 53:0.95315081 54:-0.28615856 55:-0.046049736 56:0.04615004 57:0.59036463 #
