SVM-light Version V6.02
0 # kernel type
3 # kernel parameter -d 
1 # kernel parameter -g 
1 # kernel parameter -s 
1 # kernel parameter -r 
empty# kernel parameter -u 
57 # highest feature index 
526 # number of training documents 
145 # number of support vectors plus 1 
0.74502021 # threshold b, each following line is a SV (starting with alpha*y)
0.023963644585123091562683939059752 1:-0.32373646 2:-0.17667121 3:0.60918909 4:-0.098842546 5:1.1049252 6:-0.34561899 7:0.99357611 8:-0.31560028 9:-0.30961666 10:-0.41393355 11:-0.22640149 12:-0.028774185 13:-0.21933696 14:-0.16083114 15:-0.15391792 16:0.47106934 17:-0.37343216 18:-0.36310151 19:0.10160536 20:-0.14419276 21:-0.57808203 22:-0.062323686 23:-0.26375422 24:-0.25234732 25:-0.40743604 26:-0.4047187 27:-0.27057403 28:-0.30796358 29:-0.16733444 30:-0.27352092 31:-0.20108834 32:-0.16073692 33:-0.18338262 34:-0.16487801 35:-0.27398148 36:-0.30811864 37:-0.39074841 38:-0.11907394 39:-0.21418162 40:-0.20511942 41:-0.13776088 42:-0.16252463 43:-0.2478133 44:-0.17397934 45:-0.31722111 46:-0.15619448 47:-0.066107452 48:-0.14383133 49:-0.22159693 50:-0.64531434 51:-0.26362848 52:1.8818966 53:-0.34909117 54:-0.28615856 55:-0.065853007 56:-0.25818154 57:-0.38006589 #
-0.012420474970891604016287601552904 1:0.19807778 2:-0.17667121 3:0.64744294 4:-0.098842546 5:0.34965029 6:-0.34561899 7:-0.26157999 8:-0.31560028 9:-0.30961666 10:-0.41393355 11:-0.22640149 12:-0.48651263 13:0.14289613 14:-0.16083114 15:0.59687799 16:-0.30765641 17:1.4331759 18:-0.36310151 19:-0.54593509 20:-0.14419276 21:-0.2457941 22:-0.062323686 23:-0.26375422 24:-0.25234732 25:0.37521031 26:-0.4047187 27:-0.27057403 28:0.10191857 29:-0.16733444 30:-0.27352092 31:0.90046918 32:-0.16073692 33:-0.18338262 34:-0.16487801 35:0.44648972 36:-0.30811864 37:-0.099658601 38:-0.11907394 39:-0.21418162 40:-0.20511942 41:-0.13776088 42:1.320441 43:-0.2478133 44:0.088361226 45:-0.21858566 46:-0.15619448 47:-0.066107452 48:0.27109706 49:-0.085736237 50:0.027230786 51:-0.26362848 52:-0.43365422 53:-0.25565678 54:-0.28615856 55:-0.076307185 56:0.2520214 57:0.45002544 #
0.023963644585123091562683939059752 1:-0.32373646 2:-0.17667121 3:-0.50017285 4:-0.098842546 5:-0.44537586 6:-0.34561899 7:-0.26157999 8:-0.31560028 9:-0.30961666 10:-0.41393355 11:-0.22640149 12:-0.60592264 13:-0.21933696 14:-0.16083114 15:-0.15391792 16:1.4109107 17:-0.37343216 18:-0.36310151 19:1.2627124 20:-0.14419276 21:2.0802214 22:-0.062323686 23:-0.26375422 24:-0.25234732 25:-0.40743604 26:-0.4047187 27:-0.27057403 28:-0.30796358 29:-0.16733444 30:-0.27352092 31:-0.20108834 32:-0.16073692 33:-0.18338262 34:-0.16487801 35:-0.27398148 36:-0.30811864 37:-0.39074841 38:-0.11907394 39:-0.21418162 40:-0.20511942 41:-0.13776088 42:-0.16252463 43:-0.2478133 44:-0.17397934 45:0.73489034 46:-0.15619448 47:-0.066107452 48:-0.14383133 49:-0.22159693 50:-0.64531434 51:-0.26362848 52:0.13941552 53:0.99402839 54:-0.28615856 55:0.00065150071 56:0.03719911 57:-0.42186904 #
0.023963644585123091562683939059752 1:-0.32373646 2:-0.17667121 3:-0.50017285 4:-0.098842546 5:1.0254226 6:-0.34561899 7:-0.26157999 8:-0.31560028 9:-0.30961666 10:-0.41393355 11:-0.22640149 12:-0.60592264 13:-0.21933696 14:-0.16083114 15:-0.15391792 16:-0.30765641 17:-0.37343216 18:-0.36310151 19:0.35838863 20:-0.14419276 21:1.7271655 22:-0.062323686 23:-0.26375422 24:-0.25234732 25:-0.40743604 26:-0.4047187 27:-0.27057403 28:-0.30796358 29:-0.16733444 30:-0.27352092 31:-0.20108834 32:-0.16073692 33:-0.18338262 34:-0.16487801 35:-0.27398148 36:-0.30811864 37:-0.39074841 38:-0.11907394 39:-0.21418162 40:-0.20511942 41:-0.13776088 42:-0.16252463 43:-0.2478133 44:-0.17397934 45:-0.31722111 46:-0.15619448 47:-0.066107452 48:-0.14383133 49:-0.22159693 50:-0.64531434 51:-0.26362848 52:1.7509924 53:-0.34909117 54:-0.28615856 55:0.0039446782 56:0.01929725 57:-0.36513618 #
0.023963644585123091562683939059752 1:-0.32373646 2:1.4112427 3:0.57093525 4:-0.098842546 5:-0.44537586 6:3.9276457 7:-0.26157999 8:0.50688899 9:1.4334437 10:1.3359249 11:-0.22640149 12:1.4539003 13:-0.21933696 14:-0.16083114 15:-0.15391792 16:-0.30765641 17:0.54224592 18:-0.36310151 19:0.48678026 20:-0.14419276 21:0.072648503 22:-0.062323686 23:-0.26375422 24:0.67985106 25:-0.40743604 26:-0.4047187 27:-0.21375258 28:-0.30796358 29:-0.16733444 30:-0.27352092 31:-0.20108834 32:-0.16073692 33:-0.18338262 34:-0.16487801 35:-0.27398148 36:-0.30811864 37:-0.39074841 38:-0.11907394 39:-0.21418162 40:-0.20511942 41:-0.13776088 42:-0.16252463 43:-0.2478133 44:-0.17397934 45:-0.31722111 46:-0.15619448 47:-0.066107452 48:-0.14383133 49:-0.22159693 50:-0.28177646 51:-0.26362848 52:0.17141435 53:0.27575138 54:-0.28615856 55:-0.063775428 56:-0.016506467 57:0.091712639 #
0.023963644585123091562683939059752 1:-0.32373646 2:-0.17667121 3:0.68569684 4:-0.098842546 5:1.1976782 6:2.4729173 7:-0.26157999 8:-0.31560028 9:-0.30961666 10:-0.41393355 11:-0.22640149 12:-0.60592264 13:-0.21933696 14:-0.16083114 15:-0.15391792 16:0.10855909 17:-0.37343216 18:-0.36310151 19:0.50352699 20:-0.14419276 21:0.065725833 22:-0.062323686 23:1.108542 24:-0.25234732 25:-0.40743604 26:-0.4047187 27:-0.27057403 28:-0.30796358 29:-0.16733444 30:-0.27352092 31:-0.20108834 32:-0.16073692 33:-0.18338262 34:-0.16487801 35:-0.27398148 36:-0.30811864 37:0.36123362 38:-0.11907394 39:-0.21418162 40:-0.20511942 41:-0.13776088 42:-0.16252463 43:-0.2478133 44:-0.17397934 45:-0.31722111 46:-0.15619448 47:-0.066107452 48:-0.14383133 49:-0.22159693 50:-0.25451109 51:-0.26362848 52:-0.40456438 53:-0.34909117 54:-0.28615856 55:-0.083269268 56:-0.20447598 57:-0.17403603 #
0.023963644585123091562683939059752 1:-0.32373646 2:-0.17667121 3:-0.50017285 4:-0.098842546 5:-0.44537586 6:-0.34561899 7:-0.26157999 8:-0.31560028 9:-0.30961666 10:-0.41393355 11:-0.22640149 12:-0.60592264 13:-0.21933696 14:-0.16083114 15:-0.15391792 16:-0.30765641 17:-0.37343216 18:-0.36310151 19:-0.88086981 20:-0.14419276 21:-0.57808203 22:-0.062323686 23:-0.26375422 24:-0.25234732 25:-0.40743604 26:-0.4047187 27:-0.27057403 28:-0.30796358 29:-0.16733444 30:-0.27352092 31:-0.20108834 32:-0.16073692 33:-0.18338262 34:-0.16487801 35:-0.27398148 36:-0.30811864 37:-0.39074841 38:-0.11907394 39:-0.21418162 40:-0.20511942 41:-0.13776088 42:-0.16252463 43:-0.2478133 44:-0.17397934 45:-0.31722111 46:-0.15619448 47:-0.066107452 48:-0.14383133 49:-0.22159693 50:-0.64531434 51:-0.26362848 52:-0.52965069 53:-0.34909117 54:-0.28615856 55:-0.093767658 56:-0.29398528 57:-0.5801239 #
0.023963644585123091562683939059752 1:-0.32373646 2:-0.17667121 3:0.5518083 4:-0.098842546 5:0.28339812 6:-0.34561899 7:-0.26157999 8:-0.31560028 9:-0.30961666 10:0.86929595 11:-0.22640149 12:-0.60592264 13:-0.21933696 14:-0.16083114 15:-0.15391792 16:0.43079042 17:-0.37343216 18:-0.36310151 19:0.051365145 20:-0.14419276 21:-0.19733544 22:-0.062323686 23:-0.26375422 24:-0.25234732 25:-0.40743604 26:-0.4047187 27:-0.27057403 28:-0.30796358 29:-0.16733444 30:-0.27352092 31:-0.20108834 32:-0.16073692 33:-0.18338262 34:-0.16487801 35:-0.27398148 36:-0.30811864 37:-0.39074841 38:-0.11907394 39:-0.21418162 40:-0.20511942 41:-0.13776088 42:-0.16252463 43:-0.2478133 44:-0.17397934 45:0.13485803 46:-0.15619448 47:-0.066107452 48:-0.14383133 49:-0.22159693 50:-0.19543619 51:-0.26362848 52:2.0680716 53:-0.34909117 54:-0.28615856 55:-0.074848458 56:-0.18657412 57:-0.27555799 #
-0.0087410576161389367394471960892588 1:-0.32373646 2:17.001671 3:-0.50017285 4:-0.098842546 5:-0.44537586 6:-0.34561899 7:-0.26157999 8:-0.31560028 9:-0.30961666 10:-0.41393355 11:-0.22640149 12:-0.60592264 13:-0.21933696 14:-0.16083114 15:-0.15391792 16:-0.30765641 17:-0.37343216 18:-0.36310151 19:-0.88086981 20:-0.14419276 21:-0.57808203 22:-0.062323686 23:-0.26375422 24:-0.25234732 25:-0.40743604 26:-0.4047187 27:-0.27057403 28:-0.30796358 29:-0.16733444 30:-0.27352092 31:-0.20108834 32:-0.16073692 33:-0.18338262 34:-0.16487801 35:-0.27398148 36:-0.30811864 37:-0.39074841 38:-0.11907394 39:-0.21418162 40:-0.20511942 41:-0.13776088 42:-0.16252463 43:-0.2478133 44:-0.17397934 45:-0.31722111 46:-0.15619448 47:-0.066107452 48:-0.14383133 49:-0.22159693 50:-0.64531434 51:-0.26362848 52:-0.52965069 53:-0.34909117 54:-0.28615856 55:-0.08196526 56:-0.28503433 57:-0.60998327 #
-0.023963644585123091562683939059752 1:1.4591289 2:-0.17667121 3:0.28403127 4:-0.098842546 5:1.2109287 6:-0.34561899 7:0.62568551 8:-0.31560028 9:-0.30961666 10:0.052695356 11:-0.22640149 12:0.42896426 13:0.38438484 14:-0.16083114 15:-0.15391792 16:0.24282214 17:0.64123815 18:-0.36310151 19:1.3296993 20:-0.14419276 21:1.0072083 22:-0.062323686 23:0.62159818 24:5.133688 25:-0.40743604 26:-0.4047187 27:-0.27057403 28:-0.30796358 29:-0.16733444 30:-0.27352092 31:-0.20108834 32:-0.16073692 33:-0.18338262 34:-0.16487801 35:-0.27398148 36:-0.30811864 37:-0.39074841 38:-0.11907394 39:-0.21418162 40:-0.20511942 41:-0.13776088 42:0.06047773 43:-0.2478133 44:-0.17397934 45:0.3650074 46:-0.15619448 47:-0.066107452 48:-0.14383133 49:-0.22159693 50:-0.33176291 51:-0.26362848 52:1.989529 53:0.2523928 54:-0.28615856 55:-0.010090005 56:1.5857098 57:0.81132418 #
-0.023963644585123091562683939059752 1:-0.32373646 2:-0.17667121 3:-0.50017285 4:-0.098842546 5:-0.44537586 6:5.7460566 7:-0.26157999 8:-0.31560028 9:-0.30961666 10:-0.41393355 11:-0.22640149 12:-0.60592264 13:-0.21933696 14:-0.16083114 15:-0.15391792 16:-0.30765641 17:-0.37343216 18:0.90261787 19:-0.13284895 20:-0.14419276 21:-0.57808203 22:-0.062323686 23:-0.26375422 24:-0.25234732 25:-0.40743604 26:-0.4047187 27:-0.059071977 28:-0.30796358 29:-0.16733444 30:-0.27352092 31:-0.20108834 32:-0.16073692 33:1.8820601 34:-0.16487801 35:-0.27398148 36:-0.30811864 37:-0.39074841 38:-0.11907394 39:-0.21418162 40:-0.20511942 41:-0.13776088 42:-0.16252463 43:-0.2478133 44:1.2907555 45:0.23349348 46:-0.15619448 47:-0.066107452 48:-0.14383133 49:-0.22159693 50:-0.1409055 51:-0.26362848 52:-0.52965069 53:-0.34909117 54:-0.28615856 55:-0.093347721 56:-0.28503433 57:-0.55623633 #
-0.012425697854111692267076172413454 1:-0.32373646 2:0.55713749 3:-0.50017285 4:-0.098842546 5:1.1711773 6:-0.34561899 7:-0.26157999 8:-0.31560028 9:-0.30961666 10:8.1720381 11:-0.22640149 12:-0.60592264 13:-0.21933696 14:-0.16083114 15:3.6626279 16:-0.30765641 17:-0.37343216 18:-0.36310151 19:0.14626332 20:-0.14419276 21:0.69568837 22:-0.062323686 23:-0.26375422 24:-0.25234732 25:-0.10527511 26:0.22529314 27:-0.27057403 28:-0.30796358 29:-0.16733444 30:4.922328 31:-0.20108834 32:-0.16073692 33:-0.18338262 34:-0.16487801 35:-0.27398148 36:-0.30811864 37:1.0889581 38:-0.11907394 39:-0.21418162 40:-0.20511942 41:-0.13776088 42:-0.16252463 43:-0.2478133 44:-0.17397934 45:-0.31722111 46:-0.15619448 47:-0.066107452 48:-0.14383133 49:-0.22159693 50:-0.64531434 51:-0.26362848 52:-0.52965069 53:-0.34909117 54:-0.28615856 55:-0.089126267 56:-0.25818154 57:-0.45172846 #
0.023963644585123091562683939059752 1:-0.32373646 2:-0.17667121 3:-0.50017285 4:-0.098842546 5:-0.44537586 6:-0.34561899 7:-0.26157999 8:-0.31560028 9:-0.30961666 10:-0.41393355 11:-0.22640149 12:-0.60592264 13:-0.21933696 14:-0.16083114 15:-0.15391792 16:-0.30765641 17:-0.37343216 18:-0.36310151 19:-0.88086981 20:-0.14419276 21:-0.57808203 22:-0.062323686 23:-0.26375422 24:-0.25234732 25:0.61297631 26:-0.4047187 27:-0.27057403 28:-0.30796358 29:-0.16733444 30:-0.27352092 31:-0.20108834 32:-0.16073692 33:1.4042337 34:-0.16487801 35:-0.27398148 36:-0.30811864 37:-0.39074841 38:-0.11907394 39:-0.21418162 40:-0.20511942 41:-0.13776088 42:-0.16252463 43:-0.2478133 44:-0.17397934 45:-0.31722111 46:-0.15619448 47:-0.066107452 48:-0.14383133 49:-0.22159693 50:0.90881026 51:-0.26362848 52:-0.52965069 53:-0.34909117 54:-0.28615856 55:-0.072748788 56:-0.2402797 57:-0.48457378 #
0.023963644585123091562683939059752 1:-0.32373646 2:-0.17667121 3:-0.50017285 4:-0.098842546 5:-0.44537586 6:-0.34561899 7:-0.26157999 8:-0.31560028 9:-0.30961666 10:-0.41393355 11:-0.22640149 12:1.1951786 13:-0.21933696 14:-0.16083114 15:-0.15391792 16:-0.30765641 17:-0.37343216 18:-0.36310151 19:-0.88086981 20:-0.14419276 21:0.67492038 22:-0.062323686 23:-0.26375422 24:-0.25234732 25:-0.40743604 26:-0.4047187 27:-0.27057403 28:-0.30796358 29:-0.16733444 30:-0.27352092 31:-0.20108834 32:-0.16073692 33:-0.18338262 34:-0.16487801 35:-0.27398148 36:-0.30811864 37:-0.39074841 38:-0.11907394 39:-0.21418162 40:-0.20511942 41:-0.13776088 42:-0.16252463 43:-0.2478133 44:-0.17397934 45:-0.31722111 46:-0.15619448 47:-0.066107452 48:-0.14383133 49:-0.22159693 50:-0.64531434 51:-0.26362848 52:0.36922523 53:-0.34909117 54:-0.28615856 55:-0.092286833 56:-0.23132877 57:-0.4696441 #
0.023963644585123091562683939059752 1:-0.32373646 2:-0.17667121 3:1.4125202 4:-0.098842546 5:-0.44537586 6:0.79088759 7:-0.26157999 8:0.82674593 9:-0.30961666 10:-0.41393355 11:-0.22640149 12:0.88670272 13:0.53531528 14:-0.16083114 15:-0.15391792 16:0.028001251 17:0.86397064 18:-0.36310151 19:0.51469147 20:-0.14419276 21:0.46031776 22:-0.062323686 23:-0.26375422 24:1.0423727 25:-0.40743604 26:-0.4047187 27:-0.27057403 28:-0.30796358 29:-0.16733444 30:-0.27352092 31:-0.20108834 32:-0.16073692 33:-0.18338262 34:-0.16487801 35:-0.27398148 36:-0.30811864 37:-0.39074841 38:-0.11907394 39:-0.21418162 40:-0.20511942 41:-0.13776088 42:-0.16252463 43:-0.2478133 44:-0.17397934 45:-0.31722111 46:-0.15619448 47:-0.066107452 48:-0.14383133 49:-0.22159693 50:-0.64531434 51:-0.26362848 52:0.060872968 53:0.83635783 54:-0.28615856 55:-0.058404677 56:-0.025457395 57:-0.25167048 #
0.023963644585123091562683939059752 1:-0.32373646 2:-0.17667121 3:-0.50017285 4:-0.098842546 5:-0.44537586 6:-0.34561899 7:1.9890447 8:-0.31560028 9:-0.30961666 10:-0.41393355 11:-0.22640149 12:-0.60592264 13:-0.21933696 14:-0.16083114 15:-0.15391792 16:2.4850152 17:-0.37343216 18:-0.36310151 19:0.2802372 20:-0.14419276 21:0.86183232 22:-0.062323686 23:-0.26375422 24:-0.25234732 25:-0.40743604 26:-0.4047187 27:-0.27057403 28:-0.30796358 29:-0.16733444 30:-0.27352092 31:-0.20108834 32:-0.16073692 33:-0.18338262 34:-0.16487801 35:-0.27398148 36:-0.30811864 37:-0.39074841 38:-0.11907394 39:-0.21418162 40:-0.20511942 41:-0.13776088 42:-0.16252463 43:-0.2478133 44:-0.17397934 45:-0.31722111 46:-0.15619448 47:-0.066107452 48:-0.14383133 49:-0.22159693 50:-0.64531434 51:-0.26362848 52:-0.52965069 53:-0.34909117 54:-0.28615856 55:-0.037496313 56:-0.23132877 57:-0.45471439 #
-0.023963644585123091562683939059752 1:-0.32373646 2:-0.17667121 3:-0.50017285 4:-0.098842546 5:-0.44537586 6:-0.34561899 7:-0.26157999 8:-0.31560028 9:-0.30961666 10:-0.41393355 11:-0.22640149 12:-0.60592264 13:-0.21933696 14:-0.16083114 15:-0.15391792 16:-0.30765641 17:-0.37343216 18:-0.36310151 19:1.6534696 20:-0.14419276 21:5.7146206 22:-0.062323686 23:-0.26375422 24:-0.25234732 25:-0.40743604 26:-0.4047187 27:-0.27057403 28:-0.30796358 29:-0.16733444 30:-0.27352092 31:-0.20108834 32:-0.16073692 33:-0.18338262 34:-0.16487801 35:-0.27398148 36:-0.30811864 37:-0.39074841 38:-0.11907394 39:-0.21418162 40:-0.20511942 41:-0.13776088 42:-0.16252463 43:-0.2478133 44:-0.17397934 45:-0.31722111 46:-0.15619448 47:-0.066107452 48:-0.14383133 49:-0.22159693 50:-0.64531434 51:-0.26362848 52:-0.52965069 53:-0.34909117 54:-0.28615856 55:-0.099646755 56:-0.32083806 57:-0.62192702 #
-0.023963644585123091562683939059752 1:-0.32373646 2:-0.17667121 3:-0.50017285 4:-0.098842546 5:-0.44537586 6:-0.34561899 7:-0.26157999 8:-0.31560028 9:-0.30961666 10:-0.41393355 11:-0.22640149 12:-0.60592264 13:-0.21933696 14:-0.16083114 15:-0.15391792 16:-0.30765641 17:-0.37343216 18:-0.36310151 19:0.97801787 20:-0.14419276 21:4.032413 22:-0.062323686 23:-0.26375422 24:-0.25234732 25:-0.40743604 26:-0.4047187 27:-0.27057403 28:-0.30796358 29:-0.16733444 30:-0.27352092 31:-0.20108834 32:-0.16073692 33:-0.18338262 34:-0.16487801 35:-0.27398148 36:-0.30811864 37:-0.39074841 38:-0.11907394 39:-0.21418162 40:-0.20511942 41:-0.13776088 42:-0.16252463 43:-0.2478133 44:-0.17397934 45:-0.31722111 46:-0.15619448 47:-0.066107452 48:-0.14383133 49:-0.22159693 50:-0.64531434 51:-0.26362848 52:-0.52965069 53:-0.34909117 54:-0.28615856 55:-0.093016192 56:-0.3029362 57:-0.59803951 #
-0.023963644585123091562683939059752 1:-0.32373646 2:-0.17667121 3:-0.50017285 4:-0.098842546 5:0.70741206 6:-0.34561899 7:1.6211542 8:-0.31560028 9:-0.30961666 10:-0.41393355 11:-0.22640149 12:-0.60592264 13:-0.21933696 14:-0.16083114 15:-0.15391792 16:3.2234621 17:-0.37343216 18:1.2804446 19:0.58726066 20:-0.14419276 21:-0.57808203 22:-0.062323686 23:-0.26375422 24:-0.25234732 25:-0.40743604 26:-0.4047187 27:-0.27057403 28:-0.30796358 29:-0.16733444 30:-0.27352092 31:-0.20108834 32:-0.16073692 33:-0.18338262 34:-0.16487801 35:-0.27398148 36:-0.30811864 37:-0.39074841 38:-0.11907394 39:-0.21418162 40:-0.20511942 41:-0.13776088 42:-0.16252463 43:-0.2478133 44:-0.17397934 45:-0.31722111 46:-0.15619448 47:-0.066107452 48:-0.14383133 49:-0.22159693 50:-0.64531434 51:-0.26362848 52:1.7917181 53:0.57941324 54:-0.28615856 55:0.28611916 56:0.88753736 57:-0.030710904 #
0.023963644585123091562683939059752 1:-0.32373646 2:-0.17667121 3:-0.50017285 4:-0.098842546 5:-0.44537586 6:2.3819969 7:1.0368574 8:-0.31560028 9:-0.30961666 10:-0.41393355 11:2.4729679 12:-0.60592264 13:-0.21933696 14:-0.16083114 15:-0.15391792 16:-0.30765641 17:-0.37343216 18:1.92275 19:0.13509883 20:-0.14419276 21:-0.57808203 22:-0.062323686 23:-0.26375422 24:-0.25234732 25:-0.40743604 26:-0.4047187 27:-0.27057403 28:-0.30796358 29:-0.16733444 30:-0.27352092 31:-0.20108834 32:-0.16073692 33:-0.18338262 34:-0.16487801 35:-0.27398148 36:-0.30811864 37:-0.39074841 38:-0.11907394 39:-0.21418162 40:-0.20511942 41:-0.13776088 42:-0.16252463 43:-0.2478133 44:-0.17397934 45:-0.31722111 46:-0.15619448 47:-0.066107452 48:-0.14383133 49:-0.22159693 50:-0.21361308 51:-0.26362848 52:-0.52965069 53:-0.34909117 54:-0.28615856 55:-0.086761363 56:-0.23132877 57:-0.52339101 #
0.0072459569633672631441823064335495 1:-0.32373646 2:-0.17667121 3:2.005455 4:-0.098842546 5:-0.44537586 6:-0.34561899 7:-0.26157999 8:-0.31560028 9:-0.30961666 10:-0.41393355 11:-0.22640149 12:0.69763684 13:-0.21933696 14:-0.16083114 15:-0.15391792 16:-0.30765641 17:-0.37343216 18:-0.36310151 19:-0.14959568 20:-0.14419276 21:3.0632398 22:-0.062323686 23:-0.26375422 24:6.5319853 25:-0.40743604 26:-0.4047187 27:-0.27057403 28:-0.30796358 29:-0.16733444 30:-0.27352092 31:-0.20108834 32:-0.16073692 33:-0.18338262 34:-0.16487801 35:-0.27398148 36:-0.30811864 37:-0.39074841 38:-0.11907394 39:-0.21418162 40:-0.20511942 41:-0.13776088 42:-0.16252463 43:-0.2478133 44:-0.17397934 45:-0.31722111 46:-0.15619448 47:-0.066107452 48:-0.14383133 49:-0.22159693 50:-0.64531434 51:-0.26362848 52:-0.52965069 53:0.81299925 54:-0.28615856 55:-0.01526184 56:-0.10601576 57:-0.4786019 #
0.023963644585123091562683939059752 1:-0.32373646 2:1.4112427 3:0.57093525 4:-0.098842546 5:-0.44537586 6:3.9276457 7:-0.26157999 8:0.50688899 9:1.4334437 10:1.3359249 11:-0.22640149 12:1.4539003 13:-0.21933696 14:-0.16083114 15:-0.15391792 16:-0.30765641 17:0.54224592 18:-0.36310151 19:0.48678026 20:-0.14419276 21:0.072648503 22:-0.062323686 23:-0.26375422 24:0.67985106 25:-0.40743604 26:-0.4047187 27:-0.21375258 28:-0.30796358 29:-0.16733444 30:-0.27352092 31:-0.20108834 32:-0.16073692 33:-0.18338262 34:-0.16487801 35:-0.27398148 36:-0.30811864 37:-0.39074841 38:-0.11907394 39:-0.21418162 40:-0.20511942 41:-0.13776088 42:-0.16252463 43:-0.2478133 44:-0.17397934 45:-0.31722111 46:-0.15619448 47:-0.066107452 48:-0.14383133 49:-0.22159693 50:-0.28177646 51:-0.26362848 52:0.17141435 53:0.27575138 54:-0.28615856 55:-0.063775428 56:-0.016506467 57:0.091712639 #
-0.01507267620277938889594704363617 1:-0.32373646 2:-0.17667121 3:-0.50017285 4:-0.098842546 5:-0.44537586 6:-0.34561899 7:-0.26157999 8:-0.31560028 9:-0.30961666 10:-0.41393355 11:-0.22640149 12:2.9465256 13:-0.21933696 14:-0.16083114 15:-0.15391792 16:-0.30765641 17:-0.37343216 18:-0.36310151 19:-0.88086981 20:-0.14419276 21:6.8360925 22:-0.062323686 23:-0.26375422 24:-0.25234732 25:-0.40743604 26:-0.4047187 27:0.85638463 28:-0.30796358 29:-0.16733444 30:-0.27352092 31:-0.20108834 32:-0.16073692 33:-0.18338262 34:-0.16487801 35:-0.27398148 36:-0.30811864 37:-0.39074841 38:-0.11907394 39:-0.21418162 40:-0.20511942 41:-0.13776088 42:-0.16252463 43:-0.2478133 44:-0.17397934 45:-0.31722111 46:-0.15619448 47:-0.066107452 48:-0.14383133 49:-0.22159693 50:-0.64531434 51:-0.26362848 52:-0.52965069 53:-0.34909117 54:-0.28615856 55:-0.099646755 56:-0.32083806 57:-0.61595517 #
-0.023963644585123091562683939059752 1:0.19807778 2:-0.17667121 3:-0.021999607 4:-0.098842546 5:-0.44537586 6:-0.34561899 7:-0.26157999 8:1.4207659 9:5.7204294 10:-0.41393355 11:-0.22640149 12:-0.22779089 13:-0.21933696 14:-0.16083114 15:-0.15391792 16:-0.30765641 17:-0.37343216 18:-0.36310151 19:-0.59617531 20:-0.14419276 21:-0.40501541 22:-0.062323686 23:-0.26375422 24:-0.25234732 25:-0.090414733 26:0.38021407 27:-0.23269306 28:-0.30796358 29:-0.16733444 30:-0.27352092 31:-0.20108834 32:-0.16073692 33:0.60271871 34:-0.16487801 35:-0.27398148 36:-0.30811864 37:-0.39074841 38:-0.11907394 39:-0.21418162 40:-0.20511942 41:-0.13776088 42:-0.16252463 43:-0.2478133 44:-0.17397934 45:-0.31722111 46:-0.15619448 47:-0.066107452 48:-0.14383133 49:0.23693292 50:0.090849921 51:0.40961075 52:-0.52965069 53:-0.13886377 54:-0.28615856 55:-0.051752016 56:-0.043359254 57:0.82923985 #
-0.023963644585123091562683939059752 1:0.19807778 2:-0.17667121 3:-0.2706497 4:-0.098842546 5:-0.28637064 6:0.19990416 7:-0.26157999 8:-0.31560028 9:4.778235 10:-0.41393355 11:-0.22640149 12:-0.24769257 13:-0.21933696 14:-0.16083114 15:-0.15391792 16:-0.30765641 17:-0.37343216 18:-0.36310151 19:-0.61292201 20:-0.14419276 21:-0.41193807 22:-0.062323686 23:-0.26375422 24:-0.25234732 25:-0.11022857 26:0.33890182 27:-0.23269306 28:-0.30796358 29:-0.16733444 30:-0.27352092 31:-0.20108834 32:-0.16073692 33:0.37151241 34:-0.16487801 35:-0.27398148 36:-0.30811864 37:-0.099658601 38:-0.11907394 39:-0.21418162 40:-0.20511942 41:-0.13776088 42:-0.16252463 43:-0.2478133 44:-0.17397934 45:-0.31722111 46:-0.15619448 47:-0.066107452 48:-0.14383133 49:0.77188438 50:0.040863458 51:0.35350749 52:-0.52965069 53:-0.15638272 54:-0.28615856 55:-0.030379515 56:0.3683835 57:1.2890745 #
-0.023963644585123091562683939059752 1:0.024139695 2:-0.080433995 3:-0.021999607 4:-0.098842546 5:-0.44537586 6:0.79088759 7:-0.26157999 8:-0.31560028 9:3.2707233 10:-0.41393355 11:-0.22640149 12:-0.35715175 13:-0.21933696 14:-0.16083114 15:-0.15391792 16:-0.30765641 17:-0.37343216 18:-0.36310151 19:-0.69665569 20:-0.14419276 21:-0.46731937 22:-0.062323686 23:-0.26375422 24:-0.25234732 25:-0.15976314 26:0.20463702 27:-0.24532005 28:-0.30796358 29:-0.16733444 30:-0.27352092 31:-0.20108834 32:-0.16073692 33:0.46399492 34:-0.16487801 35:-0.27398148 36:0.20619465 37:-0.19668855 38:-0.11907394 39:-0.21418162 40:-0.20511942 41:-0.13776088 42:-0.073323682 43:-0.2478133 44:-0.17397934 45:-0.31722111 46:-0.15619448 47:-0.066107452 48:-0.14383133 49:1.0351145 50:-0.027299901 51:0.57792056 52:-0.52965069 53:-0.22061887 54:-0.28615856 55:-0.033451673 56:0.16251212 57:1.7727969 #
-0.0075679733467451937301007092173677 1:-0.10631386 2:-0.17667121 3:-0.30890355 4:-0.098842546 5:-0.44537586 6:0.10898364 7:-0.26157999 8:-0.087131046 9:1.9987605 10:-0.41393355 11:-0.22640149 12:-0.33725008 13:-0.21933696 14:-0.16083114 15:-0.15391792 16:-0.30765641 17:0.56699395 18:-0.36310151 19:-0.76364267 20:-0.14419276 21:-0.50885534 22:-0.062323686 23:-0.26375422 24:-0.25234732 25:-0.1647166 26:0.1529967 27:-0.25479028 28:-0.30796358 29:-0.16733444 30:-0.27352092 31:-0.20108834 32:-0.16073692 33:0.40233994 34:-0.16487801 35:-0.27398148 36:0.47363758 37:0.11865877 38:-0.11907394 39:-0.21418162 40:-0.20511942 41:-0.13776088 42:-0.16252463 43:-0.2478133 44:-0.17397934 45:-0.31722111 46:-0.15619448 47:-0.066107452 48:-0.14383133 49:2.3937216 50:-0.027299901 51:1.1950566 52:-0.52965069 53:-0.26733607 54:-0.28615856 55:-0.039640196 56:0.62796044 57:3.5016561 #
0.023963644585123091562683939059752 1:-0.32373646 2:0.90599734 3:-0.50017285 4:-0.098842546 5:-0.44537586 6:-0.34561899 7:-0.26157999 8:-0.31560028 9:-0.30961666 10:-0.41393355 11:-0.22640149 12:-0.60592264 13:-0.21933696 14:-0.16083114 15:-0.15391792 16:0.90071112 17:-0.37343216 18:3.0562301 19:1.1454852 20:-0.14419276 21:1.3048829 22:-0.062323686 23:-0.26375422 24:-0.25234732 25:-0.40743604 26:-0.4047187 27:-0.27057403 28:-0.30796358 29:-0.16733444 30:-0.27352092 31:-0.20108834 32:-0.16073692 33:-0.18338262 34:-0.16487801 35:-0.27398148 36:-0.30811864 37:-0.39074841 38:-0.11907394 39:-0.21418162 40:-0.20511942 41:-0.13776088 42:-0.16252463 43:-0.2478133 44:-0.17397934 45:0.42254475 46:-0.15619448 47:-0.066107452 48:-0.14383133 49:-0.22159693 50:-0.64531434 51:-0.26362848 52:-0.049668405 53:0.61445111 54:-0.28615856 55:0.016741656 56:0.03719911 57:-0.35617837 #
0.023963644585123091562683939059752 1:-0.32373646 2:-0.17667121 3:-0.50017285 4:-0.098842546 5:1.2639303 6:1.6091723 7:0.66896677 8:-0.31560028 9:-0.30961666 10:-0.41393355 11:-0.22640149 12:-0.60592264 13:1.0786649 14:-0.16083114 15:-0.15391792 16:0.26967475 17:0.69073427 18:0.44922587 19:0.079276368 20:-0.14419276 21:0.017267181 22:-0.062323686 23:-0.26375422 24:-0.25234732 25:-0.40743604 26:-0.4047187 27:-0.27057403 28:-0.30796358 29:-0.16733444 30:-0.27352092 31:-0.20108834 32:-0.16073692 33:-0.18338262 34:-0.16487801 35:-0.27398148 36:-0.30811864 37:-0.39074841 38:-0.11907394 39:-0.21418162 40:-0.20511942 41:-0.13776088 42:-0.16252463 43:-0.2478133 44:-0.17397934 45:-0.31722111 46:-0.15619448 47:-0.066107452 48:-0.14383133 49:-0.22159693 50:-0.059109468 51:-0.26362848 52:-0.15439181 53:-0.34909117 54:-0.28615856 55:0.0064421888 56:0.081953757 57:-0.29048768 #
0.023963644585123091562683939059752 1:-0.32373646 2:-0.17667121 3:-0.50017285 4:-0.098842546 5:-0.44537586 6:-0.34561899 7:-0.26157999 8:-0.31560028 9:-0.30961666 10:-0.41393355 11:-0.22640149 12:-0.60592264 13:-0.21933696 14:-0.16083114 15:-0.15391792 16:1.4109107 17:-0.37343216 18:-0.36310151 19:1.2627124 20:-0.14419276 21:2.0802214 22:-0.062323686 23:-0.26375422 24:-0.25234732 25:-0.40743604 26:-0.4047187 27:-0.27057403 28:-0.30796358 29:-0.16733444 30:-0.27352092 31:-0.20108834 32:-0.16073692 33:-0.18338262 34:-0.16487801 35:-0.27398148 36:-0.30811864 37:-0.39074841 38:-0.11907394 39:-0.21418162 40:-0.20511942 41:-0.13776088 42:-0.16252463 43:-0.2478133 44:-0.17397934 45:0.73489034 46:-0.15619448 47:-0.066107452 48:-0.14383133 49:-0.22159693 50:-0.64531434 51:-0.26362848 52:0.13941552 53:0.99402839 54:-0.28615856 55:0.00065150071 56:0.03719911 57:-0.42186904 #
-0.023963644585123091562683939059752 1:-0.32373646 2:-0.17667121 3:-0.50017285 4:-0.098842546 5:0.70741206 6:-0.34561899 7:1.6211542 8:-0.31560028 9:-0.30961666 10:-0.41393355 11:-0.22640149 12:-0.60592264 13:-0.21933696 14:-0.16083114 15:-0.15391792 16:3.2234621 17:-0.37343216 18:1.2804446 19:0.58726066 20:-0.14419276 21:-0.57808203 22:-0.062323686 23:-0.26375422 24:-0.25234732 25:-0.40743604 26:-0.4047187 27:-0.27057403 28:-0.30796358 29:-0.16733444 30:-0.27352092 31:-0.20108834 32:-0.16073692 33:-0.18338262 34:-0.16487801 35:-0.27398148 36:-0.30811864 37:-0.39074841 38:-0.11907394 39:-0.21418162 40:-0.20511942 41:-0.13776088 42:-0.16252463 43:-0.2478133 44:-0.17397934 45:-0.31722111 46:-0.15619448 47:-0.066107452 48:-0.14383133 49:-0.22159693 50:-0.64531434 51:-0.26362848 52:1.7917181 53:0.57941324 54:-0.28615856 55:0.28611916 56:0.88753736 57:-0.030710904 #
-0.023963644585123091562683939059752 1:-0.32373646 2:-0.17667121 3:-0.50017285 4:-0.098842546 5:-0.44537586 6:-0.34561899 7:-0.26157999 8:-0.31560028 9:-0.30961666 10:-0.41393355 11:-0.22640149 12:-0.60592264 13:-0.21933696 14:-0.16083114 15:-0.15391792 16:-0.30765641 17:-0.37343216 18:-0.36310151 19:1.6534696 20:-0.14419276 21:5.7146206 22:-0.062323686 23:-0.26375422 24:-0.25234732 25:-0.40743604 26:-0.4047187 27:-0.27057403 28:-0.30796358 29:-0.16733444 30:-0.27352092 31:-0.20108834 32:-0.16073692 33:-0.18338262 34:-0.16487801 35:-0.27398148 36:-0.30811864 37:-0.39074841 38:-0.11907394 39:-0.21418162 40:-0.20511942 41:-0.13776088 42:-0.16252463 43:-0.2478133 44:-0.17397934 45:-0.31722111 46:-0.15619448 47:-0.066107452 48:-0.14383133 49:-0.22159693 50:-0.64531434 51:-0.26362848 52:-0.52965069 53:-0.34909117 54:-0.28615856 55:-0.099646755 56:-0.32083806 57:-0.62192702 #
-0.023963644585123091562683939059752 1:-0.32373646 2:-0.17667121 3:1.1447431 4:-0.098842546 5:-0.44537586 6:-0.34561899 7:-0.26157999 8:-0.31560028 9:-0.30961666 10:-0.41393355 11:3.6426947 12:0.24984922 13:-0.21933696 14:-0.16083114 15:-0.15391792 16:-0.30765641 17:-0.37343216 18:1.2615533 19:2.9987905 20:-0.14419276 21:2.4263546 22:-0.062323686 23:-0.26375422 24:-0.25234732 25:-0.40743604 26:-0.4047187 27:0.00090621441 28:-0.30796358 29:-0.16733444 30:-0.27352092 31:-0.20108834 32:-0.16073692 33:-0.18338262 34:-0.16487801 35:-0.27398148 36:-0.30811864 37:-0.39074841 38:-0.11907394 39:-0.21418162 40:-0.20511942 41:-0.13776088 42:-0.16252463 43:-0.2478133 44:-0.17397934 45:-0.31722111 46:-0.15619448 47:-0.066107452 48:-0.14383133 49:-0.22159693 50:-0.64531434 51:-0.26362848 52:-0.52965069 53:-0.34909117 54:-0.28615856 55:-0.098607965 56:-0.31188715 57:-0.57116604 #
0.023963644585123091562683939059752 1:0.28504682 2:-0.0082560908 3:0.054508116 4:-0.098842546 5:-0.44537586 6:-0.34561899 7:-0.26157999 8:-0.31560028 9:5.2022223 10:0.26267835 11:0.40345138 12:-0.028774185 13:-0.21933696 14:-0.16083114 15:-0.15391792 16:-0.11968812 17:-0.37343216 18:-0.098622821 19:0.43095782 20:0.54486334 21:0.031112511 22:-0.062323686 23:-0.26375422 24:2.0263598 25:-0.40743604 26:-0.4047187 27:-0.27057403 28:-0.30796358 29:-0.16733444 30:-0.27352092 31:-0.20108834 32:-0.16073692 33:-0.18338262 34:-0.16487801 35:-0.27398148 36:-0.30811864 37:-0.39074841 38:4.6110144 39:-0.21418162 40:-0.20511942 41:-0.13776088 42:-0.16252463 43:-0.2478133 44:-0.17397934 45:-0.31722111 46:-0.15619448 47:-0.066107452 48:-0.14383133 49:-0.22159693 50:0.28170732 51:-0.26362848 52:0.063781954 53:0.39254439 54:1.8741031 55:-0.056282897 56:0.32362884 57:0.55751926 #
0.023963644585123091562683939059752 1:-0.32373646 2:-0.17667121 3:-0.50017285 4:-0.098842546 5:-0.44537586 6:-0.34561899 7:-0.26157999 8:2.7458875 9:-0.30961666 10:1.1492733 11:-0.22640149 12:-0.60592264 13:-0.21933696 14:-0.16083114 15:-0.15391792 16:-0.30765641 17:-0.37343216 18:-0.36310151 19:-0.88086981 20:-0.14419276 21:-0.57808203 22:-0.062323686 23:-0.26375422 24:-0.25234732 25:-0.40743604 26:-0.4047187 27:-0.27057403 28:-0.30796358 29:-0.16733444 30:-0.27352092 31:-0.20108834 32:-0.16073692 33:-0.18338262 34:-0.16487801 35:-0.27398148 36:-0.30811864 37:2.8597546 38:-0.11907394 39:-0.21418162 40:-0.20511942 41:-0.13776088 42:-0.16252463 43:-0.2478133 44:-0.17397934 45:-0.31722111 46:-0.15619448 47:-0.066107452 48:-0.14383133 49:1.221923 50:1.676784 51:1.3259642 52:0.95683992 53:-0.34909117 54:-0.28615856 55:-0.019704314 56:-0.088113904 57:0.011092257 #
-0.023963644585123091562683939059752 1:-0.32373646 2:-0.17667121 3:-0.50017285 4:-0.098842546 5:-0.44537586 6:-0.34561899 7:-0.26157999 8:-0.31560028 9:-0.30961666 10:-0.41393355 11:-0.22640149 12:-0.60592264 13:-0.21933696 14:-0.16083114 15:-0.15391792 16:-0.30765641 17:1.4084278 18:-0.36310151 19:-0.88086981 20:-0.14419276 21:-0.57808203 22:-0.062323686 23:-0.26375422 24:-0.25234732 25:-0.050787069 26:-0.4047187 27:-0.27057403 28:-0.30796358 29:-0.16733444 30:-0.27352092 31:-0.20108834 32:-0.16073692 33:-0.18338262 34:-0.16487801 35:-0.27398148 36:-0.30811864 37:-0.39074841 38:11.624594 39:-0.21418162 40:-0.20511942 41:-0.13776088 42:-0.16252463 43:-0.2478133 44:-0.17397934 45:-0.31722111 46:-0.15619448 47:-0.066107452 48:-0.14383133 49:-0.22159693 50:-0.64531434 51:-0.26362848 52:-0.52965069 53:-0.34909117 54:8.0795603 55:-0.070184968 56:-0.25818154 57:-0.28152987 #
-0.023963644585123091562683939059752 1:-0.32373646 2:-0.17667121 3:0.22665049 4:-0.098842546 5:0.058140695 6:-0.34561899 7:-0.26157999 8:-0.31560028 9:-0.30961666 10:-0.41393355 11:-0.22640149 12:-0.22779089 13:0.92773449 14:-0.16083114 15:-0.15391792 16:-0.30765641 17:-0.37343216 18:-0.36310151 19:-0.24449384 20:-0.14419276 21:-0.31502074 22:-0.062323686 23:-0.26375422 24:-0.25234732 25:-0.40743604 26:-0.4047187 27:-0.27057403 28:-0.30796358 29:-0.16733444 30:-0.27352092 31:-0.20108834 32:-0.16073692 33:-0.18338262 34:-0.16487801 35:-0.27398148 36:-0.30811864 37:-0.39074841 38:-0.11907394 39:-0.21418162 40:-0.20511942 41:-0.13776088 42:-0.16252463 43:-0.2478133 44:-0.17397934 45:-0.0048755165 46:-0.15619448 47:-0.066107452 48:-0.14383133 49:-0.22159693 50:1.2359943 51:-0.26362848 52:0.27322876 53:-0.34909117 54:-0.28615856 55:-0.097348161 56:-0.31188715 57:-0.4786019 #
0.010573163983354892311861128462169 1:-0.32373646 2:-0.17667121 3:-0.50017285 4:-0.098842546 5:7.8361464 6:-0.34561899 7:6.490294 8:-0.31560028 9:-0.30961666 10:-0.41393355 11:-0.22640149 12:2.4987381 13:-0.21933696 14:-0.16083114 15:-0.15391792 16:-0.30765641 17:-0.37343216 18:-0.36310151 19:2.6080334 20:-0.14419276 21:-0.57808203 22:-0.062323686 23:-0.26375422 24:-0.25234732 25:-0.40743604 26:-0.4047187 27:-0.27057403 28:-0.30796358 29:-0.16733444 30:-0.27352092 31:-0.20108834 32:-0.16073692 33:-0.18338262 34:-0.16487801 35:-0.27398148 36:-0.30811864 37:-0.39074841 38:-0.11907394 39:-0.21418162 40:-0.20511942 41:-0.13776088 42:-0.16252463 43:-0.2478133 44:-0.17397934 45:-0.31722111 46:-0.15619448 47:-0.066107452 48:-0.14383133 49:-0.22159693 50:-0.64531434 51:-0.26362848 52:-0.52965069 53:-0.34909117 54:-0.28615856 55:0.086627744 56:0.20726676 57:-0.43978468 #
0.023963644585123091562683939059752 1:-0.32373646 2:-0.17667121 3:0.24577741 4:-0.098842546 5:0.58815813 6:-0.34561899 7:-0.26157999 8:-0.041437197 9:-0.026958233 10:0.02936391 11:0.35846189 12:-0.34720093 13:0.17308222 14:-0.16083114 15:-0.15391792 16:-0.30765641 17:-0.37343216 18:-0.36310151 19:-0.70223796 20:-0.14419276 21:-0.53654605 22:-0.062323686 23:-0.26375422 24:-0.25234732 25:-0.40743604 26:-0.4047187 27:-0.27057403 28:-0.30796358 29:-0.16733444 30:-0.14627562 31:-0.20108834 32:-0.16073692 33:-0.18338262 34:-0.16487801 35:-0.27398148 36:-0.30811864 37:-0.39074841 38:-0.11907394 39:-0.21418162 40:-0.20511942 41:-0.13776088 42:-0.16252463 43:-0.054893032 44:-0.17397934 45:-0.31722111 46:-0.15619448 47:-0.066107452 48:-0.14383133 49:-0.22159693 50:-0.49989921 51:-0.26362848 52:-0.52965069 53:-0.16222237 54:-0.28615856 55:-0.095093764 56:-0.19552505 57:0.079768874 #
0.023963644585123091562683939059752 1:-0.32373646 2:-0.17667121 3:-0.50017285 4:-0.098842546 5:-0.44537586 6:-0.34561899 7:-0.26157999 8:-0.31560028 9:-0.30961666 10:-0.41393355 11:-0.22640149 12:-0.60592264 13:-0.21933696 14:-0.16083114 15:-0.15391792 16:-0.30765641 17:-0.37343216 18:-0.36310151 19:-0.88086981 20:-0.14419276 21:-0.57808203 22:-0.062323686 23:-0.26375422 24:-0.25234732 25:0.61297631 26:-0.4047187 27:-0.27057403 28:-0.30796358 29:-0.16733444 30:-0.27352092 31:-0.20108834 32:-0.16073692 33:1.4042337 34:-0.16487801 35:-0.27398148 36:-0.30811864 37:-0.39074841 38:-0.11907394 39:-0.21418162 40:-0.20511942 41:-0.13776088 42:-0.16252463 43:-0.2478133 44:-0.17397934 45:-0.31722111 46:-0.15619448 47:-0.066107452 48:-0.14383133 49:-0.22159693 50:0.90881026 51:-0.26362848 52:-0.52965069 53:-0.34909117 54:-0.28615856 55:-0.072748788 56:-0.2402797 57:-0.48457378 #
-0.013981358717580003384051146042566 1:-0.32373646 2:-0.17667121 3:-0.50017285 4:-0.098842546 5:-0.44537586 6:-0.34561899 7:-0.26157999 8:-0.31560028 9:-0.30961666 10:5.4189277 11:-0.22640149 12:4.3694954 13:-0.21933696 14:-0.16083114 15:-0.15391792 16:-0.30765641 17:-0.37343216 18:-0.36310151 19:-0.88086981 20:-0.14419276 21:-0.57808203 22:-0.062323686 23:-0.26375422 24:-0.25234732 25:-0.40743604 26:-0.4047187 27:-0.27057403 28:-0.30796358 29:-0.16733444 30:-0.27352092 31:-0.20108834 32:-0.16073692 33:-0.18338262 34:-0.16487801 35:-0.27398148 36:-0.30811864 37:-0.39074841 38:-0.11907394 39:-0.21418162 40:-0.20511942 41:-0.13776088 42:-0.16252463 43:-0.2478133 44:-0.17397934 45:-0.31722111 46:-0.15619448 47:-0.066107452 48:-0.14383133 49:-0.22159693 50:-0.64531434 51:-0.26362848 52:0.73866612 53:-0.34909117 54:-0.28615856 55:-0.084175445 56:-0.25818154 57:-0.58609575 #
-0.023963644585123091562683939059752 1:-0.32373646 2:-0.17667121 3:-0.50017285 4:-0.098842546 5:-0.44537586 6:2.6092982 7:-0.26157999 8:2.6544998 9:-0.30961666 10:1.1026103 11:-0.22640149 12:1.3543919 13:-0.21933696 14:-0.16083114 15:-0.15391792 16:-0.30765641 17:-0.37343216 18:-0.36310151 19:-0.88086981 20:-0.14419276 21:-0.57808203 22:-0.062323686 23:-0.26375422 24:-0.25234732 25:-0.40743604 26:-0.4047187 27:-0.065385468 28:-0.30796358 29:-0.16733444 30:-0.27352092 31:-0.20108834 32:-0.16073692 33:-0.18338262 34:-0.16487801 35:-0.27398148 36:-0.30811864 37:-0.39074841 38:-0.11907394 39:-0.21418162 40:-0.20511942 41:-0.13776088 42:-0.16252463 43:-0.2478133 44:-0.17397934 45:0.21705423 46:-0.15619448 47:-0.066107452 48:-0.14383133 49:0.69546276 50:-0.15453817 51:-0.26362848 52:-0.52965069 53:0.28159106 54:-0.28615856 55:-0.079224631 56:-0.24923062 57:-0.33229086 #
0.023963644585123091562683939059752 1:0.28504682 2:-0.0082560908 3:0.054508116 4:-0.098842546 5:-0.44537586 6:-0.34561899 7:-0.26157999 8:-0.31560028 9:5.2022223 10:0.26267835 11:0.40345138 12:-0.028774185 13:-0.21933696 14:-0.16083114 15:-0.15391792 16:-0.11968812 17:-0.37343216 18:-0.098622821 19:0.43095782 20:0.54486334 21:0.031112511 22:-0.062323686 23:-0.26375422 24:2.0263598 25:-0.40743604 26:-0.4047187 27:-0.27057403 28:-0.30796358 29:-0.16733444 30:-0.27352092 31:-0.20108834 32:-0.16073692 33:-0.18338262 34:-0.16487801 35:-0.27398148 36:-0.30811864 37:-0.39074841 38:4.6110144 39:-0.21418162 40:-0.20511942 41:-0.13776088 42:-0.16252463 43:-0.2478133 44:-0.17397934 45:-0.31722111 46:-0.15619448 47:-0.066107452 48:-0.14383133 49:-0.22159693 50:0.28170732 51:-0.26362848 52:0.063781954 53:0.39254439 54:1.8741031 55:-0.056282897 56:0.32362884 57:0.55751926 #
-0.023963644585123091562683939059752 1:1.4591289 2:-0.17667121 3:0.28403127 4:-0.098842546 5:1.2109287 6:-0.34561899 7:0.62568551 8:-0.31560028 9:-0.30961666 10:0.052695356 11:-0.22640149 12:0.42896426 13:0.38438484 14:-0.16083114 15:-0.15391792 16:0.24282214 17:0.64123815 18:-0.36310151 19:1.3296993 20:-0.14419276 21:1.0072083 22:-0.062323686 23:0.62159818 24:5.133688 25:-0.40743604 26:-0.4047187 27:-0.27057403 28:-0.30796358 29:-0.16733444 30:-0.27352092 31:-0.20108834 32:-0.16073692 33:-0.18338262 34:-0.16487801 35:-0.27398148 36:-0.30811864 37:-0.39074841 38:-0.11907394 39:-0.21418162 40:-0.20511942 41:-0.13776088 42:0.06047773 43:-0.2478133 44:-0.17397934 45:0.3650074 46:-0.15619448 47:-0.066107452 48:-0.14383133 49:-0.22159693 50:-0.33176291 51:-0.26362848 52:1.989529 53:0.2523928 54:-0.28615856 55:-0.010090005 56:1.5857098 57:0.81132418 #
-0.023963644585123091562683939059752 1:-0.32373646 2:-0.17667121 3:-0.50017285 4:-0.098842546 5:-0.44537586 6:-0.34561899 7:-0.26157999 8:-0.31560028 9:-0.30961666 10:2.1991882 11:-0.22640149 12:-0.60592264 13:-0.21933696 14:-0.16083114 15:-0.15391792 16:-0.30765641 17:-0.37343216 18:-0.36310151 19:-0.25565833 20:-0.14419276 21:0.19725648 22:-0.062323686 23:-0.26375422 24:-0.25234732 25:-0.40743604 26:-0.4047187 27:0.082981631 28:-0.30796358 29:-0.16733444 30:-0.27352092 31:-0.20108834 32:-0.16073692 33:-0.18338262 34:-0.16487801 35:-0.27398148 36:-0.30811864 37:-0.39074841 38:-0.11907394 39:-0.21418162 40:-0.20511942 41:-0.13776088 42:-0.16252463 43:-0.2478133 44:-0.17397934 45:1.5239739 46:-0.15619448 47:-0.066107452 48:-0.14383133 49:-0.22159693 50:-0.64531434 51:-0.26362848 52:0.060872968 53:-0.34909117 54:4.0131855 55:-0.072638273 56:-0.15077041 57:-0.51741916 #
0.023963644585123091562683939059752 1:-0.32373646 2:-0.17667121 3:0.24577741 4:-0.098842546 5:0.58815813 6:-0.34561899 7:-0.26157999 8:-0.041437197 9:-0.026958233 10:0.02936391 11:0.35846189 12:-0.34720093 13:0.17308222 14:-0.16083114 15:-0.15391792 16:-0.30765641 17:-0.37343216 18:-0.36310151 19:-0.70223796 20:-0.14419276 21:-0.53654605 22:-0.062323686 23:-0.26375422 24:-0.25234732 25:-0.40743604 26:-0.4047187 27:-0.27057403 28:-0.30796358 29:-0.16733444 30:-0.14627562 31:-0.20108834 32:-0.16073692 33:-0.18338262 34:-0.16487801 35:-0.27398148 36:-0.30811864 37:-0.39074841 38:-0.11907394 39:-0.21418162 40:-0.20511942 41:-0.13776088 42:-0.16252463 43:-0.054893032 44:-0.17397934 45:-0.31722111 46:-0.15619448 47:-0.066107452 48:-0.14383133 49:-0.22159693 50:-0.49989921 51:-0.26362848 52:-0.52965069 53:-0.16222237 54:-0.28615856 55:-0.095093764 56:-0.19552505 57:0.079768874 #
0.023963644585123091562683939059752 1:-0.32373646 2:-0.17667121 3:0.68569684 4:-0.098842546 5:1.1976782 6:2.4729173 7:-0.26157999 8:-0.31560028 9:-0.30961666 10:-0.41393355 11:-0.22640149 12:-0.60592264 13:-0.21933696 14:-0.16083114 15:-0.15391792 16:0.10855909 17:-0.37343216 18:-0.36310151 19:0.50352699 20:-0.14419276 21:0.065725833 22:-0.062323686 23:1.108542 24:-0.25234732 25:-0.40743604 26:-0.4047187 27:-0.27057403 28:-0.30796358 29:-0.16733444 30:-0.27352092 31:-0.20108834 32:-0.16073692 33:-0.18338262 34:-0.16487801 35:-0.27398148 36:-0.30811864 37:0.36123362 38:-0.11907394 39:-0.21418162 40:-0.20511942 41:-0.13776088 42:-0.16252463 43:-0.2478133 44:-0.17397934 45:-0.31722111 46:-0.15619448 47:-0.066107452 48:-0.14383133 49:-0.22159693 50:-0.25451109 51:-0.26362848 52:-0.40456438 53:-0.34909117 54:-0.28615856 55:-0.083269268 56:-0.20447598 57:-0.17403603 #
-0.023963644585123091562683939059752 1:-0.32373646 2:-0.17667121 3:-0.50017285 4:-0.098842546 5:7.8361464 6:-0.34561899 7:-0.26157999 8:-0.31560028 9:-0.30961666 10:-0.41393355 11:-0.22640149 12:-0.60592264 13:-0.21933696 14:-0.16083114 15:-0.15391792 16:-0.30765641 17:-0.37343216 18:-0.36310151 19:-0.88086981 20:-0.14419276 21:-0.57808203 22:-0.062323686 23:-0.26375422 24:-0.25234732 25:-0.40743604 26:-0.4047187 27:-0.27057403 28:-0.30796358 29:-0.16733444 30:-0.27352092 31:-0.20108834 32:-0.16073692 33:-0.18338262 34:-0.16487801 35:-0.27398148 36:-0.30811864 37:-0.39074841 38:-0.11907394 39:-0.21418162 40:-0.20511942 41:-0.13776088 42:-0.16252463 43:-0.2478133 44:-0.17397934 45:-0.31722111 46:-0.15619448 47:-0.066107452 48:-0.14383133 49:-0.22159693 50:-0.64531434 51:-0.26362848 52:-0.52965069 53:-0.34909117 54:-0.28615856 55:-0.07754489 56:-0.27608341 57:-0.60699731 #
0.023963644585123091562683939059752 1:0.28504682 2:-0.0082560908 3:0.054508116 4:-0.098842546 5:-0.44537586 6:-0.34561899 7:-0.26157999 8:-0.31560028 9:5.2022223 10:0.26267835 11:0.40345138 12:-0.028774185 13:-0.21933696 14:-0.16083114 15:-0.15391792 16:-0.11968812 17:-0.37343216 18:-0.098622821 19:0.43095782 20:0.54486334 21:0.031112511 22:-0.062323686 23:-0.26375422 24:2.0263598 25:-0.40743604 26:-0.4047187 27:-0.27057403 28:-0.30796358 29:-0.16733444 30:-0.27352092 31:-0.20108834 32:-0.16073692 33:-0.18338262 34:-0.16487801 35:-0.27398148 36:-0.30811864 37:-0.39074841 38:4.6110144 39:-0.21418162 40:-0.20511942 41:-0.13776088 42:-0.16252463 43:-0.2478133 44:-0.17397934 45:-0.31722111 46:-0.15619448 47:-0.066107452 48:-0.14383133 49:-0.22159693 50:0.28170732 51:-0.26362848 52:0.063781954 53:0.39254439 54:1.8741031 55:-0.056282897 56:0.32362884 57:0.55751926 #
-0.023963644585123091562683939059752 1:-0.32373646 2:-0.17667121 3:1.2786317 4:-0.098842546 5:-0.034612354 6:-0.34561899 7:-0.26157999 8:-0.31560028 9:1.1507852 10:-0.41393355 11:1.1682727 12:0.31950507 13:-0.21933696 14:-0.16083114 15:-0.15391792 16:-0.30765641 17:1.1609473 18:-0.36310151 19:1.2124722 20:-0.14419276 21:1.7963921 22:-0.062323686 23:-0.26375422 24:-0.25234732 25:-0.40743604 26:-0.4047187 27:-0.27057403 28:-0.30796358 29:-0.16733444 30:-0.27352092 31:-0.20108834 32:-0.16073692 33:-0.18338262 34:-0.16487801 35:-0.27398148 36:-0.30811864 37:0.36123362 38:-0.11907394 39:-0.21418162 40:-0.20511942 41:-0.13776088 42:-0.16252463 43:-0.2478133 44:-0.17397934 45:-0.31722111 46:-0.15619448 47:-0.066107452 48:-0.14383133 49:0.23693292 50:-0.15453817 51:-0.26362848 52:-0.37256557 53:-0.34909117 54:0.85750937 55:-0.061300021 56:-0.20447598 57:-0.20389542 #
0.023963644585123091562683939059752 1:-0.32373646 2:-0.17667121 3:-0.50017285 4:-0.098842546 5:2.867233 6:-0.34561899 7:-0.26157999 8:-0.31560028 9:-0.30961666 10:-0.41393355 11:-0.22640149 12:0.011029158 13:-0.21933696 14:-0.16083114 15:-0.15391792 16:-0.30765641 17:2.7200749 18:-0.36310151 19:0.86079067 20:-0.14419276 21:-0.14887679 22:-0.062323686 23:-0.26375422 24:-0.25234732 25:-0.40743604 26:-0.4047187 27:-0.27057403 28:-0.30796358 29:-0.16733444 30:-0.27352092 31:-0.20108834 32:-0.16073692 33:-0.18338262 34:-0.16487801 35:-0.27398148 36:-0.30811864 37:-0.39074841 38:-0.11907394 39:-0.21418162 40:-0.20511942 41:-0.13776088 42:-0.16252463 43:-0.2478133 44:-0.17397934 45:-0.31722111 46:-0.15619448 47:-0.066107452 48:-0.14383133 49:-0.22159693 50:-0.64531434 51:-0.26362848 52:-0.29693201 53:-0.34909117 54:-0.28615856 55:-0.075091586 56:-0.16867226 57:-0.46665815 #
0.023963644585123091562683939059752 1:-0.32373646 2:-0.17667121 3:-0.50017285 4:-0.098842546 5:-0.44537586 6:-0.34561899 7:-0.26157999 8:2.7458875 9:-0.30961666 10:1.1492733 11:-0.22640149 12:-0.60592264 13:-0.21933696 14:-0.16083114 15:-0.15391792 16:-0.30765641 17:-0.37343216 18:-0.36310151 19:-0.88086981 20:-0.14419276 21:-0.57808203 22:-0.062323686 23:-0.26375422 24:-0.25234732 25:-0.40743604 26:-0.4047187 27:-0.27057403 28:-0.30796358 29:-0.16733444 30:-0.27352092 31:-0.20108834 32:-0.16073692 33:-0.18338262 34:-0.16487801 35:-0.27398148 36:-0.30811864 37:2.8597546 38:-0.11907394 39:-0.21418162 40:-0.20511942 41:-0.13776088 42:-0.16252463 43:-0.2478133 44:-0.17397934 45:-0.31722111 46:-0.15619448 47:-0.066107452 48:-0.14383133 49:1.221923 50:1.676784 51:1.3259642 52:0.95683992 53:-0.34909117 54:-0.28615856 55:-0.019704314 56:-0.088113904 57:0.011092257 #
0.023963644585123091562683939059752 1:0.41550037 2:-0.17667121 3:-0.34715742 4:-0.098842546 5:0.12439287 6:0.018063109 7:-0.088455014 8:1.6492351 9:0.067261241 10:-0.22728199 11:-0.22640149 12:-0.0088725127 13:0.29382658 14:1.0527992 15:-0.15391792 16:-0.30765641 17:0.047284782 18:-0.21197082 19:-0.21100038 20:-0.14419276 21:1.5956348 22:-0.062323686 23:1.2413449 24:0.16196308 25:-0.40743604 26:-0.4047187 27:-0.27057403 28:-0.30796358 29:-0.16733444 30:-0.27352092 31:-0.20108834 32:-0.16073692 33:-0.18338262 34:-0.16487801 35:-0.27398148 36:-0.30811864 37:-0.39074841 38:-0.11907394 39:-0.21418162 40:-0.20511942 41:-0.13776088 42:-0.16252463 43:-0.2478133 44:-0.17397934 45:-0.31722111 46:-0.15619448 47:-0.066107452 48:-0.14383133 49:-0.22159693 50:-0.27723223 51:0.24130096 52:-0.27366012 53:-0.27317575 54:-0.28615856 55:-0.029804867 56:0.099855617 57:2.7671149 #
-0.015679658937288676323618119567982 1:-0.32373646 2:-0.17667121 3:-0.34715742 4:-0.098842546 5:-0.44537586 6:0.79088759 7:-0.26157999 8:0.82674593 9:0.067261241 10:-0.41393355 11:-0.22640149 12:0.55832511 13:0.02215177 14:1.6239194 15:-0.15391792 16:-0.30765641 17:0.66598618 18:-0.36310151 19:-0.88086981 20:-0.14419276 21:-0.57808203 22:-0.062323686 23:-0.26375422 24:-0.25234732 25:1.1330894 26:-0.4047187 27:-0.27057403 28:-0.30796358 29:-0.16733444 30:-0.27352092 31:-0.20108834 32:-0.16073692 33:0.063237406 34:-0.16487801 35:-0.27398148 36:0.20619465 37:0.21568871 38:-0.11907394 39:-0.21418162 40:-0.20511942 41:-0.13776088 42:-0.16252463 43:-0.2478133 44:-0.17397934 45:-0.31722111 46:-0.15619448 47:-0.066107452 48:-0.14383133 49:0.067107044 50:-0.28177646 51:-0.26362848 52:-0.52965069 53:-0.34909117 54:-0.28615856 55:-0.077036545 56:-0.088113904 57:1.4353857 #
-0.023963644585123091562683939059752 1:-0.32373646 2:-0.17667121 3:0.22665049 4:-0.098842546 5:0.058140695 6:-0.34561899 7:-0.26157999 8:-0.31560028 9:-0.30961666 10:-0.41393355 11:-0.22640149 12:-0.22779089 13:0.92773449 14:-0.16083114 15:-0.15391792 16:-0.30765641 17:-0.37343216 18:-0.36310151 19:-0.24449384 20:-0.14419276 21:-0.31502074 22:-0.062323686 23:-0.26375422 24:-0.25234732 25:-0.40743604 26:-0.4047187 27:-0.27057403 28:-0.30796358 29:-0.16733444 30:-0.27352092 31:-0.20108834 32:-0.16073692 33:-0.18338262 34:-0.16487801 35:-0.27398148 36:-0.30811864 37:-0.39074841 38:-0.11907394 39:-0.21418162 40:-0.20511942 41:-0.13776088 42:-0.16252463 43:-0.2478133 44:-0.17397934 45:-0.0048755165 46:-0.15619448 47:-0.066107452 48:-0.14383133 49:-0.22159693 50:1.2359943 51:-0.26362848 52:0.27322876 53:-0.34909117 54:-0.28615856 55:-0.097348161 56:-0.31188715 57:-0.4786019 #
-0.023963644585123091562683939059752 1:-0.32373646 2:-0.17667121 3:-0.34715742 4:-0.098842546 5:-0.44537586 6:0.79088759 7:-0.26157999 8:0.82674593 9:0.067261241 10:-0.41393355 11:-0.22640149 12:0.55832511 13:0.02215177 14:1.6239194 15:-0.15391792 16:-0.30765641 17:0.66598618 18:-0.36310151 19:-0.88086981 20:-0.14419276 21:-0.57808203 22:-0.062323686 23:-0.26375422 24:-0.25234732 25:1.1330894 26:-0.4047187 27:-0.27057403 28:-0.30796358 29:-0.16733444 30:-0.27352092 31:-0.20108834 32:-0.16073692 33:0.063237406 34:-0.16487801 35:-0.27398148 36:0.20619465 37:0.21568871 38:-0.11907394 39:-0.21418162 40:-0.20511942 41:-0.13776088 42:-0.16252463 43:-0.2478133 44:-0.17397934 45:-0.31722111 46:-0.15619448 47:-0.066107452 48:-0.14383133 49:0.067107044 50:-0.28177646 51:-0.26362848 52:-0.52965069 53:-0.34909117 54:-0.28615856 55:-0.077036545 56:-0.088113904 57:1.4353857 #
0.023963644585123091562683939059752 1:-0.32373646 2:-0.17667121 3:-0.50017285 4:-0.098842546 5:-0.44537586 6:-0.34561899 7:-0.26157999 8:5.5789061 9:-0.30961666 10:0.58931857 11:-0.22640149 12:-0.60592264 13:-0.21933696 14:-0.16083114 15:-0.15391792 16:0.26967475 17:-0.37343216 18:2.9050994 19:-0.64083326 20:-0.14419276 21:-0.28040743 22:-0.062323686 23:-0.26375422 24:-0.25234732 25:-0.40743604 26:-0.4047187 27:-0.27057403 28:-0.30796358 29:-0.16733444 30:-0.27352092 31:-0.20108834 32:-0.16073692 33:-0.18338262 34:-0.16487801 35:-0.27398148 36:0.57650024 37:-0.39074841 38:-0.11907394 39:-0.21418162 40:-0.20511942 41:-0.13776088 42:-0.16252463 43:-0.2478133 44:-0.17397934 45:-0.31722111 46:-0.15619448 47:-0.066107452 48:-0.14383133 49:-0.22159693 50:-0.081830591 51:-0.26362848 52:0.37213421 53:0.012967132 54:-0.28615856 55:-0.089104161 56:-0.25818154 57:-0.44277063 #
-0.023963644585123091562683939059752 1:0.58943844 2:-0.17667121 3:-0.09850733 4:7.2782841 5:0.38940158 6:-0.34561899 7:-0.26157999 8:-0.31560028 9:-0.30961666 10:-0.41393355 11:1.6631571 12:-0.60592264 13:0.41457093 14:-0.16083114 15:-0.15391792 16:0.8201533 17:-0.37343216 18:0.43033454 19:0.17975679 20:-0.14419276 21:-0.57808203 22:-0.062323686 23:0.66586578 24:-0.25234732 25:-0.40743604 26:-0.4047187 27:-0.27057403 28:-0.30796358 29:-0.16733444 30:-0.27352092 31:-0.20108834 32:-0.16073692 33:-0.18338262 34:-0.16487801 35:-0.27398148 36:-0.30811864 37:0.11865877 38:-0.11907394 39:-0.21418162 40:-0.20511942 41:-0.13776088 42:-0.16252463 43:-0.2478133 44:-0.17397934 45:-0.31722111 46:-0.15619448 47:-0.066107452 48:-0.14383133 49:-0.22159693 50:-0.50444341 51:-0.26362848 52:0.55830914 53:0.012967132 54:-0.28615856 55:-0.057830028 56:0.30572698 57:0.57244897 #
0.022200040124482081638213060159615 1:-0.32373646 2:-0.17667121 3:2.005455 4:-0.098842546 5:-0.44537586 6:-0.34561899 7:-0.26157999 8:-0.31560028 9:-0.30961666 10:-0.41393355 11:-0.22640149 12:0.69763684 13:-0.21933696 14:-0.16083114 15:-0.15391792 16:-0.30765641 17:-0.37343216 18:-0.36310151 19:-0.14959568 20:-0.14419276 21:3.0632398 22:-0.062323686 23:-0.26375422 24:6.5319853 25:-0.40743604 26:-0.4047187 27:-0.27057403 28:-0.30796358 29:-0.16733444 30:-0.27352092 31:-0.20108834 32:-0.16073692 33:-0.18338262 34:-0.16487801 35:-0.27398148 36:-0.30811864 37:-0.39074841 38:-0.11907394 39:-0.21418162 40:-0.20511942 41:-0.13776088 42:-0.16252463 43:-0.2478133 44:-0.17397934 45:-0.31722111 46:-0.15619448 47:-0.066107452 48:-0.14383133 49:-0.22159693 50:-0.64531434 51:-0.26362848 52:-0.52965069 53:0.81299925 54:-0.28615856 55:-0.01526184 56:-0.10601576 57:-0.4786019 #
-0.023963644585123091562683939059752 1:-0.32373646 2:-0.17667121 3:5.065764 4:-0.098842546 5:-0.44537586 6:-0.34561899 7:-0.26157999 8:-0.31560028 9:-0.30961666 10:-0.41393355 11:-0.22640149 12:-0.60592264 13:-0.21933696 14:-0.16083114 15:-0.15391792 16:-0.30765641 17:-0.37343216 18:-0.36310151 19:0.20208576 20:-0.14419276 21:-0.57808203 22:-0.062323686 23:-0.26375422 24:-0.25234732 25:-0.40743604 26:-0.4047187 27:-0.27057403 28:-0.30796358 29:-0.16733444 30:-0.27352092 31:-0.20108834 32:-0.16073692 33:-0.18338262 34:-0.16487801 35:-0.27398148 36:-0.30811864 37:-0.39074841 38:-0.11907394 39:-0.21418162 40:-0.20511942 41:-0.13776088 42:-0.16252463 43:-0.2478133 44:-0.17397934 45:-0.31722111 46:-0.15619448 47:-0.066107452 48:-0.14383133 49:-0.22159693 50:1.1223887 51:-0.26362848 52:0.60194391 53:-0.34909117 54:-0.28615856 55:-0.093900271 56:-0.3029362 57:-0.55026448 #
-0.023963644585123091562683939059752 1:-0.32373646 2:-0.17667121 3:0.22665049 4:-0.098842546 5:0.058140695 6:-0.34561899 7:-0.26157999 8:-0.31560028 9:-0.30961666 10:-0.41393355 11:-0.22640149 12:-0.22779089 13:0.92773449 14:-0.16083114 15:-0.15391792 16:-0.30765641 17:-0.37343216 18:-0.36310151 19:-0.24449384 20:-0.14419276 21:-0.31502074 22:-0.062323686 23:-0.26375422 24:-0.25234732 25:-0.40743604 26:-0.4047187 27:-0.27057403 28:-0.30796358 29:-0.16733444 30:-0.27352092 31:-0.20108834 32:-0.16073692 33:-0.18338262 34:-0.16487801 35:-0.27398148 36:-0.30811864 37:-0.39074841 38:-0.11907394 39:-0.21418162 40:-0.20511942 41:-0.13776088 42:-0.16252463 43:-0.2478133 44:-0.17397934 45:-0.0048755165 46:-0.15619448 47:-0.066107452 48:-0.14383133 49:-0.22159693 50:1.2359943 51:-0.26362848 52:0.27322876 53:-0.34909117 54:-0.28615856 55:-0.097348161 56:-0.31188715 57:-0.4786019 #
0.0042060893434071070992597007887071 1:-0.32373646 2:-0.17667121 3:-0.17501505 4:18.168327 5:-0.22011846 6:-0.34561899 7:0.10631058 8:-0.31560028 9:2.9409552 10:-0.01729898 11:0.53841984 12:-0.60592264 13:-0.21933696 14:-0.16083114 15:-0.15391792 16:2.0285208 17:-0.37343216 18:0.94040054 19:-0.3003163 20:-0.14419276 21:-0.46039671 22:-0.062323686 23:-0.26375422 24:-0.25234732 25:-0.32322726 26:-0.4047187 27:-0.27057403 28:-0.30796358 29:-0.16733444 30:-0.27352092 31:-0.20108834 32:-0.16073692 33:-0.18338262 34:0.23597549 35:-0.27398148 36:-0.30811864 37:0.43400607 38:-0.11907394 39:-0.21418162 40:0.18713418 41:-0.13776088 42:-0.16252463 43:-0.2478133 44:-0.17397934 45:-0.31722111 46:-0.15619448 47:-0.066107452 48:-0.14383133 49:-0.22159693 50:-0.31813022 51:-0.26362848 52:1.6637229 53:3.6277106 54:-0.28615856 55:-0.016985785 56:0.13565934 57:2.2505474 #
0.023963644585123091562683939059752 1:1.8939741 2:0.43684098 3:-0.50017285 4:-0.098842546 5:-0.44537586 6:-0.34561899 7:0.84209174 8:-0.31560028 9:-0.30961666 10:0.77597016 11:-0.22640149 12:-0.60592264 13:-0.21933696 14:-0.16083114 15:3.0369647 16:2.4715889 17:-0.37343216 18:3.5474048 19:-0.30589855 20:-0.14419276 21:0.13495249 22:-0.062323686 23:-0.26375422 24:-0.25234732 25:-0.40743604 26:-0.4047187 27:-0.27057403 28:-0.30796358 29:-0.16733444 30:-0.27352092 31:-0.20108834 32:-0.16073692 33:-0.18338262 34:-0.16487801 35:-0.27398148 36:-0.30811864 37:-0.39074841 38:-0.11907394 39:-0.21418162 40:-0.20511942 41:-0.13776088 42:-0.16252463 43:-0.2478133 44:-0.17397934 45:-0.31722111 46:-0.15619448 47:-0.066107452 48:-0.14383133 49:-0.22159693 50:-0.031844124 51:-0.26362848 52:-0.33474877 53:-0.34909117 54:-0.28615856 55:-0.062604032 56:-0.1776232 57:-0.36513618 #
0.023963644585123091562683939059752 1:-0.019344825 2:-0.1526119 3:-0.21326891 4:-0.098842546 5:-0.11411497 6:0.56358629 7:-0.26157999 8:-0.22421259 9:0.3970294 10:-0.41393355 11:-0.22640149 12:-0.35715175 13:0.53531528 14:0.33889902 15:-0.15391792 16:-0.24052487 17:0.17102507 18:-0.36310151 19:-0.85295856 20:-0.14419276 21:-0.5642367 22:-0.062323686 23:1.3741478 24:-0.14876972 25:-0.40743604 26:-0.4047187 27:-0.27057403 28:-0.30796358 29:-0.1464598 30:-0.27352092 31:-0.20108834 32:-0.16073692 33:-0.18338262 34:-0.16487801 35:-0.27398148 36:-0.20525599 37:0.33697614 38:0.20713905 39:-0.21418162 40:-0.15897194 41:-0.13776088 42:-0.16252463 43:-0.18350655 44:-0.17397934 45:-0.30078185 46:-0.15619448 47:-0.066107452 48:-0.14383133 49:-0.12819271 50:-0.54534143 51:-0.26362848 52:-0.52965069 53:-0.22061887 54:-0.28615856 55:-0.090297662 56:-0.15077041 57:2.2445755 #
0.023963644585123091562683939059752 1:-0.32373646 2:-0.17667121 3:-0.50017285 4:-0.098842546 5:2.867233 6:-0.34561899 7:-0.26157999 8:-0.31560028 9:-0.30961666 10:-0.41393355 11:-0.22640149 12:0.011029158 13:-0.21933696 14:-0.16083114 15:-0.15391792 16:-0.30765641 17:2.7200749 18:-0.36310151 19:0.86079067 20:-0.14419276 21:-0.14887679 22:-0.062323686 23:-0.26375422 24:-0.25234732 25:-0.40743604 26:-0.4047187 27:-0.27057403 28:-0.30796358 29:-0.16733444 30:-0.27352092 31:-0.20108834 32:-0.16073692 33:-0.18338262 34:-0.16487801 35:-0.27398148 36:-0.30811864 37:-0.39074841 38:-0.11907394 39:-0.21418162 40:-0.20511942 41:-0.13776088 42:-0.16252463 43:-0.2478133 44:-0.17397934 45:-0.31722111 46:-0.15619448 47:-0.066107452 48:-0.14383133 49:-0.22159693 50:-0.64531434 51:-0.26362848 52:-0.29693201 53:-0.34909117 54:-0.28615856 55:-0.075091586 56:-0.16867226 57:-0.46665815 #
-0.017253760975596197507764273382236 1:1.3721598 2:-0.17667121 3:-0.50017285 4:-0.098842546 5:1.1049252 6:-0.34561899 7:-0.26157999 8:-0.31560028 9:-0.30961666 10:0.49599281 11:-0.22640149 12:0.55832511 13:-0.21933696 14:-0.16083114 15:-0.15391792 16:-0.30765641 17:-0.37343216 18:0.37366053 19:0.86079067 20:1.7753208 21:0.2318698 22:-0.062323686 23:-0.26375422 24:-0.25234732 25:-0.40743604 26:-0.4047187 27:-0.14746089 28:1.0241534 29:-0.16733444 30:-0.27352092 31:-0.20108834 32:-0.16073692 33:-0.18338262 34:-0.16487801 35:-0.27398148 36:-0.30811864 37:-0.39074841 38:-0.11907394 39:-0.21418162 40:0.69475645 41:-0.13776088 42:-0.16252463 43:-0.2478133 44:-0.17397934 45:-0.31722111 46:-0.15619448 47:-0.066107452 48:-0.14383133 49:0.37279361 50:-0.32721868 51:-0.26362848 52:-0.32602185 53:-0.34909117 54:-0.28615856 55:-0.076019861 56:-0.2134269 57:-0.37110806 #
0.023963644585123091562683939059752 1:-0.32373646 2:-0.17667121 3:1.6037894 4:-0.098842546 5:0.28339812 6:-0.34561899 7:-0.26157999 8:-0.31560028 9:-0.30961666 10:0.86929595 11:-0.22640149 12:-0.60592264 13:-0.21933696 14:-0.16083114 15:-0.15391792 16:0.43079042 17:-0.37343216 18:-0.36310151 19:0.34722415 20:-0.14419276 21:0.18341115 22:-0.062323686 23:-0.26375422 24:-0.25234732 25:-0.40743604 26:-0.4047187 27:-0.27057403 28:-0.30796358 29:-0.16733444 30:-0.27352092 31:-0.20108834 32:-0.16073692 33:-0.18338262 34:-0.16487801 35:-0.27398148 36:-0.30811864 37:-0.39074841 38:-0.11907394 39:-0.21418162 40:-0.20511942 41:-0.13776088 42:-0.16252463 43:-0.2478133 44:-0.17397934 45:0.13485803 46:-0.15619448 47:-0.066107452 48:-0.14383133 49:-0.22159693 50:-0.20452464 51:-0.26362848 52:1.457185 53:-0.34909117 54:-0.28615856 55:-0.070074461 56:-0.15972133 57:-0.20389542 #
-0.023963644585123091562683939059752 1:-0.32373646 2:-0.17667121 3:-0.50017285 4:-0.098842546 5:-0.44537586 6:-0.34561899 7:-0.26157999 8:-0.31560028 9:-0.30961666 10:-0.41393355 11:-0.22640149 12:-0.60592264 13:-0.21933696 14:-0.16083114 15:-0.15391792 16:-0.30765641 17:-0.37343216 18:-0.36310151 19:1.4413441 20:-0.14419276 21:-0.57808203 22:-0.062323686 23:-0.26375422 24:-0.25234732 25:-0.40743604 26:-0.4047187 27:-0.27057403 28:-0.30796358 29:-0.16733444 30:-0.27352092 31:-0.20108834 32:-0.16073692 33:-0.18338262 34:-0.16487801 35:-0.27398148 36:-0.30811864 37:-0.39074841 38:-0.11907394 39:-0.21418162 40:-0.20511942 41:-0.13776088 42:-0.16252463 43:-0.2478133 44:-0.17397934 45:-0.31722111 46:-0.15619448 47:-0.066107452 48:-0.14383133 49:-0.22159693 50:-0.64531434 51:-0.26362848 52:1.6229972 53:-0.34909117 54:-0.28615856 55:-0.085833088 56:-0.27608341 57:-0.59803951 #
-0.023963644585123091562683939059752 1:-0.32373646 2:0.12407006 3:-0.50017285 4:-0.098842546 5:-0.44537586 6:-0.34561899 7:-0.26157999 8:-0.31560028 9:-0.30961666 10:0.77597016 11:3.2377894 12:-0.35715175 13:-0.21933696 14:-0.16083114 15:-0.15391792 16:-0.30765641 17:-0.37343216 18:-0.36310151 19:-0.31148079 20:-0.14419276 21:-0.2250261 22:-0.062323686 23:-0.26375422 24:-0.25234732 25:-0.28359959 26:0.12201251 27:-0.27057403 28:-0.30796358 29:-0.16733444 30:-0.27352092 31:-0.20108834 32:-0.16073692 33:-0.18338262 34:-0.16487801 35:-0.27398148 36:-0.30811864 37:-0.39074841 38:-0.11907394 39:-0.21418162 40:-0.20511942 41:-0.13776088 42:-0.16252463 43:-0.2478133 44:-0.17397934 45:-0.31722111 46:-0.15619448 47:-0.066107452 48:-0.14383133 49:-0.22159693 50:-0.081830591 51:-0.26362848 52:0.072508901 53:-0.34909117 54:-0.28615856 55:0.10830967 56:2.7403798 57:1.2592152 #
0.023963644585123091562683939059752 1:-0.32373646 2:0.44887063 3:0.4944275 4:-0.098842546 5:0.2436468 6:-0.34561899 7:-0.26157999 8:-0.31560028 9:-0.30961666 10:-0.41393355 11:-0.22640149 12:-0.60592264 13:-0.21933696 14:-0.16083114 15:-0.15391792 16:0.39051151 17:-0.37343216 18:-0.36310151 19:-0.010039551 20:-0.14419276 21:-0.57808203 22:-0.062323686 23:-0.26375422 24:-0.25234732 25:-0.40743604 26:-0.4047187 27:-0.27057403 28:-0.30796358 29:-0.16733444 30:-0.27352092 31:-0.20108834 32:-0.16073692 33:-0.18338262 34:-0.16487801 35:-0.27398148 36:-0.30811864 37:-0.39074841 38:-0.11907394 39:-0.21418162 40:-0.20511942 41:-0.13776088 42:-0.16252463 43:-0.2478133 44:-0.17397934 45:-0.31722111 46:-0.15619448 47:-0.066107452 48:-0.14383133 49:-0.22159693 50:0.22717664 51:-0.26362848 52:1.9924381 53:-0.34909117 54:-0.28615856 55:-0.072682478 56:-0.15077041 57:-0.24569859 #
-0.023963644585123091562683939059752 1:-0.32373646 2:-0.17667121 3:-0.50017285 4:-0.098842546 5:-0.44537586 6:2.6092982 7:-0.26157999 8:2.6544998 9:-0.30961666 10:1.1026103 11:-0.22640149 12:1.3543919 13:-0.21933696 14:-0.16083114 15:-0.15391792 16:-0.30765641 17:-0.37343216 18:-0.36310151 19:-0.88086981 20:-0.14419276 21:-0.57808203 22:-0.062323686 23:-0.26375422 24:-0.25234732 25:-0.40743604 26:-0.4047187 27:-0.065385468 28:-0.30796358 29:-0.16733444 30:-0.27352092 31:-0.20108834 32:-0.16073692 33:-0.18338262 34:-0.16487801 35:-0.27398148 36:-0.30811864 37:-0.39074841 38:-0.11907394 39:-0.21418162 40:-0.20511942 41:-0.13776088 42:-0.16252463 43:-0.2478133 44:-0.17397934 45:0.21705423 46:-0.15619448 47:-0.066107452 48:-0.14383133 49:0.69546276 50:-0.15453817 51:-0.26362848 52:-0.52965069 53:0.28159106 54:-0.28615856 55:-0.079224631 56:-0.24923062 57:-0.33229086 #
-0.023963644585123091562683939059752 1:-0.32373646 2:-0.17667121 3:-0.50017285 4:-0.098842546 5:-0.44537586 6:-0.34561899 7:-0.26157999 8:-0.31560028 9:-0.30961666 10:-0.41393355 11:-0.22640149 12:-0.60592264 13:-0.21933696 14:-0.16083114 15:-0.15391792 16:-0.30765641 17:-0.37343216 18:-0.36310151 19:1.3520283 20:-0.14419276 21:-0.57808203 22:-0.062323686 23:-0.26375422 24:-0.25234732 25:-0.40743604 26:-0.4047187 27:-0.27057403 28:-0.30796358 29:-0.16733444 30:-0.27352092 31:-0.20108834 32:-0.16073692 33:-0.18338262 34:-0.16487801 35:-0.27398148 36:-0.30811864 37:-0.39074841 38:-0.11907394 39:-0.21418162 40:-0.20511942 41:-0.13776088 42:-0.16252463 43:-0.2478133 44:-0.17397934 45:-0.31722111 46:-0.15619448 47:-0.066107452 48:-0.14383133 49:-0.22159693 50:-0.64531434 51:-0.26362848 52:1.5909983 53:-0.34909117 54:-0.28615856 55:-0.080307625 56:-0.29398528 57:-0.59206766 #
-0.023963644585123091562683939059752 1:-0.32373646 2:-0.17667121 3:-0.50017285 4:-0.098842546 5:-0.44537586 6:1.6546326 7:-0.26157999 8:-0.31560028 9:-0.30961666 10:-0.41393355 11:-0.22640149 12:-0.16808589 13:1.108851 14:-0.16083114 15:-0.15391792 16:-0.30765641 17:-0.37343216 18:-0.36310151 19:-0.14401343 20:-0.14419276 21:-0.57808203 22:-0.062323686 23:-0.26375422 24:-0.25234732 25:-0.40743604 26:-0.4047187 27:0.0072197081 28:-0.30796358 29:-0.16733444 30:-0.27352092 31:-0.20108834 32:-0.16073692 33:-0.18338262 34:-0.16487801 35:-0.27398148 36:-0.30811864 37:-0.39074841 38:-0.11907394 39:-0.21418162 40:-0.20511942 41:-0.13776088 42:-0.16252463 43:-0.2478133 44:-0.17397934 45:0.044442207 46:0.69639164 47:-0.066107452 48:-0.14383133 49:-0.22159693 50:0.036319233 51:-0.26362848 52:-0.52965069 53:-0.34909117 54:-0.28615856 55:-0.086098313 56:-0.23132877 57:-0.42485499 #
0.0049037630648795758891989038374959 1:-0.32373646 2:-0.17667121 3:-0.50017285 4:-0.098842546 5:-0.44537586 6:-0.34561899 7:-0.26157999 8:5.5789061 9:-0.30961666 10:0.58931857 11:-0.22640149 12:-0.60592264 13:-0.21933696 14:-0.16083114 15:-0.15391792 16:0.26967475 17:-0.37343216 18:2.9050994 19:-0.64083326 20:-0.14419276 21:-0.28040743 22:-0.062323686 23:-0.26375422 24:-0.25234732 25:-0.40743604 26:-0.4047187 27:-0.27057403 28:-0.30796358 29:-0.16733444 30:-0.27352092 31:-0.20108834 32:-0.16073692 33:-0.18338262 34:-0.16487801 35:-0.27398148 36:0.57650024 37:-0.39074841 38:-0.11907394 39:-0.21418162 40:-0.20511942 41:-0.13776088 42:-0.16252463 43:-0.2478133 44:-0.17397934 45:-0.31722111 46:-0.15619448 47:-0.066107452 48:-0.14383133 49:-0.22159693 50:-0.081830591 51:-0.26362848 52:0.37213421 53:0.012967132 54:-0.28615856 55:-0.089104161 56:-0.25818154 57:-0.44277063 #
0.023963644585123091562683939059752 1:-0.32373646 2:-0.17667121 3:1.1256162 4:-0.098842546 5:0.11114244 6:-0.34561899 7:-0.26157999 8:-0.31560028 9:-0.30961666 10:-0.41393355 11:-0.22640149 12:-0.60592264 13:-0.21933696 14:-0.16083114 15:-0.15391792 16:0.25624844 17:-0.37343216 18:-0.36310151 19:0.31373066 20:-0.14419276 21:0.30801913 22:-0.062323686 23:-0.26375422 24:-0.25234732 25:-0.40743604 26:-0.4047187 27:-0.27057403 28:-0.30796358 29:-0.16733444 30:-0.27352092 31:-0.20108834 32:-0.16073692 33:-0.18338262 34:-0.16487801 35:-0.27398148 36:-0.30811864 37:-0.39074841 38:-0.11907394 39:-0.21418162 40:-0.20511942 41:-0.13776088 42:-0.16252463 43:-0.2478133 44:-0.17397934 45:0.028002966 46:-0.15619448 47:-0.066107452 48:-0.14383133 49:-0.22159693 50:0.077217251 51:-0.26362848 52:2.7196839 53:-0.34909117 54:-0.28615856 55:-0.095093764 56:-0.26713249 57:-0.28750175 #
-0.023963644585123091562683939059752 1:-0.32373646 2:-0.17667121 3:-0.50017285 4:-0.098842546 5:-0.44537586 6:-0.34561899 7:-0.26157999 8:-0.31560028 9:-0.30961666 10:-0.41393355 11:-0.22640149 12:-0.60592264 13:-0.21933696 14:-0.16083114 15:-0.15391792 16:4.6600766 17:-0.37343216 18:-0.36310151 19:1.1845609 20:-0.14419276 21:-0.57808203 22:-0.062323686 23:-0.26375422 24:-0.25234732 25:-0.40743604 26:-0.4047187 27:-0.27057403 28:-0.30796358 29:-0.16733444 30:-0.27352092 31:-0.20108834 32:-0.16073692 33:-0.18338262 34:-0.16487801 35:-0.27398148 36:-0.30811864 37:-0.39074841 38:-0.11907394 39:-0.21418162 40:-0.20511942 41:-0.13776088 42:-0.16252463 43:-0.2478133 44:-0.17397934 45:-0.31722111 46:-0.15619448 47:-0.066107452 48:-0.14383133 49:-0.22159693 50:-0.64531434 51:-0.26362848 52:-0.52965069 53:-0.34909117 54:-0.28615856 55:-0.095977843 56:-0.31188715 57:-0.61595517 #
-0.023938927742103672385853840864911 1:-0.32373646 2:-0.17667121 3:6.0794911 4:-0.098842546 5:-0.44537586 6:-0.34561899 7:-0.26157999 8:-0.31560028 9:-0.30961666 10:-0.41393355 11:-0.22640149 12:-0.60592264 13:-0.21933696 14:-0.16083114 15:-0.15391792 16:-0.30765641 17:-0.37343216 18:6.1355176 19:-0.88086981 20:-0.14419276 21:1.8033148 22:-0.062323686 23:-0.26375422 24:-0.25234732 25:-0.40743604 26:-0.4047187 27:-0.27057403 28:-0.30796358 29:-0.16733444 30:-0.27352092 31:-0.20108834 32:-0.16073692 33:-0.18338262 34:-0.16487801 35:-0.27398148 36:-0.30811864 37:-0.39074841 38:-0.11907394 39:-0.21418162 40:-0.20511942 41:-0.13776088 42:-0.16252463 43:-0.2478133 44:-0.17397934 45:-0.31722111 46:-0.15619448 47:-0.066107452 48:-0.14383133 49:-0.22159693 50:-0.64531434 51:-0.26362848 52:-0.52965069 53:-0.34909117 54:-0.28615856 55:-0.083578698 56:-0.29398528 57:-0.5801239 #
0.015372271508993574570811624369071 1:-0.32373646 2:0.02783286 3:-0.50017285 4:-0.098842546 5:-0.44537586 6:-0.34561899 7:0.10631058 8:2.0604799 9:-0.30961666 10:-0.01729898 11:1.3482307 12:-0.088479199 13:-0.21933696 14:-0.16083114 15:-0.15391792 16:-0.30765641 17:0.047284782 18:0.95929188 19:-0.38963223 20:-0.14419276 21:-0.093495466 22:7.4518995 23:1.2856125 24:-0.25234732 25:-0.40743604 26:-0.4047187 27:-0.27057403 28:-0.30796358 29:-0.16733444 30:-0.27352092 31:-0.20108834 32:-0.16073692 33:-0.18338262 34:-0.16487801 35:-0.27398148 36:-0.30811864 37:-0.39074841 38:-0.11907394 39:-0.21418162 40:-0.20511942 41:-0.13776088 42:-0.16252463 43:-0.2478133 44:-0.17397934 45:-0.31722111 46:-0.15619448 47:-0.066107452 48:-0.14383133 49:0.016159287 50:0.0045096669 51:0.26000205 52:-0.28238708 53:-0.01623112 54:4.5638404 55:-0.042977575 56:0.01929725 57:0.60828024 #
-0.023963644585123091562683939059752 1:-0.1932829 2:-0.14058225 3:-0.50017285 4:-0.098842546 5:-0.44537586 6:-0.34561899 7:-0.26157999 8:-0.31560028 9:-0.026958233 10:-0.20395054 11:-0.091433018 12:-0.45666012 13:-0.21933696 14:-0.16083114 15:-0.15391792 16:-0.30765641 17:-0.29918799 18:-0.13640548 19:-0.86412305 20:-0.14419276 21:-0.57808203 22:-0.062323686 23:-0.26375422 24:-0.25234732 25:-0.17957698 26:-0.12586099 27:-0.27057403 28:-0.30796358 29:-0.13602248 30:-0.14627562 31:-0.20108834 32:-0.16073692 33:-0.18338262 34:-0.16487801 35:-0.27398148 36:-0.24640106 37:-0.026886148 38:-0.11907394 39:-0.21418162 40:-0.20511942 41:0.71334511 42:-0.16252463 43:-0.15135317 44:-0.17397934 45:-0.21858566 46:2.1496634 47:-0.066107452 48:-0.14383133 49:-0.017805887 50:0.1635575 51:-0.26362848 52:-0.1573008 53:-0.34909117 54:-0.28615856 55:-0.046005532 56:0.10880654 57:4.8184557 #
0.023963644585123091562683939059752 1:-0.32373646 2:-0.17667121 3:-0.50017285 4:-0.098842546 5:-0.44537586 6:-0.34561899 7:-0.26157999 8:-0.31560028 9:-0.30961666 10:-0.41393355 11:-0.22640149 12:-0.60592264 13:-0.21933696 14:-0.16083114 15:-0.15391792 16:1.4109107 17:-0.37343216 18:-0.36310151 19:1.2627124 20:-0.14419276 21:2.0802214 22:-0.062323686 23:-0.26375422 24:-0.25234732 25:-0.40743604 26:-0.4047187 27:-0.27057403 28:-0.30796358 29:-0.16733444 30:-0.27352092 31:-0.20108834 32:-0.16073692 33:-0.18338262 34:-0.16487801 35:-0.27398148 36:-0.30811864 37:-0.39074841 38:-0.11907394 39:-0.21418162 40:-0.20511942 41:-0.13776088 42:-0.16252463 43:-0.2478133 44:-0.17397934 45:0.73489034 46:-0.15619448 47:-0.066107452 48:-0.14383133 49:-0.22159693 50:-0.64531434 51:-0.26362848 52:0.13941552 53:0.99402839 54:-0.28615856 55:0.00065150071 56:0.03719911 57:-0.42186904 #
0.023963644585123091562683939059752 1:-0.32373646 2:-0.17667121 3:-0.50017285 4:-0.098842546 5:-0.44537586 6:-0.34561899 7:1.9890447 8:-0.31560028 9:-0.30961666 10:-0.41393355 11:-0.22640149 12:-0.60592264 13:-0.21933696 14:-0.16083114 15:-0.15391792 16:2.4850152 17:-0.37343216 18:-0.36310151 19:0.2802372 20:-0.14419276 21:0.86183232 22:-0.062323686 23:-0.26375422 24:-0.25234732 25:-0.40743604 26:-0.4047187 27:-0.27057403 28:-0.30796358 29:-0.16733444 30:-0.27352092 31:-0.20108834 32:-0.16073692 33:-0.18338262 34:-0.16487801 35:-0.27398148 36:-0.30811864 37:-0.39074841 38:-0.11907394 39:-0.21418162 40:-0.20511942 41:-0.13776088 42:-0.16252463 43:-0.2478133 44:-0.17397934 45:-0.31722111 46:-0.15619448 47:-0.066107452 48:-0.14383133 49:-0.22159693 50:-0.64531434 51:-0.26362848 52:-0.52965069 53:-0.34909117 54:-0.28615856 55:-0.037496313 56:-0.23132877 57:-0.45471439 #
-0.0069572448653092162224043093488035 1:-0.32373646 2:-0.17667121 3:-0.50017285 4:-0.098842546 5:-0.44537586 6:-0.34561899 7:-0.26157999 8:-0.31560028 9:-0.30961666 10:-0.41393355 11:-0.22640149 12:-0.60592264 13:-0.21933696 14:-0.16083114 15:-0.15391792 16:-0.30765641 17:-0.37343216 18:-0.36310151 19:3.7691405 20:-0.14419276 21:-0.57808203 22:-0.062323686 23:-0.26375422 24:-0.25234732 25:-0.40743604 26:-0.4047187 27:-0.27057403 28:-0.30796358 29:-0.16733444 30:-0.27352092 31:-0.20108834 32:-0.16073692 33:-0.18338262 34:-0.16487801 35:-0.27398148 36:-0.30811864 37:-0.39074841 38:-0.11907394 39:-0.21418162 40:-0.20511942 41:-0.13776088 42:-0.16252463 43:-0.2478133 44:-0.17397934 45:13.376667 46:-0.15619448 47:-0.066107452 48:-0.14383133 49:-0.22159693 50:-0.64531434 51:-0.26362848 52:2.161159 53:-0.34909117 54:-0.28615856 55:-0.081235901 56:-0.27608341 57:-0.60401142 #
-0.023963644585123091562683939059752 1:-0.32373646 2:-0.17667121 3:-0.50017285 4:-0.098842546 5:6.179842 6:-0.34561899 7:-0.26157999 8:-0.31560028 9:-0.30961666 10:-0.41393355 11:-0.22640149 12:-0.60592264 13:-0.21933696 14:-0.16083114 15:-0.15391792 16:-0.30765641 17:-0.37343216 18:-0.36310151 19:-0.88086981 20:-0.14419276 21:-0.57808203 22:-0.062323686 23:-0.26375422 24:-0.25234732 25:-0.40743604 26:-0.4047187 27:-0.27057403 28:-0.30796358 29:-0.16733444 30:-0.27352092 31:-0.20108834 32:-0.16073692 33:-0.18338262 34:-0.16487801 35:-0.27398148 36:-0.30811864 37:-0.39074841 38:-0.11907394 39:-0.21418162 40:-0.20511942 41:-0.13776088 42:-0.16252463 43:-0.2478133 44:-0.17397934 45:-0.31722111 46:-0.15619448 47:-0.066107452 48:-0.14383133 49:-0.22159693 50:-0.64531434 51:-0.26362848 52:-0.52965069 53:-0.34909117 54:-0.28615856 55:-0.044392094 56:-0.24923062 57:-0.57415199 #
-0.023963644585123091562683939059752 1:-0.32373646 2:-0.17667121 3:1.0299816 4:-0.098842546 5:2.7612295 6:-0.34561899 7:-0.26157999 8:-0.31560028 9:-0.30961666 10:-0.41393355 11:-0.22640149 12:-0.20788923 13:-0.21933696 14:-0.16083114 15:-0.15391792 16:-0.30765641 17:-0.37343216 18:0.39255187 19:2.0553911 20:-0.14419276 21:0.53646708 22:-0.062323686 23:-0.26375422 24:-0.25234732 25:-0.20929773 26:0.0084038228 27:-0.27057403 28:-0.30796358 29:-0.16733444 30:-0.27352092 31:-0.20108834 32:-0.16073692 33:-0.18338262 34:-0.16487801 35:-0.27398148 36:-0.30811864 37:-0.39074841 38:-0.11907394 39:-0.21418162 40:-0.20511942 41:-0.13776088 42:-0.16252463 43:-0.2478133 44:-0.17397934 45:1.0061378 46:-0.15619448 47:-0.066107452 48:-0.14383133 49:-0.22159693 50:-0.64531434 51:-0.26362848 52:0.25577486 53:-0.34909117 54:-0.28615856 55:-0.069588222 56:-0.016506467 57:-0.46068627 #
0.023963644585123091562683939059752 1:-0.019344825 2:0.26842588 3:1.0491085 4:-0.098842546 5:0.23039636 6:0.97272867 7:-0.11009564 8:-0.31560028 9:0.020151503 10:0.44932991 11:0.088524953 12:0.86680102 13:0.2032683 14:-0.16083114 15:0.28404635 16:-0.30765641 17:-0.026959384 18:0.46811721 19:1.1008272 20:-0.14419276 21:0.70261103 22:-0.062323686 23:-0.26375422 24:0.47269586 25:-0.40743604 26:-0.4047187 27:-0.27057403 28:-0.30796358 29:-0.16733444 30:-0.27352092 31:-0.20108834 32:-0.16073692 33:-0.18338262 34:-0.16487801 35:-0.27398148 36:-0.30811864 37:-0.051143631 38:-0.11907394 39:-0.21418162 40:-0.20511942 41:-0.13776088 42:-0.16252463 43:-0.2478133 44:-0.17397934 45:-0.31722111 46:-0.15619448 47:-0.066107452 48:-0.14383133 49:0.19447646 50:-0.33176291 51:-0.26362848 52:-0.067122303 53:0.57941324 54:-0.095547244 55:-0.045364577 56:0.064051896 57:1.7578672 #
0.023963644585123091562683939059752 1:-0.32373646 2:-0.17667121 3:-0.50017285 4:-0.098842546 5:-0.44537586 6:-0.34561899 7:-0.26157999 8:-0.31560028 9:-0.30961666 10:-0.41393355 11:-0.22640149 12:-0.60592264 13:-0.21933696 14:-0.16083114 15:-0.15391792 16:1.4109107 17:-0.37343216 18:-0.36310151 19:1.2627124 20:-0.14419276 21:2.0802214 22:-0.062323686 23:-0.26375422 24:-0.25234732 25:-0.40743604 26:-0.4047187 27:-0.27057403 28:-0.30796358 29:-0.16733444 30:-0.27352092 31:-0.20108834 32:-0.16073692 33:-0.18338262 34:-0.16487801 35:-0.27398148 36:-0.30811864 37:-0.39074841 38:-0.11907394 39:-0.21418162 40:-0.20511942 41:-0.13776088 42:-0.16252463 43:-0.2478133 44:-0.17397934 45:0.73489034 46:-0.15619448 47:-0.066107452 48:-0.14383133 49:-0.22159693 50:-0.64531434 51:-0.26362848 52:0.13941552 53:0.99402839 54:-0.28615856 55:0.00065150071 56:0.03719911 57:-0.42186904 #
0.0070426583795839920940085043810086 1:0.024139695 2:0.01580321 3:0.11188891 4:-0.098842546 5:1.3831843 6:0.38174522 7:-0.088455014 8:-0.31560028 9:0.82101703 10:-0.22728199 11:-0.22640149 12:0.68768597 13:-0.21933696 14:0.41028905 15:-0.15391792 16:0.3368063 17:-0.17544772 18:-0.21197082 19:1.072916 20:-0.14419276 21:-0.072727464 22:-0.062323686 23:0.090386741 24:0.57627344 25:-0.40743604 26:-0.4047187 27:-0.27057403 28:-0.30796358 29:-0.16733444 30:-0.27352092 31:-0.20108834 32:-0.16073692 33:-0.18338262 34:-0.16487801 35:-0.11387676 36:-0.30811864 37:-0.39074841 38:-0.11907394 39:-0.21418162 40:-0.20511942 41:-0.13776088 42:-0.16252463 43:-0.2478133 44:-0.17397934 45:-0.31722111 46:-0.15619448 47:-0.066107452 48:-0.14383133 49:-0.22159693 50:-0.25905532 51:0.87713802 52:0.60485291 53:0.21735489 54:-0.032010138 55:0.0018892051 56:0.73537159 57:4.0241957 #
-0.023963644585123091562683939059752 1:-0.32373646 2:0.43684098 3:-0.50017285 4:-0.098842546 5:0.90616858 6:-0.34561899 7:-0.26157999 8:2.014786 9:-0.30961666 10:-0.41393355 11:-0.22640149 12:-0.60592264 13:-0.21933696 14:-0.16083114 15:-0.15391792 16:0.37708521 17:0.88871866 18:-0.36310151 19:-0.59617531 20:-0.14419276 21:-0.57808203 22:-0.062323686 23:-0.26375422 24:-0.25234732 25:-0.40743604 26:-0.4047187 27:-0.27057403 28:-0.30796358 29:-0.16733444 30:-0.27352092 31:-0.20108834 32:-0.16073692 33:-0.18338262 34:-0.16487801 35:-0.27398148 36:0.74108052 37:-0.39074841 38:-0.11907394 39:-0.21418162 40:0.97164136 41:-0.13776088 42:-0.16252463 43:-0.2478133 44:0.9409681 45:-0.31722111 46:-0.15619448 47:-0.066107452 48:-0.14383133 49:-0.22159693 50:-0.32267445 51:-0.26362848 52:-0.52965069 53:-0.34909117 54:-0.28615856 55:-0.075865149 56:-0.24923062 57:-0.31437522 #
0.023963644585123091562683939059752 1:-0.019344825 2:0.26842588 3:1.0491085 4:-0.098842546 5:0.23039636 6:0.97272867 7:-0.11009564 8:-0.31560028 9:0.020151503 10:0.44932991 11:0.088524953 12:0.86680102 13:0.2032683 14:-0.16083114 15:0.28404635 16:-0.30765641 17:-0.026959384 18:0.46811721 19:1.1008272 20:-0.14419276 21:0.70261103 22:-0.062323686 23:-0.26375422 24:0.47269586 25:-0.40743604 26:-0.4047187 27:-0.27057403 28:-0.30796358 29:-0.16733444 30:-0.27352092 31:-0.20108834 32:-0.16073692 33:-0.18338262 34:-0.16487801 35:-0.27398148 36:-0.30811864 37:-0.051143631 38:-0.11907394 39:-0.21418162 40:-0.20511942 41:-0.13776088 42:-0.16252463 43:-0.2478133 44:-0.17397934 45:-0.31722111 46:-0.15619448 47:-0.066107452 48:-0.14383133 49:0.19447646 50:-0.33176291 51:-0.26362848 52:-0.067122303 53:0.57941324 54:-0.095547244 55:-0.045364577 56:0.064051896 57:1.7578672 #
-0.023963644585123091562683939059752 1:-0.32373646 2:-0.17667121 3:1.2786317 4:-0.098842546 5:-0.034612354 6:-0.34561899 7:-0.26157999 8:-0.31560028 9:1.1507852 10:-0.41393355 11:1.1682727 12:0.31950507 13:-0.21933696 14:-0.16083114 15:-0.15391792 16:-0.30765641 17:1.1609473 18:-0.36310151 19:1.2124722 20:-0.14419276 21:1.7963921 22:-0.062323686 23:-0.26375422 24:-0.25234732 25:-0.40743604 26:-0.4047187 27:-0.27057403 28:-0.30796358 29:-0.16733444 30:-0.27352092 31:-0.20108834 32:-0.16073692 33:-0.18338262 34:-0.16487801 35:-0.27398148 36:-0.30811864 37:0.36123362 38:-0.11907394 39:-0.21418162 40:-0.20511942 41:-0.13776088 42:-0.16252463 43:-0.2478133 44:-0.17397934 45:-0.31722111 46:-0.15619448 47:-0.066107452 48:-0.14383133 49:0.23693292 50:-0.15453817 51:-0.26362848 52:-0.37256557 53:-0.34909117 54:0.85750937 55:-0.061300021 56:-0.20447598 57:-0.20389542 #
0.0077315728957333441917487704131418 1:-0.32373646 2:1.3992131 3:0.57093525 4:-0.098842546 5:-0.44537586 6:3.8821855 7:-0.26157999 8:0.50688899 9:1.4334437 10:1.3359249 11:-0.22640149 12:1.4439495 13:-0.21933696 14:-0.16083114 15:-0.15391792 16:-0.30765641 17:0.54224592 18:-0.36310151 19:0.48119801 20:-0.14419276 21:0.065725833 22:-0.062323686 23:-0.26375422 24:0.67985106 25:-0.40743604 26:-0.4047187 27:-0.21375258 28:-0.30796358 29:-0.16733444 30:-0.27352092 31:-0.20108834 32:-0.16073692 33:-0.18338262 34:-0.16487801 35:-0.27398148 36:-0.30811864 37:-0.39074841 38:-0.11907394 39:-0.21418162 40:-0.20511942 41:-0.13776088 42:-0.16252463 43:-0.2478133 44:-0.17397934 45:-0.31722111 46:-0.15619448 47:-0.066107452 48:-0.14383133 49:-0.22159693 50:-0.28177646 51:-0.26362848 52:0.24995689 53:0.27575138 54:-0.28615856 55:-0.062117789 56:0.04615004 57:0.11261421 #
0.023963644585123091562683939059752 1:-0.32373646 2:-0.17667121 3:-0.50017285 4:-0.098842546 5:2.867233 6:-0.34561899 7:-0.26157999 8:-0.31560028 9:-0.30961666 10:-0.41393355 11:-0.22640149 12:0.011029158 13:-0.21933696 14:-0.16083114 15:-0.15391792 16:-0.30765641 17:2.7200749 18:-0.36310151 19:0.86079067 20:-0.14419276 21:-0.14887679 22:-0.062323686 23:-0.26375422 24:-0.25234732 25:-0.40743604 26:-0.4047187 27:-0.27057403 28:-0.30796358 29:-0.16733444 30:-0.27352092 31:-0.20108834 32:-0.16073692 33:-0.18338262 34:-0.16487801 35:-0.27398148 36:-0.30811864 37:-0.39074841 38:-0.11907394 39:-0.21418162 40:-0.20511942 41:-0.13776088 42:-0.16252463 43:-0.2478133 44:-0.17397934 45:-0.31722111 46:-0.15619448 47:-0.066107452 48:-0.14383133 49:-0.22159693 50:-0.64531434 51:-0.26362848 52:-0.29693201 53:-0.34909117 54:-0.28615856 55:-0.075091586 56:-0.16867226 57:-0.46665815 #
0.023963644585123091562683939059752 1:0.41550037 2:-0.17667121 3:-0.34715742 4:-0.098842546 5:0.11114244 6:0.018063109 7:-0.088455014 8:1.6035413 9:0.067261241 10:-0.22728199 11:-0.22640149 12:-0.0088725127 13:0.29382658 14:1.0527992 15:-0.15391792 16:-0.30765641 17:0.047284782 18:-0.21197082 19:-0.21100038 20:-0.14419276 21:1.6164029 22:-0.062323686 23:1.2413449 24:0.16196308 25:-0.40743604 26:-0.4047187 27:-0.27057403 28:-0.30796358 29:-0.16733444 30:-0.27352092 31:-0.20108834 32:-0.16073692 33:-0.18338262 34:-0.16487801 35:-0.27398148 36:-0.30811864 37:-0.39074841 38:-0.11907394 39:-0.21418162 40:-0.20511942 41:-0.13776088 42:-0.16252463 43:-0.2478133 44:-0.17397934 45:-0.31722111 46:-0.15619448 47:-0.066107452 48:-0.14383133 49:-0.22159693 50:-0.27723223 51:0.24130096 52:-0.21548046 53:-0.27317575 54:-0.28615856 55:-0.031794034 56:0.099855617 57:1.0770729 #
-0.023963644585123091562683939059752 1:-0.1932829 2:-0.14058225 3:-0.50017285 4:-0.098842546 5:-0.44537586 6:-0.34561899 7:-0.26157999 8:-0.31560028 9:-0.026958233 10:-0.20395054 11:-0.091433018 12:-0.45666012 13:-0.21933696 14:-0.16083114 15:-0.15391792 16:-0.30765641 17:-0.29918799 18:-0.13640548 19:-0.86412305 20:-0.14419276 21:-0.57808203 22:-0.062323686 23:-0.26375422 24:-0.25234732 25:-0.17957698 26:-0.12586099 27:-0.27057403 28:-0.30796358 29:-0.13602248 30:-0.14627562 31:-0.20108834 32:-0.16073692 33:-0.18338262 34:-0.16487801 35:-0.27398148 36:-0.24640106 37:-0.026886148 38:-0.11907394 39:-0.21418162 40:-0.20511942 41:0.71334511 42:-0.16252463 43:-0.15135317 44:-0.17397934 45:-0.21858566 46:2.1496634 47:-0.066107452 48:-0.14383133 49:-0.017805887 50:0.1635575 51:-0.26362848 52:-0.1573008 53:-0.34909117 54:-0.28615856 55:-0.046005532 56:0.10880654 57:4.8184557 #
-0.023963644585123091562683939059752 1:-0.32373646 2:-0.17667121 3:-0.50017285 4:-0.098842546 5:-0.44537586 6:-0.34561899 7:-0.26157999 8:-0.31560028 9:-0.30961666 10:-0.41393355 11:-0.22640149 12:2.2300656 13:-0.21933696 14:-0.16083114 15:-0.15391792 16:-0.30765641 17:-0.37343216 18:-0.36310151 19:-0.88086981 20:-0.14419276 21:-0.57808203 22:-0.062323686 23:-0.26375422 24:-0.25234732 25:-0.40743604 26:-0.4047187 27:-0.27057403 28:-0.30796358 29:-0.16733444 30:-0.27352092 31:-0.20108834 32:-0.16073692 33:-0.18338262 34:-0.16487801 35:-0.27398148 36:-0.30811864 37:-0.39074841 38:-0.11907394 39:-0.21418162 40:-0.20511942 41:-0.13776088 42:-0.16252463 43:-0.2478133 44:-0.17397934 45:-0.31722111 46:-0.15619448 47:-0.066107452 48:-0.14383133 49:-0.22159693 50:-0.64531434 51:-0.26362848 52:0.86666143 53:-0.34909117 54:-0.28615856 55:-0.07754489 56:-0.26713249 57:-0.55922228 #
0.023963644585123091562683939059752 1:-0.32373646 2:0.28045553 3:0.95347381 4:-0.098842546 5:0.058140695 6:-0.34561899 7:0.14959183 8:-0.31560028 9:-0.30961666 10:0.91595882 11:0.62839884 12:-0.60592264 13:0.35419875 14:-0.16083114 15:1.0348423 16:-0.052556586 17:-0.37343216 18:1.4315753 19:-0.77480716 20:0.79095483 21:0.079571165 22:-0.062323686 23:-0.26375422 24:-0.25234732 25:-0.40743604 26:-0.4047187 27:-0.27057403 28:-0.30796358 29:-0.16733444 30:-0.27352092 31:-0.20108834 32:-0.16073692 33:-0.18338262 34:-0.16487801 35:-0.27398148 36:-0.30811864 37:-0.39074841 38:-0.11907394 39:-0.21418162 40:0.23328166 41:-0.13776088 42:-0.16252463 43:-0.2478133 44:-0.17397934 45:-0.31722111 46:-0.15619448 47:-0.066107452 48:-0.14383133 49:-0.22159693 50:-0.64531434 51:-0.26362848 52:1.3088269 53:-0.17390168 54:1.6199546 55:0.02830093 56:0.85173368 57:1.9579252 #
0.023963644585123091562683939059752 1:-0.32373646 2:-0.17667121 3:-0.50017285 4:-0.098842546 5:-0.44537586 6:-0.34561899 7:-0.26157999 8:-0.31560028 9:-0.30961666 10:-0.41393355 11:-0.22640149 12:-0.60592264 13:-0.21933696 14:-0.16083114 15:-0.15391792 16:1.4109107 17:-0.37343216 18:-0.36310151 19:1.2627124 20:-0.14419276 21:2.0802214 22:-0.062323686 23:-0.26375422 24:-0.25234732 25:-0.40743604 26:-0.4047187 27:-0.27057403 28:-0.30796358 29:-0.16733444 30:-0.27352092 31:-0.20108834 32:-0.16073692 33:-0.18338262 34:-0.16487801 35:-0.27398148 36:-0.30811864 37:-0.39074841 38:-0.11907394 39:-0.21418162 40:-0.20511942 41:-0.13776088 42:-0.16252463 43:-0.2478133 44:-0.17397934 45:0.73489034 46:-0.15619448 47:-0.066107452 48:-0.14383133 49:-0.22159693 50:-0.64531434 51:-0.26362848 52:0.13941552 53:0.99402839 54:-0.28615856 55:0.00065150071 56:0.03719911 57:-0.42186904 #
0.023963644585123091562683939059752 1:0.41550037 2:-0.17667121 3:-0.34715742 4:-0.098842546 5:0.11114244 6:0.018063109 7:-0.088455014 8:1.6035413 9:0.067261241 10:-0.22728199 11:-0.22640149 12:-0.0088725127 13:0.29382658 14:1.0527992 15:-0.15391792 16:-0.30765641 17:0.047284782 18:-0.21197082 19:-0.21100038 20:-0.14419276 21:1.6164029 22:-0.062323686 23:1.2413449 24:0.16196308 25:-0.40743604 26:-0.4047187 27:-0.27057403 28:-0.30796358 29:-0.16733444 30:-0.27352092 31:-0.20108834 32:-0.16073692 33:-0.18338262 34:-0.16487801 35:-0.27398148 36:-0.30811864 37:-0.39074841 38:-0.11907394 39:-0.21418162 40:-0.20511942 41:-0.13776088 42:-0.16252463 43:-0.2478133 44:-0.17397934 45:-0.31722111 46:-0.15619448 47:-0.066107452 48:-0.14383133 49:-0.22159693 50:-0.27723223 51:0.24130096 52:-0.21548046 53:-0.27317575 54:-0.28615856 55:-0.031794034 56:0.099855617 57:1.0770729 #
-0.023963644585123091562683939059752 1:-0.32373646 2:0.087981112 3:-0.50017285 4:-0.098842546 5:0.42915291 6:0.6545068 7:-0.26157999 8:1.694929 9:1.7632117 10:1.6625651 11:-0.22640149 12:-0.60592264 13:0.44475701 14:1.4097494 15:-0.15391792 16:1.4780422 17:-0.37343216 18:-0.36310151 19:-0.38404998 20:-0.14419276 21:-0.27348477 22:-0.062323686 23:-0.26375422 24:0.88700628 25:1.2470189 26:3.2720716 27:-0.062228724 28:0.067761727 29:0.062286589 30:0.19304512 31:0.30379218 32:0.35839441 33:-0.18338262 34:0.35387358 35:0.16630648 36:0.14447707 37:2.3018324 38:-0.11907394 39:-0.21418162 40:0.30250287 41:-0.13776088 42:-0.16252463 43:0.45956102 44:-0.17397934 45:-0.13638945 46:-0.15619448 47:-0.066107452 48:-0.14383133 49:1.0351145 50:1.0451369 51:1.8121926 52:0.55249119 53:0.95315081 54:-0.28615856 55:-0.046049736 56:0.04615004 57:0.59036463 #
-0.023963644585123091562683939059752 1:-0.32373646 2:-0.17667121 3:-0.50017285 4:-0.098842546 5:-0.44537586 6:-0.34561899 7:-0.26157999 8:-0.31560028 9:-0.30961666 10:-0.41393355 11:-0.22640149 12:-0.60592264 13:-0.21933696 14:-0.16083114 15:-0.15391792 16:-0.30765641 17:-0.37343216 18:-0.36310151 19:1.7762789 20:-0.14419276 21:-0.57808203 22:-0.062323686 23:-0.26375422 24:-0.25234732 25:-0.40743604 26:-0.4047187 27:-0.27057403 28:-0.30796358 29:-0.16733444 30:-0.27352092 31:-0.20108834 32:-0.16073692 33:-0.18338262 34:-0.16487801 35:-0.27398148 36:-0.30811864 37:-0.39074841 38:-0.11907394 39:-0.21418162 40:-0.20511942 41:-0.13776088 42:-0.16252463 43:-0.2478133 44:-0.17397934 45:-0.31722111 46:-0.15619448 47:-0.066107452 48:-0.14383133 49:-0.22159693 50:-0.64531434 51:-0.26362848 52:-0.52965069 53:-0.34909117 54:-0.28615856 55:0.9833445 56:0.55635303 57:-0.33826274 #
0.023963644585123091562683939059752 1:-0.32373646 2:0.28045553 3:0.95347381 4:-0.098842546 5:0.058140695 6:-0.34561899 7:0.14959183 8:-0.31560028 9:-0.30961666 10:0.91595882 11:0.62839884 12:-0.60592264 13:0.35419875 14:-0.16083114 15:1.0348423 16:-0.052556586 17:-0.37343216 18:1.4315753 19:-0.77480716 20:0.79095483 21:0.079571165 22:-0.062323686 23:-0.26375422 24:-0.25234732 25:-0.40743604 26:-0.4047187 27:-0.27057403 28:-0.30796358 29:-0.16733444 30:-0.27352092 31:-0.20108834 32:-0.16073692 33:-0.18338262 34:-0.16487801 35:-0.27398148 36:-0.30811864 37:-0.39074841 38:-0.11907394 39:-0.21418162 40:0.23328166 41:-0.13776088 42:-0.16252463 43:-0.2478133 44:-0.17397934 45:-0.31722111 46:-0.15619448 47:-0.066107452 48:-0.14383133 49:-0.22159693 50:-0.64531434 51:-0.26362848 52:1.3088269 53:-0.17390168 54:1.6199546 55:0.02830093 56:0.85173368 57:1.9579252 #
-0.0065628065890932932649470821218074 1:-0.32373646 2:-0.17667121 3:-0.50017285 4:-0.098842546 5:-0.44537586 6:-0.34561899 7:-0.26157999 8:-0.31560028 9:-0.30961666 10:-0.41393355 11:-0.22640149 12:-0.60592264 13:-0.21933696 14:-0.16083114 15:-0.15391792 16:-0.30765641 17:1.4084278 18:-0.36310151 19:-0.88086981 20:-0.14419276 21:-0.57808203 22:-0.062323686 23:-0.26375422 24:-0.25234732 25:-0.050787069 26:-0.4047187 27:-0.27057403 28:-0.30796358 29:-0.16733444 30:-0.27352092 31:-0.20108834 32:-0.16073692 33:-0.18338262 34:-0.16487801 35:-0.27398148 36:-0.30811864 37:-0.39074841 38:11.624594 39:-0.21418162 40:-0.20511942 41:-0.13776088 42:-0.16252463 43:-0.2478133 44:-0.17397934 45:-0.31722111 46:-0.15619448 47:-0.066107452 48:-0.14383133 49:-0.22159693 50:-0.64531434 51:-0.26362848 52:-0.52965069 53:-0.34909117 54:8.0795603 55:-0.070184968 56:-0.25818154 57:-0.28152987 #
0.023963644585123091562683939059752 1:-0.32373646 2:-0.17667121 3:0.60918909 4:-0.098842546 5:1.1049252 6:-0.34561899 7:0.99357611 8:-0.31560028 9:-0.30961666 10:-0.41393355 11:-0.22640149 12:-0.028774185 13:-0.21933696 14:-0.16083114 15:-0.15391792 16:0.47106934 17:-0.37343216 18:-0.36310151 19:0.10160536 20:-0.14419276 21:-0.57808203 22:-0.062323686 23:-0.26375422 24:-0.25234732 25:-0.40743604 26:-0.4047187 27:-0.27057403 28:-0.30796358 29:-0.16733444 30:-0.27352092 31:-0.20108834 32:-0.16073692 33:-0.18338262 34:-0.16487801 35:-0.27398148 36:-0.30811864 37:-0.39074841 38:-0.11907394 39:-0.21418162 40:-0.20511942 41:-0.13776088 42:-0.16252463 43:-0.2478133 44:-0.17397934 45:-0.31722111 46:-0.15619448 47:-0.066107452 48:-0.14383133 49:-0.22159693 50:-0.64531434 51:-0.26362848 52:1.8818966 53:-0.34909117 54:-0.28615856 55:-0.065853007 56:-0.25818154 57:-0.38006589 #
0.023963644585123091562683939059752 1:-0.32373646 2:-0.17667121 3:-0.50017285 4:-0.098842546 5:-0.44537586 6:-0.34561899 7:-0.26157999 8:-0.31560028 9:3.9773693 10:-0.41393355 11:-0.22640149 12:-0.60592264 13:-0.21933696 14:-0.16083114 15:-0.15391792 16:-0.30765641 17:-0.37343216 18:-0.36310151 19:-0.3728855 20:-0.14419276 21:1.3256509 22:-0.062323686 23:-0.26375422 24:-0.25234732 25:-0.40743604 26:-0.4047187 27:-0.27057403 28:-0.30796358 29:-0.16733444 30:-0.27352092 31:-0.20108834 32:-0.16073692 33:-0.18338262 34:-0.16487801 35:-0.27398148 36:-0.30811864 37:-0.39074841 38:-0.11907394 39:-0.21418162 40:-0.20511942 41:-0.13776088 42:-0.16252463 43:-0.2478133 44:-0.17397934 45:-0.31722111 46:-0.15619448 47:-0.066107452 48:-0.14383133 49:-0.22159693 50:-0.045476798 51:-0.26362848 52:1.0150195 53:-0.34909117 54:-0.28615856 55:-0.057653211 56:-0.07916297 57:-0.37707996 #
-0.023963644585123091562683939059752 1:-0.32373646 2:-0.17667121 3:-0.50017285 4:-0.098842546 5:-0.44537586 6:2.6092982 7:-0.26157999 8:2.6544998 9:-0.30961666 10:1.1026103 11:-0.22640149 12:1.3543919 13:-0.21933696 14:-0.16083114 15:-0.15391792 16:-0.30765641 17:-0.37343216 18:-0.36310151 19:-0.88086981 20:-0.14419276 21:-0.57808203 22:-0.062323686 23:-0.26375422 24:-0.25234732 25:-0.40743604 26:-0.4047187 27:-0.065385468 28:-0.30796358 29:-0.16733444 30:-0.27352092 31:-0.20108834 32:-0.16073692 33:-0.18338262 34:-0.16487801 35:-0.27398148 36:-0.30811864 37:-0.39074841 38:-0.11907394 39:-0.21418162 40:-0.20511942 41:-0.13776088 42:-0.16252463 43:-0.2478133 44:-0.17397934 45:0.21705423 46:-0.15619448 47:-0.066107452 48:-0.14383133 49:0.69546276 50:-0.15453817 51:-0.26362848 52:-0.52965069 53:0.28159106 54:-0.28615856 55:-0.079224631 56:-0.24923062 57:-0.33229086 #
-0.020562794365521313427747074342733 1:-0.32373646 2:-0.17667121 3:-0.50017285 4:-0.098842546 5:-0.44537586 6:-0.34561899 7:-0.26157999 8:-0.31560028 9:-0.30961666 10:-0.41393355 11:-0.22640149 12:-0.60592264 13:-0.21933696 14:-0.16083114 15:-0.15391792 16:-0.30765641 17:-0.37343216 18:-0.36310151 19:1.5418246 20:-0.14419276 21:-0.57808203 22:-0.062323686 23:-0.26375422 24:-0.25234732 25:-0.40743604 26:-0.4047187 27:-0.27057403 28:-0.30796358 29:-0.16733444 30:-0.27352092 31:-0.20108834 32:-0.16073692 33:-0.18338262 34:-0.16487801 35:-0.27398148 36:-0.30811864 37:-0.39074841 38:-0.11907394 39:-0.21418162 40:-0.20511942 41:-0.13776088 42:-0.16252463 43:-0.2478133 44:-0.17397934 45:-0.31722111 46:-0.15619448 47:-0.066107452 48:-0.14383133 49:-0.22159693 50:-0.64531434 51:-0.26362848 52:-0.52965069 53:-0.34909117 54:-0.28615856 55:-0.092286833 56:-0.3029362 57:-0.60102546 #
-0.023963644585123091562683939059752 1:-0.32373646 2:-0.17667121 3:-0.50017285 4:-0.098842546 5:-0.44537586 6:-0.34561899 7:-0.26157999 8:-0.31560028 9:-0.30961666 10:-0.41393355 11:-0.22640149 12:-0.60592264 13:-0.21933696 14:-0.16083114 15:-0.15391792 16:-0.30765641 17:-0.37343216 18:-0.36310151 19:1.7762789 20:-0.14419276 21:-0.57808203 22:-0.062323686 23:-0.26375422 24:-0.25234732 25:-0.40743604 26:-0.4047187 27:-0.27057403 28:-0.30796358 29:-0.16733444 30:-0.27352092 31:-0.20108834 32:-0.16073692 33:-0.18338262 34:-0.16487801 35:-0.27398148 36:-0.30811864 37:-0.39074841 38:-0.11907394 39:-0.21418162 40:-0.20511942 41:-0.13776088 42:-0.16252463 43:-0.2478133 44:-0.17397934 45:-0.31722111 46:-0.15619448 47:-0.066107452 48:-0.14383133 49:-0.22159693 50:-0.64531434 51:-0.26362848 52:-0.52965069 53:-0.34909117 54:-0.28615856 55:0.9833445 56:0.55635303 57:-0.33826274 #
-0.023963644585123091562683939059752 1:-0.32373646 2:-0.17667121 3:-0.50017285 4:-0.098842546 5:-0.44537586 6:-0.34561899 7:-0.26157999 8:-0.31560028 9:-0.30961666 10:-0.41393355 11:-0.22640149 12:2.2300656 13:-0.21933696 14:-0.16083114 15:-0.15391792 16:-0.30765641 17:-0.37343216 18:-0.36310151 19:-0.88086981 20:-0.14419276 21:-0.57808203 22:-0.062323686 23:-0.26375422 24:-0.25234732 25:-0.40743604 26:-0.4047187 27:-0.27057403 28:-0.30796358 29:-0.16733444 30:-0.27352092 31:-0.20108834 32:-0.16073692 33:-0.18338262 34:-0.16487801 35:-0.27398148 36:-0.30811864 37:-0.39074841 38:-0.11907394 39:-0.21418162 40:-0.20511942 41:-0.13776088 42:-0.16252463 43:-0.2478133 44:-0.17397934 45:-0.31722111 46:-0.15619448 47:-0.066107452 48:-0.14383133 49:-0.22159693 50:-0.64531434 51:-0.26362848 52:0.86666143 53:-0.34909117 54:-0.28615856 55:-0.07754489 56:-0.26713249 57:-0.55922228 #
0.023963644585123091562683939059752 1:-0.32373646 2:-0.044345044 3:-0.060253467 4:-0.098842546 5:0.32314941 6:1.20003 7:-0.023533149 8:-0.31560028 9:1.2921144 10:-0.41393355 11:0.80835682 12:0.30955422 13:1.1692232 14:-0.16083114 15:-0.15391792 16:0.30995369 17:0.19577312 18:0.27920386 19:-0.55709958 20:-0.14419276 21:-0.17656745 22:-0.062323686 23:0.22318961 24:-0.25234732 25:-0.40743604 26:-0.4047187 27:-0.27057403 28:-0.30796358 29:-0.16733444 30:-0.27352092 31:-0.20108834 32:-0.16073692 33:-0.18338262 34:-0.16487801 35:-0.27398148 36:-0.30811864 37:-0.39074841 38:-0.11907394 39:-0.21418162 40:-0.20511942 41:-0.13776088 42:-0.16252463 43:0.10587386 44:-0.17397934 45:-0.31722111 46:-0.15619448 47:-0.066107452 48:-0.14383133 49:0.41525009 50:-0.47717807 51:-0.26362848 52:0.407042 53:0.19983594 54:0.095064074 55:-0.064814217 56:0.099855617 57:0.52467394 #
-0.023963644585123091562683939059752 1:-0.32373646 2:-0.17667121 3:6.0794911 4:-0.098842546 5:-0.44537586 6:-0.34561899 7:-0.26157999 8:-0.31560028 9:-0.30961666 10:-0.41393355 11:-0.22640149 12:-0.60592264 13:-0.21933696 14:-0.16083114 15:-0.15391792 16:-0.30765641 17:-0.37343216 18:6.1355176 19:-0.88086981 20:-0.14419276 21:1.8033148 22:-0.062323686 23:-0.26375422 24:-0.25234732 25:-0.40743604 26:-0.4047187 27:-0.27057403 28:-0.30796358 29:-0.16733444 30:-0.27352092 31:-0.20108834 32:-0.16073692 33:-0.18338262 34:-0.16487801 35:-0.27398148 36:-0.30811864 37:-0.39074841 38:-0.11907394 39:-0.21418162 40:-0.20511942 41:-0.13776088 42:-0.16252463 43:-0.2478133 44:-0.17397934 45:-0.31722111 46:-0.15619448 47:-0.066107452 48:-0.14383133 49:-0.22159693 50:-0.64531434 51:-0.26362848 52:-0.52965069 53:-0.34909117 54:-0.28615856 55:-0.083578698 56:-0.29398528 57:-0.5801239 #
-0.0054882273920662605695697244811981 1:-0.32373646 2:-0.17667121 3:0.83871228 4:-0.098842546 5:-0.44537586 6:2.8365993 7:-0.26157999 8:-0.31560028 9:-0.30961666 10:-0.41393355 11:-0.22640149 12:-0.60592264 13:-0.21933696 14:-0.16083114 15:-0.15391792 16:-0.30765641 17:-0.37343216 18:-0.36310151 19:1.095245 20:-0.14419276 21:-0.093495466 22:-0.062323686 23:-0.26375422 24:-0.25234732 25:-0.40743604 26:-0.4047187 27:0.1745273 28:-0.30796358 29:-0.16733444 30:-0.27352092 31:-0.20108834 32:-0.16073692 33:-0.18338262 34:-0.16487801 35:-0.27398148 36:-0.30811864 37:1.3072755 38:-0.11907394 39:-0.21418162 40:-0.20511942 41:-0.13776088 42:-0.16252463 43:-0.2478133 44:-0.17397934 45:0.25815234 46:-0.15619448 47:-0.066107452 48:-0.14383133 49:0.84830606 50:0.49983007 51:-0.26362848 52:-0.52965069 53:-0.34909117 54:-0.28615856 55:-0.09135855 56:-0.28503433 57:-0.47263002 #
-0.023963644585123091562683939059752 1:-0.32373646 2:-0.17667121 3:-0.50017285 4:-0.098842546 5:-0.44537586 6:-0.34561899 7:-0.26157999 8:-0.31560028 9:-0.30961666 10:-0.41393355 11:-0.22640149 12:-0.60592264 13:-0.21933696 14:-0.16083114 15:-0.15391792 16:-0.30765641 17:-0.37343216 18:-0.36310151 19:-0.049115267 20:-0.14419276 21:2.5163493 22:-0.062323686 23:-0.26375422 24:-0.25234732 25:-0.40743604 26:-0.4047187 27:0.19978127 28:-0.30796358 29:-0.16733444 30:-0.27352092 31:-0.20108834 32:-0.16073692 33:-0.18338262 34:-0.16487801 35:-0.27398148 36:-0.30811864 37:-0.39074841 38:-0.11907394 39:-0.21418162 40:-0.20511942 41:-0.13776088 42:-0.16252463 43:-0.2478133 44:-0.17397934 45:-0.31722111 46:-0.15619448 47:-0.066107452 48:-0.14383133 49:-0.22159693 50:-0.64531434 51:-0.26362848 52:-0.52965069 53:-0.34909117 54:-0.28615856 55:-0.099646755 56:-0.32083806 57:-0.5890817 #
-0.020284606674177783208756764565805 1:-0.32373646 2:0.087981112 3:-0.50017285 4:-0.098842546 5:0.42915291 6:0.6545068 7:-0.26157999 8:1.694929 9:1.7632117 10:1.6625651 11:-0.22640149 12:-0.60592264 13:0.44475701 14:1.4097494 15:-0.15391792 16:1.4780422 17:-0.37343216 18:-0.36310151 19:-0.38404998 20:-0.14419276 21:-0.27348477 22:-0.062323686 23:-0.26375422 24:0.88700628 25:1.2470189 26:3.2720716 27:-0.062228724 28:0.067761727 29:0.062286589 30:0.19304512 31:0.30379218 32:0.35839441 33:-0.18338262 34:0.35387358 35:0.16630648 36:0.14447707 37:2.3018324 38:-0.11907394 39:-0.21418162 40:0.30250287 41:-0.13776088 42:-0.16252463 43:0.45956102 44:-0.17397934 45:-0.13638945 46:-0.15619448 47:-0.066107452 48:-0.14383133 49:1.0351145 50:1.0451369 51:1.8121926 52:0.55249119 53:0.95315081 54:-0.28615856 55:-0.046049736 56:0.04615004 57:0.59036463 #
