SVM-light Version V6.02
0 # kernel type
3 # kernel parameter -d 
1 # kernel parameter -g 
1 # kernel parameter -s 
1 # kernel parameter -r 
empty# kernel parameter -u 
57 # highest feature index 
526 # number of training documents 
132 # number of support vectors plus 1 
0.68220432 # threshold b, each following line is a SV (starting with alpha*y)
-0.024206635209704729927437938385992 1:-0.32373646 2:-0.17667121 3:-0.50017285 4:-0.098842546 5:-0.44537586 6:-0.34561899 7:-0.26157999 8:-0.31560028 9:-0.30961666 10:-0.41393355 11:-0.22640149 12:-0.60592264 13:-0.21933696 14:-0.16083114 15:-0.15391792 16:1.6928632 17:-0.37343216 18:-0.36310151 19:0.78263927 20:-0.14419276 21:-0.57808203 22:-0.062323686 23:-0.26375422 24:-0.25234732 25:-0.40743604 26:-0.4047187 27:0.19978127 28:-0.30796358 29:-0.16733444 30:-0.27352092 31:-0.20108834 32:-0.16073692 33:-0.18338262 34:-0.16487801 35:-0.27398148 36:-0.30811864 37:-0.39074841 38:-0.11907394 39:-0.21418162 40:-0.20511942 41:-0.13776088 42:-0.16252463 43:-0.2478133 44:-0.17397934 45:-0.31722111 46:-0.15619448 47:-0.066107452 48:-0.14383133 49:-0.22159693 50:-0.64531434 51:-0.26362848 52:-0.52965069 53:-0.34909117 54:-0.28615856 55:-0.082827233 56:-0.28503433 57:-0.52637696 #
0.024206635209704729927437938385992 1:-0.32373646 2:-0.17667121 3:-0.50017285 4:-0.098842546 5:-0.44537586 6:-0.34561899 7:-0.26157999 8:5.5789061 9:-0.30961666 10:0.58931857 11:-0.22640149 12:-0.60592264 13:-0.21933696 14:-0.16083114 15:-0.15391792 16:0.26967475 17:-0.37343216 18:2.9050994 19:-0.64083326 20:-0.14419276 21:-0.28040743 22:-0.062323686 23:-0.26375422 24:-0.25234732 25:-0.40743604 26:-0.4047187 27:-0.27057403 28:-0.30796358 29:-0.16733444 30:-0.27352092 31:-0.20108834 32:-0.16073692 33:-0.18338262 34:-0.16487801 35:-0.27398148 36:0.57650024 37:-0.39074841 38:-0.11907394 39:-0.21418162 40:-0.20511942 41:-0.13776088 42:-0.16252463 43:-0.2478133 44:-0.17397934 45:-0.31722111 46:-0.15619448 47:-0.066107452 48:-0.14383133 49:-0.22159693 50:-0.081830591 51:-0.26362848 52:0.37213421 53:0.012967132 54:-0.28615856 55:-0.089104161 56:-0.25818154 57:-0.44277063 #
-0.024206635209704729927437938385992 1:-0.1932829 2:-0.14058225 3:-0.50017285 4:-0.098842546 5:-0.44537586 6:-0.34561899 7:-0.26157999 8:-0.31560028 9:-0.026958233 10:-0.20395054 11:-0.091433018 12:-0.45666012 13:-0.21933696 14:-0.16083114 15:-0.15391792 16:-0.30765641 17:-0.29918799 18:-0.13640548 19:-0.86412305 20:-0.14419276 21:-0.57808203 22:-0.062323686 23:-0.26375422 24:-0.25234732 25:-0.17957698 26:-0.12586099 27:-0.27057403 28:-0.30796358 29:-0.13602248 30:-0.14627562 31:-0.20108834 32:-0.16073692 33:-0.18338262 34:-0.16487801 35:-0.27398148 36:-0.24640106 37:-0.026886148 38:-0.11907394 39:-0.21418162 40:-0.20511942 41:0.71334511 42:-0.16252463 43:-0.15135317 44:-0.17397934 45:-0.21858566 46:2.1496634 47:-0.066107452 48:-0.14383133 49:-0.017805887 50:0.1635575 51:-0.26362848 52:-0.1573008 53:-0.34909117 54:-0.28615856 55:-0.046005532 56:0.10880654 57:4.8184557 #
-0.024206635209704729927437938385992 1:-0.019344825 2:-0.17667121 3:-0.23239584 4:-0.098842546 5:-0.35262281 6:-0.34561899 7:-0.26157999 8:-0.31560028 9:3.1765039 10:-0.41393355 11:-0.22640149 12:-0.38700426 13:-0.21933696 14:0.33889902 15:-0.15391792 16:-0.30765641 17:-0.37343216 18:-0.23086216 19:-0.71898466 20:-0.14419276 21:-0.4257834 22:-0.062323686 23:-0.26375422 24:-0.25234732 25:-0.040880155 26:0.4318544 27:-0.24847679 28:-0.30796358 29:-0.16733444 30:-0.27352092 31:-0.20108834 32:-0.16073692 33:0.15571991 34:-0.16487801 35:-0.27398148 36:-0.30811864 37:0.67658091 38:-0.11907394 39:-0.21418162 40:-0.20511942 41:-0.13776088 42:-0.16252463 43:-0.2478133 44:-0.17397934 45:-0.31722111 46:-0.15619448 47:-0.066107452 48:-0.14383133 49:0.7633931 50:0.26353043 51:0.52181733 52:-0.52965069 53:-0.22645853 54:-0.28615856 55:-0.060084417 56:-0.0075555374 57:1.3965684 #
-0.024206635209704729927437938385992 1:-0.32373646 2:-0.17667121 3:-0.19414198 4:-0.098842546 5:0.40265203 6:-0.34561899 7:-0.26157999 8:0.41550127 9:-0.30961666 10:-0.41393355 11:-0.22640149 12:1.2946869 13:-0.21933696 14:-0.16083114 15:-0.15391792 16:-0.092835501 17:-0.37343216 18:-0.36310151 19:0.81613272 20:-0.14419276 21:0.64030707 22:-0.062323686 23:-0.26375422 24:-0.25234732 25:-0.40743604 26:-0.07422068 27:-0.16955812 28:-0.30796358 29:-0.16733444 30:-0.27352092 31:0.16609749 32:-0.16073692 33:-0.18338262 34:-0.16487801 35:-0.27398148 36:0.021041868 37:-0.39074841 38:-0.11907394 39:-0.21418162 40:0.16406043 41:-0.13776088 42:-0.16252463 43:-0.2478133 44:-0.17397934 45:-0.05419324 46:-0.15619448 47:-0.066107452 48:-0.14383133 49:-0.22159693 50:-0.39538205 51:-0.26362848 52:-0.52965069 53:-0.027910421 54:-0.28615856 55:-0.082009465 56:-0.26713249 57:-0.051612485 #
0.024206635209704729927437938385992 1:-0.32373646 2:-0.17667121 3:-0.50017285 4:-0.098842546 5:-0.44537586 6:-0.34561899 7:1.9890447 8:-0.31560028 9:-0.30961666 10:-0.41393355 11:-0.22640149 12:-0.60592264 13:-0.21933696 14:-0.16083114 15:-0.15391792 16:2.4850152 17:-0.37343216 18:-0.36310151 19:0.2802372 20:-0.14419276 21:0.86183232 22:-0.062323686 23:-0.26375422 24:-0.25234732 25:-0.40743604 26:-0.4047187 27:-0.27057403 28:-0.30796358 29:-0.16733444 30:-0.27352092 31:-0.20108834 32:-0.16073692 33:-0.18338262 34:-0.16487801 35:-0.27398148 36:-0.30811864 37:-0.39074841 38:-0.11907394 39:-0.21418162 40:-0.20511942 41:-0.13776088 42:-0.16252463 43:-0.2478133 44:-0.17397934 45:-0.31722111 46:-0.15619448 47:-0.066107452 48:-0.14383133 49:-0.22159693 50:-0.64531434 51:-0.26362848 52:-0.52965069 53:-0.34909117 54:-0.28615856 55:-0.037496313 56:-0.23132877 57:-0.45471439 #
0.024206635209704729927437938385992 1:-0.32373646 2:-0.17667121 3:-0.50017285 4:-0.098842546 5:-0.44537586 6:-0.34561899 7:-0.26157999 8:-0.31560028 9:-0.30961666 10:-0.41393355 11:-0.22640149 12:-0.60592264 13:-0.21933696 14:-0.16083114 15:-0.15391792 16:1.4109107 17:-0.37343216 18:-0.36310151 19:1.2627124 20:-0.14419276 21:2.0802214 22:-0.062323686 23:-0.26375422 24:-0.25234732 25:-0.40743604 26:-0.4047187 27:-0.27057403 28:-0.30796358 29:-0.16733444 30:-0.27352092 31:-0.20108834 32:-0.16073692 33:-0.18338262 34:-0.16487801 35:-0.27398148 36:-0.30811864 37:-0.39074841 38:-0.11907394 39:-0.21418162 40:-0.20511942 41:-0.13776088 42:-0.16252463 43:-0.2478133 44:-0.17397934 45:0.73489034 46:-0.15619448 47:-0.066107452 48:-0.14383133 49:-0.22159693 50:-0.64531434 51:-0.26362848 52:0.13941552 53:0.99402839 54:-0.28615856 55:0.00065150071 56:0.03719911 57:-0.42186904 #
0.024206635209704729927437938385992 1:-0.32373646 2:0.28045553 3:0.95347381 4:-0.098842546 5:0.058140695 6:-0.34561899 7:0.14959183 8:-0.31560028 9:-0.30961666 10:0.91595882 11:0.62839884 12:-0.60592264 13:0.35419875 14:-0.16083114 15:1.0348423 16:-0.052556586 17:-0.37343216 18:1.4315753 19:-0.77480716 20:0.79095483 21:0.079571165 22:-0.062323686 23:-0.26375422 24:-0.25234732 25:-0.40743604 26:-0.4047187 27:-0.27057403 28:-0.30796358 29:-0.16733444 30:-0.27352092 31:-0.20108834 32:-0.16073692 33:-0.18338262 34:-0.16487801 35:-0.27398148 36:-0.30811864 37:-0.39074841 38:-0.11907394 39:-0.21418162 40:0.23328166 41:-0.13776088 42:-0.16252463 43:-0.2478133 44:-0.17397934 45:-0.31722111 46:-0.15619448 47:-0.066107452 48:-0.14383133 49:-0.22159693 50:-0.64531434 51:-0.26362848 52:1.3088269 53:-0.17390168 54:1.6199546 55:0.02830093 56:0.85173368 57:1.9579252 #
0.024206635209704729927437938385992 1:-0.32373646 2:-0.17667121 3:0.39879286 4:-0.098842546 5:-0.44537586 6:-0.34561899 7:1.7726384 8:-0.31560028 9:-0.30961666 10:-0.41393355 11:-0.22640149 12:-0.13823338 13:-0.21933696 14:-0.16083114 15:-0.15391792 16:-0.30765641 17:0.78972644 18:-0.36310151 19:-0.35613877 20:-0.14419276 21:-0.25271675 22:-0.062323686 23:-0.26375422 24:-0.25234732 25:-0.40743604 26:-0.4047187 27:-0.27057403 28:-0.30796358 29:-0.16733444 30:-0.27352092 31:-0.20108834 32:-0.16073692 33:-0.18338262 34:-0.16487801 35:-0.27398148 36:-0.30811864 37:-0.39074841 38:-0.11907394 39:-0.21418162 40:-0.20511942 41:-0.13776088 42:-0.16252463 43:-0.2478133 44:-0.17397934 45:0.069101065 46:-0.15619448 47:-0.066107452 48:-0.14383133 49:-0.22159693 50:-0.31813022 51:-0.26362848 52:0.10159874 53:-0.34909117 54:-0.28615856 55:-0.089037858 56:-0.23132877 57:-0.40693936 #
-0.024206635209704729927437938385992 1:-0.32373646 2:-0.17667121 3:-0.50017285 4:-0.098842546 5:0.70741206 6:-0.34561899 7:1.6211542 8:-0.31560028 9:-0.30961666 10:-0.41393355 11:-0.22640149 12:-0.60592264 13:-0.21933696 14:-0.16083114 15:-0.15391792 16:3.2234621 17:-0.37343216 18:1.2804446 19:0.58726066 20:-0.14419276 21:-0.57808203 22:-0.062323686 23:-0.26375422 24:-0.25234732 25:-0.40743604 26:-0.4047187 27:-0.27057403 28:-0.30796358 29:-0.16733444 30:-0.27352092 31:-0.20108834 32:-0.16073692 33:-0.18338262 34:-0.16487801 35:-0.27398148 36:-0.30811864 37:-0.39074841 38:-0.11907394 39:-0.21418162 40:-0.20511942 41:-0.13776088 42:-0.16252463 43:-0.2478133 44:-0.17397934 45:-0.31722111 46:-0.15619448 47:-0.066107452 48:-0.14383133 49:-0.22159693 50:-0.64531434 51:-0.26362848 52:1.7917181 53:0.57941324 54:-0.28615856 55:0.28611916 56:0.88753736 57:-0.030710904 #
0.024206635209704729927437938385992 1:-0.32373646 2:-0.17667121 3:-0.50017285 4:-0.098842546 5:-0.44537586 6:-0.34561899 7:-0.26157999 8:-0.31560028 9:-0.30961666 10:-0.41393355 11:-0.22640149 12:-0.60592264 13:-0.21933696 14:-0.16083114 15:-0.15391792 16:-0.30765641 17:-0.37343216 18:-0.36310151 19:-0.88086981 20:-0.14419276 21:-0.57808203 22:-0.062323686 23:-0.26375422 24:-0.25234732 25:-0.40743604 26:-0.4047187 27:-0.27057403 28:-0.30796358 29:-0.16733444 30:-0.27352092 31:-0.20108834 32:-0.16073692 33:-0.18338262 34:-0.16487801 35:-0.27398148 36:-0.30811864 37:-0.39074841 38:-0.11907394 39:-0.21418162 40:-0.20511942 41:-0.13776088 42:-0.16252463 43:-0.2478133 44:-0.17397934 45:-0.31722111 46:-0.15619448 47:-0.066107452 48:-0.14383133 49:-0.22159693 50:-0.64531434 51:-0.26362848 52:-0.52965069 53:-0.34909117 54:-0.28615856 55:-0.093767658 56:-0.29398528 57:-0.5801239 #
-0.018532279959158688698028782937399 1:-0.32373646 2:0.087981112 3:-0.50017285 4:-0.098842546 5:0.42915291 6:0.6545068 7:-0.26157999 8:1.694929 9:1.7632117 10:1.6625651 11:-0.22640149 12:-0.60592264 13:0.44475701 14:1.4097494 15:-0.15391792 16:1.4780422 17:-0.37343216 18:-0.36310151 19:-0.38404998 20:-0.14419276 21:-0.27348477 22:-0.062323686 23:-0.26375422 24:0.88700628 25:1.2470189 26:3.2720716 27:-0.062228724 28:0.067761727 29:0.062286589 30:0.19304512 31:0.30379218 32:0.35839441 33:-0.18338262 34:0.35387358 35:0.16630648 36:0.14447707 37:2.3018324 38:-0.11907394 39:-0.21418162 40:0.30250287 41:-0.13776088 42:-0.16252463 43:0.45956102 44:-0.17397934 45:-0.13638945 46:-0.15619448 47:-0.066107452 48:-0.14383133 49:1.0351145 50:1.0451369 51:1.8121926 52:0.55249119 53:0.95315081 54:-0.28615856 55:-0.046049736 56:0.04615004 57:0.59036463 #
-0.024206635209704729927437938385992 1:-0.32373646 2:-0.17667121 3:-0.50017285 4:-0.098842546 5:-0.44537586 6:-0.34561899 7:-0.26157999 8:-0.31560028 9:-0.30961666 10:-0.41393355 11:-0.22640149 12:-0.60592264 13:-0.21933696 14:-0.16083114 15:-0.15391792 16:-0.30765641 17:-0.37343216 18:-0.36310151 19:1.6534696 20:-0.14419276 21:5.7146206 22:-0.062323686 23:-0.26375422 24:-0.25234732 25:-0.40743604 26:-0.4047187 27:-0.27057403 28:-0.30796358 29:-0.16733444 30:-0.27352092 31:-0.20108834 32:-0.16073692 33:-0.18338262 34:-0.16487801 35:-0.27398148 36:-0.30811864 37:-0.39074841 38:-0.11907394 39:-0.21418162 40:-0.20511942 41:-0.13776088 42:-0.16252463 43:-0.2478133 44:-0.17397934 45:-0.31722111 46:-0.15619448 47:-0.066107452 48:-0.14383133 49:-0.22159693 50:-0.64531434 51:-0.26362848 52:-0.52965069 53:-0.34909117 54:-0.28615856 55:-0.099646755 56:-0.32083806 57:-0.62192702 #
0.024206635209704729927437938385992 1:-0.32373646 2:-0.17667121 3:-0.50017285 4:-0.098842546 5:-0.44537586 6:-0.34561899 7:-0.26157999 8:5.5789061 9:-0.30961666 10:0.58931857 11:-0.22640149 12:-0.60592264 13:-0.21933696 14:-0.16083114 15:-0.15391792 16:0.26967475 17:-0.37343216 18:2.9050994 19:-0.64083326 20:-0.14419276 21:-0.28040743 22:-0.062323686 23:-0.26375422 24:-0.25234732 25:-0.40743604 26:-0.4047187 27:-0.27057403 28:-0.30796358 29:-0.16733444 30:-0.27352092 31:-0.20108834 32:-0.16073692 33:-0.18338262 34:-0.16487801 35:-0.27398148 36:0.57650024 37:-0.39074841 38:-0.11907394 39:-0.21418162 40:-0.20511942 41:-0.13776088 42:-0.16252463 43:-0.2478133 44:-0.17397934 45:-0.31722111 46:-0.15619448 47:-0.066107452 48:-0.14383133 49:-0.22159693 50:-0.081830591 51:-0.26362848 52:0.37213421 53:0.012967132 54:-0.28615856 55:-0.089104161 56:-0.25818154 57:-0.44277063 #
0.024206635209704729927437938385992 1:-0.32373646 2:-0.17667121 3:-0.50017285 4:-0.098842546 5:-0.44537586 6:-0.34561899 7:-0.26157999 8:-0.31560028 9:-0.30961666 10:-0.41393355 11:-0.22640149 12:-0.60592264 13:-0.21933696 14:-0.16083114 15:-0.15391792 16:-0.30765641 17:-0.37343216 18:-0.36310151 19:-0.16076016 20:-0.14419276 21:-0.13503145 22:-0.062323686 23:-0.26375422 24:-0.25234732 25:-0.40743604 26:-0.4047187 27:-0.27057403 28:-0.30796358 29:-0.16733444 30:-0.27352092 31:-0.20108834 32:-0.16073692 33:-0.18338262 34:-0.16487801 35:-0.27398148 36:-0.30811864 37:-0.39074841 38:-0.11907394 39:-0.21418162 40:-0.20511942 41:-0.13776088 42:-0.16252463 43:-0.2478133 44:-0.17397934 45:-0.31722111 46:-0.15619448 47:-0.066107452 48:-0.14383133 49:-0.22159693 50:-0.64531434 51:-0.26362848 52:-0.52965069 53:-0.34909117 54:-0.28615856 55:-0.097370259 56:-0.3029362 57:-0.54130667 #
-0.024206635209704729927437938385992 1:-0.32373646 2:0.43684098 3:-0.50017285 4:-0.098842546 5:0.90616858 6:-0.34561899 7:-0.26157999 8:2.014786 9:-0.30961666 10:-0.41393355 11:-0.22640149 12:-0.60592264 13:-0.21933696 14:-0.16083114 15:-0.15391792 16:0.37708521 17:0.88871866 18:-0.36310151 19:-0.59617531 20:-0.14419276 21:-0.57808203 22:-0.062323686 23:-0.26375422 24:-0.25234732 25:-0.40743604 26:-0.4047187 27:-0.27057403 28:-0.30796358 29:-0.16733444 30:-0.27352092 31:-0.20108834 32:-0.16073692 33:-0.18338262 34:-0.16487801 35:-0.27398148 36:0.74108052 37:-0.39074841 38:-0.11907394 39:-0.21418162 40:0.97164136 41:-0.13776088 42:-0.16252463 43:-0.2478133 44:0.9409681 45:-0.31722111 46:-0.15619448 47:-0.066107452 48:-0.14383133 49:-0.22159693 50:-0.32267445 51:-0.26362848 52:-0.52965069 53:-0.34909117 54:-0.28615856 55:-0.075865149 56:-0.24923062 57:-0.31437522 #
-0.024206635209704729927437938385992 1:-0.32373646 2:-0.17667121 3:-0.50017285 4:-0.098842546 5:0.56165725 6:0.79088759 7:-0.26157999 8:5.4875183 9:-0.30961666 10:-0.41393355 11:-0.22640149 12:0.15034086 13:-0.21933696 14:-0.16083114 15:-0.15391792 16:-0.30765641 17:-0.37343216 18:-0.36310151 19:-0.88086981 20:-0.14419276 21:-0.57808203 22:-0.062323686 23:-0.26375422 24:-0.25234732 25:-0.40743604 26:-0.4047187 27:-0.27057403 28:-0.30796358 29:-0.16733444 30:-0.27352092 31:-0.20108834 32:-0.16073692 33:-0.18338262 34:-0.16487801 35:-0.27398148 36:-0.30811864 37:-0.39074841 38:-0.11907394 39:-0.21418162 40:-0.20511942 41:-0.13776088 42:-0.16252463 43:-0.2478133 44:-0.17397934 45:-0.31722111 46:-0.15619448 47:-0.066107452 48:-0.14383133 49:-0.22159693 50:-0.64531434 51:-0.26362848 52:-0.52965069 53:-0.34909117 54:-0.28615856 55:-0.096552491 56:-0.28503433 57:-0.44277063 #
0.024206635209704729927437938385992 1:-0.32373646 2:-0.17667121 3:1.4125202 4:-0.098842546 5:-0.44537586 6:0.79088759 7:-0.26157999 8:0.82674593 9:-0.30961666 10:-0.41393355 11:-0.22640149 12:0.88670272 13:0.53531528 14:-0.16083114 15:-0.15391792 16:0.028001251 17:0.86397064 18:-0.36310151 19:0.51469147 20:-0.14419276 21:0.46031776 22:-0.062323686 23:-0.26375422 24:1.0423727 25:-0.40743604 26:-0.4047187 27:-0.27057403 28:-0.30796358 29:-0.16733444 30:-0.27352092 31:-0.20108834 32:-0.16073692 33:-0.18338262 34:-0.16487801 35:-0.27398148 36:-0.30811864 37:-0.39074841 38:-0.11907394 39:-0.21418162 40:-0.20511942 41:-0.13776088 42:-0.16252463 43:-0.2478133 44:-0.17397934 45:-0.31722111 46:-0.15619448 47:-0.066107452 48:-0.14383133 49:-0.22159693 50:-0.64531434 51:-0.26362848 52:0.060872968 53:0.83635783 54:-0.28615856 55:-0.058404677 56:-0.025457395 57:-0.25167048 #
0.024206635209704729927437938385992 1:-0.32373646 2:0.77367121 3:-0.50017285 4:-0.098842546 5:-0.44537586 6:-0.34561899 7:-0.26157999 8:-0.31560028 9:-0.30961666 10:-0.41393355 11:-0.22640149 12:-0.60592264 13:-0.21933696 14:-0.16083114 15:-0.15391792 16:0.75302178 17:1.5816642 18:2.6217294 19:0.88870192 20:-0.14419276 21:0.51569909 22:-0.062323686 23:-0.26375422 24:-0.25234732 25:-0.40743604 26:-0.4047187 27:-0.27057403 28:-0.30796358 29:-0.16733444 30:-0.27352092 31:-0.20108834 32:-0.16073692 33:-0.18338262 34:-0.16487801 35:-0.27398148 36:-0.30811864 37:-0.39074841 38:-0.11907394 39:-0.21418162 40:-0.20511942 41:-0.13776088 42:-0.16252463 43:-0.2478133 44:-0.17397934 45:0.33212891 46:-0.15619448 47:-0.066107452 48:-0.14383133 49:-0.22159693 50:0.58617032 51:-0.26362848 52:0.25868386 53:0.43926162 54:-0.28615856 55:-0.049762849 56:-0.09706483 57:-0.29645956 #
0.024206635209704729927437938385992 1:-0.32373646 2:-0.17667121 3:-0.50017285 4:-0.098842546 5:-0.44537586 6:-0.34561899 7:-0.26157999 8:-0.31560028 9:-0.30961666 10:-0.41393355 11:5.3073058 12:0.61803013 13:-0.21933696 14:-0.16083114 15:-0.15391792 16:-0.30765641 17:-0.37343216 18:-0.36310151 19:0.49236253 20:-0.14419276 21:-0.57808203 22:-0.062323686 23:-0.26375422 24:-0.25234732 25:-0.40743604 26:-0.4047187 27:-0.27057403 28:-0.30796358 29:-0.16733444 30:-0.27352092 31:-0.20108834 32:-0.16073692 33:-0.18338262 34:-0.16487801 35:-0.27398148 36:-0.30811864 37:-0.39074841 38:-0.11907394 39:-0.21418162 40:-0.20511942 41:-0.13776088 42:-0.16252463 43:-0.2478133 44:-0.17397934 45:-0.31722111 46:-0.15619448 47:-0.066107452 48:-0.14383133 49:-0.22159693 50:-0.64531434 51:-0.26362848 52:3.2054842 53:-0.34909117 54:-0.28615856 55:-0.091756389 56:-0.28503433 57:-0.5801239 #
0.024206635209704729927437938385992 1:-0.32373646 2:-0.17667121 3:-0.50017285 4:-0.098842546 5:-0.44537586 6:-0.34561899 7:-0.26157999 8:-0.31560028 9:-0.30961666 10:-0.41393355 11:-0.22640149 12:-0.60592264 13:-0.21933696 14:-0.16083114 15:-0.15391792 16:1.4109107 17:-0.37343216 18:-0.36310151 19:1.2627124 20:-0.14419276 21:2.0802214 22:-0.062323686 23:-0.26375422 24:-0.25234732 25:-0.40743604 26:-0.4047187 27:-0.27057403 28:-0.30796358 29:-0.16733444 30:-0.27352092 31:-0.20108834 32:-0.16073692 33:-0.18338262 34:-0.16487801 35:-0.27398148 36:-0.30811864 37:-0.39074841 38:-0.11907394 39:-0.21418162 40:-0.20511942 41:-0.13776088 42:-0.16252463 43:-0.2478133 44:-0.17397934 45:0.73489034 46:-0.15619448 47:-0.066107452 48:-0.14383133 49:-0.22159693 50:-0.64531434 51:-0.26362848 52:0.13941552 53:0.99402839 54:-0.28615856 55:0.00065150071 56:0.03719911 57:-0.42186904 #
-0.024206635209704729927437938385992 1:-0.32373646 2:-0.17667121 3:6.0794911 4:-0.098842546 5:-0.44537586 6:-0.34561899 7:-0.26157999 8:-0.31560028 9:-0.30961666 10:-0.41393355 11:-0.22640149 12:-0.60592264 13:-0.21933696 14:-0.16083114 15:-0.15391792 16:-0.30765641 17:-0.37343216 18:6.1355176 19:-0.88086981 20:-0.14419276 21:1.8033148 22:-0.062323686 23:-0.26375422 24:-0.25234732 25:-0.40743604 26:-0.4047187 27:-0.27057403 28:-0.30796358 29:-0.16733444 30:-0.27352092 31:-0.20108834 32:-0.16073692 33:-0.18338262 34:-0.16487801 35:-0.27398148 36:-0.30811864 37:-0.39074841 38:-0.11907394 39:-0.21418162 40:-0.20511942 41:-0.13776088 42:-0.16252463 43:-0.2478133 44:-0.17397934 45:-0.31722111 46:-0.15619448 47:-0.066107452 48:-0.14383133 49:-0.22159693 50:-0.64531434 51:-0.26362848 52:-0.52965069 53:-0.34909117 54:-0.28615856 55:-0.083578698 56:-0.29398528 57:-0.5801239 #
-0.024206635209704729927437938385992 1:1.4591289 2:-0.17667121 3:0.28403127 4:-0.098842546 5:1.2109287 6:-0.34561899 7:0.62568551 8:-0.31560028 9:-0.30961666 10:0.052695356 11:-0.22640149 12:0.42896426 13:0.38438484 14:-0.16083114 15:-0.15391792 16:0.24282214 17:0.64123815 18:-0.36310151 19:1.3296993 20:-0.14419276 21:1.0072083 22:-0.062323686 23:0.62159818 24:5.133688 25:-0.40743604 26:-0.4047187 27:-0.27057403 28:-0.30796358 29:-0.16733444 30:-0.27352092 31:-0.20108834 32:-0.16073692 33:-0.18338262 34:-0.16487801 35:-0.27398148 36:-0.30811864 37:-0.39074841 38:-0.11907394 39:-0.21418162 40:-0.20511942 41:-0.13776088 42:0.06047773 43:-0.2478133 44:-0.17397934 45:0.3650074 46:-0.15619448 47:-0.066107452 48:-0.14383133 49:-0.22159693 50:-0.33176291 51:-0.26362848 52:1.989529 53:0.2523928 54:-0.28615856 55:-0.010090005 56:1.5857098 57:0.81132418 #
-0.021684280315671027733470666021276 1:-0.32373646 2:-0.17667121 3:-0.50017285 4:-0.098842546 5:-0.44537586 6:-0.34561899 7:-0.26157999 8:-0.31560028 9:-0.30961666 10:2.1991882 11:-0.22640149 12:-0.60592264 13:-0.21933696 14:-0.16083114 15:-0.15391792 16:-0.30765641 17:-0.37343216 18:-0.36310151 19:-0.25565833 20:-0.14419276 21:0.19725648 22:-0.062323686 23:-0.26375422 24:-0.25234732 25:-0.40743604 26:-0.4047187 27:0.082981631 28:-0.30796358 29:-0.16733444 30:-0.27352092 31:-0.20108834 32:-0.16073692 33:-0.18338262 34:-0.16487801 35:-0.27398148 36:-0.30811864 37:-0.39074841 38:-0.11907394 39:-0.21418162 40:-0.20511942 41:-0.13776088 42:-0.16252463 43:-0.2478133 44:-0.17397934 45:1.5239739 46:-0.15619448 47:-0.066107452 48:-0.14383133 49:-0.22159693 50:-0.64531434 51:-0.26362848 52:0.060872968 53:-0.34909117 54:4.0131855 55:-0.072638273 56:-0.15077041 57:-0.51741916 #
0.019139660503586116563345953522912 1:-0.32373646 2:-0.17667121 3:1.9672011 4:-0.098842546 5:-0.44537586 6:-0.34561899 7:-0.26157999 8:-0.31560028 9:-0.30961666 10:-0.41393355 11:-0.22640149 12:0.67773515 13:-0.21933696 14:-0.16083114 15:-0.15391792 16:-0.30765641 17:-0.37343216 18:-0.36310151 19:-0.16076016 20:-0.14419276 21:3.0147812 22:-0.062323686 23:-0.26375422 24:6.4284077 25:-0.40743604 26:-0.4047187 27:-0.27057403 28:-0.30796358 29:-0.16733444 30:-0.27352092 31:-0.20108834 32:-0.16073692 33:-0.18338262 34:-0.16487801 35:-0.27398148 36:-0.30811864 37:-0.39074841 38:-0.11907394 39:-0.21418162 40:-0.20511942 41:-0.13776088 42:-0.16252463 43:-0.2478133 44:-0.17397934 45:-0.31722111 46:-0.15619448 47:-0.066107452 48:-0.14383133 49:-0.22159693 50:-0.64531434 51:-0.26362848 52:-0.52965069 53:0.80715954 54:-0.28615856 55:-0.028257735 56:-0.10601576 57:-0.47263002 #
0.024206635209704729927437938385992 1:-0.32373646 2:-0.17667121 3:-0.50017285 4:-0.098842546 5:-0.44537586 6:-0.34561899 7:-0.26157999 8:-0.31560028 9:-0.30961666 10:-0.41393355 11:-0.22640149 12:-0.60592264 13:-0.21933696 14:-0.16083114 15:-0.15391792 16:1.4109107 17:-0.37343216 18:-0.36310151 19:1.2627124 20:-0.14419276 21:2.0802214 22:-0.062323686 23:-0.26375422 24:-0.25234732 25:-0.40743604 26:-0.4047187 27:-0.27057403 28:-0.30796358 29:-0.16733444 30:-0.27352092 31:-0.20108834 32:-0.16073692 33:-0.18338262 34:-0.16487801 35:-0.27398148 36:-0.30811864 37:-0.39074841 38:-0.11907394 39:-0.21418162 40:-0.20511942 41:-0.13776088 42:-0.16252463 43:-0.2478133 44:-0.17397934 45:0.73489034 46:-0.15619448 47:-0.066107452 48:-0.14383133 49:-0.22159693 50:-0.64531434 51:-0.26362848 52:0.13941552 53:0.99402839 54:-0.28615856 55:0.00065150071 56:0.03719911 57:-0.42186904 #
-0.0057856627947775879361458351013425 1:-0.32373646 2:17.001671 3:-0.50017285 4:-0.098842546 5:-0.44537586 6:-0.34561899 7:-0.26157999 8:-0.31560028 9:-0.30961666 10:-0.41393355 11:-0.22640149 12:-0.60592264 13:-0.21933696 14:-0.16083114 15:-0.15391792 16:-0.30765641 17:-0.37343216 18:-0.36310151 19:-0.88086981 20:-0.14419276 21:-0.57808203 22:-0.062323686 23:-0.26375422 24:-0.25234732 25:-0.40743604 26:-0.4047187 27:-0.27057403 28:-0.30796358 29:-0.16733444 30:-0.27352092 31:-0.20108834 32:-0.16073692 33:-0.18338262 34:-0.16487801 35:-0.27398148 36:-0.30811864 37:-0.39074841 38:-0.11907394 39:-0.21418162 40:-0.20511942 41:-0.13776088 42:-0.16252463 43:-0.2478133 44:-0.17397934 45:-0.31722111 46:-0.15619448 47:-0.066107452 48:-0.14383133 49:-0.22159693 50:-0.64531434 51:-0.26362848 52:-0.52965069 53:-0.34909117 54:-0.28615856 55:-0.08196526 56:-0.28503433 57:-0.60998327 #
-0.024206635209704729927437938385992 1:0.58943844 2:-0.17667121 3:-0.09850733 4:7.2782841 5:0.38940158 6:-0.34561899 7:-0.26157999 8:-0.31560028 9:-0.30961666 10:-0.41393355 11:1.6631571 12:-0.60592264 13:0.41457093 14:-0.16083114 15:-0.15391792 16:0.8201533 17:-0.37343216 18:0.43033454 19:0.17975679 20:-0.14419276 21:-0.57808203 22:-0.062323686 23:0.66586578 24:-0.25234732 25:-0.40743604 26:-0.4047187 27:-0.27057403 28:-0.30796358 29:-0.16733444 30:-0.27352092 31:-0.20108834 32:-0.16073692 33:-0.18338262 34:-0.16487801 35:-0.27398148 36:-0.30811864 37:0.11865877 38:-0.11907394 39:-0.21418162 40:-0.20511942 41:-0.13776088 42:-0.16252463 43:-0.2478133 44:-0.17397934 45:-0.31722111 46:-0.15619448 47:-0.066107452 48:-0.14383133 49:-0.22159693 50:-0.50444341 51:-0.26362848 52:0.55830914 53:0.012967132 54:-0.28615856 55:-0.057830028 56:0.30572698 57:0.57244897 #
-0.024206635209704729927437938385992 1:-0.32373646 2:-0.17667121 3:-0.50017285 4:-0.098842546 5:-0.44537586 6:-0.34561899 7:-0.26157999 8:-0.31560028 9:-0.30961666 10:-0.41393355 11:-0.22640149 12:-0.60592264 13:-0.21933696 14:-0.16083114 15:-0.15391792 16:-0.30765641 17:-0.37343216 18:-0.36310151 19:1.3520283 20:-0.14419276 21:-0.57808203 22:-0.062323686 23:-0.26375422 24:-0.25234732 25:-0.40743604 26:-0.4047187 27:-0.27057403 28:-0.30796358 29:-0.16733444 30:-0.27352092 31:-0.20108834 32:-0.16073692 33:-0.18338262 34:-0.16487801 35:-0.27398148 36:-0.30811864 37:-0.39074841 38:-0.11907394 39:-0.21418162 40:-0.20511942 41:-0.13776088 42:-0.16252463 43:-0.2478133 44:-0.17397934 45:-0.31722111 46:-0.15619448 47:-0.066107452 48:-0.14383133 49:-0.22159693 50:-0.64531434 51:-0.26362848 52:1.5909983 53:-0.34909117 54:-0.28615856 55:-0.080307625 56:-0.29398528 57:-0.59206766 #
-0.024206635209704729927437938385992 1:-0.32373646 2:1.0142642 3:-0.50017285 4:-0.098842546 5:0.20389549 6:-0.34561899 7:-0.26157999 8:1.9233983 9:-0.30961666 10:-0.41393355 11:-0.22640149 12:-0.11833171 13:-0.21933696 14:-0.16083114 15:-0.15391792 16:-0.30765641 17:-0.37343216 18:3.3773828 19:0.77705699 20:-0.14419276 21:0.44647241 22:-0.062323686 23:-0.26375422 24:-0.25234732 25:-0.40743604 26:-0.4047187 27:-0.27057403 28:-0.30796358 29:-0.16733444 30:-0.27352092 31:-0.20108834 32:-0.16073692 33:-0.18338262 34:-0.16487801 35:-0.27398148 36:0.69993544 37:-0.39074841 38:-0.11907394 39:-0.21418162 40:-0.20511942 41:-0.13776088 42:-0.16252463 43:-0.2478133 44:-0.17397934 45:-0.31722111 46:-0.15619448 47:-0.066107452 48:-0.14383133 49:-0.22159693 50:-0.64531434 51:-0.26362848 52:-0.29402301 53:-0.34909117 54:-0.28615856 55:-0.091955304 56:-0.29398528 57:-0.46367222 #
0.0012009686118458892320481901094809 1:-0.32373646 2:-0.17667121 3:0.11188891 4:-0.098842546 5:0.40265203 6:2.5638378 7:0.43091992 8:1.1466029 9:-0.30961666 10:-0.41393355 11:-0.22640149 12:-0.28749591 13:0.74661791 14:-0.16083114 15:-0.15391792 16:0.12198539 17:0.41850561 18:-0.36310151 19:0.38629985 20:-0.14419276 21:1.6648614 22:-0.062323686 23:-0.26375422 24:1.4048942 25:-0.40743604 26:-0.4047187 27:-0.27057403 28:-0.30796358 29:-0.16733444 30:-0.27352092 31:-0.20108834 32:-0.16073692 33:-0.18338262 34:-0.16487801 35:-0.27398148 36:-0.30811864 37:-0.39074841 38:-0.11907394 39:-0.21418162 40:-0.20511942 41:-0.13776088 42:-0.16252463 43:-0.2478133 44:-0.17397934 45:-0.05419324 46:-0.15619448 47:-0.066107452 48:-0.14383133 49:-0.22159693 50:-0.16362663 51:-0.26362848 52:-0.52965069 53:0.57941324 54:0.83633029 55:-0.087778054 56:-0.2402797 57:-0.20986731 #
-0.018914570071554788477374842159406 1:1.0242836 2:0.19624797 3:1.2977586 4:-0.098842546 5:-0.44537586 6:2.4729173 7:-0.26157999 8:-0.31560028 9:-0.30961666 10:-0.41393355 11:-0.22640149 12:-0.29744676 13:-0.21933696 14:-0.16083114 15:-0.15391792 16:-0.30765641 17:-0.37343216 18:-0.36310151 19:0.69890559 20:-0.14419276 21:-0.36347941 22:-0.062323686 23:-0.26375422 24:-0.25234732 25:0.52381408 26:-0.4047187 27:-0.27057403 28:-0.30796358 29:-0.16733444 30:-0.27352092 31:-0.20108834 32:-0.16073692 33:-0.18338262 34:-0.16487801 35:-0.27398148 36:-0.30811864 37:-0.39074841 38:-0.11907394 39:-0.21418162 40:-0.20511942 41:0.59513599 42:-0.16252463 43:-0.2478133 44:-0.17397934 45:-0.062412862 46:-0.15619448 47:-0.066107452 48:-0.14383133 49:-0.22159693 50:-0.64531434 51:-0.26362848 52:-0.25038826 53:-0.34909117 54:-0.28615856 55:-0.069411404 56:0.073002823 57:-0.099387527 #
-0.024206635209704729927437938385992 1:-0.32373646 2:-0.17667121 3:-0.50017285 4:-0.098842546 5:-0.44537586 6:-0.34561899 7:-0.26157999 8:-0.31560028 9:-0.30961666 10:-0.41393355 11:-0.22640149 12:-0.60592264 13:-0.21933696 14:-0.16083114 15:-0.15391792 16:-0.30765641 17:-0.37343216 18:-0.36310151 19:1.6534696 20:-0.14419276 21:5.7146206 22:-0.062323686 23:-0.26375422 24:-0.25234732 25:-0.40743604 26:-0.4047187 27:-0.27057403 28:-0.30796358 29:-0.16733444 30:-0.27352092 31:-0.20108834 32:-0.16073692 33:-0.18338262 34:-0.16487801 35:-0.27398148 36:-0.30811864 37:-0.39074841 38:-0.11907394 39:-0.21418162 40:-0.20511942 41:-0.13776088 42:-0.16252463 43:-0.2478133 44:-0.17397934 45:-0.31722111 46:-0.15619448 47:-0.066107452 48:-0.14383133 49:-0.22159693 50:-0.64531434 51:-0.26362848 52:-0.52965069 53:-0.34909117 54:-0.28615856 55:-0.099646755 56:-0.32083806 57:-0.62192702 #
0.012884965306834448434125661719918 1:0.45898491 2:-0.17667121 3:-0.15588811 4:-0.098842546 5:1.6349425 6:1.2909505 7:-0.13173626 8:-0.041437197 9:-0.026958233 10:-0.13395621 11:0.04353546 12:-0.068577528 13:0.68624574 14:0.26750898 15:-0.15391792 16:-0.30765641 17:1.4084278 18:-0.24975349 19:1.619976 20:1.0370463 21:0.21802446 22:-0.062323686 23:3.454726 24:0.058385473 25:-0.40743604 26:-0.4047187 27:-0.27057403 28:-0.30796358 29:-0.16733444 30:-0.27352092 31:-0.20108834 32:-0.16073692 33:-0.18338262 34:-0.16487801 35:-0.27398148 36:-0.30811864 37:-0.39074841 38:-0.11907394 39:-0.21418162 40:-0.20511942 41:-0.13776088 42:-0.16252463 43:-0.054893032 44:-0.17397934 45:-0.26790336 46:-0.15619448 47:-0.066107452 48:-0.14383133 49:-0.136684 50:-0.4090147 51:-0.26362848 52:-0.50056088 53:0.6261304 54:-0.28615856 55:-0.083446085 56:-0.22237784 57:0.68292874 #
0.024206635209704729927437938385992 1:-0.32373646 2:-0.17667121 3:-0.50017285 4:-0.098842546 5:2.867233 6:-0.34561899 7:-0.26157999 8:-0.31560028 9:-0.30961666 10:-0.41393355 11:-0.22640149 12:0.011029158 13:-0.21933696 14:-0.16083114 15:-0.15391792 16:-0.30765641 17:2.7200749 18:-0.36310151 19:0.86079067 20:-0.14419276 21:-0.14887679 22:-0.062323686 23:-0.26375422 24:-0.25234732 25:-0.40743604 26:-0.4047187 27:-0.27057403 28:-0.30796358 29:-0.16733444 30:-0.27352092 31:-0.20108834 32:-0.16073692 33:-0.18338262 34:-0.16487801 35:-0.27398148 36:-0.30811864 37:-0.39074841 38:-0.11907394 39:-0.21418162 40:-0.20511942 41:-0.13776088 42:-0.16252463 43:-0.2478133 44:-0.17397934 45:-0.31722111 46:-0.15619448 47:-0.066107452 48:-0.14383133 49:-0.22159693 50:-0.64531434 51:-0.26362848 52:-0.29693201 53:-0.34909117 54:-0.28615856 55:-0.075091586 56:-0.16867226 57:-0.46665815 #
0.024206635209704729927437938385992 1:0.76337653 2:0.12407006 3:-0.50017285 4:-0.098842546 5:0.54840684 6:-0.34561899 7:-0.26157999 8:-0.31560028 9:0.86812675 10:1.3359249 11:-0.22640149 12:0.89665353 13:-0.21933696 14:8.8343115 15:-0.15391792 16:-0.30765641 17:0.86397064 18:-0.36310151 19:0.95568883 20:-0.14419276 21:0.12110716 22:-0.062323686 23:-0.26375422 24:-0.25234732 25:-0.40743604 26:-0.4047187 27:-0.27057403 28:-0.30796358 29:-0.16733444 30:-0.27352092 31:-0.20108834 32:-0.16073692 33:0.20196116 34:-0.16487801 35:-0.27398148 36:-0.30811864 37:-0.39074841 38:-0.11907394 39:-0.21418162 40:-0.20511942 41:-0.13776088 42:-0.16252463 43:-0.2478133 44:-0.17397934 45:-0.31722111 46:-0.15619448 47:-0.066107452 48:-0.14383133 49:-0.22159693 50:-0.272688 51:-0.26362848 52:-0.41038236 53:0.37502545 54:2.3400419 55:-0.05144259 56:-0.043359254 57:-0.0098093236 #
0.024206635209704729927437938385992 1:-0.32373646 2:-0.17667121 3:-0.50017285 4:-0.098842546 5:-0.44537586 6:-0.34561899 7:-0.26157999 8:-0.31560028 9:-0.30961666 10:-0.41393355 11:-0.22640149 12:-0.60592264 13:-0.21933696 14:-0.16083114 15:-0.15391792 16:-0.30765641 17:-0.37343216 18:-0.36310151 19:-0.16076016 20:-0.14419276 21:-0.13503145 22:-0.062323686 23:-0.26375422 24:-0.25234732 25:-0.40743604 26:-0.4047187 27:-0.27057403 28:-0.30796358 29:-0.16733444 30:-0.27352092 31:-0.20108834 32:-0.16073692 33:-0.18338262 34:-0.16487801 35:-0.27398148 36:-0.30811864 37:-0.39074841 38:-0.11907394 39:-0.21418162 40:-0.20511942 41:-0.13776088 42:-0.16252463 43:-0.2478133 44:-0.17397934 45:-0.31722111 46:-0.15619448 47:-0.066107452 48:-0.14383133 49:-0.22159693 50:-0.64531434 51:-0.26362848 52:-0.52965069 53:-0.34909117 54:-0.28615856 55:-0.097370259 56:-0.3029362 57:-0.54130667 #
-0.017184504789090549597974089124364 1:-0.32373646 2:0.11204042 3:-0.50017285 4:-0.098842546 5:-0.12736541 6:-0.34561899 7:-0.26157999 8:0.78105205 9:-0.30961666 10:0.72930723 11:-0.22640149 12:-0.60592264 13:-0.21933696 14:10.404892 15:-0.15391792 16:-0.30765641 17:-0.37343216 18:-0.36310151 19:-0.32822752 20:-0.14419276 21:-0.57808203 22:-0.062323686 23:-0.26375422 24:-0.25234732 25:-0.1647166 26:-0.4047187 27:-0.19481209 28:-0.30796358 29:-0.16733444 30:-0.27352092 31:0.34969041 32:-0.16073692 33:-0.18338262 34:-0.16487801 35:0.20633267 36:-0.30811864 37:1.4043055 38:-0.11907394 39:-0.21418162 40:-0.20511942 41:-0.13776088 42:-0.16252463 43:-0.2478133 44:-0.17397934 45:-0.31722111 46:-0.15619448 47:-0.066107452 48:-0.14383133 49:-0.22159693 50:-0.64531434 51:-0.26362848 52:-0.52965069 53:0.58525288 54:-0.28615856 55:0.084019728 56:1.7736794 57:2.6715648 #
-0.024206635209704729927437938385992 1:-0.062829345 2:-0.17667121 3:-0.13676119 4:-0.098842546 5:-0.10086454 6:-0.072857417 7:-0.26157999 8:0.5525828 9:-0.30961666 10:-0.27394488 11:-0.22640149 12:0.50857097 13:-0.038220409 14:1.1955793 15:-0.15391792 16:-0.30765641 17:0.91346675 18:-0.36310151 19:-0.88086981 20:2.7596867 21:-0.53654605 22:-0.062323686 23:1.462683 24:-0.25234732 25:1.1925309 26:-0.4047187 27:-0.27057403 28:-0.30796358 29:-0.16733444 30:-0.27352092 31:-0.20108834 32:-0.16073692 33:-0.090900108 34:-0.16487801 35:-0.27398148 36:0.082759462 37:-0.07540112 38:-0.11907394 39:-0.21418162 40:-0.20511942 41:-0.13776088 42:-0.16252463 43:-0.2478133 44:-0.042809062 45:-0.31722111 46:-0.15619448 47:-0.066107452 48:-0.14383133 49:0.3897762 50:-0.11364016 51:-0.26362848 52:-0.52965069 53:0.018806782 54:-0.28615856 55:-0.074870564 56:-0.10601576 57:1.6055843 #
-0.0040451419961706029659875838433436 1:-0.32373646 2:-0.17667121 3:-0.50017285 4:-0.098842546 5:-0.44537586 6:-0.34561899 7:-0.26157999 8:-0.31560028 9:-0.30961666 10:-0.41393355 11:-0.22640149 12:-0.60592264 13:-0.21933696 14:-0.16083114 15:-0.15391792 16:-0.30765641 17:1.4084278 18:-0.36310151 19:-0.88086981 20:-0.14419276 21:-0.57808203 22:-0.062323686 23:-0.26375422 24:-0.25234732 25:-0.050787069 26:-0.4047187 27:-0.27057403 28:-0.30796358 29:-0.16733444 30:-0.27352092 31:-0.20108834 32:-0.16073692 33:-0.18338262 34:-0.16487801 35:-0.27398148 36:-0.30811864 37:-0.39074841 38:11.624594 39:-0.21418162 40:-0.20511942 41:-0.13776088 42:-0.16252463 43:-0.2478133 44:-0.17397934 45:-0.31722111 46:-0.15619448 47:-0.066107452 48:-0.14383133 49:-0.22159693 50:-0.64531434 51:-0.26362848 52:-0.52965069 53:-0.34909117 54:8.0795603 55:-0.070184968 56:-0.25818154 57:-0.28152987 #
-0.022210332231358154153610939829377 1:-0.32373646 2:-0.17667121 3:-0.50017285 4:-0.098842546 5:-0.44537586 6:-0.34561899 7:-0.26157999 8:-0.31560028 9:-0.30961666 10:5.4189277 11:-0.22640149 12:4.3694954 13:-0.21933696 14:-0.16083114 15:-0.15391792 16:-0.30765641 17:-0.37343216 18:-0.36310151 19:-0.88086981 20:-0.14419276 21:-0.57808203 22:-0.062323686 23:-0.26375422 24:-0.25234732 25:-0.40743604 26:-0.4047187 27:-0.27057403 28:-0.30796358 29:-0.16733444 30:-0.27352092 31:-0.20108834 32:-0.16073692 33:-0.18338262 34:-0.16487801 35:-0.27398148 36:-0.30811864 37:-0.39074841 38:-0.11907394 39:-0.21418162 40:-0.20511942 41:-0.13776088 42:-0.16252463 43:-0.2478133 44:-0.17397934 45:-0.31722111 46:-0.15619448 47:-0.066107452 48:-0.14383133 49:-0.22159693 50:-0.64531434 51:-0.26362848 52:0.73866612 53:-0.34909117 54:-0.28615856 55:-0.084175445 56:-0.25818154 57:-0.58609575 #
0.024206635209704729927437938385992 1:-0.32373646 2:0.90599734 3:-0.50017285 4:-0.098842546 5:-0.44537586 6:-0.34561899 7:-0.26157999 8:-0.31560028 9:-0.30961666 10:-0.41393355 11:-0.22640149 12:-0.60592264 13:-0.21933696 14:-0.16083114 15:-0.15391792 16:0.90071112 17:-0.37343216 18:3.0562301 19:1.1454852 20:-0.14419276 21:1.3048829 22:-0.062323686 23:-0.26375422 24:-0.25234732 25:-0.40743604 26:-0.4047187 27:-0.27057403 28:-0.30796358 29:-0.16733444 30:-0.27352092 31:-0.20108834 32:-0.16073692 33:-0.18338262 34:-0.16487801 35:-0.27398148 36:-0.30811864 37:-0.39074841 38:-0.11907394 39:-0.21418162 40:-0.20511942 41:-0.13776088 42:-0.16252463 43:-0.2478133 44:-0.17397934 45:0.42254475 46:-0.15619448 47:-0.066107452 48:-0.14383133 49:-0.22159693 50:-0.64531434 51:-0.26362848 52:-0.049668405 53:0.61445111 54:-0.28615856 55:0.016741656 56:0.03719911 57:-0.35617837 #
-0.024206635209704729927437938385992 1:-0.32373646 2:-0.17667121 3:0.76220453 4:-0.098842546 5:-0.44537586 6:-0.34561899 7:-0.26157999 8:-0.31560028 9:-0.30961666 10:-0.41393355 11:-0.22640149 12:-0.60592264 13:-0.21933696 14:-0.16083114 15:-0.15391792 16:-0.30765641 17:-0.37343216 18:-0.36310151 19:0.60400742 20:-0.14419276 21:-0.57808203 22:-0.062323686 23:-0.26375422 24:-0.25234732 25:-0.40743604 26:-0.4047187 27:-0.27057403 28:-0.30796358 29:-0.16733444 30:-0.27352092 31:-0.20108834 32:-0.16073692 33:-0.18338262 34:-0.16487801 35:-0.27398148 36:-0.30811864 37:-0.39074841 38:-0.11907394 39:-0.21418162 40:-0.20511942 41:-0.13776088 42:-0.16252463 43:-0.2478133 44:-0.17397934 45:0.22527386 46:-0.15619448 47:-0.066107452 48:-0.14383133 49:-0.22159693 50:0.40440139 51:-0.26362848 52:0.14232451 53:-0.34909117 54:-0.28615856 55:-0.082827233 56:-0.1776232 57:-0.52637696 #
0.01134368376038641032521603335681 1:1.8939741 2:0.43684098 3:-0.50017285 4:-0.098842546 5:-0.44537586 6:-0.34561899 7:0.84209174 8:-0.31560028 9:-0.30961666 10:0.77597016 11:-0.22640149 12:-0.60592264 13:-0.21933696 14:-0.16083114 15:3.0369647 16:2.4715889 17:-0.37343216 18:3.5474048 19:-0.30589855 20:-0.14419276 21:0.13495249 22:-0.062323686 23:-0.26375422 24:-0.25234732 25:-0.40743604 26:-0.4047187 27:-0.27057403 28:-0.30796358 29:-0.16733444 30:-0.27352092 31:-0.20108834 32:-0.16073692 33:-0.18338262 34:-0.16487801 35:-0.27398148 36:-0.30811864 37:-0.39074841 38:-0.11907394 39:-0.21418162 40:-0.20511942 41:-0.13776088 42:-0.16252463 43:-0.2478133 44:-0.17397934 45:-0.31722111 46:-0.15619448 47:-0.066107452 48:-0.14383133 49:-0.22159693 50:-0.031844124 51:-0.26362848 52:-0.33474877 53:-0.34909117 54:-0.28615856 55:-0.062604032 56:-0.1776232 57:-0.36513618 #
0.023733929835197734720120266160848 1:0.024139695 2:0.02783286 3:0.15014276 4:-0.098842546 5:1.4891877 6:0.42720547 7:-0.088455014 8:-0.31560028 9:0.86812675 10:-0.22728199 11:-0.22640149 12:0.75734186 13:-0.21933696 14:0.41028905 15:-0.15391792 16:0.37708521 17:-0.17544772 18:-0.21197082 19:1.0338403 20:-0.14419276 21:-0.045036808 22:-0.062323686 23:0.090386741 24:0.62806225 25:-0.40743604 26:-0.4047187 27:-0.27057403 28:-0.30796358 29:-0.16733444 30:-0.27352092 31:-0.20108834 32:-0.16073692 33:-0.18338262 34:-0.16487801 35:-0.27398148 36:-0.30811864 37:-0.39074841 38:-0.11907394 39:-0.21418162 40:-0.20511942 41:-0.13776088 42:-0.16252463 43:-0.2478133 44:-0.17397934 45:-0.31722111 46:-0.15619448 47:-0.066107452 48:-0.14383133 49:-0.22159693 50:-0.29540911 51:0.93324131 52:0.48267558 53:0.2523928 54:-0.032010138 55:-0.0025753712 56:0.73537159 57:3.7106719 #
-0.024206635209704729927437938385992 1:-0.32373646 2:1.0142642 3:-0.50017285 4:-0.098842546 5:0.20389549 6:-0.34561899 7:-0.26157999 8:1.9233983 9:-0.30961666 10:-0.41393355 11:-0.22640149 12:-0.11833171 13:-0.21933696 14:-0.16083114 15:-0.15391792 16:-0.30765641 17:-0.37343216 18:3.3773828 19:0.77705699 20:-0.14419276 21:0.44647241 22:-0.062323686 23:-0.26375422 24:-0.25234732 25:-0.40743604 26:-0.4047187 27:-0.27057403 28:-0.30796358 29:-0.16733444 30:-0.27352092 31:-0.20108834 32:-0.16073692 33:-0.18338262 34:-0.16487801 35:-0.27398148 36:0.69993544 37:-0.39074841 38:-0.11907394 39:-0.21418162 40:-0.20511942 41:-0.13776088 42:-0.16252463 43:-0.2478133 44:-0.17397934 45:-0.31722111 46:-0.15619448 47:-0.066107452 48:-0.14383133 49:-0.22159693 50:-0.64531434 51:-0.26362848 52:-0.29402301 53:-0.34909117 54:-0.28615856 55:-0.091955304 56:-0.29398528 57:-0.46367222 #
-0.024206635209704729927437938385992 1:-0.32373646 2:-0.17667121 3:-0.50017285 4:-0.098842546 5:-0.44537586 6:5.7460566 7:-0.26157999 8:-0.31560028 9:-0.30961666 10:-0.41393355 11:-0.22640149 12:-0.60592264 13:-0.21933696 14:-0.16083114 15:-0.15391792 16:-0.30765641 17:-0.37343216 18:0.90261787 19:-0.13284895 20:-0.14419276 21:-0.57808203 22:-0.062323686 23:-0.26375422 24:-0.25234732 25:-0.40743604 26:-0.4047187 27:-0.059071977 28:-0.30796358 29:-0.16733444 30:-0.27352092 31:-0.20108834 32:-0.16073692 33:1.8820601 34:-0.16487801 35:-0.27398148 36:-0.30811864 37:-0.39074841 38:-0.11907394 39:-0.21418162 40:-0.20511942 41:-0.13776088 42:-0.16252463 43:-0.2478133 44:1.2907555 45:0.23349348 46:-0.15619448 47:-0.066107452 48:-0.14383133 49:-0.22159693 50:-0.1409055 51:-0.26362848 52:-0.52965069 53:-0.34909117 54:-0.28615856 55:-0.093347721 56:-0.28503433 57:-0.55623633 #
0.024206635209704729927437938385992 1:0.41550037 2:-0.17667121 3:-0.34715742 4:-0.098842546 5:0.12439287 6:0.018063109 7:-0.088455014 8:1.6492351 9:0.067261241 10:-0.22728199 11:-0.22640149 12:-0.0088725127 13:0.29382658 14:1.0527992 15:-0.15391792 16:-0.30765641 17:0.047284782 18:-0.21197082 19:-0.21100038 20:-0.14419276 21:1.5956348 22:-0.062323686 23:1.2413449 24:0.16196308 25:-0.40743604 26:-0.4047187 27:-0.27057403 28:-0.30796358 29:-0.16733444 30:-0.27352092 31:-0.20108834 32:-0.16073692 33:-0.18338262 34:-0.16487801 35:-0.27398148 36:-0.30811864 37:-0.39074841 38:-0.11907394 39:-0.21418162 40:-0.20511942 41:-0.13776088 42:-0.16252463 43:-0.2478133 44:-0.17397934 45:-0.31722111 46:-0.15619448 47:-0.066107452 48:-0.14383133 49:-0.22159693 50:-0.27723223 51:0.24130096 52:-0.27366012 53:-0.27317575 54:-0.28615856 55:-0.029804867 56:0.099855617 57:2.7671149 #
0.024206635209704729927437938385992 1:-0.019344825 2:-0.1526119 3:-0.21326891 4:-0.098842546 5:-0.11411497 6:0.56358629 7:-0.26157999 8:-0.22421259 9:0.3970294 10:-0.41393355 11:-0.22640149 12:-0.35715175 13:0.53531528 14:0.33889902 15:-0.15391792 16:-0.24052487 17:0.17102507 18:-0.36310151 19:-0.85295856 20:-0.14419276 21:-0.5642367 22:-0.062323686 23:1.3741478 24:-0.14876972 25:-0.40743604 26:-0.4047187 27:-0.27057403 28:-0.30796358 29:-0.1464598 30:-0.27352092 31:-0.20108834 32:-0.16073692 33:-0.18338262 34:-0.16487801 35:-0.27398148 36:-0.20525599 37:0.33697614 38:0.20713905 39:-0.21418162 40:-0.15897194 41:-0.13776088 42:-0.16252463 43:-0.18350655 44:-0.17397934 45:-0.30078185 46:-0.15619448 47:-0.066107452 48:-0.14383133 49:-0.12819271 50:-0.54534143 51:-0.26362848 52:-0.52965069 53:-0.22061887 54:-0.28615856 55:-0.090297662 56:-0.15077041 57:2.2445755 #
-0.024206635209704729927437938385992 1:0.58943844 2:-0.17667121 3:-0.09850733 4:7.2782841 5:0.38940158 6:-0.34561899 7:-0.26157999 8:-0.31560028 9:-0.30961666 10:-0.41393355 11:1.6631571 12:-0.60592264 13:0.41457093 14:-0.16083114 15:-0.15391792 16:0.8201533 17:-0.37343216 18:0.43033454 19:0.17975679 20:-0.14419276 21:-0.57808203 22:-0.062323686 23:0.66586578 24:-0.25234732 25:-0.40743604 26:-0.4047187 27:-0.27057403 28:-0.30796358 29:-0.16733444 30:-0.27352092 31:-0.20108834 32:-0.16073692 33:-0.18338262 34:-0.16487801 35:-0.27398148 36:-0.30811864 37:0.11865877 38:-0.11907394 39:-0.21418162 40:-0.20511942 41:-0.13776088 42:-0.16252463 43:-0.2478133 44:-0.17397934 45:-0.31722111 46:-0.15619448 47:-0.066107452 48:-0.14383133 49:-0.22159693 50:-0.50444341 51:-0.26362848 52:0.55830914 53:0.012967132 54:-0.28615856 55:-0.057830028 56:0.30572698 57:0.57244897 #
0.024206635209704729927437938385992 1:-0.32373646 2:1.4112427 3:0.57093525 4:-0.098842546 5:-0.44537586 6:3.9276457 7:-0.26157999 8:0.50688899 9:1.4334437 10:1.3359249 11:-0.22640149 12:1.4539003 13:-0.21933696 14:-0.16083114 15:-0.15391792 16:-0.30765641 17:0.54224592 18:-0.36310151 19:0.48678026 20:-0.14419276 21:0.072648503 22:-0.062323686 23:-0.26375422 24:0.67985106 25:-0.40743604 26:-0.4047187 27:-0.21375258 28:-0.30796358 29:-0.16733444 30:-0.27352092 31:-0.20108834 32:-0.16073692 33:-0.18338262 34:-0.16487801 35:-0.27398148 36:-0.30811864 37:-0.39074841 38:-0.11907394 39:-0.21418162 40:-0.20511942 41:-0.13776088 42:-0.16252463 43:-0.2478133 44:-0.17397934 45:-0.31722111 46:-0.15619448 47:-0.066107452 48:-0.14383133 49:-0.22159693 50:-0.28177646 51:-0.26362848 52:0.17141435 53:0.27575138 54:-0.28615856 55:-0.063775428 56:-0.016506467 57:0.091712639 #
0.024206635209704729927437938385992 1:-0.32373646 2:1.3992131 3:0.57093525 4:-0.098842546 5:-0.44537586 6:3.8821855 7:-0.26157999 8:0.50688899 9:1.4334437 10:1.3359249 11:-0.22640149 12:1.4439495 13:-0.21933696 14:-0.16083114 15:-0.15391792 16:-0.30765641 17:0.54224592 18:-0.36310151 19:0.48119801 20:-0.14419276 21:0.065725833 22:-0.062323686 23:-0.26375422 24:0.67985106 25:-0.40743604 26:-0.4047187 27:-0.21375258 28:-0.30796358 29:-0.16733444 30:-0.27352092 31:-0.20108834 32:-0.16073692 33:-0.18338262 34:-0.16487801 35:-0.27398148 36:-0.30811864 37:-0.39074841 38:-0.11907394 39:-0.21418162 40:-0.20511942 41:-0.13776088 42:-0.16252463 43:-0.2478133 44:-0.17397934 45:-0.31722111 46:-0.15619448 47:-0.066107452 48:-0.14383133 49:-0.22159693 50:-0.28177646 51:-0.26362848 52:0.24995689 53:0.27575138 54:-0.28615856 55:-0.062117789 56:0.04615004 57:0.11261421 #
-0.024206635209704729927437938385992 1:-0.32373646 2:-0.17667121 3:1.2786317 4:-0.098842546 5:-0.034612354 6:-0.34561899 7:-0.26157999 8:-0.31560028 9:1.1507852 10:-0.41393355 11:1.1682727 12:0.31950507 13:-0.21933696 14:-0.16083114 15:-0.15391792 16:-0.30765641 17:1.1609473 18:-0.36310151 19:1.2124722 20:-0.14419276 21:1.7963921 22:-0.062323686 23:-0.26375422 24:-0.25234732 25:-0.40743604 26:-0.4047187 27:-0.27057403 28:-0.30796358 29:-0.16733444 30:-0.27352092 31:-0.20108834 32:-0.16073692 33:-0.18338262 34:-0.16487801 35:-0.27398148 36:-0.30811864 37:0.36123362 38:-0.11907394 39:-0.21418162 40:-0.20511942 41:-0.13776088 42:-0.16252463 43:-0.2478133 44:-0.17397934 45:-0.31722111 46:-0.15619448 47:-0.066107452 48:-0.14383133 49:0.23693292 50:-0.15453817 51:-0.26362848 52:-0.37256557 53:-0.34909117 54:0.85750937 55:-0.061300021 56:-0.20447598 57:-0.20389542 #
-0.024206635209704729927437938385992 1:0.024139695 2:-0.080433995 3:-0.021999607 4:-0.098842546 5:-0.44537586 6:0.79088759 7:-0.26157999 8:-0.31560028 9:3.2707233 10:-0.41393355 11:-0.22640149 12:-0.35715175 13:-0.21933696 14:-0.16083114 15:-0.15391792 16:-0.30765641 17:-0.37343216 18:-0.36310151 19:-0.69665569 20:-0.14419276 21:-0.46731937 22:-0.062323686 23:-0.26375422 24:-0.25234732 25:-0.15976314 26:0.20463702 27:-0.24532005 28:-0.30796358 29:-0.16733444 30:-0.27352092 31:-0.20108834 32:-0.16073692 33:0.46399492 34:-0.16487801 35:-0.27398148 36:0.20619465 37:-0.19668855 38:-0.11907394 39:-0.21418162 40:-0.20511942 41:-0.13776088 42:-0.073323682 43:-0.2478133 44:-0.17397934 45:-0.31722111 46:-0.15619448 47:-0.066107452 48:-0.14383133 49:1.0351145 50:-0.027299901 51:0.57792056 52:-0.52965069 53:-0.22061887 54:-0.28615856 55:-0.033451673 56:0.16251212 57:1.7727969 #
-0.024206635209704729927437938385992 1:-0.32373646 2:-0.17667121 3:2.6175168 4:-0.098842546 5:-0.44537586 6:-0.34561899 7:-0.26157999 8:-0.31560028 9:-0.30961666 10:-0.41393355 11:-0.22640149 12:1.0160636 13:-0.21933696 14:-0.16083114 15:-0.15391792 16:1.8808315 17:-0.37343216 18:-0.36310151 19:0.029036164 20:-0.14419276 21:0.5503124 22:-0.062323686 23:-0.26375422 24:-0.25234732 25:-0.40743604 26:-0.4047187 27:-0.27057403 28:-0.30796358 29:-0.16733444 30:-0.27352092 31:-0.20108834 32:-0.16073692 33:-0.18338262 34:-0.16487801 35:-0.27398148 36:-0.30811864 37:-0.39074841 38:-0.11907394 39:-0.21418162 40:-0.20511942 41:-0.13776088 42:-0.16252463 43:-0.2478133 44:-0.17397934 45:-0.31722111 46:-0.15619448 47:-0.066107452 48:-0.14383133 49:-0.22159693 50:-0.64531434 51:-0.26362848 52:-0.52965069 53:-0.34909117 54:-0.28615856 55:-0.095646314 56:-0.3029362 57:-0.59803951 #
0.010829576112795995246340652329309 1:-0.32373646 2:-0.17667121 3:-0.17501505 4:18.168327 5:-0.22011846 6:-0.34561899 7:0.10631058 8:-0.31560028 9:2.9409552 10:-0.01729898 11:0.53841984 12:-0.60592264 13:-0.21933696 14:-0.16083114 15:-0.15391792 16:2.0285208 17:-0.37343216 18:0.94040054 19:-0.3003163 20:-0.14419276 21:-0.46039671 22:-0.062323686 23:-0.26375422 24:-0.25234732 25:-0.32322726 26:-0.4047187 27:-0.27057403 28:-0.30796358 29:-0.16733444 30:-0.27352092 31:-0.20108834 32:-0.16073692 33:-0.18338262 34:0.23597549 35:-0.27398148 36:-0.30811864 37:0.43400607 38:-0.11907394 39:-0.21418162 40:0.18713418 41:-0.13776088 42:-0.16252463 43:-0.2478133 44:-0.17397934 45:-0.31722111 46:-0.15619448 47:-0.066107452 48:-0.14383133 49:-0.22159693 50:-0.31813022 51:-0.26362848 52:1.6637229 53:3.6277106 54:-0.28615856 55:-0.016985785 56:0.13565934 57:2.2505474 #
0.024206635209704729927437938385992 1:-0.32373646 2:-0.17667121 3:0.24577741 4:-0.098842546 5:0.58815813 6:-0.34561899 7:-0.26157999 8:-0.041437197 9:-0.026958233 10:0.02936391 11:0.35846189 12:-0.34720093 13:0.17308222 14:-0.16083114 15:-0.15391792 16:-0.30765641 17:-0.37343216 18:-0.36310151 19:-0.70223796 20:-0.14419276 21:-0.53654605 22:-0.062323686 23:-0.26375422 24:-0.25234732 25:-0.40743604 26:-0.4047187 27:-0.27057403 28:-0.30796358 29:-0.16733444 30:-0.14627562 31:-0.20108834 32:-0.16073692 33:-0.18338262 34:-0.16487801 35:-0.27398148 36:-0.30811864 37:-0.39074841 38:-0.11907394 39:-0.21418162 40:-0.20511942 41:-0.13776088 42:-0.16252463 43:-0.054893032 44:-0.17397934 45:-0.31722111 46:-0.15619448 47:-0.066107452 48:-0.14383133 49:-0.22159693 50:-0.49989921 51:-0.26362848 52:-0.52965069 53:-0.16222237 54:-0.28615856 55:-0.095093764 56:-0.19552505 57:0.079768874 #
0.024206635209704729927437938385992 1:-0.32373646 2:-0.17667121 3:-0.50017285 4:-0.098842546 5:-0.44537586 6:-0.34561899 7:-0.26157999 8:-0.31560028 9:-0.30961666 10:-0.41393355 11:-0.22640149 12:-0.60592264 13:-0.21933696 14:-0.16083114 15:-0.15391792 16:-0.30765641 17:-0.37343216 18:-0.36310151 19:-0.16076016 20:-0.14419276 21:-0.13503145 22:-0.062323686 23:-0.26375422 24:-0.25234732 25:-0.40743604 26:-0.4047187 27:-0.27057403 28:-0.30796358 29:-0.16733444 30:-0.27352092 31:-0.20108834 32:-0.16073692 33:-0.18338262 34:-0.16487801 35:-0.27398148 36:-0.30811864 37:-0.39074841 38:-0.11907394 39:-0.21418162 40:-0.20511942 41:-0.13776088 42:-0.16252463 43:-0.2478133 44:-0.17397934 45:-0.31722111 46:-0.15619448 47:-0.066107452 48:-0.14383133 49:-0.22159693 50:-0.64531434 51:-0.26362848 52:-0.52965069 53:-0.34909117 54:-0.28615856 55:-0.097370259 56:-0.3029362 57:-0.54130667 #
0.024206635209704729927437938385992 1:-0.32373646 2:-0.17667121 3:0.24577741 4:-0.098842546 5:0.58815813 6:-0.34561899 7:-0.26157999 8:-0.041437197 9:-0.026958233 10:0.02936391 11:0.35846189 12:-0.34720093 13:0.17308222 14:-0.16083114 15:-0.15391792 16:-0.30765641 17:-0.37343216 18:-0.36310151 19:-0.70223796 20:-0.14419276 21:-0.53654605 22:-0.062323686 23:-0.26375422 24:-0.25234732 25:-0.40743604 26:-0.4047187 27:-0.27057403 28:-0.30796358 29:-0.16733444 30:-0.14627562 31:-0.20108834 32:-0.16073692 33:-0.18338262 34:-0.16487801 35:-0.27398148 36:-0.30811864 37:-0.39074841 38:-0.11907394 39:-0.21418162 40:-0.20511942 41:-0.13776088 42:-0.16252463 43:-0.054893032 44:-0.17397934 45:-0.31722111 46:-0.15619448 47:-0.066107452 48:-0.14383133 49:-0.22159693 50:-0.49989921 51:-0.26362848 52:-0.52965069 53:-0.16222237 54:-0.28615856 55:-0.095093764 56:-0.19552505 57:0.079768874 #
-0.024206635209704729927437938385992 1:-0.32373646 2:-0.17667121 3:1.2786317 4:-0.098842546 5:-0.034612354 6:-0.34561899 7:-0.26157999 8:-0.31560028 9:1.1507852 10:-0.41393355 11:1.1682727 12:0.31950507 13:-0.21933696 14:-0.16083114 15:-0.15391792 16:-0.30765641 17:1.1609473 18:-0.36310151 19:1.2124722 20:-0.14419276 21:1.7963921 22:-0.062323686 23:-0.26375422 24:-0.25234732 25:-0.40743604 26:-0.4047187 27:-0.27057403 28:-0.30796358 29:-0.16733444 30:-0.27352092 31:-0.20108834 32:-0.16073692 33:-0.18338262 34:-0.16487801 35:-0.27398148 36:-0.30811864 37:0.36123362 38:-0.11907394 39:-0.21418162 40:-0.20511942 41:-0.13776088 42:-0.16252463 43:-0.2478133 44:-0.17397934 45:-0.31722111 46:-0.15619448 47:-0.066107452 48:-0.14383133 49:0.23693292 50:-0.15453817 51:-0.26362848 52:-0.37256557 53:-0.34909117 54:0.85750937 55:-0.061300021 56:-0.20447598 57:-0.20389542 #
-0.016699379906462072375994409867417 1:-0.32373646 2:-0.17667121 3:-0.50017285 4:-0.098842546 5:-0.44537586 6:5.7460566 7:-0.26157999 8:-0.31560028 9:-0.30961666 10:-0.41393355 11:-0.22640149 12:-0.60592264 13:-0.21933696 14:-0.16083114 15:-0.15391792 16:-0.30765641 17:-0.37343216 18:0.90261787 19:-0.13284895 20:-0.14419276 21:-0.57808203 22:-0.062323686 23:-0.26375422 24:-0.25234732 25:-0.40743604 26:-0.4047187 27:-0.059071977 28:-0.30796358 29:-0.16733444 30:-0.27352092 31:-0.20108834 32:-0.16073692 33:1.8820601 34:-0.16487801 35:-0.27398148 36:-0.30811864 37:-0.39074841 38:-0.11907394 39:-0.21418162 40:-0.20511942 41:-0.13776088 42:-0.16252463 43:-0.2478133 44:1.2907555 45:0.23349348 46:-0.15619448 47:-0.066107452 48:-0.14383133 49:-0.22159693 50:-0.1409055 51:-0.26362848 52:-0.52965069 53:-0.34909117 54:-0.28615856 55:-0.093347721 56:-0.28503433 57:-0.55623633 #
-0.024206635209704729927437938385992 1:-0.32373646 2:-0.17667121 3:-0.50017285 4:-0.098842546 5:-0.44537586 6:-0.34561899 7:-0.26157999 8:-0.31560028 9:-0.30961666 10:3.9023838 11:-0.22640149 12:-0.60592264 13:-0.21933696 14:-0.16083114 15:-0.15391792 16:-0.30765641 17:-0.37343216 18:-0.36310151 19:1.1845609 20:-0.14419276 21:-0.57808203 22:-0.062323686 23:-0.26375422 24:-0.25234732 25:-0.40743604 26:-0.4047187 27:0.31342417 28:-0.30796358 29:-0.16733444 30:-0.27352092 31:-0.20108834 32:-0.16073692 33:-0.18338262 34:-0.16487801 35:-0.27398148 36:-0.30811864 37:-0.39074841 38:-0.11907394 39:-0.21418162 40:-0.20511942 41:-0.13776088 42:-0.16252463 43:-0.2478133 44:-0.17397934 45:-0.31722111 46:-0.15619448 47:-0.066107452 48:-0.14383133 49:-0.22159693 50:-0.64531434 51:-0.26362848 52:0.48558456 53:-0.34909117 54:-0.28615856 55:-0.089258879 56:-0.29398528 57:-0.56220824 #
0.024206635209704729927437938385992 1:-0.32373646 2:-0.17667121 3:-0.50017285 4:-0.098842546 5:-0.44537586 6:-0.34561899 7:-0.26157999 8:-0.31560028 9:-0.30961666 10:-0.41393355 11:-0.22640149 12:-0.60592264 13:-0.21933696 14:-0.16083114 15:-0.15391792 16:-0.30765641 17:-0.37343216 18:-0.36310151 19:-0.16076016 20:-0.14419276 21:-0.13503145 22:-0.062323686 23:-0.26375422 24:-0.25234732 25:-0.40743604 26:-0.4047187 27:-0.27057403 28:-0.30796358 29:-0.16733444 30:-0.27352092 31:-0.20108834 32:-0.16073692 33:-0.18338262 34:-0.16487801 35:-0.27398148 36:-0.30811864 37:-0.39074841 38:-0.11907394 39:-0.21418162 40:-0.20511942 41:-0.13776088 42:-0.16252463 43:-0.2478133 44:-0.17397934 45:-0.31722111 46:-0.15619448 47:-0.066107452 48:-0.14383133 49:-0.22159693 50:-0.64531434 51:-0.26362848 52:-0.52965069 53:-0.34909117 54:-0.28615856 55:-0.097370259 56:-0.3029362 57:-0.54130667 #
0.024206635209704729927437938385992 1:-0.32373646 2:-0.17667121 3:-0.50017285 4:-0.098842546 5:-0.44537586 6:-0.34561899 7:-0.26157999 8:-0.31560028 9:-0.30961666 10:-0.41393355 11:-0.22640149 12:1.1951786 13:-0.21933696 14:-0.16083114 15:-0.15391792 16:-0.30765641 17:-0.37343216 18:-0.36310151 19:-0.88086981 20:-0.14419276 21:0.67492038 22:-0.062323686 23:-0.26375422 24:-0.25234732 25:-0.40743604 26:-0.4047187 27:-0.27057403 28:-0.30796358 29:-0.16733444 30:-0.27352092 31:-0.20108834 32:-0.16073692 33:-0.18338262 34:-0.16487801 35:-0.27398148 36:-0.30811864 37:-0.39074841 38:-0.11907394 39:-0.21418162 40:-0.20511942 41:-0.13776088 42:-0.16252463 43:-0.2478133 44:-0.17397934 45:-0.31722111 46:-0.15619448 47:-0.066107452 48:-0.14383133 49:-0.22159693 50:-0.64531434 51:-0.26362848 52:0.36922523 53:-0.34909117 54:-0.28615856 55:-0.092286833 56:-0.23132877 57:-0.4696441 #
-0.024206635209704729927437938385992 1:-0.32373646 2:-0.17667121 3:-0.50017285 4:-0.098842546 5:-0.44537586 6:-0.34561899 7:-0.26157999 8:-0.31560028 9:-0.30961666 10:-0.41393355 11:-0.22640149 12:-0.60592264 13:-0.21933696 14:-0.16083114 15:-0.15391792 16:-0.30765641 17:-0.37343216 18:-0.36310151 19:-0.88086981 20:-0.14419276 21:-0.57808203 22:-0.062323686 23:-0.26375422 24:-0.25234732 25:-0.40743604 26:-0.4047187 27:-0.27057403 28:-0.30796358 29:-0.16733444 30:-0.27352092 31:-0.20108834 32:-0.16073692 33:-0.18338262 34:-0.16487801 35:-0.27398148 36:-0.30811864 37:-0.39074841 38:-0.11907394 39:-0.21418162 40:-0.20511942 41:-0.13776088 42:-0.16252463 43:-0.2478133 44:-0.17397934 45:-0.31722111 46:-0.15619448 47:-0.066107452 48:-0.14383133 49:-0.22159693 50:-0.64531434 51:-0.26362848 52:-0.52965069 53:-0.34909117 54:-0.28615856 55:-0.095977843 56:-0.3029362 57:-0.59505355 #
0.024206635209704729927437938385992 1:-0.32373646 2:-0.17667121 3:0.24577741 4:-0.098842546 5:0.58815813 6:-0.34561899 7:-0.26157999 8:-0.041437197 9:-0.026958233 10:0.02936391 11:0.35846189 12:-0.34720093 13:0.17308222 14:-0.16083114 15:-0.15391792 16:-0.30765641 17:-0.37343216 18:-0.36310151 19:-0.70223796 20:-0.14419276 21:-0.53654605 22:-0.062323686 23:-0.26375422 24:-0.25234732 25:-0.40743604 26:-0.4047187 27:-0.27057403 28:-0.30796358 29:-0.16733444 30:-0.14627562 31:-0.20108834 32:-0.16073692 33:-0.18338262 34:-0.16487801 35:-0.27398148 36:-0.30811864 37:-0.39074841 38:-0.11907394 39:-0.21418162 40:-0.20511942 41:-0.13776088 42:-0.16252463 43:-0.054893032 44:-0.17397934 45:-0.31722111 46:-0.15619448 47:-0.066107452 48:-0.14383133 49:-0.22159693 50:-0.49989921 51:-0.26362848 52:-0.52965069 53:-0.16222237 54:-0.28615856 55:-0.095093764 56:-0.19552505 57:0.079768874 #
-0.024206635209704729927437938385992 1:-0.32373646 2:-0.17667121 3:-0.50017285 4:-0.098842546 5:-0.44537586 6:-0.34561899 7:-0.26157999 8:-0.31560028 9:-0.30961666 10:-0.41393355 11:-0.22640149 12:2.2300656 13:-0.21933696 14:-0.16083114 15:-0.15391792 16:-0.30765641 17:-0.37343216 18:-0.36310151 19:-0.88086981 20:-0.14419276 21:-0.57808203 22:-0.062323686 23:-0.26375422 24:-0.25234732 25:-0.40743604 26:-0.4047187 27:-0.27057403 28:-0.30796358 29:-0.16733444 30:-0.27352092 31:-0.20108834 32:-0.16073692 33:-0.18338262 34:-0.16487801 35:-0.27398148 36:-0.30811864 37:-0.39074841 38:-0.11907394 39:-0.21418162 40:-0.20511942 41:-0.13776088 42:-0.16252463 43:-0.2478133 44:-0.17397934 45:-0.31722111 46:-0.15619448 47:-0.066107452 48:-0.14383133 49:-0.22159693 50:-0.64531434 51:-0.26362848 52:0.86666143 53:-0.34909117 54:-0.28615856 55:-0.07754489 56:-0.26713249 57:-0.55922228 #
-0.022390798795314952734925029176338 1:-0.32373646 2:0.087981112 3:-0.50017285 4:-0.098842546 5:0.42915291 6:0.6545068 7:-0.26157999 8:1.694929 9:1.7632117 10:1.6625651 11:-0.22640149 12:-0.60592264 13:0.44475701 14:1.4097494 15:-0.15391792 16:1.4780422 17:-0.37343216 18:-0.36310151 19:-0.38404998 20:-0.14419276 21:-0.27348477 22:-0.062323686 23:-0.26375422 24:0.88700628 25:1.2470189 26:3.2720716 27:-0.062228724 28:0.067761727 29:0.062286589 30:0.19304512 31:0.30379218 32:0.35839441 33:-0.18338262 34:0.35387358 35:0.16630648 36:0.14447707 37:2.3018324 38:-0.11907394 39:-0.21418162 40:0.30250287 41:-0.13776088 42:-0.16252463 43:0.45956102 44:-0.17397934 45:-0.13638945 46:-0.15619448 47:-0.066107452 48:-0.14383133 49:1.0351145 50:1.0451369 51:1.8121926 52:0.55249119 53:0.95315081 54:-0.28615856 55:-0.046049736 56:0.04615004 57:0.59036463 #
-0.024206635209704729927437938385992 1:-0.32373646 2:-0.17667121 3:-0.50017285 4:-0.098842546 5:-0.44537586 6:-0.34561899 7:-0.26157999 8:-0.31560028 9:-0.30961666 10:-0.41393355 11:-0.22640149 12:-0.60592264 13:-0.21933696 14:-0.16083114 15:-0.15391792 16:-0.30765641 17:-0.37343216 18:-0.36310151 19:-0.88086981 20:-0.14419276 21:-0.57808203 22:-0.062323686 23:-0.26375422 24:-0.25234732 25:-0.40743604 26:-0.4047187 27:-0.27057403 28:-0.30796358 29:-0.16733444 30:-0.27352092 31:-0.20108834 32:-0.16073692 33:-0.18338262 34:-0.16487801 35:-0.27398148 36:-0.30811864 37:-0.39074841 38:-0.11907394 39:-0.21418162 40:-0.20511942 41:-0.13776088 42:-0.16252463 43:-0.2478133 44:-0.17397934 45:-0.31722111 46:-0.15619448 47:-0.066107452 48:-0.14383133 49:-0.22159693 50:-0.64531434 51:-0.26362848 52:-0.52965069 53:-0.34909117 54:-0.28615856 55:-0.07754489 56:-0.3029362 57:-0.62491298 #
-0.024206635209704729927437938385992 1:-0.32373646 2:-0.17667121 3:5.065764 4:-0.098842546 5:-0.44537586 6:-0.34561899 7:-0.26157999 8:-0.31560028 9:-0.30961666 10:-0.41393355 11:-0.22640149 12:-0.60592264 13:-0.21933696 14:-0.16083114 15:-0.15391792 16:-0.30765641 17:-0.37343216 18:-0.36310151 19:0.20208576 20:-0.14419276 21:-0.57808203 22:-0.062323686 23:-0.26375422 24:-0.25234732 25:-0.40743604 26:-0.4047187 27:-0.27057403 28:-0.30796358 29:-0.16733444 30:-0.27352092 31:-0.20108834 32:-0.16073692 33:-0.18338262 34:-0.16487801 35:-0.27398148 36:-0.30811864 37:-0.39074841 38:-0.11907394 39:-0.21418162 40:-0.20511942 41:-0.13776088 42:-0.16252463 43:-0.2478133 44:-0.17397934 45:-0.31722111 46:-0.15619448 47:-0.066107452 48:-0.14383133 49:-0.22159693 50:1.1223887 51:-0.26362848 52:0.60194391 53:-0.34909117 54:-0.28615856 55:-0.093900271 56:-0.3029362 57:-0.55026448 #
0.024206635209704729927437938385992 1:-0.32373646 2:-0.17667121 3:-0.50017285 4:-0.098842546 5:-0.44537586 6:-0.34561899 7:-0.26157999 8:-0.31560028 9:3.9773693 10:-0.41393355 11:-0.22640149 12:-0.60592264 13:-0.21933696 14:-0.16083114 15:-0.15391792 16:-0.30765641 17:-0.37343216 18:-0.36310151 19:-0.3728855 20:-0.14419276 21:1.3256509 22:-0.062323686 23:-0.26375422 24:-0.25234732 25:-0.40743604 26:-0.4047187 27:-0.27057403 28:-0.30796358 29:-0.16733444 30:-0.27352092 31:-0.20108834 32:-0.16073692 33:-0.18338262 34:-0.16487801 35:-0.27398148 36:-0.30811864 37:-0.39074841 38:-0.11907394 39:-0.21418162 40:-0.20511942 41:-0.13776088 42:-0.16252463 43:-0.2478133 44:-0.17397934 45:-0.31722111 46:-0.15619448 47:-0.066107452 48:-0.14383133 49:-0.22159693 50:-0.040932573 51:-0.26362848 52:1.0179286 53:-0.34909117 54:-0.28615856 55:-0.057653211 56:-0.07916297 57:-0.37707996 #
-0.024206635209704729927437938385992 1:-0.32373646 2:-0.17667121 3:-0.50017285 4:-0.098842546 5:-0.44537586 6:1.8819339 7:-0.26157999 8:-0.31560028 9:-0.30961666 10:-0.41393355 11:-0.22640149 12:-0.60592264 13:-0.21933696 14:-0.16083114 15:-0.15391792 16:-0.30765641 17:-0.37343216 18:-0.36310151 19:-0.060279757 20:-0.14419276 21:-0.57808203 22:-0.062323686 23:-0.26375422 24:-0.25234732 25:-0.40743604 26:-0.4047187 27:-0.27057403 28:-0.30796358 29:-0.16733444 30:-0.27352092 31:-0.20108834 32:-0.16073692 33:-0.18338262 34:-0.16487801 35:-0.27398148 36:-0.30811864 37:-0.39074841 38:-0.11907394 39:0.83192736 40:-0.20511942 41:-0.13776088 42:-0.16252463 43:1.3277023 44:-0.17397934 45:0.08554031 46:-0.15619448 47:-0.066107452 48:-0.14383133 49:-0.22159693 50:0.24080932 51:-0.26362848 52:-0.24747929 53:-0.34909117 54:-0.28615856 55:-0.070914328 56:-0.16867226 57:-0.43082687 #
0.024206635209704729927437938385992 1:0.50246942 2:0.051892161 3:0.24577741 4:-0.098842546 5:-0.19361758 6:-0.34561899 7:-0.26157999 8:2.3803368 9:-0.30961666 10:-0.41393355 11:-0.22640149 12:-0.21784006 13:-0.21933696 14:-0.16083114 15:-0.15391792 16:0.48449567 17:0.59174204 18:2.2250113 19:1.642305 20:-0.14419276 21:1.5956348 22:-0.062323686 23:-0.26375422 24:0.73163986 25:-0.40743604 26:-0.4047187 27:-0.27057403 28:-0.30796358 29:-0.16733444 30:-0.27352092 31:-0.20108834 32:-0.16073692 33:-0.18338262 34:-0.16487801 35:-0.27398148 36:-0.30811864 37:0.070143789 38:-0.11907394 39:-0.21418162 40:-0.20511942 41:-0.13776088 42:-0.16252463 43:-0.2478133 44:-0.17397934 45:-0.31722111 46:-0.15619448 47:-0.066107452 48:-0.14383133 49:-0.22159693 50:-0.64531434 51:-0.26362848 52:0.22086707 53:-0.16222237 54:-0.28615856 55:-0.052967619 56:0.055100966 57:0.27385497 #
-0.024206635209704729927437938385992 1:-0.32373646 2:-0.17667121 3:-0.50017285 4:-0.098842546 5:-0.44537586 6:-0.34561899 7:-0.26157999 8:-0.31560028 9:-0.30961666 10:-0.41393355 11:-0.22640149 12:-0.60592264 13:-0.21933696 14:-0.16083114 15:-0.15391792 16:-0.30765641 17:-0.37343216 18:-0.36310151 19:-0.88086981 20:-0.14419276 21:-0.57808203 22:-0.062323686 23:-0.26375422 24:-0.25234732 25:-0.40743604 26:-0.4047187 27:-0.27057403 28:-0.30796358 29:-0.16733444 30:-0.27352092 31:-0.20108834 32:-0.16073692 33:-0.18338262 34:-0.16487801 35:-0.27398148 36:-0.30811864 37:-0.39074841 38:-0.11907394 39:-0.21418162 40:-0.20511942 41:-0.13776088 42:3.9630189 43:-0.2478133 44:-0.17397934 45:-0.31722111 46:-0.15619448 47:-0.066107452 48:-0.14383133 49:-0.22159693 50:-0.64531434 51:-0.26362848 52:0.99174768 53:-0.34909117 54:-0.28615856 55:-0.064924724 56:-0.2402797 57:-0.52936292 #
-0.016137842027988208437605521794467 1:-0.32373646 2:-0.17667121 3:-0.50017285 4:-0.098842546 5:-0.44537586 6:-0.34561899 7:-0.26157999 8:-0.31560028 9:-0.30961666 10:3.9023838 11:-0.22640149 12:-0.60592264 13:-0.21933696 14:-0.16083114 15:-0.15391792 16:-0.30765641 17:-0.37343216 18:-0.36310151 19:1.1845609 20:-0.14419276 21:-0.57808203 22:-0.062323686 23:-0.26375422 24:-0.25234732 25:-0.40743604 26:-0.4047187 27:0.31342417 28:-0.30796358 29:-0.16733444 30:-0.27352092 31:-0.20108834 32:-0.16073692 33:-0.18338262 34:-0.16487801 35:-0.27398148 36:-0.30811864 37:-0.39074841 38:-0.11907394 39:-0.21418162 40:-0.20511942 41:-0.13776088 42:-0.16252463 43:-0.2478133 44:-0.17397934 45:-0.31722111 46:-0.15619448 47:-0.066107452 48:-0.14383133 49:-0.22159693 50:-0.64531434 51:-0.26362848 52:0.48558456 53:-0.34909117 54:-0.28615856 55:-0.089258879 56:-0.29398528 57:-0.56220824 #
0.0077586806784558613736546561767682 1:-0.32373646 2:-0.17667121 3:-0.50017285 4:-0.098842546 5:-0.44537586 6:-0.34561899 7:-0.26157999 8:-0.31560028 9:3.9773693 10:-0.41393355 11:-0.22640149 12:-0.60592264 13:-0.21933696 14:-0.16083114 15:-0.15391792 16:-0.30765641 17:-0.37343216 18:-0.36310151 19:-0.3728855 20:-0.14419276 21:1.3256509 22:-0.062323686 23:-0.26375422 24:-0.25234732 25:-0.40743604 26:-0.4047187 27:-0.27057403 28:-0.30796358 29:-0.16733444 30:-0.27352092 31:-0.20108834 32:-0.16073692 33:-0.18338262 34:-0.16487801 35:-0.27398148 36:-0.30811864 37:-0.39074841 38:-0.11907394 39:-0.21418162 40:-0.20511942 41:-0.13776088 42:-0.16252463 43:-0.2478133 44:-0.17397934 45:-0.31722111 46:-0.15619448 47:-0.066107452 48:-0.14383133 49:-0.22159693 50:-0.040932573 51:-0.26362848 52:1.0179286 53:-0.34909117 54:-0.28615856 55:-0.057653211 56:-0.07916297 57:-0.37707996 #
-0.013589434887596209267091040828745 1:3.8942621 2:-0.17667121 3:1.3551394 4:-0.098842546 5:-0.44537586 6:-0.34561899 7:-0.26157999 8:-0.31560028 9:-0.30961666 10:-0.41393355 11:-0.22640149 12:-0.60592264 13:-0.21933696 14:-0.16083114 15:-0.15391792 16:-0.30765641 17:-0.37343216 18:-0.36310151 19:0.74356353 20:-0.14419276 21:-0.57808203 22:-0.062323686 23:-0.26375422 24:-0.25234732 25:-0.40743604 26:-0.4047187 27:0.035630431 28:-0.30796358 29:-0.16733444 30:-0.27352092 31:-0.20108834 32:-0.16073692 33:-0.18338262 34:-0.16487801 35:-0.27398148 36:-0.30811864 37:-0.39074841 38:-0.11907394 39:-0.21418162 40:-0.20511942 41:-0.13776088 42:-0.16252463 43:-0.2478133 44:-0.17397934 45:-0.31722111 46:-0.15619448 47:-0.066107452 48:-0.14383133 49:-0.22159693 50:-0.64531434 51:-0.26362848 52:-0.046759423 53:-0.34909117 54:-0.28615856 55:-0.073456042 56:-0.23132877 57:-0.46068627 #
-0.011644941167676413351639297388829 1:-0.32373646 2:-0.17667121 3:-0.50017285 4:-0.098842546 5:9.0154352 6:-0.34561899 7:-0.26157999 8:-0.31560028 9:-0.30961666 10:-0.41393355 11:-0.22640149 12:-0.60592264 13:-0.21933696 14:-0.16083114 15:-0.15391792 16:-0.30765641 17:-0.37343216 18:-0.36310151 19:-0.88086981 20:-0.14419276 21:-0.57808203 22:-0.062323686 23:-0.26375422 24:-0.25234732 25:-0.40743604 26:-0.4047187 27:-0.27057403 28:-0.30796358 29:-0.16733444 30:-0.27352092 31:-0.20108834 32:-0.16073692 33:-0.18338262 34:-0.16487801 35:-0.27398148 36:-0.30811864 37:-0.39074841 38:-0.11907394 39:-0.21418162 40:-0.20511942 41:-0.13776088 42:-0.16252463 43:-0.2478133 44:-0.17397934 45:5.5515881 46:-0.15619448 47:-0.066107452 48:-0.14383133 49:-0.22159693 50:-0.64531434 51:-0.26362848 52:-0.52965069 53:-0.34909117 54:-0.28615856 55:-0.086385638 56:-0.29398528 57:-0.61296922 #
-0.019285429201326018122664152087964 1:-0.32373646 2:0.12407006 3:-0.50017285 4:-0.098842546 5:-0.44537586 6:-0.34561899 7:-0.26157999 8:-0.31560028 9:-0.30961666 10:0.77597016 11:3.2377894 12:-0.35715175 13:-0.21933696 14:-0.16083114 15:-0.15391792 16:-0.30765641 17:-0.37343216 18:-0.36310151 19:-0.31148079 20:-0.14419276 21:-0.2250261 22:-0.062323686 23:-0.26375422 24:-0.25234732 25:-0.28359959 26:0.12201251 27:-0.27057403 28:-0.30796358 29:-0.16733444 30:-0.27352092 31:-0.20108834 32:-0.16073692 33:-0.18338262 34:-0.16487801 35:-0.27398148 36:-0.30811864 37:-0.39074841 38:-0.11907394 39:-0.21418162 40:-0.20511942 41:-0.13776088 42:-0.16252463 43:-0.2478133 44:-0.17397934 45:-0.31722111 46:-0.15619448 47:-0.066107452 48:-0.14383133 49:-0.22159693 50:-0.081830591 51:-0.26362848 52:0.072508901 53:-0.34909117 54:-0.28615856 55:0.10830967 56:2.7403798 57:1.2592152 #
0.024206635209704729927437938385992 1:0.024139695 2:-0.17667121 3:-0.34715742 4:-0.098842546 5:-0.23336889 6:-0.34561899 7:-0.26157999 8:-0.31560028 9:-0.30961666 10:-0.41393355 11:-0.22640149 12:-0.37705344 13:-0.21933696 14:-0.16083114 15:-0.15391792 16:-0.20024595 17:0.19577312 18:-0.36310151 19:-0.65758002 20:0.64329994 21:-0.41886073 22:-0.062323686 23:-0.26375422 24:-0.25234732 25:-0.40743604 26:-0.4047187 27:-0.27057403 28:-0.30796358 29:-0.16733444 30:-0.27352092 31:-0.20108834 32:-0.16073692 33:-0.18338262 34:-0.16487801 35:-0.27398148 36:-0.30811864 37:-0.19668855 38:-0.11907394 39:-0.21418162 40:-0.20511942 41:-0.13776088 42:-0.16252463 43:-0.2478133 44:0.17580809 45:-0.31722111 46:-0.15619448 47:-0.066107452 48:-0.14383133 49:-0.22159693 50:0.39076871 51:-0.26362848 52:0.65139663 53:-0.12718448 54:-0.28615856 55:-0.05962028 56:0.26992327 57:3.107512 #
0.024206635209704729927437938385992 1:-0.32373646 2:-0.17667121 3:1.6420434 4:-0.098842546 5:0.29664853 6:-0.34561899 7:-0.26157999 8:-0.31560028 9:-0.30961666 10:0.89262736 11:-0.22640149 12:-0.60592264 13:-0.21933696 14:-0.16083114 15:-0.15391792 16:0.44421673 17:-0.37343216 18:-0.36310151 19:0.37513536 20:-0.14419276 21:0.19725648 22:-0.062323686 23:-0.26375422 24:-0.25234732 25:-0.40743604 26:-0.4047187 27:-0.27057403 28:-0.30796358 29:-0.16733444 30:-0.27352092 31:-0.20108834 32:-0.16073692 33:-0.18338262 34:-0.16487801 35:-0.27398148 36:-0.30811864 37:-0.39074841 38:-0.11907394 39:-0.21418162 40:-0.20511942 41:-0.13776088 42:-0.16252463 43:-0.2478133 44:-0.17397934 45:0.14307766 46:-0.15619448 47:-0.066107452 48:-0.14383133 49:-0.22159693 50:-0.18180351 51:-0.26362848 52:1.2593741 53:-0.34909117 54:-0.28615856 55:-0.06863784 56:-0.15972133 57:-0.22778295 #
-0.000313815367012991832448148832313 1:-0.32373646 2:-0.17667121 3:-0.50017285 4:-0.098842546 5:9.0154352 6:-0.34561899 7:-0.26157999 8:-0.31560028 9:-0.30961666 10:-0.41393355 11:-0.22640149 12:-0.60592264 13:-0.21933696 14:-0.16083114 15:-0.15391792 16:-0.30765641 17:-0.37343216 18:-0.36310151 19:-0.88086981 20:-0.14419276 21:-0.57808203 22:-0.062323686 23:-0.26375422 24:-0.25234732 25:-0.40743604 26:-0.4047187 27:-0.27057403 28:-0.30796358 29:-0.16733444 30:-0.27352092 31:-0.20108834 32:-0.16073692 33:-0.18338262 34:-0.16487801 35:-0.27398148 36:-0.30811864 37:-0.39074841 38:-0.11907394 39:-0.21418162 40:-0.20511942 41:-0.13776088 42:-0.16252463 43:-0.2478133 44:-0.17397934 45:5.5515881 46:-0.15619448 47:-0.066107452 48:-0.14383133 49:-0.22159693 50:-0.64531434 51:-0.26362848 52:-0.52965069 53:-0.34909117 54:-0.28615856 55:-0.086385638 56:-0.29398528 57:-0.61296922 #
0.024206635209704729927437938385992 1:0.41550037 2:-0.17667121 3:-0.34715742 4:-0.098842546 5:0.11114244 6:0.018063109 7:-0.088455014 8:1.6035413 9:0.067261241 10:-0.22728199 11:-0.22640149 12:-0.0088725127 13:0.29382658 14:1.0527992 15:-0.15391792 16:-0.30765641 17:0.047284782 18:-0.21197082 19:-0.21100038 20:-0.14419276 21:1.6164029 22:-0.062323686 23:1.2413449 24:0.16196308 25:-0.40743604 26:-0.4047187 27:-0.27057403 28:-0.30796358 29:-0.16733444 30:-0.27352092 31:-0.20108834 32:-0.16073692 33:-0.18338262 34:-0.16487801 35:-0.27398148 36:-0.30811864 37:-0.39074841 38:-0.11907394 39:-0.21418162 40:-0.20511942 41:-0.13776088 42:-0.16252463 43:-0.2478133 44:-0.17397934 45:-0.31722111 46:-0.15619448 47:-0.066107452 48:-0.14383133 49:-0.22159693 50:-0.27723223 51:0.24130096 52:-0.21548046 53:-0.27317575 54:-0.28615856 55:-0.031794034 56:0.099855617 57:1.0770729 #
0.024206635209704729927437938385992 1:-0.32373646 2:-0.17667121 3:-0.50017285 4:-0.098842546 5:1.2639303 6:1.6091723 7:0.66896677 8:-0.31560028 9:-0.30961666 10:-0.41393355 11:-0.22640149 12:-0.60592264 13:1.0786649 14:-0.16083114 15:-0.15391792 16:0.26967475 17:0.69073427 18:0.44922587 19:0.079276368 20:-0.14419276 21:0.017267181 22:-0.062323686 23:-0.26375422 24:-0.25234732 25:-0.40743604 26:-0.4047187 27:-0.27057403 28:-0.30796358 29:-0.16733444 30:-0.27352092 31:-0.20108834 32:-0.16073692 33:-0.18338262 34:-0.16487801 35:-0.27398148 36:-0.30811864 37:-0.39074841 38:-0.11907394 39:-0.21418162 40:-0.20511942 41:-0.13776088 42:-0.16252463 43:-0.2478133 44:-0.17397934 45:-0.31722111 46:-0.15619448 47:-0.066107452 48:-0.14383133 49:-0.22159693 50:-0.059109468 51:-0.26362848 52:-0.15439181 53:-0.34909117 54:-0.28615856 55:0.0064421888 56:0.081953757 57:-0.29048768 #
0.024206635209704729927437938385992 1:0.45898491 2:-0.17667121 3:-0.15588811 4:-0.098842546 5:1.6349425 6:1.2909505 7:-0.13173626 8:-0.041437197 9:-0.026958233 10:-0.13395621 11:0.04353546 12:-0.068577528 13:0.68624574 14:0.26750898 15:-0.15391792 16:-0.30765641 17:1.4084278 18:-0.24975349 19:1.619976 20:1.0370463 21:0.21802446 22:-0.062323686 23:3.454726 24:0.058385473 25:-0.40743604 26:-0.4047187 27:-0.27057403 28:-0.30796358 29:-0.16733444 30:-0.27352092 31:-0.20108834 32:-0.16073692 33:-0.18338262 34:-0.16487801 35:-0.27398148 36:-0.30811864 37:-0.39074841 38:-0.11907394 39:-0.21418162 40:-0.20511942 41:-0.13776088 42:-0.16252463 43:-0.054893032 44:-0.17397934 45:-0.26790336 46:-0.15619448 47:-0.066107452 48:-0.14383133 49:-0.136684 50:-0.4090147 51:-0.26362848 52:-0.50056088 53:0.6261304 54:-0.28615856 55:-0.083446085 56:-0.22237784 57:0.68292874 #
-0.024206635209704729927437938385992 1:-0.32373646 2:-0.17667121 3:-0.50017285 4:-0.098842546 5:-0.44537586 6:-0.34561899 7:-0.26157999 8:-0.31560028 9:-0.30961666 10:-0.41393355 11:-0.22640149 12:-0.60592264 13:-0.21933696 14:-0.16083114 15:-0.15391792 16:-0.30765641 17:-0.37343216 18:-0.36310151 19:1.6534696 20:-0.14419276 21:5.7146206 22:-0.062323686 23:-0.26375422 24:-0.25234732 25:-0.40743604 26:-0.4047187 27:-0.27057403 28:-0.30796358 29:-0.16733444 30:-0.27352092 31:-0.20108834 32:-0.16073692 33:-0.18338262 34:-0.16487801 35:-0.27398148 36:-0.30811864 37:-0.39074841 38:-0.11907394 39:-0.21418162 40:-0.20511942 41:-0.13776088 42:-0.16252463 43:-0.2478133 44:-0.17397934 45:-0.31722111 46:-0.15619448 47:-0.066107452 48:-0.14383133 49:-0.22159693 50:-0.64531434 51:-0.26362848 52:-0.52965069 53:-0.34909117 54:-0.28615856 55:-0.099646755 56:-0.32083806 57:-0.62192702 #
-0.024206635209704729927437938385992 1:-0.32373646 2:-0.17667121 3:-0.50017285 4:-0.098842546 5:-0.27312019 6:-0.34561899 7:-0.26157999 8:2.1975613 9:-0.30961666 10:-0.41393355 11:-0.22640149 12:-0.47656178 13:0.17308222 14:-0.16083114 15:-0.15391792 16:-0.30765641 17:0.29476535 18:-0.36310151 19:-0.88086981 20:-0.14419276 21:-0.57808203 22:-0.062323686 23:1.5512183 24:-0.25234732 25:0.97457874 26:-0.4047187 27:-0.27057403 28:-0.30796358 29:-0.16733444 30:-0.27352092 31:-0.20108834 32:-0.16073692 33:-0.18338262 34:-0.16487801 35:-0.27398148 36:-0.04067573 37:0.26420367 38:-0.11907394 39:-0.21418162 40:-0.20511942 41:-0.13776088 42:-0.16252463 43:-0.2478133 44:-0.17397934 45:-0.31722111 46:-0.15619448 47:-0.066107452 48:-0.14383133 49:0.38128489 50:0.0045096669 51:-0.26362848 52:-0.52965069 53:-0.039589722 54:-0.28615856 55:-0.062913455 56:-0.13286854 57:0.6112662 #
0.024206635209704729927437938385992 1:-0.32373646 2:-0.17667121 3:0.39879286 4:-0.098842546 5:-0.44537586 6:-0.34561899 7:1.7726384 8:-0.31560028 9:-0.30961666 10:-0.41393355 11:-0.22640149 12:-0.13823338 13:-0.21933696 14:-0.16083114 15:-0.15391792 16:-0.30765641 17:0.78972644 18:-0.36310151 19:-0.35613877 20:-0.14419276 21:-0.25271675 22:-0.062323686 23:-0.26375422 24:-0.25234732 25:-0.40743604 26:-0.4047187 27:-0.27057403 28:-0.30796358 29:-0.16733444 30:-0.27352092 31:-0.20108834 32:-0.16073692 33:-0.18338262 34:-0.16487801 35:-0.27398148 36:-0.30811864 37:-0.39074841 38:-0.11907394 39:-0.21418162 40:-0.20511942 41:-0.13776088 42:-0.16252463 43:-0.2478133 44:-0.17397934 45:0.069101065 46:-0.15619448 47:-0.066107452 48:-0.14383133 49:-0.22159693 50:-0.31813022 51:-0.26362848 52:0.10159874 53:-0.34909117 54:-0.28615856 55:-0.089037858 56:-0.23132877 57:-0.40693936 #
-0.024206635209704729927437938385992 1:-0.32373646 2:-0.17667121 3:-0.50017285 4:-0.098842546 5:0.23039636 6:-0.34561899 7:-0.26157999 8:-0.31560028 9:-0.30961666 10:-0.41393355 11:-0.22640149 12:-0.60592264 13:1.3201536 14:-0.16083114 15:-0.15391792 16:-0.30765641 17:-0.37343216 18:-0.36310151 19:-0.015621796 20:-0.14419276 21:-0.57808203 22:-0.062323686 23:-0.26375422 24:-0.25234732 25:-0.40743604 26:-0.4047187 27:-0.10957993 28:-0.30796358 29:-0.16733444 30:-0.27352092 31:-0.20108834 32:-0.16073692 33:1.4042337 34:-0.16487801 35:-0.27398148 36:-0.30811864 37:-0.39074841 38:-0.11907394 39:-0.21418162 40:-0.20511942 41:-0.13776088 42:-0.16252463 43:-0.2478133 44:-0.17397934 45:-0.31722111 46:-0.15619448 47:-0.066107452 48:-0.14383133 49:-0.22159693 50:-0.64531434 51:-0.26362848 52:0.28777367 53:-0.34909117 54:-0.28615856 55:-0.091623776 56:-0.28503433 57:-0.50248945 #
0.024206635209704729927437938385992 1:-0.32373646 2:-0.17667121 3:-0.50017285 4:-0.098842546 5:-0.44537586 6:-0.34561899 7:-0.26157999 8:-0.31560028 9:-0.30961666 10:-0.41393355 11:-0.22640149 12:-0.60592264 13:-0.21933696 14:-0.16083114 15:-0.15391792 16:1.4109107 17:-0.37343216 18:-0.36310151 19:1.2627124 20:-0.14419276 21:2.0802214 22:-0.062323686 23:-0.26375422 24:-0.25234732 25:-0.40743604 26:-0.4047187 27:-0.27057403 28:-0.30796358 29:-0.16733444 30:-0.27352092 31:-0.20108834 32:-0.16073692 33:-0.18338262 34:-0.16487801 35:-0.27398148 36:-0.30811864 37:-0.39074841 38:-0.11907394 39:-0.21418162 40:-0.20511942 41:-0.13776088 42:-0.16252463 43:-0.2478133 44:-0.17397934 45:0.73489034 46:-0.15619448 47:-0.066107452 48:-0.14383133 49:-0.22159693 50:-0.64531434 51:-0.26362848 52:0.13941552 53:0.99402839 54:-0.28615856 55:0.00065150071 56:0.03719911 57:-0.42186904 #
0.024206635209704729927437938385992 1:0.024139695 2:-0.17667121 3:-0.34715742 4:-0.098842546 5:-0.23336889 6:-0.34561899 7:-0.26157999 8:-0.31560028 9:-0.30961666 10:-0.41393355 11:-0.22640149 12:-0.37705344 13:-0.21933696 14:-0.16083114 15:-0.15391792 16:-0.20024595 17:0.19577312 18:-0.36310151 19:-0.65758002 20:0.64329994 21:-0.41886073 22:-0.062323686 23:-0.26375422 24:-0.25234732 25:-0.40743604 26:-0.4047187 27:-0.27057403 28:-0.30796358 29:-0.16733444 30:-0.27352092 31:-0.20108834 32:-0.16073692 33:-0.18338262 34:-0.16487801 35:-0.27398148 36:-0.30811864 37:-0.19668855 38:-0.11907394 39:-0.21418162 40:-0.20511942 41:-0.13776088 42:-0.16252463 43:-0.2478133 44:0.17580809 45:-0.31722111 46:-0.15619448 47:-0.066107452 48:-0.14383133 49:-0.22159693 50:0.39076871 51:-0.26362848 52:0.65139663 53:-0.12718448 54:-0.28615856 55:-0.05962028 56:0.26992327 57:3.107512 #
-0.024206635209704729927437938385992 1:-0.32373646 2:-0.17667121 3:-0.50017285 4:-0.098842546 5:-0.44537586 6:-0.34561899 7:-0.26157999 8:-0.31560028 9:-0.30961666 10:-0.41393355 11:-0.22640149 12:-0.60592264 13:-0.21933696 14:-0.16083114 15:-0.15391792 16:-0.30765641 17:-0.37343216 18:-0.36310151 19:0.97801787 20:-0.14419276 21:4.032413 22:-0.062323686 23:-0.26375422 24:-0.25234732 25:-0.40743604 26:-0.4047187 27:-0.27057403 28:-0.30796358 29:-0.16733444 30:-0.27352092 31:-0.20108834 32:-0.16073692 33:-0.18338262 34:-0.16487801 35:-0.27398148 36:-0.30811864 37:-0.39074841 38:-0.11907394 39:-0.21418162 40:-0.20511942 41:-0.13776088 42:-0.16252463 43:-0.2478133 44:-0.17397934 45:-0.31722111 46:-0.15619448 47:-0.066107452 48:-0.14383133 49:-0.22159693 50:-0.64531434 51:-0.26362848 52:-0.52965069 53:-0.34909117 54:-0.28615856 55:-0.093016192 56:-0.3029362 57:-0.59803951 #
0.024206635209704729927437938385992 1:-0.32373646 2:-0.17667121 3:0.39879286 4:-0.098842546 5:-0.44537586 6:-0.34561899 7:1.7726384 8:-0.31560028 9:-0.30961666 10:-0.41393355 11:-0.22640149 12:-0.13823338 13:-0.21933696 14:-0.16083114 15:-0.15391792 16:-0.30765641 17:0.78972644 18:-0.36310151 19:-0.35613877 20:-0.14419276 21:-0.25271675 22:-0.062323686 23:-0.26375422 24:-0.25234732 25:-0.40743604 26:-0.4047187 27:-0.27057403 28:-0.30796358 29:-0.16733444 30:-0.27352092 31:-0.20108834 32:-0.16073692 33:-0.18338262 34:-0.16487801 35:-0.27398148 36:-0.30811864 37:-0.39074841 38:-0.11907394 39:-0.21418162 40:-0.20511942 41:-0.13776088 42:-0.16252463 43:-0.2478133 44:-0.17397934 45:0.069101065 46:-0.15619448 47:-0.066107452 48:-0.14383133 49:-0.22159693 50:-0.31813022 51:-0.26362848 52:0.10159874 53:-0.34909117 54:-0.28615856 55:-0.089037858 56:-0.23132877 57:-0.40693936 #
0.024206635209704729927437938385992 1:-0.32373646 2:1.4112427 3:0.57093525 4:-0.098842546 5:-0.44537586 6:3.9276457 7:-0.26157999 8:0.50688899 9:1.4334437 10:1.3359249 11:-0.22640149 12:1.4539003 13:-0.21933696 14:-0.16083114 15:-0.15391792 16:-0.30765641 17:0.54224592 18:-0.36310151 19:0.48678026 20:-0.14419276 21:0.072648503 22:-0.062323686 23:-0.26375422 24:0.67985106 25:-0.40743604 26:-0.4047187 27:-0.21375258 28:-0.30796358 29:-0.16733444 30:-0.27352092 31:-0.20108834 32:-0.16073692 33:-0.18338262 34:-0.16487801 35:-0.27398148 36:-0.30811864 37:-0.39074841 38:-0.11907394 39:-0.21418162 40:-0.20511942 41:-0.13776088 42:-0.16252463 43:-0.2478133 44:-0.17397934 45:-0.31722111 46:-0.15619448 47:-0.066107452 48:-0.14383133 49:-0.22159693 50:-0.28177646 51:-0.26362848 52:0.17141435 53:0.27575138 54:-0.28615856 55:-0.063775428 56:-0.016506467 57:0.091712639 #
0.024206635209704729927437938385992 1:-0.32373646 2:-0.044345044 3:-0.060253467 4:-0.098842546 5:0.32314941 6:1.20003 7:-0.023533149 8:-0.31560028 9:1.2921144 10:-0.41393355 11:0.80835682 12:0.30955422 13:1.1692232 14:-0.16083114 15:-0.15391792 16:0.30995369 17:0.19577312 18:0.27920386 19:-0.55709958 20:-0.14419276 21:-0.17656745 22:-0.062323686 23:0.22318961 24:-0.25234732 25:-0.40743604 26:-0.4047187 27:-0.27057403 28:-0.30796358 29:-0.16733444 30:-0.27352092 31:-0.20108834 32:-0.16073692 33:-0.18338262 34:-0.16487801 35:-0.27398148 36:-0.30811864 37:-0.39074841 38:-0.11907394 39:-0.21418162 40:-0.20511942 41:-0.13776088 42:-0.16252463 43:0.10587386 44:-0.17397934 45:-0.31722111 46:-0.15619448 47:-0.066107452 48:-0.14383133 49:0.41525009 50:-0.47717807 51:-0.26362848 52:0.407042 53:0.19983594 54:0.095064074 55:-0.064814217 56:0.099855617 57:0.52467394 #
-0.024206635209704729927437938385992 1:-0.32373646 2:0.13609971 3:-0.0028726759 4:-0.098842546 5:-0.10086454 6:-0.34561899 7:-0.26157999 8:0.87243974 9:-0.30961666 10:-0.41393355 11:0.94332528 12:0.45881677 13:-0.21933696 14:-0.16083114 15:-0.15391792 16:-0.30765641 17:0.93821478 18:-0.36310151 19:-0.28356957 20:-0.14419276 21:0.16264315 22:-0.062323686 23:-0.26375422 24:-0.25234732 25:0.25632733 26:-0.4047187 27:-0.27057403 28:-0.30796358 29:-0.16733444 30:-0.27352092 31:-0.20108834 32:-0.16073692 33:-0.18338262 34:-0.16487801 35:-0.27398148 36:-0.30811864 37:-0.39074841 38:-0.11907394 39:-0.21418162 40:-0.20511942 41:-0.13776088 42:-0.16252463 43:-0.2478133 44:-0.17397934 45:-0.31722111 46:-0.15619448 47:-0.066107452 48:-0.14383133 49:-0.22159693 50:-0.1409055 51:-0.26362848 52:-0.52965069 53:-0.13302413 54:-0.28615856 55:-0.0871813 56:-0.25818154 57:-0.057584364 #
-0.024206635209704729927437938385992 1:-0.32373646 2:-0.17667121 3:-0.50017285 4:-0.098842546 5:0.23039636 6:-0.34561899 7:-0.26157999 8:-0.31560028 9:-0.30961666 10:-0.41393355 11:-0.22640149 12:-0.60592264 13:1.3201536 14:-0.16083114 15:-0.15391792 16:-0.30765641 17:-0.37343216 18:-0.36310151 19:-0.015621796 20:-0.14419276 21:-0.57808203 22:-0.062323686 23:-0.26375422 24:-0.25234732 25:-0.40743604 26:-0.4047187 27:-0.10957993 28:-0.30796358 29:-0.16733444 30:-0.27352092 31:-0.20108834 32:-0.16073692 33:1.4042337 34:-0.16487801 35:-0.27398148 36:-0.30811864 37:-0.39074841 38:-0.11907394 39:-0.21418162 40:-0.20511942 41:-0.13776088 42:-0.16252463 43:-0.2478133 44:-0.17397934 45:-0.31722111 46:-0.15619448 47:-0.066107452 48:-0.14383133 49:-0.22159693 50:-0.64531434 51:-0.26362848 52:0.28777367 53:-0.34909117 54:-0.28615856 55:-0.091623776 56:-0.28503433 57:-0.50248945 #
0.024206635209704729927437938385992 1:-0.32373646 2:-0.17667121 3:-0.50017285 4:-0.098842546 5:-0.44537586 6:-0.34561899 7:-0.26157999 8:-0.31560028 9:-0.30961666 10:-0.41393355 11:-0.22640149 12:-0.60592264 13:-0.21933696 14:-0.16083114 15:-0.15391792 16:1.4109107 17:-0.37343216 18:-0.36310151 19:1.2627124 20:-0.14419276 21:2.0802214 22:-0.062323686 23:-0.26375422 24:-0.25234732 25:-0.40743604 26:-0.4047187 27:-0.27057403 28:-0.30796358 29:-0.16733444 30:-0.27352092 31:-0.20108834 32:-0.16073692 33:-0.18338262 34:-0.16487801 35:-0.27398148 36:-0.30811864 37:-0.39074841 38:-0.11907394 39:-0.21418162 40:-0.20511942 41:-0.13776088 42:-0.16252463 43:-0.2478133 44:-0.17397934 45:0.73489034 46:-0.15619448 47:-0.066107452 48:-0.14383133 49:-0.22159693 50:-0.64531434 51:-0.26362848 52:0.13941552 53:0.99402839 54:-0.28615856 55:0.00065150071 56:0.03719911 57:-0.42186904 #
0.024206635209704729927437938385992 1:-0.32373646 2:-0.17667121 3:0.39879286 4:-0.098842546 5:-0.44537586 6:-0.34561899 7:1.7726384 8:-0.31560028 9:-0.30961666 10:-0.41393355 11:-0.22640149 12:-0.13823338 13:-0.21933696 14:-0.16083114 15:-0.15391792 16:-0.30765641 17:0.78972644 18:-0.36310151 19:-0.35613877 20:-0.14419276 21:-0.25271675 22:-0.062323686 23:-0.26375422 24:-0.25234732 25:-0.40743604 26:-0.4047187 27:-0.27057403 28:-0.30796358 29:-0.16733444 30:-0.27352092 31:-0.20108834 32:-0.16073692 33:-0.18338262 34:-0.16487801 35:-0.27398148 36:-0.30811864 37:-0.39074841 38:-0.11907394 39:-0.21418162 40:-0.20511942 41:-0.13776088 42:-0.16252463 43:-0.2478133 44:-0.17397934 45:0.069101065 46:-0.15619448 47:-0.066107452 48:-0.14383133 49:-0.22159693 50:-0.31813022 51:-0.26362848 52:0.10159874 53:-0.34909117 54:-0.28615856 55:-0.089037858 56:-0.23132877 57:-0.40693936 #
-0.024206635209704729927437938385992 1:-0.32373646 2:-0.1285526 3:-0.021999607 4:-0.098842546 5:-0.39237413 6:-0.16377795 7:-0.26157999 8:-0.31560028 9:0.44413912 10:-0.22728199 11:0.67338836 12:0.011029158 13:-0.21933696 14:-0.16083114 15:-0.15391792 16:-0.092835501 17:-0.27443993 18:-0.36310151 19:-0.48453039 20:-0.14419276 21:-0.29425275 22:-0.062323686 23:0.26745722 24:-0.25234732 25:0.58820903 26:0.018731885 27:-0.27057403 28:-0.1030225 29:-0.16733444 30:-0.10386053 31:0.074301034 32:-0.16073692 33:-0.18338262 34:-0.16487801 35:-0.19392912 36:-0.30811864 37:0.094401278 38:-0.11907394 39:-0.21418162 40:-0.20511942 41:-0.13776088 42:-0.16252463 43:-0.2478133 44:0.00091436831 45:-0.25146413 46:-0.15619448 47:-0.066107452 48:-0.0055218609 49:-0.11970141 50:0.59980303 51:-0.039215405 52:-0.4394722 53:-0.022070769 54:-0.28615856 55:-0.081302203 56:-0.12391762 57:3.7793486 #
-0.024206635209704729927437938385992 1:-0.32373646 2:-0.17667121 3:-0.50017285 4:-0.098842546 5:-0.44537586 6:-0.34561899 7:-0.26157999 8:-0.31560028 9:-0.30961666 10:-0.41393355 11:-0.22640149 12:-0.60592264 13:-0.21933696 14:-0.16083114 15:-0.15391792 16:-0.30765641 17:-0.37343216 18:-0.36310151 19:1.6534696 20:-0.14419276 21:5.7146206 22:-0.062323686 23:-0.26375422 24:-0.25234732 25:-0.40743604 26:-0.4047187 27:-0.27057403 28:-0.30796358 29:-0.16733444 30:-0.27352092 31:-0.20108834 32:-0.16073692 33:-0.18338262 34:-0.16487801 35:-0.27398148 36:-0.30811864 37:-0.39074841 38:-0.11907394 39:-0.21418162 40:-0.20511942 41:-0.13776088 42:-0.16252463 43:-0.2478133 44:-0.17397934 45:-0.31722111 46:-0.15619448 47:-0.066107452 48:-0.14383133 49:-0.22159693 50:-0.64531434 51:-0.26362848 52:-0.52965069 53:-0.34909117 54:-0.28615856 55:-0.099646755 56:-0.32083806 57:-0.62192702 #
-0.0081270959171869695814027778624222 1:-0.32373646 2:-0.17667121 3:-0.50017285 4:-0.098842546 5:-0.44537586 6:-0.34561899 7:-0.26157999 8:-0.31560028 9:-0.30961666 10:-0.41393355 11:-0.22640149 12:0.74739099 13:-0.21933696 14:-0.16083114 15:-0.15391792 16:-0.30765641 17:-0.37343216 18:-0.36310151 19:-0.12168445 20:-0.14419276 21:3.2086158 22:-0.062323686 23:-0.26375422 24:-0.25234732 25:-0.40743604 26:-0.4047187 27:0.15874356 28:-0.30796358 29:-0.16733444 30:-0.27352092 31:-0.20108834 32:-0.16073692 33:-0.18338262 34:-0.16487801 35:-0.27398148 36:-0.30811864 37:-0.39074841 38:-0.11907394 39:-0.21418162 40:-0.20511942 41:-0.13776088 42:-0.16252463 43:-0.2478133 44:-0.17397934 45:-0.31722111 46:-0.15619448 47:-0.066107452 48:-0.14383133 49:-0.22159693 50:-0.64531434 51:-0.26362848 52:-0.52965069 53:-0.34909117 54:-0.28615856 55:-0.070759617 56:-0.25818154 57:-0.54727852 #
-0.024206635209704729927437938385992 1:-0.32373646 2:-0.17667121 3:-0.50017285 4:-0.098842546 5:-0.44537586 6:1.8819339 7:-0.26157999 8:-0.31560028 9:-0.30961666 10:-0.41393355 11:-0.22640149 12:-0.60592264 13:-0.21933696 14:-0.16083114 15:-0.15391792 16:-0.30765641 17:-0.37343216 18:-0.36310151 19:-0.060279757 20:-0.14419276 21:-0.57808203 22:-0.062323686 23:-0.26375422 24:-0.25234732 25:-0.40743604 26:-0.4047187 27:-0.27057403 28:-0.30796358 29:-0.16733444 30:-0.27352092 31:-0.20108834 32:-0.16073692 33:-0.18338262 34:-0.16487801 35:-0.27398148 36:-0.30811864 37:-0.39074841 38:-0.11907394 39:0.83192736 40:-0.20511942 41:-0.13776088 42:-0.16252463 43:1.3277023 44:-0.17397934 45:0.08554031 46:-0.15619448 47:-0.066107452 48:-0.14383133 49:-0.22159693 50:0.24080932 51:-0.26362848 52:-0.24747929 53:-0.34909117 54:-0.28615856 55:-0.070914328 56:-0.16867226 57:-0.43082687 #
0.024206635209704729927437938385992 1:-0.32373646 2:-0.17667121 3:1.1256162 4:-0.098842546 5:0.11114244 6:-0.34561899 7:-0.26157999 8:-0.31560028 9:-0.30961666 10:-0.41393355 11:-0.22640149 12:-0.60592264 13:-0.21933696 14:-0.16083114 15:-0.15391792 16:0.25624844 17:-0.37343216 18:-0.36310151 19:0.31373066 20:-0.14419276 21:0.30801913 22:-0.062323686 23:-0.26375422 24:-0.25234732 25:-0.40743604 26:-0.4047187 27:-0.27057403 28:-0.30796358 29:-0.16733444 30:-0.27352092 31:-0.20108834 32:-0.16073692 33:-0.18338262 34:-0.16487801 35:-0.27398148 36:-0.30811864 37:-0.39074841 38:-0.11907394 39:-0.21418162 40:-0.20511942 41:-0.13776088 42:-0.16252463 43:-0.2478133 44:-0.17397934 45:0.028002966 46:-0.15619448 47:-0.066107452 48:-0.14383133 49:-0.22159693 50:0.077217251 51:-0.26362848 52:2.7196839 53:-0.34909117 54:-0.28615856 55:-0.095093764 56:-0.26713249 57:-0.28750175 #
0.024206635209704729927437938385992 1:-0.32373646 2:-0.17667121 3:1.1447431 4:-0.098842546 5:0.12439287 6:-0.34561899 7:-0.26157999 8:-0.31560028 9:-0.30961666 10:-0.41393355 11:-0.22640149 12:-0.60592264 13:-0.21933696 14:-0.16083114 15:-0.15391792 16:0.26967475 17:-0.37343216 18:-0.36310151 19:0.33047742 20:-0.14419276 21:0.32186446 22:-0.062323686 23:-0.26375422 24:-0.25234732 25:-0.40743604 26:-0.4047187 27:-0.27057403 28:-0.30796358 29:-0.16733444 30:-0.27352092 31:-0.20108834 32:-0.16073692 33:-0.18338262 34:-0.16487801 35:-0.27398148 36:-0.30811864 37:-0.39074841 38:-0.11907394 39:-0.21418162 40:-0.20511942 41:-0.13776088 42:-0.16252463 43:-0.2478133 44:-0.17397934 45:0.036222585 46:-0.15619448 47:-0.066107452 48:-0.14383133 49:-0.22159693 50:0.0863057 51:-0.26362848 52:2.7662277 53:-0.34909117 54:-0.28615856 55:-0.095226377 56:-0.27608341 57:-0.29645956 #
-0.013106492596925325977430532020662 1:-0.32373646 2:-0.17667121 3:3.2487054 4:-0.098842546 5:-0.44537586 6:-0.34561899 7:-0.26157999 8:-0.31560028 9:-0.30961666 10:-0.41393355 11:-0.22640149 12:-0.60592264 13:-0.21933696 14:-0.16083114 15:-0.15391792 16:2.3238995 17:-0.37343216 18:-0.36310151 19:-0.88086981 20:-0.14419276 21:-0.57808203 22:-0.062323686 23:-0.26375422 24:-0.25234732 25:-0.40743604 26:-0.4047187 27:-0.27057403 28:-0.30796358 29:-0.16733444 30:-0.27352092 31:-0.20108834 32:-0.16073692 33:-0.18338262 34:-0.16487801 35:-0.27398148 36:-0.30811864 37:-0.39074841 38:-0.11907394 39:-0.21418162 40:-0.20511942 41:-0.13776088 42:4.2083216 43:-0.2478133 44:-0.17397934 45:2.90487 46:-0.15619448 47:-0.066107452 48:-0.14383133 49:-0.22159693 50:-0.64531434 51:-0.26362848 52:-0.52965069 53:-0.34909117 54:-0.28615856 55:-0.085346848 56:-0.29398528 57:-0.55325043 #
0.024206635209704729927437938385992 1:-0.32373646 2:-0.17667121 3:-0.50017285 4:-0.098842546 5:-0.44537586 6:-0.34561899 7:-0.26157999 8:-0.31560028 9:-0.30961666 10:-0.41393355 11:-0.22640149 12:-0.60592264 13:-0.21933696 14:-0.16083114 15:-0.15391792 16:1.4109107 17:-0.37343216 18:-0.36310151 19:1.2627124 20:-0.14419276 21:2.0802214 22:-0.062323686 23:-0.26375422 24:-0.25234732 25:-0.40743604 26:-0.4047187 27:-0.27057403 28:-0.30796358 29:-0.16733444 30:-0.27352092 31:-0.20108834 32:-0.16073692 33:-0.18338262 34:-0.16487801 35:-0.27398148 36:-0.30811864 37:-0.39074841 38:-0.11907394 39:-0.21418162 40:-0.20511942 41:-0.13776088 42:-0.16252463 43:-0.2478133 44:-0.17397934 45:0.73489034 46:-0.15619448 47:-0.066107452 48:-0.14383133 49:-0.22159693 50:-0.64531434 51:-0.26362848 52:0.13941552 53:0.99402839 54:-0.28615856 55:0.00065150071 56:0.03719911 57:-0.42186904 #
0.024206635209704729927437938385992 1:-0.32373646 2:-0.17667121 3:0.36053899 4:-0.098842546 5:-0.15386628 6:0.6545068 7:-0.26157999 8:-0.31560028 9:2.8467357 10:0.6359815 11:0.7633673 12:0.28965256 13:-0.21933696 14:-0.16083114 15:-0.15391792 16:-0.012277667 17:-0.37343216 18:-0.36310151 19:-0.12726671 20:-0.14419276 21:0.19725648 22:0.79421991 23:0.71013343 24:0.88700628 25:-0.40743604 26:-0.4047187 27:-0.27057403 28:-0.30796358 29:-0.16733444 30:-0.27352092 31:-0.20108834 32:-0.16073692 33:-0.18338262 34:-0.16487801 35:-0.27398148 36:0.61764532 37:-0.39074841 38:-0.11907394 39:-0.21418162 40:-0.20511942 41:-0.13776088 42:-0.16252463 43:-0.2478133 44:-0.17397934 45:-0.31722111 46:-0.15619448 47:-0.066107452 48:-0.14383133 49:0.32184586 50:0.52709544 51:-0.26362848 52:-0.15439181 53:0.77796131 54:-0.28615856 55:0.038666703 56:0.30572698 57:1.2054683 #
0.024206635209704729927437938385992 1:-0.32373646 2:-0.044345044 3:-0.060253467 4:-0.098842546 5:0.32314941 6:1.20003 7:-0.023533149 8:-0.31560028 9:1.2921144 10:-0.41393355 11:0.80835682 12:0.30955422 13:1.1692232 14:-0.16083114 15:-0.15391792 16:0.30995369 17:0.19577312 18:0.27920386 19:-0.55709958 20:-0.14419276 21:-0.17656745 22:-0.062323686 23:0.22318961 24:-0.25234732 25:-0.40743604 26:-0.4047187 27:-0.27057403 28:-0.30796358 29:-0.16733444 30:-0.27352092 31:-0.20108834 32:-0.16073692 33:-0.18338262 34:-0.16487801 35:-0.27398148 36:-0.30811864 37:-0.39074841 38:-0.11907394 39:-0.21418162 40:-0.20511942 41:-0.13776088 42:-0.16252463 43:0.10587386 44:-0.17397934 45:-0.31722111 46:-0.15619448 47:-0.066107452 48:-0.14383133 49:0.41525009 50:-0.47717807 51:-0.26362848 52:0.407042 53:0.19983594 54:0.095064074 55:-0.064814217 56:0.099855617 57:0.52467394 #
-0.024206635209704729927437938385992 1:-0.32373646 2:0.12407006 3:-0.50017285 4:-0.098842546 5:-0.44537586 6:-0.34561899 7:-0.26157999 8:-0.31560028 9:-0.30961666 10:0.77597016 11:3.2377894 12:-0.35715175 13:-0.21933696 14:-0.16083114 15:-0.15391792 16:-0.30765641 17:-0.37343216 18:-0.36310151 19:-0.31148079 20:-0.14419276 21:-0.2250261 22:-0.062323686 23:-0.26375422 24:-0.25234732 25:-0.28359959 26:0.12201251 27:-0.27057403 28:-0.30796358 29:-0.16733444 30:-0.27352092 31:-0.20108834 32:-0.16073692 33:-0.18338262 34:-0.16487801 35:-0.27398148 36:-0.30811864 37:-0.39074841 38:-0.11907394 39:-0.21418162 40:-0.20511942 41:-0.13776088 42:-0.16252463 43:-0.2478133 44:-0.17397934 45:-0.31722111 46:-0.15619448 47:-0.066107452 48:-0.14383133 49:-0.22159693 50:-0.081830591 51:-0.26362848 52:0.072508901 53:-0.34909117 54:-0.28615856 55:0.10830967 56:2.7403798 57:1.2592152 #
0.024206635209704729927437938385992 1:-0.32373646 2:0.28045553 3:0.95347381 4:-0.098842546 5:0.058140695 6:-0.34561899 7:0.14959183 8:-0.31560028 9:-0.30961666 10:0.91595882 11:0.62839884 12:-0.60592264 13:0.35419875 14:-0.16083114 15:1.0348423 16:-0.052556586 17:-0.37343216 18:1.4315753 19:-0.77480716 20:0.79095483 21:0.079571165 22:-0.062323686 23:-0.26375422 24:-0.25234732 25:-0.40743604 26:-0.4047187 27:-0.27057403 28:-0.30796358 29:-0.16733444 30:-0.27352092 31:-0.20108834 32:-0.16073692 33:-0.18338262 34:-0.16487801 35:-0.27398148 36:-0.30811864 37:-0.39074841 38:-0.11907394 39:-0.21418162 40:0.23328166 41:-0.13776088 42:-0.16252463 43:-0.2478133 44:-0.17397934 45:-0.31722111 46:-0.15619448 47:-0.066107452 48:-0.14383133 49:-0.22159693 50:-0.64531434 51:-0.26362848 52:1.3088269 53:-0.17390168 54:1.6199546 55:0.02830093 56:0.85173368 57:1.9579252 #
-0.024206635209704729927437938385992 1:-0.32373646 2:-0.17667121 3:-0.50017285 4:-0.098842546 5:-0.44537586 6:1.8819339 7:-0.26157999 8:-0.31560028 9:-0.30961666 10:-0.41393355 11:-0.22640149 12:-0.60592264 13:-0.21933696 14:-0.16083114 15:-0.15391792 16:-0.30765641 17:-0.37343216 18:-0.36310151 19:-0.060279757 20:-0.14419276 21:-0.57808203 22:-0.062323686 23:-0.26375422 24:-0.25234732 25:-0.40743604 26:-0.4047187 27:-0.27057403 28:-0.30796358 29:-0.16733444 30:-0.27352092 31:-0.20108834 32:-0.16073692 33:-0.18338262 34:-0.16487801 35:-0.27398148 36:-0.30811864 37:-0.39074841 38:-0.11907394 39:0.83192736 40:-0.20511942 41:-0.13776088 42:-0.16252463 43:1.3277023 44:-0.17397934 45:0.08554031 46:-0.15619448 47:-0.066107452 48:-0.14383133 49:-0.22159693 50:0.24080932 51:-0.26362848 52:-0.24747929 53:-0.34909117 54:-0.28615856 55:-0.070914328 56:-0.16867226 57:-0.43082687 #
-0.024206635209704729927437938385992 1:-0.32373646 2:-0.17667121 3:-0.50017285 4:-0.098842546 5:0.23039636 6:-0.34561899 7:-0.26157999 8:-0.31560028 9:-0.30961666 10:-0.41393355 11:-0.22640149 12:-0.60592264 13:1.3201536 14:-0.16083114 15:-0.15391792 16:-0.30765641 17:-0.37343216 18:-0.36310151 19:-0.015621796 20:-0.14419276 21:-0.57808203 22:-0.062323686 23:-0.26375422 24:-0.25234732 25:-0.40743604 26:-0.4047187 27:-0.10957993 28:-0.30796358 29:-0.16733444 30:-0.27352092 31:-0.20108834 32:-0.16073692 33:1.4042337 34:-0.16487801 35:-0.27398148 36:-0.30811864 37:-0.39074841 38:-0.11907394 39:-0.21418162 40:-0.20511942 41:-0.13776088 42:-0.16252463 43:-0.2478133 44:-0.17397934 45:-0.31722111 46:-0.15619448 47:-0.066107452 48:-0.14383133 49:-0.22159693 50:-0.64531434 51:-0.26362848 52:0.28777367 53:-0.34909117 54:-0.28615856 55:-0.091623776 56:-0.28503433 57:-0.50248945 #
