SVM-light Version V6.02
0 # kernel type
3 # kernel parameter -d 
1 # kernel parameter -g 
1 # kernel parameter -s 
1 # kernel parameter -r 
empty# kernel parameter -u 
57 # highest feature index 
526 # number of training documents 
150 # number of support vectors plus 1 
0.71776587 # threshold b, each following line is a SV (starting with alpha*y)
0.023182627757652545658073606205107 1:-0.32373646 2:-0.17667121 3:-0.50017285 4:-0.098842546 5:-0.44537586 6:-0.34561899 7:-0.26157999 8:5.5789061 9:-0.30961666 10:0.58931857 11:-0.22640149 12:-0.60592264 13:-0.21933696 14:-0.16083114 15:-0.15391792 16:0.26967475 17:-0.37343216 18:2.9050994 19:-0.64083326 20:-0.14419276 21:-0.28040743 22:-0.062323686 23:-0.26375422 24:-0.25234732 25:-0.40743604 26:-0.4047187 27:-0.27057403 28:-0.30796358 29:-0.16733444 30:-0.27352092 31:-0.20108834 32:-0.16073692 33:-0.18338262 34:-0.16487801 35:-0.27398148 36:0.57650024 37:-0.39074841 38:-0.11907394 39:-0.21418162 40:-0.20511942 41:-0.13776088 42:-0.16252463 43:-0.2478133 44:-0.17397934 45:-0.31722111 46:-0.15619448 47:-0.066107452 48:-0.14383133 49:-0.22159693 50:-0.081830591 51:-0.26362848 52:0.37213421 53:0.012967132 54:-0.28615856 55:-0.089104161 56:-0.25818154 57:-0.44277063 #
0.013318892325909683499451929833413 1:-0.32373646 2:-0.17667121 3:1.9672011 4:-0.098842546 5:-0.44537586 6:-0.34561899 7:-0.26157999 8:-0.31560028 9:-0.30961666 10:-0.41393355 11:-0.22640149 12:0.67773515 13:-0.21933696 14:-0.16083114 15:-0.15391792 16:-0.30765641 17:-0.37343216 18:-0.36310151 19:-0.16076016 20:-0.14419276 21:3.0147812 22:-0.062323686 23:-0.26375422 24:6.4284077 25:-0.40743604 26:-0.4047187 27:-0.27057403 28:-0.30796358 29:-0.16733444 30:-0.27352092 31:-0.20108834 32:-0.16073692 33:-0.18338262 34:-0.16487801 35:-0.27398148 36:-0.30811864 37:-0.39074841 38:-0.11907394 39:-0.21418162 40:-0.20511942 41:-0.13776088 42:-0.16252463 43:-0.2478133 44:-0.17397934 45:-0.31722111 46:-0.15619448 47:-0.066107452 48:-0.14383133 49:-0.22159693 50:-0.64531434 51:-0.26362848 52:-0.52965069 53:0.80715954 54:-0.28615856 55:-0.028257735 56:-0.10601576 57:-0.47263002 #
-0.023182627757652545658073606205107 1:-0.32373646 2:-0.17667121 3:0.22665049 4:-0.098842546 5:0.058140695 6:-0.34561899 7:-0.26157999 8:-0.31560028 9:-0.30961666 10:-0.41393355 11:-0.22640149 12:-0.22779089 13:0.92773449 14:-0.16083114 15:-0.15391792 16:-0.30765641 17:-0.37343216 18:-0.36310151 19:-0.24449384 20:-0.14419276 21:-0.31502074 22:-0.062323686 23:-0.26375422 24:-0.25234732 25:-0.40743604 26:-0.4047187 27:-0.27057403 28:-0.30796358 29:-0.16733444 30:-0.27352092 31:-0.20108834 32:-0.16073692 33:-0.18338262 34:-0.16487801 35:-0.27398148 36:-0.30811864 37:-0.39074841 38:-0.11907394 39:-0.21418162 40:-0.20511942 41:-0.13776088 42:-0.16252463 43:-0.2478133 44:-0.17397934 45:-0.0048755165 46:-0.15619448 47:-0.066107452 48:-0.14383133 49:-0.22159693 50:1.2359943 51:-0.26362848 52:0.27322876 53:-0.34909117 54:-0.28615856 55:-0.097348161 56:-0.31188715 57:-0.4786019 #
0.023182627757652545658073606205107 1:-0.32373646 2:-0.17667121 3:-0.50017285 4:-0.098842546 5:-0.44537586 6:-0.34561899 7:-0.26157999 8:-0.31560028 9:-0.30961666 10:-0.41393355 11:-0.22640149 12:-0.60592264 13:-0.21933696 14:-0.16083114 15:-0.15391792 16:1.4109107 17:-0.37343216 18:-0.36310151 19:1.2627124 20:-0.14419276 21:2.0802214 22:-0.062323686 23:-0.26375422 24:-0.25234732 25:-0.40743604 26:-0.4047187 27:-0.27057403 28:-0.30796358 29:-0.16733444 30:-0.27352092 31:-0.20108834 32:-0.16073692 33:-0.18338262 34:-0.16487801 35:-0.27398148 36:-0.30811864 37:-0.39074841 38:-0.11907394 39:-0.21418162 40:-0.20511942 41:-0.13776088 42:-0.16252463 43:-0.2478133 44:-0.17397934 45:0.73489034 46:-0.15619448 47:-0.066107452 48:-0.14383133 49:-0.22159693 50:-0.64531434 51:-0.26362848 52:0.13941552 53:0.99402839 54:-0.28615856 55:0.00065150071 56:0.03719911 57:-0.42186904 #
-0.018555942774240136161623127009079 1:-0.32373646 2:1.3029758 3:-0.50017285 4:-0.098842546 5:-0.44537586 6:-0.34561899 7:-0.26157999 8:-0.31560028 9:-0.30961666 10:2.4558342 11:-0.22640149 12:0.0010783225 13:7.2064414 14:-0.16083114 15:-0.15391792 16:-0.30765641 17:-0.37343216 18:-0.36310151 19:0.8384617 20:-0.14419276 21:0.27340579 22:-0.062323686 23:-0.26375422 24:-0.25234732 25:-0.40743604 26:-0.4047187 27:-0.078012459 28:-0.30796358 29:-0.16733444 30:-0.27352092 31:-0.20108834 32:-0.16073692 33:-0.18338262 34:-0.16487801 35:-0.27398148 36:-0.30811864 37:-0.39074841 38:-0.11907394 39:-0.21418162 40:-0.20511942 41:-0.13776088 42:-0.16252463 43:-0.2478133 44:-0.17397934 45:-0.31722111 46:-0.15619448 47:-0.066107452 48:-0.14383133 49:-0.22159693 50:0.37259182 51:-0.26362848 52:-0.52965069 53:-0.34909117 54:-0.28615856 55:-0.099646755 56:-0.32083806 57:-0.57713795 #
-0.023182627757652545658073606205107 1:-0.32373646 2:-0.17667121 3:-0.50017285 4:-0.098842546 5:0.56165725 6:0.79088759 7:-0.26157999 8:5.4875183 9:-0.30961666 10:-0.41393355 11:-0.22640149 12:0.15034086 13:-0.21933696 14:-0.16083114 15:-0.15391792 16:-0.30765641 17:-0.37343216 18:-0.36310151 19:-0.88086981 20:-0.14419276 21:-0.57808203 22:-0.062323686 23:-0.26375422 24:-0.25234732 25:-0.40743604 26:-0.4047187 27:-0.27057403 28:-0.30796358 29:-0.16733444 30:-0.27352092 31:-0.20108834 32:-0.16073692 33:-0.18338262 34:-0.16487801 35:-0.27398148 36:-0.30811864 37:-0.39074841 38:-0.11907394 39:-0.21418162 40:-0.20511942 41:-0.13776088 42:-0.16252463 43:-0.2478133 44:-0.17397934 45:-0.31722111 46:-0.15619448 47:-0.066107452 48:-0.14383133 49:-0.22159693 50:-0.64531434 51:-0.26362848 52:-0.52965069 53:-0.34909117 54:-0.28615856 55:-0.096552491 56:-0.28503433 57:-0.44277063 #
-0.023182627757652545658073606205107 1:-0.32373646 2:-0.17667121 3:0.22665049 4:-0.098842546 5:0.058140695 6:-0.34561899 7:-0.26157999 8:-0.31560028 9:-0.30961666 10:-0.41393355 11:-0.22640149 12:-0.22779089 13:0.92773449 14:-0.16083114 15:-0.15391792 16:-0.30765641 17:-0.37343216 18:-0.36310151 19:-0.24449384 20:-0.14419276 21:-0.31502074 22:-0.062323686 23:-0.26375422 24:-0.25234732 25:-0.40743604 26:-0.4047187 27:-0.27057403 28:-0.30796358 29:-0.16733444 30:-0.27352092 31:-0.20108834 32:-0.16073692 33:-0.18338262 34:-0.16487801 35:-0.27398148 36:-0.30811864 37:-0.39074841 38:-0.11907394 39:-0.21418162 40:-0.20511942 41:-0.13776088 42:-0.16252463 43:-0.2478133 44:-0.17397934 45:-0.0048755165 46:-0.15619448 47:-0.066107452 48:-0.14383133 49:-0.22159693 50:1.2359943 51:-0.26362848 52:0.27322876 53:-0.34909117 54:-0.28615856 55:-0.097348161 56:-0.31188715 57:-0.4786019 #
0.023182627757652545658073606205107 1:-0.32373646 2:-0.17667121 3:-0.50017285 4:-0.098842546 5:-0.44537586 6:-0.34561899 7:-0.26157999 8:5.5789061 9:-0.30961666 10:0.58931857 11:-0.22640149 12:-0.60592264 13:-0.21933696 14:-0.16083114 15:-0.15391792 16:0.26967475 17:-0.37343216 18:2.9050994 19:-0.64083326 20:-0.14419276 21:-0.28040743 22:-0.062323686 23:-0.26375422 24:-0.25234732 25:-0.40743604 26:-0.4047187 27:-0.27057403 28:-0.30796358 29:-0.16733444 30:-0.27352092 31:-0.20108834 32:-0.16073692 33:-0.18338262 34:-0.16487801 35:-0.27398148 36:0.57650024 37:-0.39074841 38:-0.11907394 39:-0.21418162 40:-0.20511942 41:-0.13776088 42:-0.16252463 43:-0.2478133 44:-0.17397934 45:-0.31722111 46:-0.15619448 47:-0.066107452 48:-0.14383133 49:-0.22159693 50:-0.081830591 51:-0.26362848 52:0.37213421 53:0.012967132 54:-0.28615856 55:-0.089104161 56:-0.25818154 57:-0.44277063 #
0.023182627757652545658073606205107 1:-0.32373646 2:-0.17667121 3:-0.50017285 4:-0.098842546 5:2.867233 6:-0.34561899 7:-0.26157999 8:-0.31560028 9:-0.30961666 10:-0.41393355 11:-0.22640149 12:0.011029158 13:-0.21933696 14:-0.16083114 15:-0.15391792 16:-0.30765641 17:2.7200749 18:-0.36310151 19:0.86079067 20:-0.14419276 21:-0.14887679 22:-0.062323686 23:-0.26375422 24:-0.25234732 25:-0.40743604 26:-0.4047187 27:-0.27057403 28:-0.30796358 29:-0.16733444 30:-0.27352092 31:-0.20108834 32:-0.16073692 33:-0.18338262 34:-0.16487801 35:-0.27398148 36:-0.30811864 37:-0.39074841 38:-0.11907394 39:-0.21418162 40:-0.20511942 41:-0.13776088 42:-0.16252463 43:-0.2478133 44:-0.17397934 45:-0.31722111 46:-0.15619448 47:-0.066107452 48:-0.14383133 49:-0.22159693 50:-0.64531434 51:-0.26362848 52:-0.29693201 53:-0.34909117 54:-0.28615856 55:-0.075091586 56:-0.16867226 57:-0.46665815 #
-0.023182627757652545658073606205107 1:-0.32373646 2:-0.17667121 3:6.0794911 4:-0.098842546 5:-0.44537586 6:-0.34561899 7:-0.26157999 8:-0.31560028 9:-0.30961666 10:-0.41393355 11:-0.22640149 12:-0.60592264 13:-0.21933696 14:-0.16083114 15:-0.15391792 16:-0.30765641 17:-0.37343216 18:6.1355176 19:-0.88086981 20:-0.14419276 21:1.8033148 22:-0.062323686 23:-0.26375422 24:-0.25234732 25:-0.40743604 26:-0.4047187 27:-0.27057403 28:-0.30796358 29:-0.16733444 30:-0.27352092 31:-0.20108834 32:-0.16073692 33:-0.18338262 34:-0.16487801 35:-0.27398148 36:-0.30811864 37:-0.39074841 38:-0.11907394 39:-0.21418162 40:-0.20511942 41:-0.13776088 42:-0.16252463 43:-0.2478133 44:-0.17397934 45:-0.31722111 46:-0.15619448 47:-0.066107452 48:-0.14383133 49:-0.22159693 50:-0.64531434 51:-0.26362848 52:-0.52965069 53:-0.34909117 54:-0.28615856 55:-0.083578698 56:-0.29398528 57:-0.5801239 #
-0.023182627757652545658073606205107 1:-0.32373646 2:-0.17667121 3:-0.50017285 4:-0.098842546 5:0.32314941 6:-0.34561899 7:-0.26157999 8:-0.31560028 9:-0.30961666 10:-0.41393355 11:-0.22640149 12:-0.60592264 13:-0.21933696 14:-0.16083114 15:-0.15391792 16:-0.30765641 17:-0.37343216 18:-0.36310151 19:-0.39521447 20:-0.14419276 21:-0.37732473 22:-0.062323686 23:-0.26375422 24:-0.25234732 25:-0.26378575 26:-0.10520487 27:-0.17902836 28:0.68258494 29:-0.16733444 30:-0.27352092 31:-0.20108834 32:-0.16073692 33:-0.18338262 34:0.51893091 35:0.8867777 36:-0.30811864 37:-0.39074841 38:-0.11907394 39:-0.21418162 40:-0.20511942 41:-0.13776088 42:-0.16252463 43:-0.2478133 44:-0.17397934 45:-0.31722111 46:-0.15619448 47:-0.066107452 48:-0.14383133 49:-0.22159693 50:0.35441491 51:-0.26362848 52:-0.52965069 53:11.552116 54:-0.28615856 55:0.17799684 56:2.8119872 57:0.65904123 #
0.023182627757652545658073606205107 1:-0.32373646 2:-0.17667121 3:0.57093525 4:-0.098842546 5:-0.44537586 6:0.47266576 7:-0.26157999 8:-0.31560028 9:-0.30961666 10:2.6658173 11:-0.22640149 12:0.14039002 13:2.0446198 14:1.1241893 15:-0.15391792 16:-0.065982893 17:-0.37343216 18:-0.36310151 19:-0.35613877 20:-0.14419276 21:-0.57808203 22:-0.062323686 23:0.53306293 24:-0.25234732 25:-0.40743604 26:-0.4047187 27:-0.27057403 28:-0.30796358 29:-0.16733444 30:-0.27352092 31:-0.20108834 32:-0.16073692 33:-0.18338262 34:-0.16487801 35:-0.27398148 36:-0.30811864 37:-0.39074841 38:-0.11907394 39:-0.21418162 40:-0.20511942 41:-0.13776088 42:-0.16252463 43:-0.2478133 44:-0.17397934 45:-0.31722111 46:-0.15619448 47:-0.066107452 48:-0.14383133 49:-0.22159693 50:-0.009123005 51:-0.26362848 52:-0.32602185 53:0.059684336 54:-0.28615856 55:-0.063930139 56:-0.12391762 57:-0.066542186 #
0.023182627757652545658073606205107 1:-0.32373646 2:-0.17667121 3:-0.50017285 4:-0.098842546 5:-0.44537586 6:-0.34561899 7:-0.26157999 8:-0.31560028 9:-0.30961666 10:-0.41393355 11:-0.22640149 12:-0.60592264 13:-0.21933696 14:-0.16083114 15:-0.15391792 16:-0.30765641 17:-0.37343216 18:-0.36310151 19:-0.88086981 20:-0.14419276 21:-0.57808203 22:-0.062323686 23:-0.26375422 24:-0.25234732 25:0.61297631 26:-0.4047187 27:-0.27057403 28:-0.30796358 29:-0.16733444 30:-0.27352092 31:-0.20108834 32:-0.16073692 33:1.4042337 34:-0.16487801 35:-0.27398148 36:-0.30811864 37:-0.39074841 38:-0.11907394 39:-0.21418162 40:-0.20511942 41:-0.13776088 42:-0.16252463 43:-0.2478133 44:-0.17397934 45:-0.31722111 46:-0.15619448 47:-0.066107452 48:-0.14383133 49:-0.22159693 50:0.90881026 51:-0.26362848 52:-0.52965069 53:-0.34909117 54:-0.28615856 55:-0.072748788 56:-0.2402797 57:-0.48457378 #
0.023182627757652545658073606205107 1:-0.32373646 2:-0.17667121 3:-0.50017285 4:-0.098842546 5:-0.44537586 6:-0.34561899 7:-0.26157999 8:-0.31560028 9:-0.30961666 10:-0.41393355 11:-0.22640149 12:-0.60592264 13:-0.21933696 14:-0.16083114 15:-0.15391792 16:-0.30765641 17:-0.37343216 18:-0.36310151 19:-0.66316223 20:-0.14419276 21:-0.30809808 22:-0.062323686 23:-0.26375422 24:-0.25234732 25:1.3659019 26:-0.0019242398 27:-0.27057403 28:-0.30796358 29:-0.16733444 30:0.55357343 31:-0.20108834 32:-0.16073692 33:-0.18338262 34:-0.16487801 35:-0.27398148 36:-0.30811864 37:-0.39074841 38:-0.11907394 39:-0.21418162 40:-0.20511942 41:-0.13776088 42:-0.16252463 43:-0.2478133 44:0.67862749 45:0.0033441042 46:-0.15619448 47:-0.066107452 48:-0.14383133 49:-0.22159693 50:-0.64531434 51:-0.26362848 52:-0.52965069 53:-0.34909117 54:-0.28615856 55:-0.066493958 56:-0.14181948 57:-0.24868453 #
-0.023182627757652545658073606205107 1:-0.32373646 2:-0.17667121 3:-0.50017285 4:-0.098842546 5:0.56165725 6:0.79088759 7:-0.26157999 8:5.4875183 9:-0.30961666 10:-0.41393355 11:-0.22640149 12:0.15034086 13:-0.21933696 14:-0.16083114 15:-0.15391792 16:-0.30765641 17:-0.37343216 18:-0.36310151 19:-0.88086981 20:-0.14419276 21:-0.57808203 22:-0.062323686 23:-0.26375422 24:-0.25234732 25:-0.40743604 26:-0.4047187 27:-0.27057403 28:-0.30796358 29:-0.16733444 30:-0.27352092 31:-0.20108834 32:-0.16073692 33:-0.18338262 34:-0.16487801 35:-0.27398148 36:-0.30811864 37:-0.39074841 38:-0.11907394 39:-0.21418162 40:-0.20511942 41:-0.13776088 42:-0.16252463 43:-0.2478133 44:-0.17397934 45:-0.31722111 46:-0.15619448 47:-0.066107452 48:-0.14383133 49:-0.22159693 50:-0.64531434 51:-0.26362848 52:-0.52965069 53:-0.34909117 54:-0.28615856 55:-0.096552491 56:-0.28503433 57:-0.44277063 #
-0.023182627757652545658073606205107 1:-0.32373646 2:-0.17667121 3:-0.50017285 4:-0.098842546 5:-0.44537586 6:-0.34561899 7:-0.26157999 8:-0.31560028 9:-0.30961666 10:2.1991882 11:-0.22640149 12:-0.60592264 13:-0.21933696 14:-0.16083114 15:-0.15391792 16:-0.30765641 17:-0.37343216 18:-0.36310151 19:-0.25565833 20:-0.14419276 21:0.19725648 22:-0.062323686 23:-0.26375422 24:-0.25234732 25:-0.40743604 26:-0.4047187 27:0.082981631 28:-0.30796358 29:-0.16733444 30:-0.27352092 31:-0.20108834 32:-0.16073692 33:-0.18338262 34:-0.16487801 35:-0.27398148 36:-0.30811864 37:-0.39074841 38:-0.11907394 39:-0.21418162 40:-0.20511942 41:-0.13776088 42:-0.16252463 43:-0.2478133 44:-0.17397934 45:1.5239739 46:-0.15619448 47:-0.066107452 48:-0.14383133 49:-0.22159693 50:-0.64531434 51:-0.26362848 52:0.060872968 53:-0.34909117 54:4.0131855 55:-0.072638273 56:-0.15077041 57:-0.51741916 #
0.016502072266540955547409197379238 1:-0.32373646 2:-0.17667121 3:-0.50017285 4:-0.098842546 5:-0.44537586 6:-0.34561899 7:2.6166227 8:-0.31560028 9:-0.30961666 10:-0.41393355 11:-0.22640149 12:-0.60592264 13:-0.21933696 14:-0.16083114 15:-0.15391792 16:-0.30765641 17:-0.37343216 18:-0.36310151 19:-0.13843119 20:-0.14419276 21:3.1116984 22:-0.062323686 23:-0.26375422 24:-0.25234732 25:-0.40743604 26:-0.4047187 27:-0.27057403 28:-0.30796358 29:-0.16733444 30:-0.27352092 31:-0.20108834 32:-0.16073692 33:-0.18338262 34:-0.16487801 35:-0.27398148 36:-0.30811864 37:-0.39074841 38:-0.11907394 39:-0.21418162 40:-0.20511942 41:-0.13776088 42:-0.16252463 43:-0.2478133 44:-0.17397934 45:-0.31722111 46:-0.15619448 47:-0.066107452 48:-0.14383133 49:-0.22159693 50:-0.64531434 51:-0.26362848 52:0.057963986 53:7.9256935 54:-0.28615856 55:0.52196813 56:1.6662682 57:0.058867298 #
0.023182627757652545658073606205107 1:-0.32373646 2:-0.17667121 3:1.1447431 4:-0.098842546 5:0.12439287 6:-0.34561899 7:-0.26157999 8:-0.31560028 9:-0.30961666 10:-0.41393355 11:-0.22640149 12:-0.60592264 13:-0.21933696 14:-0.16083114 15:-0.15391792 16:0.26967475 17:-0.37343216 18:-0.36310151 19:0.33047742 20:-0.14419276 21:0.32186446 22:-0.062323686 23:-0.26375422 24:-0.25234732 25:-0.40743604 26:-0.4047187 27:-0.27057403 28:-0.30796358 29:-0.16733444 30:-0.27352092 31:-0.20108834 32:-0.16073692 33:-0.18338262 34:-0.16487801 35:-0.27398148 36:-0.30811864 37:-0.39074841 38:-0.11907394 39:-0.21418162 40:-0.20511942 41:-0.13776088 42:-0.16252463 43:-0.2478133 44:-0.17397934 45:0.036222585 46:-0.15619448 47:-0.066107452 48:-0.14383133 49:-0.22159693 50:0.0863057 51:-0.26362848 52:2.7662277 53:-0.34909117 54:-0.28615856 55:-0.095226377 56:-0.27608341 57:-0.29645956 #
0.0098215805416838695279801996207425 1:-0.32373646 2:-0.17667121 3:-0.50017285 4:-0.098842546 5:-0.44537586 6:-0.34561899 7:-0.26157999 8:-0.31560028 9:-0.30961666 10:-0.41393355 11:5.3073058 12:0.61803013 13:-0.21933696 14:-0.16083114 15:-0.15391792 16:-0.30765641 17:-0.37343216 18:-0.36310151 19:0.49236253 20:-0.14419276 21:-0.57808203 22:-0.062323686 23:-0.26375422 24:-0.25234732 25:-0.40743604 26:-0.4047187 27:-0.27057403 28:-0.30796358 29:-0.16733444 30:-0.27352092 31:-0.20108834 32:-0.16073692 33:-0.18338262 34:-0.16487801 35:-0.27398148 36:-0.30811864 37:-0.39074841 38:-0.11907394 39:-0.21418162 40:-0.20511942 41:-0.13776088 42:-0.16252463 43:-0.2478133 44:-0.17397934 45:-0.31722111 46:-0.15619448 47:-0.066107452 48:-0.14383133 49:-0.22159693 50:-0.64531434 51:-0.26362848 52:3.2054842 53:-0.34909117 54:-0.28615856 55:-0.091756389 56:-0.28503433 57:-0.5801239 #
-0.0020400260533695222485428555359022 1:-0.062829345 2:-0.1285526 3:0.054508116 4:-0.098842546 5:-0.3393724 6:-0.072857417 7:-0.26157999 8:0.27841973 9:-0.21539718 10:-0.15728766 11:-0.22640149 12:-0.13823338 13:-0.21933696 14:-0.01805109 15:-0.028785268 16:-0.13311443 17:-0.051707439 18:-0.21197082 19:-0.74689591 20:-0.14419276 21:-0.46039671 22:-0.062323686 23:-0.26375422 24:-0.25234732 25:-0.40743604 26:-0.4047187 27:-0.27057403 28:-0.27380672 29:-0.1464598 30:-0.27352092 31:-0.20108834 32:-0.16073692 33:2.436955 34:-0.16487801 35:-0.27398148 36:0.14447707 37:1.6226228 38:0.20713905 39:-0.21418162 40:-0.20511942 41:0.0040901271 42:-0.11792415 43:-0.18350655 44:-0.042809062 45:-0.31722111 46:0.40573728 47:0.33822417 48:0.37482917 49:0.050124459 50:0.15446906 51:-0.26362848 52:-0.52092373 53:-0.33157223 54:-0.28615856 55:-0.073102415 56:0.37733442 57:7.2191515 #
-0.023182627757652545658073606205107 1:-0.32373646 2:-0.17667121 3:-0.50017285 4:-0.098842546 5:0.70741206 6:-0.34561899 7:1.6211542 8:-0.31560028 9:-0.30961666 10:-0.41393355 11:-0.22640149 12:-0.60592264 13:-0.21933696 14:-0.16083114 15:-0.15391792 16:3.2234621 17:-0.37343216 18:1.2804446 19:0.58726066 20:-0.14419276 21:-0.57808203 22:-0.062323686 23:-0.26375422 24:-0.25234732 25:-0.40743604 26:-0.4047187 27:-0.27057403 28:-0.30796358 29:-0.16733444 30:-0.27352092 31:-0.20108834 32:-0.16073692 33:-0.18338262 34:-0.16487801 35:-0.27398148 36:-0.30811864 37:-0.39074841 38:-0.11907394 39:-0.21418162 40:-0.20511942 41:-0.13776088 42:-0.16252463 43:-0.2478133 44:-0.17397934 45:-0.31722111 46:-0.15619448 47:-0.066107452 48:-0.14383133 49:-0.22159693 50:-0.64531434 51:-0.26362848 52:1.7917181 53:0.57941324 54:-0.28615856 55:0.28611916 56:0.88753736 57:-0.030710904 #
-0.023182627757652545658073606205107 1:-0.32373646 2:-0.17667121 3:-0.50017285 4:-0.098842546 5:-0.44537586 6:-0.34561899 7:-0.26157999 8:-0.31560028 9:-0.30961666 10:2.1991882 11:-0.22640149 12:-0.60592264 13:-0.21933696 14:-0.16083114 15:-0.15391792 16:-0.30765641 17:-0.37343216 18:-0.36310151 19:-0.25565833 20:-0.14419276 21:0.19725648 22:-0.062323686 23:-0.26375422 24:-0.25234732 25:-0.40743604 26:-0.4047187 27:0.082981631 28:-0.30796358 29:-0.16733444 30:-0.27352092 31:-0.20108834 32:-0.16073692 33:-0.18338262 34:-0.16487801 35:-0.27398148 36:-0.30811864 37:-0.39074841 38:-0.11907394 39:-0.21418162 40:-0.20511942 41:-0.13776088 42:-0.16252463 43:-0.2478133 44:-0.17397934 45:1.5239739 46:-0.15619448 47:-0.066107452 48:-0.14383133 49:-0.22159693 50:-0.64531434 51:-0.26362848 52:0.060872968 53:-0.34909117 54:4.0131855 55:-0.072638273 56:-0.15077041 57:-0.51741916 #
-0.023182627757652545658073606205107 1:1.4591289 2:-0.17667121 3:0.28403127 4:-0.098842546 5:1.2109287 6:-0.34561899 7:0.62568551 8:-0.31560028 9:-0.30961666 10:0.052695356 11:-0.22640149 12:0.42896426 13:0.38438484 14:-0.16083114 15:-0.15391792 16:0.24282214 17:0.64123815 18:-0.36310151 19:1.3296993 20:-0.14419276 21:1.0072083 22:-0.062323686 23:0.62159818 24:5.133688 25:-0.40743604 26:-0.4047187 27:-0.27057403 28:-0.30796358 29:-0.16733444 30:-0.27352092 31:-0.20108834 32:-0.16073692 33:-0.18338262 34:-0.16487801 35:-0.27398148 36:-0.30811864 37:-0.39074841 38:-0.11907394 39:-0.21418162 40:-0.20511942 41:-0.13776088 42:0.06047773 43:-0.2478133 44:-0.17397934 45:0.3650074 46:-0.15619448 47:-0.066107452 48:-0.14383133 49:-0.22159693 50:-0.33176291 51:-0.26362848 52:1.989529 53:0.2523928 54:-0.28615856 55:-0.010090005 56:1.5857098 57:0.81132418 #
-0.023182627757652545658073606205107 1:1.3721598 2:-0.17667121 3:-0.50017285 4:-0.098842546 5:1.1049252 6:-0.34561899 7:-0.26157999 8:-0.31560028 9:-0.30961666 10:0.49599281 11:-0.22640149 12:0.55832511 13:-0.21933696 14:-0.16083114 15:-0.15391792 16:-0.30765641 17:-0.37343216 18:0.37366053 19:0.86079067 20:1.7753208 21:0.2318698 22:-0.062323686 23:-0.26375422 24:-0.25234732 25:-0.40743604 26:-0.4047187 27:-0.14746089 28:1.0241534 29:-0.16733444 30:-0.27352092 31:-0.20108834 32:-0.16073692 33:-0.18338262 34:-0.16487801 35:-0.27398148 36:-0.30811864 37:-0.39074841 38:-0.11907394 39:-0.21418162 40:0.69475645 41:-0.13776088 42:-0.16252463 43:-0.2478133 44:-0.17397934 45:-0.31722111 46:-0.15619448 47:-0.066107452 48:-0.14383133 49:0.37279361 50:-0.32721868 51:-0.26362848 52:-0.32602185 53:-0.34909117 54:-0.28615856 55:-0.076019861 56:-0.2134269 57:-0.37110806 #
0.023182627757652545658073606205107 1:-0.32373646 2:-0.17667121 3:1.4125202 4:-0.098842546 5:-0.44537586 6:0.79088759 7:-0.26157999 8:0.82674593 9:-0.30961666 10:-0.41393355 11:-0.22640149 12:0.88670272 13:0.53531528 14:-0.16083114 15:-0.15391792 16:0.028001251 17:0.86397064 18:-0.36310151 19:0.51469147 20:-0.14419276 21:0.46031776 22:-0.062323686 23:-0.26375422 24:1.0423727 25:-0.40743604 26:-0.4047187 27:-0.27057403 28:-0.30796358 29:-0.16733444 30:-0.27352092 31:-0.20108834 32:-0.16073692 33:-0.18338262 34:-0.16487801 35:-0.27398148 36:-0.30811864 37:-0.39074841 38:-0.11907394 39:-0.21418162 40:-0.20511942 41:-0.13776088 42:-0.16252463 43:-0.2478133 44:-0.17397934 45:-0.31722111 46:-0.15619448 47:-0.066107452 48:-0.14383133 49:-0.22159693 50:-0.64531434 51:-0.26362848 52:0.060872968 53:0.83635783 54:-0.28615856 55:-0.058404677 56:-0.025457395 57:-0.25167048 #
-0.023182627757652545658073606205107 1:-0.32373646 2:0.12407006 3:-0.50017285 4:-0.098842546 5:-0.44537586 6:-0.34561899 7:-0.26157999 8:-0.31560028 9:-0.30961666 10:0.77597016 11:3.2377894 12:-0.35715175 13:-0.21933696 14:-0.16083114 15:-0.15391792 16:-0.30765641 17:-0.37343216 18:-0.36310151 19:-0.31148079 20:-0.14419276 21:-0.2250261 22:-0.062323686 23:-0.26375422 24:-0.25234732 25:-0.28359959 26:0.12201251 27:-0.27057403 28:-0.30796358 29:-0.16733444 30:-0.27352092 31:-0.20108834 32:-0.16073692 33:-0.18338262 34:-0.16487801 35:-0.27398148 36:-0.30811864 37:-0.39074841 38:-0.11907394 39:-0.21418162 40:-0.20511942 41:-0.13776088 42:-0.16252463 43:-0.2478133 44:-0.17397934 45:-0.31722111 46:-0.15619448 47:-0.066107452 48:-0.14383133 49:-0.22159693 50:-0.081830591 51:-0.26362848 52:0.072508901 53:-0.34909117 54:-0.28615856 55:0.10830967 56:2.7403798 57:1.2592152 #
-0.023182627757652545658073606205107 1:-0.32373646 2:-0.17667121 3:-0.50017285 4:-0.098842546 5:-0.44537586 6:-0.34561899 7:-0.26157999 8:-0.31560028 9:-0.30961666 10:-0.41393355 11:-0.22640149 12:-0.60592264 13:-0.21933696 14:-0.16083114 15:-0.15391792 16:-0.30765641 17:-0.37343216 18:-0.36310151 19:1.4413441 20:-0.14419276 21:-0.57808203 22:-0.062323686 23:-0.26375422 24:-0.25234732 25:-0.40743604 26:-0.4047187 27:-0.27057403 28:-0.30796358 29:-0.16733444 30:-0.27352092 31:-0.20108834 32:-0.16073692 33:-0.18338262 34:-0.16487801 35:-0.27398148 36:-0.30811864 37:-0.39074841 38:-0.11907394 39:-0.21418162 40:-0.20511942 41:-0.13776088 42:-0.16252463 43:-0.2478133 44:-0.17397934 45:-0.31722111 46:-0.15619448 47:-0.066107452 48:-0.14383133 49:-0.22159693 50:-0.64531434 51:-0.26362848 52:1.6229972 53:-0.34909117 54:-0.28615856 55:-0.085833088 56:-0.27608341 57:-0.59803951 #
0.0020534009748141711544644483211641 1:0.50246942 2:0.051892161 3:-0.13676119 4:6.5757008 5:1.0916747 6:-0.34561899 7:-0.26157999 8:-0.31560028 9:2.4227481 10:0.47266138 11:-0.22640149 12:-0.60592264 13:-0.21933696 14:-0.16083114 15:-0.15391792 16:-0.30765641 17:-0.37343216 18:-0.36310151 19:-0.77480716 20:1.7261025 21:-0.17656745 22:-0.062323686 23:-0.26375422 24:-0.25234732 25:-0.31332034 26:-0.4047187 27:-0.27057403 28:0.016526459 29:-0.16733444 30:-0.27352092 31:-0.20108834 32:-0.16073692 33:-0.18338262 34:0.73114747 35:-0.27398148 36:-0.30811864 37:-0.39074841 38:-0.11907394 39:-0.21418162 40:-0.20511942 41:-0.13776088 42:-0.16252463 43:-0.2478133 44:-0.17397934 45:-0.31722111 46:-0.15619448 47:-0.066107452 48:-0.14383133 49:-0.22159693 50:-0.32721868 51:-0.26362848 52:-0.52965069 53:6.1971569 54:-0.28615856 55:22.455303 56:17.948008 57:5.463419 #
-0.023182627757652545658073606205107 1:-0.32373646 2:-0.17667121 3:-0.50017285 4:-0.098842546 5:0.32314941 6:-0.34561899 7:-0.26157999 8:-0.31560028 9:-0.30961666 10:-0.41393355 11:-0.22640149 12:-0.60592264 13:-0.21933696 14:-0.16083114 15:-0.15391792 16:-0.30765641 17:-0.37343216 18:-0.36310151 19:-0.39521447 20:-0.14419276 21:-0.37732473 22:-0.062323686 23:-0.26375422 24:-0.25234732 25:-0.26378575 26:-0.10520487 27:-0.17902836 28:0.68258494 29:-0.16733444 30:-0.27352092 31:-0.20108834 32:-0.16073692 33:-0.18338262 34:0.51893091 35:0.8867777 36:-0.30811864 37:-0.39074841 38:-0.11907394 39:-0.21418162 40:-0.20511942 41:-0.13776088 42:-0.16252463 43:-0.2478133 44:-0.17397934 45:-0.31722111 46:-0.15619448 47:-0.066107452 48:-0.14383133 49:-0.22159693 50:0.35441491 51:-0.26362848 52:-0.52965069 53:11.552116 54:-0.28615856 55:0.17799684 56:2.8119872 57:0.65904123 #
-0.023182627757652545658073606205107 1:0.19807778 2:-0.17667121 3:-0.021999607 4:-0.098842546 5:-0.44537586 6:-0.34561899 7:-0.26157999 8:1.4207659 9:5.7204294 10:-0.41393355 11:-0.22640149 12:-0.22779089 13:-0.21933696 14:-0.16083114 15:-0.15391792 16:-0.30765641 17:-0.37343216 18:-0.36310151 19:-0.59617531 20:-0.14419276 21:-0.40501541 22:-0.062323686 23:-0.26375422 24:-0.25234732 25:-0.090414733 26:0.38021407 27:-0.23269306 28:-0.30796358 29:-0.16733444 30:-0.27352092 31:-0.20108834 32:-0.16073692 33:0.60271871 34:-0.16487801 35:-0.27398148 36:-0.30811864 37:-0.39074841 38:-0.11907394 39:-0.21418162 40:-0.20511942 41:-0.13776088 42:-0.16252463 43:-0.2478133 44:-0.17397934 45:-0.31722111 46:-0.15619448 47:-0.066107452 48:-0.14383133 49:0.23693292 50:0.090849921 51:0.40961075 52:-0.52965069 53:-0.13886377 54:-0.28615856 55:-0.051752016 56:-0.043359254 57:0.82923985 #
-0.020066432506675051239408702485889 1:-0.14979838 2:-0.068404347 3:0.092761979 4:-0.098842546 5:-0.39237413 6:0.6545068 7:-0.17501751 8:-0.31560028 9:-0.30961666 10:0.93929029 11:0.17850393 12:0.55832511 13:-0.21933696 14:-0.16083114 15:-0.15391792 16:-0.13311443 17:-0.27443993 18:-0.36310151 19:-0.15517792 20:-0.14419276 21:0.2318698 22:-0.062323686 23:-0.086683743 24:-0.25234732 25:0.038375173 26:0.1529967 27:-0.27057403 28:-0.23964988 29:-0.16733444 30:0.10821494 31:0.21199572 32:-0.16073692 33:-0.18338262 34:-0.16487801 35:0.086254127 36:-0.22582853 37:0.36123362 38:-0.11907394 39:0.25549996 40:-0.20511942 41:-0.043193541 42:-0.16252463 43:-0.2478133 44:-0.17397934 45:-0.21036603 46:-0.078686655 47:-0.066107452 48:0.16736497 49:-0.11121012 50:0.37259182 51:-0.26362848 52:-0.45110813 53:-0.3140533 54:-0.28615856 55:-0.082318895 56:-0.070212044 57:2.9223838 #
0.0036815515865416636835660835203043 1:0.50246942 2:0.051892161 3:0.24577741 4:-0.098842546 5:-0.19361758 6:-0.34561899 7:-0.26157999 8:2.3803368 9:-0.30961666 10:-0.41393355 11:-0.22640149 12:-0.21784006 13:-0.21933696 14:-0.16083114 15:-0.15391792 16:0.48449567 17:0.59174204 18:2.2250113 19:1.642305 20:-0.14419276 21:1.5956348 22:-0.062323686 23:-0.26375422 24:0.73163986 25:-0.40743604 26:-0.4047187 27:-0.27057403 28:-0.30796358 29:-0.16733444 30:-0.27352092 31:-0.20108834 32:-0.16073692 33:-0.18338262 34:-0.16487801 35:-0.27398148 36:-0.30811864 37:0.070143789 38:-0.11907394 39:-0.21418162 40:-0.20511942 41:-0.13776088 42:-0.16252463 43:-0.2478133 44:-0.17397934 45:-0.31722111 46:-0.15619448 47:-0.066107452 48:-0.14383133 49:-0.22159693 50:-0.64531434 51:-0.26362848 52:0.22086707 53:-0.16222237 54:-0.28615856 55:-0.052967619 56:0.055100966 57:0.27385497 #
0.023177664806469749220196874262001 1:-0.32373646 2:-0.17667121 3:1.9672011 4:-0.098842546 5:-0.44537586 6:-0.34561899 7:-0.26157999 8:-0.31560028 9:-0.30961666 10:-0.41393355 11:-0.22640149 12:0.67773515 13:-0.21933696 14:-0.16083114 15:-0.15391792 16:-0.30765641 17:-0.37343216 18:-0.36310151 19:-0.16076016 20:-0.14419276 21:3.0147812 22:-0.062323686 23:-0.26375422 24:6.4284077 25:-0.40743604 26:-0.4047187 27:-0.27057403 28:-0.30796358 29:-0.16733444 30:-0.27352092 31:-0.20108834 32:-0.16073692 33:-0.18338262 34:-0.16487801 35:-0.27398148 36:-0.30811864 37:-0.39074841 38:-0.11907394 39:-0.21418162 40:-0.20511942 41:-0.13776088 42:-0.16252463 43:-0.2478133 44:-0.17397934 45:-0.31722111 46:-0.15619448 47:-0.066107452 48:-0.14383133 49:-0.22159693 50:-0.64531434 51:-0.26362848 52:-0.52965069 53:0.80715954 54:-0.28615856 55:-0.028257735 56:-0.10601576 57:-0.47263002 #
-0.023182627757652545658073606205107 1:-0.32373646 2:-0.17667121 3:-0.50017285 4:-0.098842546 5:-0.44537586 6:-0.34561899 7:-0.26157999 8:-0.31560028 9:-0.30961666 10:-0.41393355 11:-0.22640149 12:-0.60592264 13:-0.21933696 14:5.5503707 15:-0.15391792 16:-0.30765641 17:-0.37343216 18:-0.36310151 19:2.2451875 20:-0.14419276 21:2.190984 22:-0.062323686 23:-0.26375422 24:8.0338602 25:-0.40743604 26:-0.4047187 27:-0.27057403 28:-0.30796358 29:-0.16733444 30:-0.27352092 31:-0.20108834 32:-0.16073692 33:-0.18338262 34:-0.16487801 35:-0.27398148 36:-0.30811864 37:-0.39074841 38:-0.11907394 39:-0.21418162 40:-0.20511942 41:-0.13776088 42:-0.16252463 43:-0.2478133 44:-0.17397934 45:-0.31722111 46:-0.15619448 47:-0.066107452 48:-0.14383133 49:0.81434089 50:0.4634763 51:-0.26362848 52:-0.52965069 53:-0.34909117 54:-0.28615856 55:-0.07955616 56:-0.27608341 57:-0.57415199 #
-0.023182627757652545658073606205107 1:-0.32373646 2:-0.17667121 3:-0.50017285 4:-0.098842546 5:-0.44537586 6:-0.34561899 7:-0.26157999 8:-0.31560028 9:-0.30961666 10:-0.41393355 11:-0.22640149 12:-0.60592264 13:-0.21933696 14:-0.16083114 15:-0.15391792 16:-0.30765641 17:-0.37343216 18:-0.36310151 19:1.6534696 20:-0.14419276 21:5.7146206 22:-0.062323686 23:-0.26375422 24:-0.25234732 25:-0.40743604 26:-0.4047187 27:-0.27057403 28:-0.30796358 29:-0.16733444 30:-0.27352092 31:-0.20108834 32:-0.16073692 33:-0.18338262 34:-0.16487801 35:-0.27398148 36:-0.30811864 37:-0.39074841 38:-0.11907394 39:-0.21418162 40:-0.20511942 41:-0.13776088 42:-0.16252463 43:-0.2478133 44:-0.17397934 45:-0.31722111 46:-0.15619448 47:-0.066107452 48:-0.14383133 49:-0.22159693 50:-0.64531434 51:-0.26362848 52:-0.52965069 53:-0.34909117 54:-0.28615856 55:-0.099646755 56:-0.32083806 57:-0.62192702 #
-0.023182627757652545658073606205107 1:-0.32373646 2:-0.17667121 3:1.1447431 4:-0.098842546 5:-0.44537586 6:-0.34561899 7:-0.26157999 8:-0.31560028 9:-0.30961666 10:-0.41393355 11:3.6426947 12:0.24984922 13:-0.21933696 14:-0.16083114 15:-0.15391792 16:-0.30765641 17:-0.37343216 18:1.2615533 19:2.9987905 20:-0.14419276 21:2.4263546 22:-0.062323686 23:-0.26375422 24:-0.25234732 25:-0.40743604 26:-0.4047187 27:0.00090621441 28:-0.30796358 29:-0.16733444 30:-0.27352092 31:-0.20108834 32:-0.16073692 33:-0.18338262 34:-0.16487801 35:-0.27398148 36:-0.30811864 37:-0.39074841 38:-0.11907394 39:-0.21418162 40:-0.20511942 41:-0.13776088 42:-0.16252463 43:-0.2478133 44:-0.17397934 45:-0.31722111 46:-0.15619448 47:-0.066107452 48:-0.14383133 49:-0.22159693 50:-0.64531434 51:-0.26362848 52:-0.52965069 53:-0.34909117 54:-0.28615856 55:-0.098607965 56:-0.31188715 57:-0.57116604 #
-0.023182627757652545658073606205107 1:-0.32373646 2:-0.17667121 3:0.22665049 4:-0.098842546 5:0.058140695 6:-0.34561899 7:-0.26157999 8:-0.31560028 9:-0.30961666 10:-0.41393355 11:-0.22640149 12:-0.22779089 13:0.92773449 14:-0.16083114 15:-0.15391792 16:-0.30765641 17:-0.37343216 18:-0.36310151 19:-0.24449384 20:-0.14419276 21:-0.31502074 22:-0.062323686 23:-0.26375422 24:-0.25234732 25:-0.40743604 26:-0.4047187 27:-0.27057403 28:-0.30796358 29:-0.16733444 30:-0.27352092 31:-0.20108834 32:-0.16073692 33:-0.18338262 34:-0.16487801 35:-0.27398148 36:-0.30811864 37:-0.39074841 38:-0.11907394 39:-0.21418162 40:-0.20511942 41:-0.13776088 42:-0.16252463 43:-0.2478133 44:-0.17397934 45:-0.0048755165 46:-0.15619448 47:-0.066107452 48:-0.14383133 49:-0.22159693 50:1.2359943 51:-0.26362848 52:0.27322876 53:-0.34909117 54:-0.28615856 55:-0.097348161 56:-0.31188715 57:-0.4786019 #
0.023182627757652545658073606205107 1:-0.32373646 2:-0.17667121 3:-0.50017285 4:-0.098842546 5:-0.44537586 6:-0.34561899 7:0.71224803 8:3.8425398 9:1.8103215 10:1.7092279 11:-0.22640149 12:-0.60592264 13:-0.21933696 14:-0.16083114 15:-0.15391792 16:-0.30765641 17:0.74023032 18:0.48700854 19:-0.3728855 20:-0.14419276 21:-0.2665621 22:-0.062323686 23:1.7282887 24:-0.25234732 25:-0.40743604 26:-0.4047187 27:-0.27057403 28:-0.30796358 29:-0.16733444 30:-0.27352092 31:-0.20108834 32:-0.16073692 33:-0.18338262 34:-0.16487801 35:-0.27398148 36:-0.30811864 37:-0.39074841 38:-0.11907394 39:-0.21418162 40:-0.20511942 41:-0.13776088 42:-0.16252463 43:-0.2478133 44:-0.17397934 45:-0.31722111 46:-0.15619448 47:-0.066107452 48:-0.14383133 49:-0.22159693 50:0.50891852 51:-0.26362848 52:-0.34638473 53:0.39254439 54:-0.28615856 55:-0.017096294 56:0.081953757 57:-0.15612039 #
-0.023182627757652545658073606205107 1:0.19807778 2:-0.17667121 3:-0.021999607 4:-0.098842546 5:-0.44537586 6:-0.34561899 7:-0.26157999 8:1.4207659 9:5.7204294 10:-0.41393355 11:-0.22640149 12:-0.22779089 13:-0.21933696 14:-0.16083114 15:-0.15391792 16:-0.30765641 17:-0.37343216 18:-0.36310151 19:-0.59617531 20:-0.14419276 21:-0.40501541 22:-0.062323686 23:-0.26375422 24:-0.25234732 25:-0.090414733 26:0.38021407 27:-0.23269306 28:-0.30796358 29:-0.16733444 30:-0.27352092 31:-0.20108834 32:-0.16073692 33:0.60271871 34:-0.16487801 35:-0.27398148 36:-0.30811864 37:-0.39074841 38:-0.11907394 39:-0.21418162 40:-0.20511942 41:-0.13776088 42:-0.16252463 43:-0.2478133 44:-0.17397934 45:-0.31722111 46:-0.15619448 47:-0.066107452 48:-0.14383133 49:0.23693292 50:0.090849921 51:0.40961075 52:-0.52965069 53:-0.13886377 54:-0.28615856 55:-0.051752016 56:-0.043359254 57:0.82923985 #
0.023182627757652545658073606205107 1:-0.32373646 2:-0.17667121 3:0.11188891 4:-0.098842546 5:0.41590247 6:2.6092982 7:0.43091992 8:1.1466029 9:-0.30961666 10:-0.41393355 11:-0.22640149 12:-0.28749591 13:0.74661791 14:-0.16083114 15:-0.15391792 16:0.12198539 17:0.41850561 18:-0.36310151 19:0.39188209 20:-0.14419276 21:1.6717842 22:-0.062323686 23:-0.26375422 24:1.4048942 25:-0.40743604 26:-0.4047187 27:-0.27057403 28:-0.30796358 29:-0.16733444 30:-0.27352092 31:-0.20108834 32:-0.16073692 33:-0.18338262 34:-0.16487801 35:-0.27398148 36:-0.30811864 37:-0.39074841 38:-0.11907394 39:-0.21418162 40:-0.20511942 41:-0.13776088 42:-0.16252463 43:-0.2478133 44:-0.17397934 45:-0.05419324 46:-0.15619448 47:-0.066107452 48:-0.14383133 49:-0.22159693 50:-0.17271507 51:-0.26362848 52:-0.52965069 53:0.56773388 54:0.81515127 55:-0.087778054 56:-0.2402797 57:-0.20986731 #
-0.0013283781381301623236018683016368 1:0.19807778 2:-0.17667121 3:-0.021999607 4:-0.098842546 5:-0.44537586 6:-0.34561899 7:-0.26157999 8:1.4207659 9:5.7204294 10:-0.41393355 11:-0.22640149 12:-0.22779089 13:-0.21933696 14:-0.16083114 15:-0.15391792 16:-0.30765641 17:-0.37343216 18:-0.36310151 19:-0.59617531 20:-0.14419276 21:-0.40501541 22:-0.062323686 23:-0.26375422 24:-0.25234732 25:-0.090414733 26:0.38021407 27:-0.23269306 28:-0.30796358 29:-0.16733444 30:-0.27352092 31:-0.20108834 32:-0.16073692 33:0.60271871 34:-0.16487801 35:-0.27398148 36:-0.30811864 37:-0.39074841 38:-0.11907394 39:-0.21418162 40:-0.20511942 41:-0.13776088 42:-0.16252463 43:-0.2478133 44:-0.17397934 45:-0.31722111 46:-0.15619448 47:-0.066107452 48:-0.14383133 49:0.23693292 50:0.090849921 51:0.40961075 52:-0.52965069 53:-0.13886377 54:-0.28615856 55:-0.051752016 56:-0.043359254 57:0.82923985 #
0.023182627757652545658073606205107 1:-0.32373646 2:-0.17667121 3:-0.50017285 4:-0.098842546 5:-0.44537586 6:-0.34561899 7:-0.26157999 8:-0.31560028 9:-0.30961666 10:-0.41393355 11:-0.22640149 12:-0.60592264 13:-0.21933696 14:-0.16083114 15:-0.15391792 16:-0.30765641 17:-0.37343216 18:-0.36310151 19:-0.16076016 20:-0.14419276 21:-0.13503145 22:-0.062323686 23:-0.26375422 24:-0.25234732 25:-0.40743604 26:-0.4047187 27:-0.27057403 28:-0.30796358 29:-0.16733444 30:-0.27352092 31:-0.20108834 32:-0.16073692 33:-0.18338262 34:-0.16487801 35:-0.27398148 36:-0.30811864 37:-0.39074841 38:-0.11907394 39:-0.21418162 40:-0.20511942 41:-0.13776088 42:-0.16252463 43:-0.2478133 44:-0.17397934 45:-0.31722111 46:-0.15619448 47:-0.066107452 48:-0.14383133 49:-0.22159693 50:-0.64531434 51:-0.26362848 52:-0.52965069 53:-0.34909117 54:-0.28615856 55:-0.097370259 56:-0.3029362 57:-0.54130667 #
-0.023182627757652545658073606205107 1:-0.32373646 2:-0.17667121 3:6.0794911 4:-0.098842546 5:-0.44537586 6:-0.34561899 7:-0.26157999 8:-0.31560028 9:-0.30961666 10:-0.41393355 11:-0.22640149 12:-0.60592264 13:-0.21933696 14:-0.16083114 15:-0.15391792 16:-0.30765641 17:-0.37343216 18:6.1355176 19:-0.88086981 20:-0.14419276 21:1.8033148 22:-0.062323686 23:-0.26375422 24:-0.25234732 25:-0.40743604 26:-0.4047187 27:-0.27057403 28:-0.30796358 29:-0.16733444 30:-0.27352092 31:-0.20108834 32:-0.16073692 33:-0.18338262 34:-0.16487801 35:-0.27398148 36:-0.30811864 37:-0.39074841 38:-0.11907394 39:-0.21418162 40:-0.20511942 41:-0.13776088 42:-0.16252463 43:-0.2478133 44:-0.17397934 45:-0.31722111 46:-0.15619448 47:-0.066107452 48:-0.14383133 49:-0.22159693 50:-0.64531434 51:-0.26362848 52:-0.52965069 53:-0.34909117 54:-0.28615856 55:-0.083578698 56:-0.29398528 57:-0.5801239 #
-0.023182627757652545658073606205107 1:-0.32373646 2:-0.17667121 3:-0.50017285 4:-0.098842546 5:7.8361464 6:-0.34561899 7:-0.26157999 8:-0.31560028 9:-0.30961666 10:-0.41393355 11:-0.22640149 12:-0.60592264 13:-0.21933696 14:-0.16083114 15:-0.15391792 16:-0.30765641 17:-0.37343216 18:-0.36310151 19:-0.88086981 20:-0.14419276 21:-0.57808203 22:-0.062323686 23:-0.26375422 24:-0.25234732 25:-0.40743604 26:-0.4047187 27:-0.27057403 28:-0.30796358 29:-0.16733444 30:-0.27352092 31:-0.20108834 32:-0.16073692 33:-0.18338262 34:-0.16487801 35:-0.27398148 36:-0.30811864 37:-0.39074841 38:-0.11907394 39:-0.21418162 40:-0.20511942 41:-0.13776088 42:-0.16252463 43:-0.2478133 44:-0.17397934 45:-0.31722111 46:-0.15619448 47:-0.066107452 48:-0.14383133 49:-0.22159693 50:-0.64531434 51:-0.26362848 52:-0.52965069 53:-0.34909117 54:-0.28615856 55:-0.07754489 56:-0.27608341 57:-0.60699731 #
0.023182627757652545658073606205107 1:-0.32373646 2:-0.17667121 3:1.1447431 4:-0.098842546 5:0.12439287 6:-0.34561899 7:-0.26157999 8:-0.31560028 9:-0.30961666 10:-0.41393355 11:-0.22640149 12:-0.60592264 13:-0.21933696 14:-0.16083114 15:-0.15391792 16:0.26967475 17:-0.37343216 18:-0.36310151 19:0.33047742 20:-0.14419276 21:0.32186446 22:-0.062323686 23:-0.26375422 24:-0.25234732 25:-0.40743604 26:-0.4047187 27:-0.27057403 28:-0.30796358 29:-0.16733444 30:-0.27352092 31:-0.20108834 32:-0.16073692 33:-0.18338262 34:-0.16487801 35:-0.27398148 36:-0.30811864 37:-0.39074841 38:-0.11907394 39:-0.21418162 40:-0.20511942 41:-0.13776088 42:-0.16252463 43:-0.2478133 44:-0.17397934 45:0.036222585 46:-0.15619448 47:-0.066107452 48:-0.14383133 49:-0.22159693 50:0.0863057 51:-0.26362848 52:2.7662277 53:-0.34909117 54:-0.28615856 55:-0.095226377 56:-0.27608341 57:-0.29645956 #
7.8710367217016408147856054711156e-16 1:-0.32373646 2:-0.17667121 3:0.11188891 4:-0.098842546 5:0.40265203 6:2.5638378 7:0.43091992 8:2.6088059 9:-0.30961666 10:-0.41393355 11:-0.22640149 12:-0.28749591 13:0.74661791 14:-0.16083114 15:-0.15391792 16:0.12198539 17:0.41850561 18:-0.36310151 19:0.38629985 20:-0.14419276 21:1.6648614 22:-0.062323686 23:-0.26375422 24:1.4048942 25:-0.40743604 26:-0.4047187 27:-0.27057403 28:-0.30796358 29:-0.16733444 30:-0.27352092 31:-0.20108834 32:-0.16073692 33:-0.18338262 34:-0.16487801 35:-0.27398148 36:-0.30811864 37:-0.39074841 38:-0.11907394 39:-0.21418162 40:-0.20511942 41:-0.13776088 42:-0.16252463 43:-0.2478133 44:-0.17397934 45:0.20883462 46:-0.15619448 47:-0.066107452 48:-0.14383133 49:-0.22159693 50:-0.16817084 51:-0.26362848 52:-0.52965069 53:0.56773388 54:-0.28615856 55:-0.088728428 56:-0.2402797 57:-0.22181107 #
0.023182627757652545658073606205107 1:0.41550037 2:-0.17667121 3:-0.34715742 4:-0.098842546 5:0.12439287 6:0.018063109 7:-0.088455014 8:1.6492351 9:0.067261241 10:-0.22728199 11:-0.22640149 12:-0.0088725127 13:0.29382658 14:1.0527992 15:-0.15391792 16:-0.30765641 17:0.047284782 18:-0.21197082 19:-0.21100038 20:-0.14419276 21:1.5956348 22:-0.062323686 23:1.2413449 24:0.16196308 25:-0.40743604 26:-0.4047187 27:-0.27057403 28:-0.30796358 29:-0.16733444 30:-0.27352092 31:-0.20108834 32:-0.16073692 33:-0.18338262 34:-0.16487801 35:-0.27398148 36:-0.30811864 37:-0.39074841 38:-0.11907394 39:-0.21418162 40:-0.20511942 41:-0.13776088 42:-0.16252463 43:-0.2478133 44:-0.17397934 45:-0.31722111 46:-0.15619448 47:-0.066107452 48:-0.14383133 49:-0.22159693 50:-0.27723223 51:0.24130096 52:-0.27366012 53:-0.27317575 54:-0.28615856 55:-0.029804867 56:0.099855617 57:2.7671149 #
0.023182627757652545658073606205107 1:-0.32373646 2:-0.17667121 3:-0.50017285 4:-0.098842546 5:-0.44537586 6:-0.34561899 7:-0.26157999 8:-0.31560028 9:-0.30961666 10:-0.41393355 11:-0.22640149 12:-0.60592264 13:-0.21933696 14:-0.16083114 15:-0.15391792 16:-0.30765641 17:-0.37343216 18:-0.36310151 19:-0.66316223 20:-0.14419276 21:-0.30809808 22:-0.062323686 23:-0.26375422 24:-0.25234732 25:1.3659019 26:-0.0019242398 27:-0.27057403 28:-0.30796358 29:-0.16733444 30:0.55357343 31:-0.20108834 32:-0.16073692 33:-0.18338262 34:-0.16487801 35:-0.27398148 36:-0.30811864 37:-0.39074841 38:-0.11907394 39:-0.21418162 40:-0.20511942 41:-0.13776088 42:-0.16252463 43:-0.2478133 44:0.67862749 45:0.0033441042 46:-0.15619448 47:-0.066107452 48:-0.14383133 49:-0.22159693 50:-0.64531434 51:-0.26362848 52:-0.52965069 53:-0.34909117 54:-0.28615856 55:-0.066493958 56:-0.14181948 57:-0.24868453 #
0.023182627757652545658073606205107 1:0.28504682 2:-0.0082560908 3:0.054508116 4:-0.098842546 5:-0.44537586 6:-0.34561899 7:-0.26157999 8:-0.31560028 9:5.2022223 10:0.26267835 11:0.40345138 12:-0.028774185 13:-0.21933696 14:-0.16083114 15:-0.15391792 16:-0.11968812 17:-0.37343216 18:-0.098622821 19:0.43095782 20:0.54486334 21:0.031112511 22:-0.062323686 23:-0.26375422 24:2.0263598 25:-0.40743604 26:-0.4047187 27:-0.27057403 28:-0.30796358 29:-0.16733444 30:-0.27352092 31:-0.20108834 32:-0.16073692 33:-0.18338262 34:-0.16487801 35:-0.27398148 36:-0.30811864 37:-0.39074841 38:4.6110144 39:-0.21418162 40:-0.20511942 41:-0.13776088 42:-0.16252463 43:-0.2478133 44:-0.17397934 45:-0.31722111 46:-0.15619448 47:-0.066107452 48:-0.14383133 49:-0.22159693 50:0.28170732 51:-0.26362848 52:0.063781954 53:0.39254439 54:1.8741031 55:-0.056282897 56:0.32362884 57:0.55751926 #
-0.0088215914401088644375414915543843 1:-0.32373646 2:-0.17667121 3:-0.50017285 4:-0.098842546 5:-0.44537586 6:-0.34561899 7:-0.26157999 8:-0.31560028 9:-0.30961666 10:-0.41393355 11:-0.22640149 12:0.070734173 13:-0.21933696 14:-0.16083114 15:-0.15391792 16:-0.30765641 17:1.3094356 18:-0.36310151 19:-0.50127715 20:-0.14419276 21:-0.57808203 22:-0.062323686 23:-0.26375422 24:-0.25234732 25:-0.40743604 26:-0.4047187 27:-0.27057403 28:-0.30796358 29:-0.16733444 30:-0.27352092 31:-0.20108834 32:-0.16073692 33:-0.18338262 34:-0.16487801 35:-0.27398148 36:3.8886781 37:-0.39074841 38:-0.11907394 39:-0.21418162 40:-0.20511942 41:-0.13776088 42:-0.16252463 43:-0.2478133 44:7.2590036 45:-0.31722111 46:-0.15619448 47:-0.066107452 48:2.2074296 49:-0.22159693 50:-0.25451109 51:-0.26362848 52:-0.52965069 53:-0.34909117 54:-0.28615856 55:-0.090584986 56:-0.28503433 57:-0.40096748 #
-0.023182627757652545658073606205107 1:-0.32373646 2:-0.17667121 3:-0.50017285 4:-0.098842546 5:-0.44537586 6:-0.34561899 7:-0.26157999 8:-0.31560028 9:-0.30961666 10:-0.41393355 11:-0.22640149 12:-0.60592264 13:-0.21933696 14:-0.16083114 15:-0.15391792 16:-0.30765641 17:-0.37343216 18:-0.36310151 19:1.4413441 20:-0.14419276 21:-0.57808203 22:-0.062323686 23:-0.26375422 24:-0.25234732 25:-0.40743604 26:-0.4047187 27:-0.27057403 28:-0.30796358 29:-0.16733444 30:-0.27352092 31:-0.20108834 32:-0.16073692 33:-0.18338262 34:-0.16487801 35:-0.27398148 36:-0.30811864 37:-0.39074841 38:-0.11907394 39:-0.21418162 40:-0.20511942 41:-0.13776088 42:-0.16252463 43:-0.2478133 44:-0.17397934 45:-0.31722111 46:-0.15619448 47:-0.066107452 48:-0.14383133 49:-0.22159693 50:-0.64531434 51:-0.26362848 52:1.6229972 53:-0.34909117 54:-0.28615856 55:-0.085833088 56:-0.27608341 57:-0.59803951 #
-0.023182627757652545658073606205107 1:-0.32373646 2:-0.17667121 3:-0.50017285 4:-0.098842546 5:-0.44537586 6:-0.34561899 7:-0.26157999 8:-0.31560028 9:-0.30961666 10:3.9023838 11:-0.22640149 12:-0.60592264 13:-0.21933696 14:-0.16083114 15:-0.15391792 16:-0.30765641 17:-0.37343216 18:-0.36310151 19:1.1845609 20:-0.14419276 21:-0.57808203 22:-0.062323686 23:-0.26375422 24:-0.25234732 25:-0.40743604 26:-0.4047187 27:0.31342417 28:-0.30796358 29:-0.16733444 30:-0.27352092 31:-0.20108834 32:-0.16073692 33:-0.18338262 34:-0.16487801 35:-0.27398148 36:-0.30811864 37:-0.39074841 38:-0.11907394 39:-0.21418162 40:-0.20511942 41:-0.13776088 42:-0.16252463 43:-0.2478133 44:-0.17397934 45:-0.31722111 46:-0.15619448 47:-0.066107452 48:-0.14383133 49:-0.22159693 50:-0.64531434 51:-0.26362848 52:0.48558456 53:-0.34909117 54:-0.28615856 55:-0.089258879 56:-0.29398528 57:-0.56220824 #
0.023182627757652545658073606205107 1:-0.32373646 2:-0.17667121 3:0.87696612 4:-0.098842546 5:1.952953 6:-0.34561899 7:-0.26157999 8:-0.31560028 9:-0.30961666 10:0.42599848 11:-0.22640149 12:-0.24769257 13:-0.21933696 14:-0.16083114 15:-0.15391792 16:-0.30765641 17:1.4084278 18:-0.36310151 19:-0.47894815 20:-0.14419276 21:-0.32886606 22:-0.062323686 23:-0.26375422 24:-0.25234732 25:-0.40743604 26:-0.4047187 27:-0.27057403 28:-0.30796358 29:-0.16733444 30:-0.27352092 31:-0.20108834 32:-0.16073692 33:0.37151241 34:-0.16487801 35:-0.27398148 36:-0.30811864 37:-0.39074841 38:-0.11907394 39:-0.21418162 40:-0.20511942 41:-0.13776088 42:-0.16252463 43:-0.2478133 44:-0.17397934 45:-0.31722111 46:-0.15619448 47:-0.066107452 48:-0.14383133 49:0.22844163 50:0.55890501 51:-0.26362848 52:-0.52965069 53:-0.34909117 54:-0.28615856 55:-0.087645441 56:-0.2134269 57:-0.37409401 #
0.017086872508466324077636144807002 1:-0.32373646 2:0.02783286 3:-0.50017285 4:-0.098842546 5:-0.44537586 6:-0.34561899 7:0.10631058 8:2.0604799 9:-0.30961666 10:-0.01729898 11:1.3482307 12:-0.088479199 13:-0.21933696 14:-0.16083114 15:-0.15391792 16:-0.30765641 17:0.047284782 18:0.95929188 19:-0.38963223 20:-0.14419276 21:-0.093495466 22:7.4518995 23:1.2856125 24:-0.25234732 25:-0.40743604 26:-0.4047187 27:-0.27057403 28:-0.30796358 29:-0.16733444 30:-0.27352092 31:-0.20108834 32:-0.16073692 33:-0.18338262 34:-0.16487801 35:-0.27398148 36:-0.30811864 37:-0.39074841 38:-0.11907394 39:-0.21418162 40:-0.20511942 41:-0.13776088 42:-0.16252463 43:-0.2478133 44:-0.17397934 45:-0.31722111 46:-0.15619448 47:-0.066107452 48:-0.14383133 49:0.016159287 50:0.0045096669 51:0.26000205 52:-0.28238708 53:-0.01623112 54:4.5638404 55:-0.042977575 56:0.01929725 57:0.60828024 #
0.023182627757652545658073606205107 1:-0.32373646 2:0.90599734 3:-0.50017285 4:-0.098842546 5:-0.44537586 6:-0.34561899 7:-0.26157999 8:-0.31560028 9:-0.30961666 10:-0.41393355 11:-0.22640149 12:-0.60592264 13:-0.21933696 14:-0.16083114 15:-0.15391792 16:0.90071112 17:-0.37343216 18:3.0562301 19:1.1454852 20:-0.14419276 21:1.3048829 22:-0.062323686 23:-0.26375422 24:-0.25234732 25:-0.40743604 26:-0.4047187 27:-0.27057403 28:-0.30796358 29:-0.16733444 30:-0.27352092 31:-0.20108834 32:-0.16073692 33:-0.18338262 34:-0.16487801 35:-0.27398148 36:-0.30811864 37:-0.39074841 38:-0.11907394 39:-0.21418162 40:-0.20511942 41:-0.13776088 42:-0.16252463 43:-0.2478133 44:-0.17397934 45:0.42254475 46:-0.15619448 47:-0.066107452 48:-0.14383133 49:-0.22159693 50:-0.64531434 51:-0.26362848 52:-0.049668405 53:0.61445111 54:-0.28615856 55:0.016741656 56:0.03719911 57:-0.35617837 #
-0.022130395365787765282750143569501 1:-0.32373646 2:-0.17667121 3:-0.50017285 4:-0.098842546 5:-0.44537586 6:-0.34561899 7:-0.26157999 8:-0.31560028 9:-0.30961666 10:-0.41393355 11:-0.22640149 12:-0.60592264 13:-0.21933696 14:-0.16083114 15:-0.15391792 16:-0.30765641 17:1.4084278 18:-0.36310151 19:-0.88086981 20:-0.14419276 21:-0.57808203 22:-0.062323686 23:-0.26375422 24:-0.25234732 25:-0.050787069 26:-0.4047187 27:-0.27057403 28:-0.30796358 29:-0.16733444 30:-0.27352092 31:-0.20108834 32:-0.16073692 33:-0.18338262 34:-0.16487801 35:-0.27398148 36:-0.30811864 37:-0.39074841 38:11.624594 39:-0.21418162 40:-0.20511942 41:-0.13776088 42:-0.16252463 43:-0.2478133 44:-0.17397934 45:-0.31722111 46:-0.15619448 47:-0.066107452 48:-0.14383133 49:-0.22159693 50:-0.64531434 51:-0.26362848 52:-0.52965069 53:-0.34909117 54:8.0795603 55:-0.070184968 56:-0.25818154 57:-0.28152987 #
0.023182627757652545658073606205107 1:-0.32373646 2:-0.17667121 3:0.24577741 4:-0.098842546 5:0.58815813 6:-0.34561899 7:-0.26157999 8:-0.041437197 9:-0.026958233 10:0.02936391 11:0.35846189 12:-0.34720093 13:0.17308222 14:-0.16083114 15:-0.15391792 16:-0.30765641 17:-0.37343216 18:-0.36310151 19:-0.70223796 20:-0.14419276 21:-0.53654605 22:-0.062323686 23:-0.26375422 24:-0.25234732 25:-0.40743604 26:-0.4047187 27:-0.27057403 28:-0.30796358 29:-0.16733444 30:-0.14627562 31:-0.20108834 32:-0.16073692 33:-0.18338262 34:-0.16487801 35:-0.27398148 36:-0.30811864 37:-0.39074841 38:-0.11907394 39:-0.21418162 40:-0.20511942 41:-0.13776088 42:-0.16252463 43:-0.054893032 44:-0.17397934 45:-0.31722111 46:-0.15619448 47:-0.066107452 48:-0.14383133 49:-0.22159693 50:-0.49989921 51:-0.26362848 52:-0.52965069 53:-0.16222237 54:-0.28615856 55:-0.095093764 56:-0.19552505 57:0.079768874 #
0.023182627757652545658073606205107 1:-0.32373646 2:0.28045553 3:0.95347381 4:-0.098842546 5:0.058140695 6:-0.34561899 7:0.14959183 8:-0.31560028 9:-0.30961666 10:0.91595882 11:0.62839884 12:-0.60592264 13:0.35419875 14:-0.16083114 15:1.0348423 16:-0.052556586 17:-0.37343216 18:1.4315753 19:-0.77480716 20:0.79095483 21:0.079571165 22:-0.062323686 23:-0.26375422 24:-0.25234732 25:-0.40743604 26:-0.4047187 27:-0.27057403 28:-0.30796358 29:-0.16733444 30:-0.27352092 31:-0.20108834 32:-0.16073692 33:-0.18338262 34:-0.16487801 35:-0.27398148 36:-0.30811864 37:-0.39074841 38:-0.11907394 39:-0.21418162 40:0.23328166 41:-0.13776088 42:-0.16252463 43:-0.2478133 44:-0.17397934 45:-0.31722111 46:-0.15619448 47:-0.066107452 48:-0.14383133 49:-0.22159693 50:-0.64531434 51:-0.26362848 52:1.3088269 53:-0.17390168 54:1.6199546 55:0.02830093 56:0.85173368 57:1.9579252 #
0.023182627757652545658073606205107 1:-0.32373646 2:-0.17667121 3:-0.50017285 4:-0.098842546 5:-0.44537586 6:-0.34561899 7:-0.26157999 8:-0.31560028 9:-0.30961666 10:-0.41393355 11:-0.22640149 12:-0.60592264 13:-0.21933696 14:-0.16083114 15:-0.15391792 16:-0.30765641 17:-0.37343216 18:-0.36310151 19:-0.16076016 20:-0.14419276 21:-0.13503145 22:-0.062323686 23:-0.26375422 24:-0.25234732 25:-0.40743604 26:-0.4047187 27:-0.27057403 28:-0.30796358 29:-0.16733444 30:-0.27352092 31:-0.20108834 32:-0.16073692 33:-0.18338262 34:-0.16487801 35:-0.27398148 36:-0.30811864 37:-0.39074841 38:-0.11907394 39:-0.21418162 40:-0.20511942 41:-0.13776088 42:-0.16252463 43:-0.2478133 44:-0.17397934 45:-0.31722111 46:-0.15619448 47:-0.066107452 48:-0.14383133 49:-0.22159693 50:-0.64531434 51:-0.26362848 52:-0.52965069 53:-0.34909117 54:-0.28615856 55:-0.097370259 56:-0.3029362 57:-0.54130667 #
-0.023182627757652545658073606205107 1:-0.32373646 2:-0.17667121 3:-0.50017285 4:-0.098842546 5:-0.44537586 6:-0.34561899 7:-0.26157999 8:-0.31560028 9:-0.30961666 10:-0.41393355 11:-0.22640149 12:-0.60592264 13:-0.21933696 14:-0.16083114 15:-0.15391792 16:-0.30765641 17:-0.37343216 18:-0.36310151 19:-0.88086981 20:-0.14419276 21:-0.57808203 22:-0.062323686 23:-0.26375422 24:-0.25234732 25:-0.40743604 26:-0.4047187 27:3.9373696 28:-0.30796358 29:-0.16733444 30:-0.27352092 31:-0.20108834 32:-0.16073692 33:-0.18338262 34:-0.16487801 35:-0.27398148 36:-0.30811864 37:-0.39074841 38:-0.11907394 39:-0.21418162 40:-0.20511942 41:-0.13776088 42:-0.16252463 43:-0.2478133 44:-0.17397934 45:5.1570463 46:-0.15619448 47:-0.066107452 48:-0.14383133 49:-0.22159693 50:-0.64531434 51:-0.26362848 52:2.8127713 53:-0.34909117 54:-0.28615856 55:-0.088595822 56:-0.3029362 57:-0.60102546 #
0.023182627757652545658073606205107 1:-0.32373646 2:-0.17667121 3:-0.50017285 4:-0.098842546 5:-0.44537586 6:-0.34561899 7:1.9890447 8:-0.31560028 9:-0.30961666 10:-0.41393355 11:-0.22640149 12:-0.60592264 13:-0.21933696 14:-0.16083114 15:-0.15391792 16:2.4850152 17:-0.37343216 18:-0.36310151 19:0.2802372 20:-0.14419276 21:0.86183232 22:-0.062323686 23:-0.26375422 24:-0.25234732 25:-0.40743604 26:-0.4047187 27:-0.27057403 28:-0.30796358 29:-0.16733444 30:-0.27352092 31:-0.20108834 32:-0.16073692 33:-0.18338262 34:-0.16487801 35:-0.27398148 36:-0.30811864 37:-0.39074841 38:-0.11907394 39:-0.21418162 40:-0.20511942 41:-0.13776088 42:-0.16252463 43:-0.2478133 44:-0.17397934 45:-0.31722111 46:-0.15619448 47:-0.066107452 48:-0.14383133 49:-0.22159693 50:-0.64531434 51:-0.26362848 52:-0.52965069 53:-0.34909117 54:-0.28615856 55:-0.037496313 56:-0.23132877 57:-0.45471439 #
-0.0033859066324342500936550592882668 1:-0.32373646 2:-0.17667121 3:-0.50017285 4:-0.098842546 5:0.32314941 6:-0.34561899 7:-0.26157999 8:-0.31560028 9:-0.30961666 10:-0.41393355 11:-0.22640149 12:-0.60592264 13:-0.21933696 14:-0.16083114 15:-0.15391792 16:-0.30765641 17:-0.37343216 18:-0.36310151 19:-0.39521447 20:-0.14419276 21:-0.37732473 22:-0.062323686 23:-0.26375422 24:-0.25234732 25:-0.26378575 26:-0.10520487 27:-0.17902836 28:0.68258494 29:-0.16733444 30:-0.27352092 31:-0.20108834 32:-0.16073692 33:-0.18338262 34:0.51893091 35:0.8867777 36:-0.30811864 37:-0.39074841 38:-0.11907394 39:-0.21418162 40:-0.20511942 41:-0.13776088 42:-0.16252463 43:-0.2478133 44:-0.17397934 45:-0.31722111 46:-0.15619448 47:-0.066107452 48:-0.14383133 49:-0.22159693 50:0.35441491 51:-0.26362848 52:-0.52965069 53:11.552116 54:-0.28615856 55:0.17799684 56:2.8119872 57:0.65904123 #
-0.016191148587310275758222033459788 1:-0.32373646 2:0.087981112 3:-0.50017285 4:-0.098842546 5:0.42915291 6:0.6545068 7:-0.26157999 8:1.694929 9:1.7632117 10:1.6625651 11:-0.22640149 12:-0.60592264 13:0.44475701 14:1.4097494 15:-0.15391792 16:1.4780422 17:-0.37343216 18:-0.36310151 19:-0.38404998 20:-0.14419276 21:-0.27348477 22:-0.062323686 23:-0.26375422 24:0.88700628 25:1.2470189 26:3.2720716 27:-0.062228724 28:0.067761727 29:0.062286589 30:0.19304512 31:0.30379218 32:0.35839441 33:-0.18338262 34:0.35387358 35:0.16630648 36:0.14447707 37:2.3018324 38:-0.11907394 39:-0.21418162 40:0.30250287 41:-0.13776088 42:-0.16252463 43:0.45956102 44:-0.17397934 45:-0.13638945 46:-0.15619448 47:-0.066107452 48:-0.14383133 49:1.0351145 50:1.0451369 51:1.8121926 52:0.55249119 53:0.95315081 54:-0.28615856 55:-0.046049736 56:0.04615004 57:0.59036463 #
0.023148935051018178221671206529209 1:-0.32373646 2:-0.17667121 3:-0.50017285 4:-0.098842546 5:-0.44537586 6:-0.34561899 7:-0.26157999 8:-0.31560028 9:-0.30961666 10:-0.41393355 11:5.3073058 12:0.61803013 13:-0.21933696 14:-0.16083114 15:-0.15391792 16:-0.30765641 17:-0.37343216 18:-0.36310151 19:0.49236253 20:-0.14419276 21:-0.57808203 22:-0.062323686 23:-0.26375422 24:-0.25234732 25:-0.40743604 26:-0.4047187 27:-0.27057403 28:-0.30796358 29:-0.16733444 30:-0.27352092 31:-0.20108834 32:-0.16073692 33:-0.18338262 34:-0.16487801 35:-0.27398148 36:-0.30811864 37:-0.39074841 38:-0.11907394 39:-0.21418162 40:-0.20511942 41:-0.13776088 42:-0.16252463 43:-0.2478133 44:-0.17397934 45:-0.31722111 46:-0.15619448 47:-0.066107452 48:-0.14383133 49:-0.22159693 50:-0.64531434 51:-0.26362848 52:3.2054842 53:-0.34909117 54:-0.28615856 55:-0.091756389 56:-0.28503433 57:-0.5801239 #
0.023182627757652545658073606205107 1:-0.32373646 2:-0.17667121 3:-0.50017285 4:-0.098842546 5:-0.44537586 6:-0.34561899 7:-0.26157999 8:-0.31560028 9:-0.30961666 10:-0.41393355 11:-0.22640149 12:-0.60592264 13:-0.21933696 14:-0.16083114 15:-0.15391792 16:1.4109107 17:-0.37343216 18:-0.36310151 19:1.2627124 20:-0.14419276 21:2.0802214 22:-0.062323686 23:-0.26375422 24:-0.25234732 25:-0.40743604 26:-0.4047187 27:-0.27057403 28:-0.30796358 29:-0.16733444 30:-0.27352092 31:-0.20108834 32:-0.16073692 33:-0.18338262 34:-0.16487801 35:-0.27398148 36:-0.30811864 37:-0.39074841 38:-0.11907394 39:-0.21418162 40:-0.20511942 41:-0.13776088 42:-0.16252463 43:-0.2478133 44:-0.17397934 45:0.73489034 46:-0.15619448 47:-0.066107452 48:-0.14383133 49:-0.22159693 50:-0.64531434 51:-0.26362848 52:0.13941552 53:0.99402839 54:-0.28615856 55:0.00065150071 56:0.03719911 57:-0.42186904 #
0.023182627757652545658073606205107 1:-0.32373646 2:-0.17667121 3:-0.50017285 4:-0.098842546 5:-0.44537586 6:-0.34561899 7:-0.26157999 8:-0.31560028 9:-0.30961666 10:-0.41393355 11:-0.22640149 12:-0.60592264 13:-0.21933696 14:-0.16083114 15:-0.15391792 16:-0.30765641 17:-0.37343216 18:-0.36310151 19:-0.16076016 20:-0.14419276 21:-0.13503145 22:-0.062323686 23:-0.26375422 24:-0.25234732 25:-0.40743604 26:-0.4047187 27:-0.27057403 28:-0.30796358 29:-0.16733444 30:-0.27352092 31:-0.20108834 32:-0.16073692 33:-0.18338262 34:-0.16487801 35:-0.27398148 36:-0.30811864 37:-0.39074841 38:-0.11907394 39:-0.21418162 40:-0.20511942 41:-0.13776088 42:-0.16252463 43:-0.2478133 44:-0.17397934 45:-0.31722111 46:-0.15619448 47:-0.066107452 48:-0.14383133 49:-0.22159693 50:-0.64531434 51:-0.26362848 52:-0.52965069 53:-0.34909117 54:-0.28615856 55:-0.097370259 56:-0.3029362 57:-0.54130667 #
-0.023182627757652545658073606205107 1:-0.32373646 2:-0.17667121 3:5.065764 4:-0.098842546 5:-0.44537586 6:-0.34561899 7:-0.26157999 8:-0.31560028 9:-0.30961666 10:-0.41393355 11:-0.22640149 12:-0.60592264 13:-0.21933696 14:-0.16083114 15:-0.15391792 16:-0.30765641 17:-0.37343216 18:-0.36310151 19:0.20208576 20:-0.14419276 21:-0.57808203 22:-0.062323686 23:-0.26375422 24:-0.25234732 25:-0.40743604 26:-0.4047187 27:-0.27057403 28:-0.30796358 29:-0.16733444 30:-0.27352092 31:-0.20108834 32:-0.16073692 33:-0.18338262 34:-0.16487801 35:-0.27398148 36:-0.30811864 37:-0.39074841 38:-0.11907394 39:-0.21418162 40:-0.20511942 41:-0.13776088 42:-0.16252463 43:-0.2478133 44:-0.17397934 45:-0.31722111 46:-0.15619448 47:-0.066107452 48:-0.14383133 49:-0.22159693 50:1.1223887 51:-0.26362848 52:0.60194391 53:-0.34909117 54:-0.28615856 55:-0.093900271 56:-0.3029362 57:-0.55026448 #
-0.023182627757652545658073606205107 1:-0.32373646 2:-0.17667121 3:-0.50017285 4:-0.098842546 5:-0.44537586 6:-0.34561899 7:-0.26157999 8:-0.31560028 9:-0.30961666 10:-0.41393355 11:-0.22640149 12:-0.60592264 13:-0.21933696 14:-0.16083114 15:-0.15391792 16:-0.30765641 17:-0.37343216 18:-0.36310151 19:1.3520283 20:-0.14419276 21:-0.57808203 22:-0.062323686 23:-0.26375422 24:-0.25234732 25:-0.40743604 26:-0.4047187 27:-0.27057403 28:-0.30796358 29:-0.16733444 30:-0.27352092 31:-0.20108834 32:-0.16073692 33:-0.18338262 34:-0.16487801 35:-0.27398148 36:-0.30811864 37:-0.39074841 38:-0.11907394 39:-0.21418162 40:-0.20511942 41:-0.13776088 42:-0.16252463 43:-0.2478133 44:-0.17397934 45:-0.31722111 46:-0.15619448 47:-0.066107452 48:-0.14383133 49:-0.22159693 50:-0.64531434 51:-0.26362848 52:1.5909983 53:-0.34909117 54:-0.28615856 55:-0.080307625 56:-0.29398528 57:-0.59206766 #
-0.021906579519241516779137768367036 1:-0.32373646 2:-0.17667121 3:-0.50017285 4:-0.098842546 5:6.179842 6:-0.34561899 7:-0.26157999 8:-0.31560028 9:-0.30961666 10:-0.41393355 11:-0.22640149 12:-0.60592264 13:-0.21933696 14:-0.16083114 15:-0.15391792 16:-0.30765641 17:-0.37343216 18:-0.36310151 19:-0.88086981 20:-0.14419276 21:-0.57808203 22:-0.062323686 23:-0.26375422 24:-0.25234732 25:-0.40743604 26:-0.4047187 27:-0.27057403 28:-0.30796358 29:-0.16733444 30:-0.27352092 31:-0.20108834 32:-0.16073692 33:-0.18338262 34:-0.16487801 35:-0.27398148 36:-0.30811864 37:-0.39074841 38:-0.11907394 39:-0.21418162 40:-0.20511942 41:-0.13776088 42:-0.16252463 43:-0.2478133 44:-0.17397934 45:-0.31722111 46:-0.15619448 47:-0.066107452 48:-0.14383133 49:-0.22159693 50:-0.64531434 51:-0.26362848 52:-0.52965069 53:-0.34909117 54:-0.28615856 55:-0.044392094 56:-0.24923062 57:-0.57415199 #
-0.023182627757652545658073606205107 1:-0.32373646 2:-0.17667121 3:-0.50017285 4:-0.098842546 5:-0.44537586 6:-0.34561899 7:-0.26157999 8:-0.31560028 9:-0.30961666 10:-0.41393355 11:-0.22640149 12:-0.60592264 13:-0.21933696 14:-0.16083114 15:-0.15391792 16:-0.30765641 17:-0.37343216 18:-0.36310151 19:-0.88086981 20:-0.14419276 21:-0.57808203 22:-0.062323686 23:-0.26375422 24:-0.25234732 25:-0.40743604 26:-0.4047187 27:-0.27057403 28:-0.30796358 29:-0.16733444 30:-0.27352092 31:-0.20108834 32:-0.16073692 33:-0.18338262 34:-0.16487801 35:-0.27398148 36:-0.30811864 37:-0.39074841 38:-0.11907394 39:-0.21418162 40:-0.20511942 41:-0.13776088 42:3.9630189 43:-0.2478133 44:-0.17397934 45:-0.31722111 46:-0.15619448 47:-0.066107452 48:-0.14383133 49:-0.22159693 50:-0.64531434 51:-0.26362848 52:0.99174768 53:-0.34909117 54:-0.28615856 55:-0.064924724 56:-0.2402797 57:-0.52936292 #
0.023182627757652545658073606205107 1:-0.32373646 2:-0.17667121 3:-0.50017285 4:-0.098842546 5:-0.44537586 6:-0.34561899 7:-0.26157999 8:-0.31560028 9:-0.30961666 10:-0.41393355 11:-0.22640149 12:-0.60592264 13:-0.21933696 14:-0.16083114 15:-0.15391792 16:-0.30765641 17:-0.37343216 18:-0.36310151 19:-0.88086981 20:-0.14419276 21:-0.57808203 22:-0.062323686 23:-0.26375422 24:-0.25234732 25:-0.40743604 26:-0.4047187 27:-0.27057403 28:-0.30796358 29:-0.16733444 30:-0.27352092 31:-0.20108834 32:-0.16073692 33:-0.18338262 34:-0.16487801 35:-0.27398148 36:-0.30811864 37:-0.39074841 38:-0.11907394 39:-0.21418162 40:-0.20511942 41:-0.13776088 42:-0.16252463 43:-0.2478133 44:-0.17397934 45:-0.31722111 46:-0.15619448 47:-0.066107452 48:-0.14383133 49:-0.22159693 50:-0.64531434 51:-0.26362848 52:-0.52965069 53:-0.34909117 54:-0.28615856 55:-0.093767658 56:-0.29398528 57:-0.5801239 #
-0.023182627757652545658073606205107 1:-0.32373646 2:-0.17667121 3:6.0794911 4:-0.098842546 5:-0.44537586 6:-0.34561899 7:-0.26157999 8:-0.31560028 9:-0.30961666 10:-0.41393355 11:-0.22640149 12:-0.60592264 13:-0.21933696 14:-0.16083114 15:-0.15391792 16:-0.30765641 17:-0.37343216 18:6.1355176 19:-0.88086981 20:-0.14419276 21:1.8033148 22:-0.062323686 23:-0.26375422 24:-0.25234732 25:-0.40743604 26:-0.4047187 27:-0.27057403 28:-0.30796358 29:-0.16733444 30:-0.27352092 31:-0.20108834 32:-0.16073692 33:-0.18338262 34:-0.16487801 35:-0.27398148 36:-0.30811864 37:-0.39074841 38:-0.11907394 39:-0.21418162 40:-0.20511942 41:-0.13776088 42:-0.16252463 43:-0.2478133 44:-0.17397934 45:-0.31722111 46:-0.15619448 47:-0.066107452 48:-0.14383133 49:-0.22159693 50:-0.64531434 51:-0.26362848 52:-0.52965069 53:-0.34909117 54:-0.28615856 55:-0.083578698 56:-0.29398528 57:-0.5801239 #
-0.023182627757652545658073606205107 1:-0.32373646 2:-0.1285526 3:-0.021999607 4:-0.098842546 5:-0.39237413 6:-0.16377795 7:-0.26157999 8:-0.31560028 9:0.44413912 10:-0.22728199 11:0.67338836 12:0.011029158 13:-0.21933696 14:-0.16083114 15:-0.15391792 16:-0.092835501 17:-0.27443993 18:-0.36310151 19:-0.48453039 20:-0.14419276 21:-0.29425275 22:-0.062323686 23:0.26745722 24:-0.25234732 25:0.58820903 26:0.018731885 27:-0.27057403 28:-0.1030225 29:-0.16733444 30:-0.10386053 31:0.074301034 32:-0.16073692 33:-0.18338262 34:-0.16487801 35:-0.19392912 36:-0.30811864 37:0.094401278 38:-0.11907394 39:-0.21418162 40:-0.20511942 41:-0.13776088 42:-0.16252463 43:-0.2478133 44:0.00091436831 45:-0.25146413 46:-0.15619448 47:-0.066107452 48:-0.0055218609 49:-0.11970141 50:0.59980303 51:-0.039215405 52:-0.4394722 53:-0.022070769 54:-0.28615856 55:-0.081302203 56:-0.12391762 57:3.7793486 #
0.023182627757652545658073606205107 1:-0.32373646 2:-0.17667121 3:0.87696612 4:-0.098842546 5:1.952953 6:-0.34561899 7:-0.26157999 8:-0.31560028 9:-0.30961666 10:0.42599848 11:-0.22640149 12:-0.24769257 13:-0.21933696 14:-0.16083114 15:-0.15391792 16:-0.30765641 17:1.4084278 18:-0.36310151 19:-0.47894815 20:-0.14419276 21:-0.32886606 22:-0.062323686 23:-0.26375422 24:-0.25234732 25:-0.40743604 26:-0.4047187 27:-0.27057403 28:-0.30796358 29:-0.16733444 30:-0.27352092 31:-0.20108834 32:-0.16073692 33:0.37151241 34:-0.16487801 35:-0.27398148 36:-0.30811864 37:-0.39074841 38:-0.11907394 39:-0.21418162 40:-0.20511942 41:-0.13776088 42:-0.16252463 43:-0.2478133 44:-0.17397934 45:-0.31722111 46:-0.15619448 47:-0.066107452 48:-0.14383133 49:0.22844163 50:0.55890501 51:-0.26362848 52:-0.52965069 53:-0.34909117 54:-0.28615856 55:-0.087645441 56:-0.2134269 57:-0.37409401 #
0.023182627757652545658073606205107 1:0.024139695 2:-0.17667121 3:-0.34715742 4:-0.098842546 5:-0.23336889 6:-0.34561899 7:-0.26157999 8:-0.31560028 9:-0.30961666 10:-0.41393355 11:-0.22640149 12:-0.37705344 13:-0.21933696 14:-0.16083114 15:-0.15391792 16:-0.20024595 17:0.19577312 18:-0.36310151 19:-0.65758002 20:0.64329994 21:-0.41886073 22:-0.062323686 23:-0.26375422 24:-0.25234732 25:-0.40743604 26:-0.4047187 27:-0.27057403 28:-0.30796358 29:-0.16733444 30:-0.27352092 31:-0.20108834 32:-0.16073692 33:-0.18338262 34:-0.16487801 35:-0.27398148 36:-0.30811864 37:-0.19668855 38:-0.11907394 39:-0.21418162 40:-0.20511942 41:-0.13776088 42:-0.16252463 43:-0.2478133 44:0.17580809 45:-0.31722111 46:-0.15619448 47:-0.066107452 48:-0.14383133 49:-0.22159693 50:0.39076871 51:-0.26362848 52:0.65139663 53:-0.12718448 54:-0.28615856 55:-0.05962028 56:0.26992327 57:3.107512 #
0.023182627757652545658073606205107 1:-0.32373646 2:0.90599734 3:-0.50017285 4:-0.098842546 5:-0.44537586 6:-0.34561899 7:-0.26157999 8:-0.31560028 9:-0.30961666 10:-0.41393355 11:-0.22640149 12:-0.60592264 13:-0.21933696 14:-0.16083114 15:-0.15391792 16:0.90071112 17:-0.37343216 18:3.0562301 19:1.1454852 20:-0.14419276 21:1.3048829 22:-0.062323686 23:-0.26375422 24:-0.25234732 25:-0.40743604 26:-0.4047187 27:-0.27057403 28:-0.30796358 29:-0.16733444 30:-0.27352092 31:-0.20108834 32:-0.16073692 33:-0.18338262 34:-0.16487801 35:-0.27398148 36:-0.30811864 37:-0.39074841 38:-0.11907394 39:-0.21418162 40:-0.20511942 41:-0.13776088 42:-0.16252463 43:-0.2478133 44:-0.17397934 45:0.42254475 46:-0.15619448 47:-0.066107452 48:-0.14383133 49:-0.22159693 50:-0.64531434 51:-0.26362848 52:-0.049668405 53:0.61445111 54:-0.28615856 55:0.016741656 56:0.03719911 57:-0.35617837 #
0.023182627757652545658073606205107 1:-0.32373646 2:-0.17667121 3:0.5518083 4:-0.098842546 5:0.28339812 6:-0.34561899 7:-0.26157999 8:-0.31560028 9:-0.30961666 10:0.86929595 11:-0.22640149 12:-0.60592264 13:-0.21933696 14:-0.16083114 15:-0.15391792 16:0.43079042 17:-0.37343216 18:-0.36310151 19:0.051365145 20:-0.14419276 21:-0.19733544 22:-0.062323686 23:-0.26375422 24:-0.25234732 25:-0.40743604 26:-0.4047187 27:-0.27057403 28:-0.30796358 29:-0.16733444 30:-0.27352092 31:-0.20108834 32:-0.16073692 33:-0.18338262 34:-0.16487801 35:-0.27398148 36:-0.30811864 37:-0.39074841 38:-0.11907394 39:-0.21418162 40:-0.20511942 41:-0.13776088 42:-0.16252463 43:-0.2478133 44:-0.17397934 45:0.13485803 46:-0.15619448 47:-0.066107452 48:-0.14383133 49:-0.22159693 50:-0.19543619 51:-0.26362848 52:2.0680716 53:-0.34909117 54:-0.28615856 55:-0.074848458 56:-0.18657412 57:-0.27555799 #
0.023182627757652545658073606205107 1:-0.019344825 2:0.26842588 3:1.0491085 4:-0.098842546 5:0.23039636 6:0.97272867 7:-0.11009564 8:-0.31560028 9:0.020151503 10:0.44932991 11:0.088524953 12:0.86680102 13:0.2032683 14:-0.16083114 15:0.28404635 16:-0.30765641 17:-0.026959384 18:0.46811721 19:1.1008272 20:-0.14419276 21:0.70261103 22:-0.062323686 23:-0.26375422 24:0.47269586 25:-0.40743604 26:-0.4047187 27:-0.27057403 28:-0.30796358 29:-0.16733444 30:-0.27352092 31:-0.20108834 32:-0.16073692 33:-0.18338262 34:-0.16487801 35:-0.27398148 36:-0.30811864 37:-0.051143631 38:-0.11907394 39:-0.21418162 40:-0.20511942 41:-0.13776088 42:-0.16252463 43:-0.2478133 44:-0.17397934 45:-0.31722111 46:-0.15619448 47:-0.066107452 48:-0.14383133 49:0.19447646 50:-0.33176291 51:-0.26362848 52:-0.067122303 53:0.57941324 54:-0.095547244 55:-0.045364577 56:0.064051896 57:1.7578672 #
-0.023182627757652545658073606205107 1:0.41550037 2:-0.17667121 3:0.47530058 4:-0.098842546 5:-0.22011846 6:-0.34561899 7:-0.26157999 8:-0.31560028 9:-0.30961666 10:2.7591429 11:-0.22640149 12:-0.43675846 13:-0.21933696 14:-0.16083114 15:-0.15391792 16:-0.079409197 17:0.46800172 18:-0.36310151 19:-0.21658263 20:-0.14419276 21:0.010344515 22:-0.062323686 23:-0.26375422 24:-0.25234732 25:0.35044304 26:0.29758957 27:-0.27057403 28:-0.30796358 29:-0.16733444 30:-0.27352092 31:-0.20108834 32:-0.16073692 33:-0.18338262 34:-0.16487801 35:-0.27398148 36:-0.30811864 37:-0.39074841 38:-0.11907394 39:-0.21418162 40:-0.20511942 41:-0.13776088 42:-0.16252463 43:-0.2478133 44:-0.17397934 45:-0.31722111 46:-0.15619448 47:-0.066107452 48:-0.14383133 49:0.0076679932 50:-0.1409055 51:-0.26362848 52:-0.043850437 53:-0.34909117 54:-0.28615856 55:-0.079887688 56:-0.13286854 57:0.0081063164 #
-0.023182627757652545658073606205107 1:-0.1932829 2:-0.14058225 3:-0.50017285 4:-0.098842546 5:-0.44537586 6:-0.34561899 7:-0.26157999 8:-0.31560028 9:-0.026958233 10:-0.20395054 11:-0.091433018 12:-0.45666012 13:-0.21933696 14:-0.16083114 15:-0.15391792 16:-0.30765641 17:-0.29918799 18:-0.13640548 19:-0.86412305 20:-0.14419276 21:-0.57808203 22:-0.062323686 23:-0.26375422 24:-0.25234732 25:-0.17957698 26:-0.12586099 27:-0.27057403 28:-0.30796358 29:-0.13602248 30:-0.14627562 31:-0.20108834 32:-0.16073692 33:-0.18338262 34:-0.16487801 35:-0.27398148 36:-0.24640106 37:-0.026886148 38:-0.11907394 39:-0.21418162 40:-0.20511942 41:0.71334511 42:-0.16252463 43:-0.15135317 44:-0.17397934 45:-0.21858566 46:2.1496634 47:-0.066107452 48:-0.14383133 49:-0.017805887 50:0.1635575 51:-0.26362848 52:-0.1573008 53:-0.34909117 54:-0.28615856 55:-0.046005532 56:0.10880654 57:4.8184557 #
-0.015867778802624060013881646113987 1:0.19807778 2:-0.17667121 3:-0.021999607 4:-0.098842546 5:-0.44537586 6:-0.34561899 7:-0.26157999 8:1.4207659 9:5.7204294 10:-0.41393355 11:-0.22640149 12:-0.22779089 13:-0.21933696 14:-0.16083114 15:-0.15391792 16:-0.30765641 17:-0.37343216 18:-0.36310151 19:-0.59617531 20:-0.14419276 21:-0.40501541 22:-0.062323686 23:-0.26375422 24:-0.25234732 25:-0.090414733 26:0.38021407 27:-0.23269306 28:-0.30796358 29:-0.16733444 30:-0.27352092 31:-0.20108834 32:-0.16073692 33:0.60271871 34:-0.16487801 35:-0.27398148 36:-0.30811864 37:-0.39074841 38:-0.11907394 39:-0.21418162 40:-0.20511942 41:-0.13776088 42:-0.16252463 43:-0.2478133 44:-0.17397934 45:-0.31722111 46:-0.15619448 47:-0.066107452 48:-0.14383133 49:0.23693292 50:0.090849921 51:0.40961075 52:-0.52965069 53:-0.13886377 54:-0.28615856 55:-0.051752016 56:-0.043359254 57:0.82923985 #
0.023182627757652545658073606205107 1:-0.019344825 2:-0.1526119 3:-0.21326891 4:-0.098842546 5:-0.11411497 6:0.56358629 7:-0.26157999 8:-0.22421259 9:0.3970294 10:-0.41393355 11:-0.22640149 12:-0.35715175 13:0.53531528 14:0.33889902 15:-0.15391792 16:-0.24052487 17:0.17102507 18:-0.36310151 19:-0.85295856 20:-0.14419276 21:-0.5642367 22:-0.062323686 23:1.3741478 24:-0.14876972 25:-0.40743604 26:-0.4047187 27:-0.27057403 28:-0.30796358 29:-0.1464598 30:-0.27352092 31:-0.20108834 32:-0.16073692 33:-0.18338262 34:-0.16487801 35:-0.27398148 36:-0.20525599 37:0.33697614 38:0.20713905 39:-0.21418162 40:-0.15897194 41:-0.13776088 42:-0.16252463 43:-0.18350655 44:-0.17397934 45:-0.30078185 46:-0.15619448 47:-0.066107452 48:-0.14383133 49:-0.12819271 50:-0.54534143 51:-0.26362848 52:-0.52965069 53:-0.22061887 54:-0.28615856 55:-0.090297662 56:-0.15077041 57:2.2445755 #
-0.023182627757652545658073606205107 1:0.19807778 2:-0.17667121 3:-0.021999607 4:-0.098842546 5:-0.44537586 6:-0.34561899 7:-0.26157999 8:1.4207659 9:5.7204294 10:-0.41393355 11:-0.22640149 12:-0.22779089 13:-0.21933696 14:-0.16083114 15:-0.15391792 16:-0.30765641 17:-0.37343216 18:-0.36310151 19:-0.59617531 20:-0.14419276 21:-0.40501541 22:-0.062323686 23:-0.26375422 24:-0.25234732 25:-0.090414733 26:0.38021407 27:-0.23269306 28:-0.30796358 29:-0.16733444 30:-0.27352092 31:-0.20108834 32:-0.16073692 33:0.60271871 34:-0.16487801 35:-0.27398148 36:-0.30811864 37:-0.39074841 38:-0.11907394 39:-0.21418162 40:-0.20511942 41:-0.13776088 42:-0.16252463 43:-0.2478133 44:-0.17397934 45:-0.31722111 46:-0.15619448 47:-0.066107452 48:-0.14383133 49:0.23693292 50:0.090849921 51:0.40961075 52:-0.52965069 53:-0.13886377 54:-0.28615856 55:-0.051752016 56:-0.043359254 57:0.82923985 #
-0.023182627757652545658073606205107 1:-0.1932829 2:-0.14058225 3:-0.50017285 4:-0.098842546 5:-0.44537586 6:-0.34561899 7:-0.26157999 8:-0.31560028 9:-0.026958233 10:-0.20395054 11:-0.091433018 12:-0.45666012 13:-0.21933696 14:-0.16083114 15:-0.15391792 16:-0.30765641 17:-0.29918799 18:-0.13640548 19:-0.86412305 20:-0.14419276 21:-0.57808203 22:-0.062323686 23:-0.26375422 24:-0.25234732 25:-0.17957698 26:-0.12586099 27:-0.27057403 28:-0.30796358 29:-0.13602248 30:-0.14627562 31:-0.20108834 32:-0.16073692 33:-0.18338262 34:-0.16487801 35:-0.27398148 36:-0.24640106 37:-0.026886148 38:-0.11907394 39:-0.21418162 40:-0.20511942 41:0.71334511 42:-0.16252463 43:-0.15135317 44:-0.17397934 45:-0.21858566 46:2.1496634 47:-0.066107452 48:-0.14383133 49:-0.017805887 50:0.1635575 51:-0.26362848 52:-0.1573008 53:-0.34909117 54:-0.28615856 55:-0.046005532 56:0.10880654 57:4.8184557 #
0.023182627757652545658073606205107 1:-0.32373646 2:-0.17667121 3:-0.50017285 4:-0.098842546 5:-0.44537586 6:-0.34561899 7:-0.26157999 8:5.5789061 9:-0.30961666 10:0.58931857 11:-0.22640149 12:-0.60592264 13:-0.21933696 14:-0.16083114 15:-0.15391792 16:0.26967475 17:-0.37343216 18:2.9050994 19:-0.64083326 20:-0.14419276 21:-0.28040743 22:-0.062323686 23:-0.26375422 24:-0.25234732 25:-0.40743604 26:-0.4047187 27:-0.27057403 28:-0.30796358 29:-0.16733444 30:-0.27352092 31:-0.20108834 32:-0.16073692 33:-0.18338262 34:-0.16487801 35:-0.27398148 36:0.57650024 37:-0.39074841 38:-0.11907394 39:-0.21418162 40:-0.20511942 41:-0.13776088 42:-0.16252463 43:-0.2478133 44:-0.17397934 45:-0.31722111 46:-0.15619448 47:-0.066107452 48:-0.14383133 49:-0.22159693 50:-0.081830591 51:-0.26362848 52:0.37213421 53:0.012967132 54:-0.28615856 55:-0.089104161 56:-0.25818154 57:-0.44277063 #
0.023182627757652545658073606205107 1:0.024139695 2:-0.17667121 3:-0.34715742 4:-0.098842546 5:-0.23336889 6:-0.34561899 7:-0.26157999 8:-0.31560028 9:-0.30961666 10:-0.41393355 11:-0.22640149 12:-0.37705344 13:-0.21933696 14:-0.16083114 15:-0.15391792 16:-0.20024595 17:0.19577312 18:-0.36310151 19:-0.65758002 20:0.64329994 21:-0.41886073 22:-0.062323686 23:-0.26375422 24:-0.25234732 25:-0.40743604 26:-0.4047187 27:-0.27057403 28:-0.30796358 29:-0.16733444 30:-0.27352092 31:-0.20108834 32:-0.16073692 33:-0.18338262 34:-0.16487801 35:-0.27398148 36:-0.30811864 37:-0.19668855 38:-0.11907394 39:-0.21418162 40:-0.20511942 41:-0.13776088 42:-0.16252463 43:-0.2478133 44:0.17580809 45:-0.31722111 46:-0.15619448 47:-0.066107452 48:-0.14383133 49:-0.22159693 50:0.39076871 51:-0.26362848 52:0.65139663 53:-0.12718448 54:-0.28615856 55:-0.05962028 56:0.26992327 57:3.107512 #
0.023182627757652545658073606205107 1:0.28504682 2:-0.0082560908 3:0.054508116 4:-0.098842546 5:-0.44537586 6:-0.34561899 7:-0.26157999 8:-0.31560028 9:5.2022223 10:0.26267835 11:0.40345138 12:-0.028774185 13:-0.21933696 14:-0.16083114 15:-0.15391792 16:-0.11968812 17:-0.37343216 18:-0.098622821 19:0.43095782 20:0.54486334 21:0.031112511 22:-0.062323686 23:-0.26375422 24:2.0263598 25:-0.40743604 26:-0.4047187 27:-0.27057403 28:-0.30796358 29:-0.16733444 30:-0.27352092 31:-0.20108834 32:-0.16073692 33:-0.18338262 34:-0.16487801 35:-0.27398148 36:-0.30811864 37:-0.39074841 38:4.6110144 39:-0.21418162 40:-0.20511942 41:-0.13776088 42:-0.16252463 43:-0.2478133 44:-0.17397934 45:-0.31722111 46:-0.15619448 47:-0.066107452 48:-0.14383133 49:-0.22159693 50:0.28170732 51:-0.26362848 52:0.063781954 53:0.39254439 54:1.8741031 55:-0.056282897 56:0.32362884 57:0.55751926 #
0.023182627757652545658073606205107 1:0.024139695 2:-0.17667121 3:-0.34715742 4:-0.098842546 5:-0.23336889 6:-0.34561899 7:-0.26157999 8:-0.31560028 9:-0.30961666 10:-0.41393355 11:-0.22640149 12:-0.37705344 13:-0.21933696 14:-0.16083114 15:-0.15391792 16:-0.20024595 17:0.19577312 18:-0.36310151 19:-0.65758002 20:0.64329994 21:-0.41886073 22:-0.062323686 23:-0.26375422 24:-0.25234732 25:-0.40743604 26:-0.4047187 27:-0.27057403 28:-0.30796358 29:-0.16733444 30:-0.27352092 31:-0.20108834 32:-0.16073692 33:-0.18338262 34:-0.16487801 35:-0.27398148 36:-0.30811864 37:-0.19668855 38:-0.11907394 39:-0.21418162 40:-0.20511942 41:-0.13776088 42:-0.16252463 43:-0.2478133 44:0.17580809 45:-0.31722111 46:-0.15619448 47:-0.066107452 48:-0.14383133 49:-0.22159693 50:0.39076871 51:-0.26362848 52:0.65139663 53:-0.12718448 54:-0.28615856 55:-0.05962028 56:0.26992327 57:3.107512 #
0.023182627757652545658073606205107 1:0.024139695 2:0.02783286 3:0.15014276 4:-0.098842546 5:1.4891877 6:0.42720547 7:-0.088455014 8:-0.31560028 9:0.86812675 10:-0.22728199 11:-0.22640149 12:0.75734186 13:-0.21933696 14:0.41028905 15:-0.15391792 16:0.37708521 17:-0.17544772 18:-0.21197082 19:1.0338403 20:-0.14419276 21:-0.045036808 22:-0.062323686 23:0.090386741 24:0.62806225 25:-0.40743604 26:-0.4047187 27:-0.27057403 28:-0.30796358 29:-0.16733444 30:-0.27352092 31:-0.20108834 32:-0.16073692 33:-0.18338262 34:-0.16487801 35:-0.27398148 36:-0.30811864 37:-0.39074841 38:-0.11907394 39:-0.21418162 40:-0.20511942 41:-0.13776088 42:-0.16252463 43:-0.2478133 44:-0.17397934 45:-0.31722111 46:-0.15619448 47:-0.066107452 48:-0.14383133 49:-0.22159693 50:-0.29540911 51:0.93324131 52:0.48267558 53:0.2523928 54:-0.032010138 55:-0.0025753712 56:0.73537159 57:3.7106719 #
0.023182627757652545658073606205107 1:-0.32373646 2:-0.17667121 3:1.1256162 4:-0.098842546 5:0.11114244 6:-0.34561899 7:-0.26157999 8:-0.31560028 9:-0.30961666 10:-0.41393355 11:-0.22640149 12:-0.60592264 13:-0.21933696 14:-0.16083114 15:-0.15391792 16:0.25624844 17:-0.37343216 18:-0.36310151 19:0.31373066 20:-0.14419276 21:0.30801913 22:-0.062323686 23:-0.26375422 24:-0.25234732 25:-0.40743604 26:-0.4047187 27:-0.27057403 28:-0.30796358 29:-0.16733444 30:-0.27352092 31:-0.20108834 32:-0.16073692 33:-0.18338262 34:-0.16487801 35:-0.27398148 36:-0.30811864 37:-0.39074841 38:-0.11907394 39:-0.21418162 40:-0.20511942 41:-0.13776088 42:-0.16252463 43:-0.2478133 44:-0.17397934 45:0.028002966 46:-0.15619448 47:-0.066107452 48:-0.14383133 49:-0.22159693 50:0.077217251 51:-0.26362848 52:2.7196839 53:-0.34909117 54:-0.28615856 55:-0.095093764 56:-0.26713249 57:-0.28750175 #
0.011293152730418143381285744908382 1:-0.32373646 2:-0.17667121 3:-0.50017285 4:-0.098842546 5:-0.44537586 6:-0.34561899 7:2.0539665 8:-0.31560028 9:-0.30961666 10:-0.41393355 11:-0.22640149 12:-0.60592264 13:-0.21933696 14:-0.16083114 15:-0.15391792 16:2.5789993 17:-0.37343216 18:-0.36310151 19:-0.88086981 20:-0.14419276 21:0.91029096 22:-0.062323686 23:-0.26375422 24:-0.25234732 25:-0.40743604 26:-0.4047187 27:-0.27057403 28:-0.30796358 29:-0.16733444 30:-0.27352092 31:-0.20108834 32:-0.16073692 33:-0.18338262 34:-0.16487801 35:-0.27398148 36:-0.30811864 37:-0.39074841 38:-0.11907394 39:-0.21418162 40:2.2637708 41:-0.13776088 42:-0.16252463 43:-0.2478133 44:-0.17397934 45:-0.31722111 46:-0.15619448 47:-0.066107452 48:-0.14383133 49:-0.22159693 50:-0.64531434 51:-0.26362848 52:-0.10784808 53:2.202836 54:5.8769407 55:-0.081456922 56:-0.2402797 57:-0.45172846 #
0.023182627757652545658073606205107 1:-0.32373646 2:-0.17667121 3:1.6037894 4:-0.098842546 5:0.28339812 6:-0.34561899 7:-0.26157999 8:-0.31560028 9:-0.30961666 10:0.86929595 11:-0.22640149 12:-0.60592264 13:-0.21933696 14:-0.16083114 15:-0.15391792 16:0.43079042 17:-0.37343216 18:-0.36310151 19:0.34722415 20:-0.14419276 21:0.18341115 22:-0.062323686 23:-0.26375422 24:-0.25234732 25:-0.40743604 26:-0.4047187 27:-0.27057403 28:-0.30796358 29:-0.16733444 30:-0.27352092 31:-0.20108834 32:-0.16073692 33:-0.18338262 34:-0.16487801 35:-0.27398148 36:-0.30811864 37:-0.39074841 38:-0.11907394 39:-0.21418162 40:-0.20511942 41:-0.13776088 42:-0.16252463 43:-0.2478133 44:-0.17397934 45:0.13485803 46:-0.15619448 47:-0.066107452 48:-0.14383133 49:-0.22159693 50:-0.20452464 51:-0.26362848 52:1.457185 53:-0.34909117 54:-0.28615856 55:-0.070074461 56:-0.15972133 57:-0.20389542 #
0.023182627757652545658073606205107 1:-0.32373646 2:-0.17667121 3:-0.50017285 4:-0.098842546 5:-0.44537586 6:-0.34561899 7:0.71224803 8:3.8425398 9:1.8103215 10:1.7092279 11:-0.22640149 12:-0.60592264 13:-0.21933696 14:-0.16083114 15:-0.15391792 16:-0.30765641 17:0.74023032 18:0.48700854 19:-0.3728855 20:-0.14419276 21:-0.2665621 22:-0.062323686 23:1.7282887 24:-0.25234732 25:-0.40743604 26:-0.4047187 27:-0.27057403 28:-0.30796358 29:-0.16733444 30:-0.27352092 31:-0.20108834 32:-0.16073692 33:-0.18338262 34:-0.16487801 35:-0.27398148 36:-0.30811864 37:-0.39074841 38:-0.11907394 39:-0.21418162 40:-0.20511942 41:-0.13776088 42:-0.16252463 43:-0.2478133 44:-0.17397934 45:-0.31722111 46:-0.15619448 47:-0.066107452 48:-0.14383133 49:-0.22159693 50:0.50891852 51:-0.26362848 52:-0.34638473 53:0.39254439 54:-0.28615856 55:-0.017096294 56:0.081953757 57:-0.15612039 #
0.023182627757652545658073606205107 1:-0.32373646 2:-0.17667121 3:-0.50017285 4:-0.098842546 5:-0.44537586 6:-0.34561899 7:0.71224803 8:3.8425398 9:1.8103215 10:1.7092279 11:-0.22640149 12:-0.60592264 13:-0.21933696 14:-0.16083114 15:-0.15391792 16:-0.30765641 17:0.74023032 18:0.48700854 19:-0.3728855 20:-0.14419276 21:-0.2665621 22:-0.062323686 23:1.7282887 24:-0.25234732 25:-0.40743604 26:-0.4047187 27:-0.27057403 28:-0.30796358 29:-0.16733444 30:-0.27352092 31:-0.20108834 32:-0.16073692 33:-0.18338262 34:-0.16487801 35:-0.27398148 36:-0.30811864 37:-0.39074841 38:-0.11907394 39:-0.21418162 40:-0.20511942 41:-0.13776088 42:-0.16252463 43:-0.2478133 44:-0.17397934 45:-0.31722111 46:-0.15619448 47:-0.066107452 48:-0.14383133 49:-0.22159693 50:0.50891852 51:-0.26362848 52:-0.34638473 53:0.39254439 54:-0.28615856 55:-0.017096294 56:0.081953757 57:-0.15612039 #
0.023182627757652545658073606205107 1:-0.32373646 2:-0.17667121 3:0.36053899 4:-0.098842546 5:-0.15386628 6:0.6545068 7:-0.26157999 8:-0.31560028 9:2.8467357 10:0.6359815 11:0.7633673 12:0.28965256 13:-0.21933696 14:-0.16083114 15:-0.15391792 16:-0.012277667 17:-0.37343216 18:-0.36310151 19:-0.12726671 20:-0.14419276 21:0.19725648 22:0.79421991 23:0.71013343 24:0.88700628 25:-0.40743604 26:-0.4047187 27:-0.27057403 28:-0.30796358 29:-0.16733444 30:-0.27352092 31:-0.20108834 32:-0.16073692 33:-0.18338262 34:-0.16487801 35:-0.27398148 36:0.61764532 37:-0.39074841 38:-0.11907394 39:-0.21418162 40:-0.20511942 41:-0.13776088 42:-0.16252463 43:-0.2478133 44:-0.17397934 45:-0.31722111 46:-0.15619448 47:-0.066107452 48:-0.14383133 49:0.32184586 50:0.52709544 51:-0.26362848 52:-0.15439181 53:0.77796131 54:-0.28615856 55:0.038666703 56:0.30572698 57:1.2054683 #
0.023182627757652545658073606205107 1:-0.32373646 2:0.23233692 3:0.81958532 4:-0.098842546 5:0.0051389523 6:-0.34561899 7:0.10631058 8:-0.31560028 9:-0.30961666 10:0.77597016 11:0.53841984 12:-0.60592264 13:0.29382658 14:-0.16083114 15:0.90970963 16:-0.079409197 17:-0.37343216 18:1.2615533 19:-0.69107348 20:0.69251823 21:-0.2250261 22:-0.062323686 23:-0.26375422 24:-0.25234732 25:-0.40743604 26:-0.4047187 27:-0.27057403 28:-0.30796358 29:-0.16733444 30:-0.27352092 31:-0.20108834 32:-0.16073692 33:-0.18338262 34:-0.16487801 35:-0.27398148 36:-0.30811864 37:-0.39074841 38:-0.11907394 39:-0.21418162 40:-0.20511942 41:-0.13776088 42:-0.16252463 43:-0.2478133 44:-0.17397934 45:-0.31722111 46:-0.15619448 47:-0.066107452 48:-0.14383133 49:-0.22159693 50:-0.64531434 51:-0.26362848 52:0.38667911 53:-0.34909117 54:0.26449636 55:0.018907638 56:1.0038995 57:2.1758988 #
-0.0020640815594424296100517501884042 1:-0.32373646 2:-0.17667121 3:-0.50017285 4:-0.098842546 5:-0.44537586 6:-0.34561899 7:-0.26157999 8:2.7458875 9:-0.30961666 10:-0.41393355 11:-0.22640149 12:0.73744017 13:-0.21933696 14:-0.16083114 15:-0.15391792 16:0.59190613 17:-0.37343216 18:-0.36310151 19:1.3799396 20:-0.14419276 21:0.82029635 22:-0.062323686 23:-0.26375422 24:-0.25234732 25:-0.075554363 26:-0.4047187 27:-0.27057403 28:-0.30796358 29:-0.16733444 30:-0.27352092 31:-0.20108834 32:-0.16073692 33:-0.18338262 34:-0.16487801 35:1.0668955 36:-0.30811864 37:-0.39074841 38:-0.11907394 39:-0.21418162 40:-0.20511942 41:-0.13776088 42:-0.16252463 43:-0.2478133 44:-0.17397934 45:0.23349348 46:-0.15619448 47:-0.066107452 48:-0.14383133 49:-0.22159693 50:1.1087561 51:-0.26362848 52:-0.52965069 53:-0.34909117 54:-0.28615856 55:-0.049475525 56:-0.15972133 57:-0.27555799 #
0.023182627757652545658073606205107 1:-0.32373646 2:-0.044345044 3:-0.060253467 4:-0.098842546 5:0.32314941 6:1.20003 7:-0.023533149 8:-0.31560028 9:1.2921144 10:-0.41393355 11:0.80835682 12:0.30955422 13:1.1692232 14:-0.16083114 15:-0.15391792 16:0.30995369 17:0.19577312 18:0.27920386 19:-0.55709958 20:-0.14419276 21:-0.17656745 22:-0.062323686 23:0.22318961 24:-0.25234732 25:-0.40743604 26:-0.4047187 27:-0.27057403 28:-0.30796358 29:-0.16733444 30:-0.27352092 31:-0.20108834 32:-0.16073692 33:-0.18338262 34:-0.16487801 35:-0.27398148 36:-0.30811864 37:-0.39074841 38:-0.11907394 39:-0.21418162 40:-0.20511942 41:-0.13776088 42:-0.16252463 43:0.10587386 44:-0.17397934 45:-0.31722111 46:-0.15619448 47:-0.066107452 48:-0.14383133 49:0.41525009 50:-0.47717807 51:-0.26362848 52:0.407042 53:0.19983594 54:0.095064074 55:-0.064814217 56:0.099855617 57:0.52467394 #
-0.023182627757652545658073606205107 1:-0.32373646 2:-0.17667121 3:-0.50017285 4:-0.098842546 5:-0.44537586 6:-0.34561899 7:-0.26157999 8:-0.31560028 9:-0.30961666 10:-0.41393355 11:-0.22640149 12:-0.60592264 13:-0.21933696 14:-0.16083114 15:-0.15391792 16:4.6600766 17:-0.37343216 18:-0.36310151 19:1.1845609 20:-0.14419276 21:-0.57808203 22:-0.062323686 23:-0.26375422 24:-0.25234732 25:-0.40743604 26:-0.4047187 27:-0.27057403 28:-0.30796358 29:-0.16733444 30:-0.27352092 31:-0.20108834 32:-0.16073692 33:-0.18338262 34:-0.16487801 35:-0.27398148 36:-0.30811864 37:-0.39074841 38:-0.11907394 39:-0.21418162 40:-0.20511942 41:-0.13776088 42:-0.16252463 43:-0.2478133 44:-0.17397934 45:-0.31722111 46:-0.15619448 47:-0.066107452 48:-0.14383133 49:-0.22159693 50:-0.64531434 51:-0.26362848 52:-0.52965069 53:-0.34909117 54:-0.28615856 55:-0.095977843 56:-0.31188715 57:-0.61595517 #
0.023182627757652545658073606205107 1:-0.32373646 2:-0.17667121 3:-0.50017285 4:-0.098842546 5:2.867233 6:-0.34561899 7:-0.26157999 8:-0.31560028 9:-0.30961666 10:-0.41393355 11:-0.22640149 12:0.011029158 13:-0.21933696 14:-0.16083114 15:-0.15391792 16:-0.30765641 17:2.7200749 18:-0.36310151 19:0.86079067 20:-0.14419276 21:-0.14887679 22:-0.062323686 23:-0.26375422 24:-0.25234732 25:-0.40743604 26:-0.4047187 27:-0.27057403 28:-0.30796358 29:-0.16733444 30:-0.27352092 31:-0.20108834 32:-0.16073692 33:-0.18338262 34:-0.16487801 35:-0.27398148 36:-0.30811864 37:-0.39074841 38:-0.11907394 39:-0.21418162 40:-0.20511942 41:-0.13776088 42:-0.16252463 43:-0.2478133 44:-0.17397934 45:-0.31722111 46:-0.15619448 47:-0.066107452 48:-0.14383133 49:-0.22159693 50:-0.64531434 51:-0.26362848 52:-0.29693201 53:-0.34909117 54:-0.28615856 55:-0.075091586 56:-0.16867226 57:-0.46665815 #
-0.0058036384824552873784586637384564 1:-0.32373646 2:17.001671 3:-0.50017285 4:-0.098842546 5:-0.44537586 6:-0.34561899 7:-0.26157999 8:-0.31560028 9:-0.30961666 10:-0.41393355 11:-0.22640149 12:-0.60592264 13:-0.21933696 14:-0.16083114 15:-0.15391792 16:-0.30765641 17:-0.37343216 18:-0.36310151 19:-0.88086981 20:-0.14419276 21:-0.57808203 22:-0.062323686 23:-0.26375422 24:-0.25234732 25:-0.40743604 26:-0.4047187 27:-0.27057403 28:-0.30796358 29:-0.16733444 30:-0.27352092 31:-0.20108834 32:-0.16073692 33:-0.18338262 34:-0.16487801 35:-0.27398148 36:-0.30811864 37:-0.39074841 38:-0.11907394 39:-0.21418162 40:-0.20511942 41:-0.13776088 42:-0.16252463 43:-0.2478133 44:-0.17397934 45:-0.31722111 46:-0.15619448 47:-0.066107452 48:-0.14383133 49:-0.22159693 50:-0.64531434 51:-0.26362848 52:-0.52965069 53:-0.34909117 54:-0.28615856 55:-0.08196526 56:-0.28503433 57:-0.60998327 #
-0.010945806368064119745708850928168 1:-0.32373646 2:-0.17667121 3:-0.50017285 4:-0.098842546 5:-0.44537586 6:-0.34561899 7:-0.26157999 8:-0.31560028 9:-0.30961666 10:5.4189277 11:-0.22640149 12:4.3694954 13:-0.21933696 14:-0.16083114 15:-0.15391792 16:-0.30765641 17:-0.37343216 18:-0.36310151 19:-0.88086981 20:-0.14419276 21:-0.57808203 22:-0.062323686 23:-0.26375422 24:-0.25234732 25:-0.40743604 26:-0.4047187 27:-0.27057403 28:-0.30796358 29:-0.16733444 30:-0.27352092 31:-0.20108834 32:-0.16073692 33:-0.18338262 34:-0.16487801 35:-0.27398148 36:-0.30811864 37:-0.39074841 38:-0.11907394 39:-0.21418162 40:-0.20511942 41:-0.13776088 42:-0.16252463 43:-0.2478133 44:-0.17397934 45:-0.31722111 46:-0.15619448 47:-0.066107452 48:-0.14383133 49:-0.22159693 50:-0.64531434 51:-0.26362848 52:0.73866612 53:-0.34909117 54:-0.28615856 55:-0.084175445 56:-0.25818154 57:-0.58609575 #
-0.023182627757652545658073606205107 1:-0.32373646 2:-0.17667121 3:-0.50017285 4:-0.098842546 5:-0.44537586 6:-0.34561899 7:-0.26157999 8:-0.31560028 9:-0.30961666 10:-0.41393355 11:-0.22640149 12:-0.60592264 13:-0.21933696 14:-0.16083114 15:-0.15391792 16:-0.30765641 17:-0.37343216 18:-0.36310151 19:1.6534696 20:-0.14419276 21:5.7146206 22:-0.062323686 23:-0.26375422 24:-0.25234732 25:-0.40743604 26:-0.4047187 27:-0.27057403 28:-0.30796358 29:-0.16733444 30:-0.27352092 31:-0.20108834 32:-0.16073692 33:-0.18338262 34:-0.16487801 35:-0.27398148 36:-0.30811864 37:-0.39074841 38:-0.11907394 39:-0.21418162 40:-0.20511942 41:-0.13776088 42:-0.16252463 43:-0.2478133 44:-0.17397934 45:-0.31722111 46:-0.15619448 47:-0.066107452 48:-0.14383133 49:-0.22159693 50:-0.64531434 51:-0.26362848 52:-0.52965069 53:-0.34909117 54:-0.28615856 55:-0.099646755 56:-0.32083806 57:-0.62192702 #
0.023182627757652545658073606205107 1:-0.32373646 2:-0.17667121 3:1.6037894 4:-0.098842546 5:0.28339812 6:-0.34561899 7:-0.26157999 8:-0.31560028 9:-0.30961666 10:0.86929595 11:-0.22640149 12:-0.60592264 13:-0.21933696 14:-0.16083114 15:-0.15391792 16:0.43079042 17:-0.37343216 18:-0.36310151 19:0.34722415 20:-0.14419276 21:0.18341115 22:-0.062323686 23:-0.26375422 24:-0.25234732 25:-0.40743604 26:-0.4047187 27:-0.27057403 28:-0.30796358 29:-0.16733444 30:-0.27352092 31:-0.20108834 32:-0.16073692 33:-0.18338262 34:-0.16487801 35:-0.27398148 36:-0.30811864 37:-0.39074841 38:-0.11907394 39:-0.21418162 40:-0.20511942 41:-0.13776088 42:-0.16252463 43:-0.2478133 44:-0.17397934 45:0.13485803 46:-0.15619448 47:-0.066107452 48:-0.14383133 49:-0.22159693 50:-0.20452464 51:-0.26362848 52:1.457185 53:-0.34909117 54:-0.28615856 55:-0.070074461 56:-0.15972133 57:-0.20389542 #
0.023182627757652545658073606205107 1:-0.32373646 2:-0.17667121 3:-0.50017285 4:-0.098842546 5:-0.44537586 6:-0.34561899 7:-0.26157999 8:-0.31560028 9:-0.30961666 10:-0.41393355 11:-0.22640149 12:-0.60592264 13:-0.21933696 14:-0.16083114 15:-0.15391792 16:1.4109107 17:-0.37343216 18:-0.36310151 19:1.2627124 20:-0.14419276 21:2.0802214 22:-0.062323686 23:-0.26375422 24:-0.25234732 25:-0.40743604 26:-0.4047187 27:-0.27057403 28:-0.30796358 29:-0.16733444 30:-0.27352092 31:-0.20108834 32:-0.16073692 33:-0.18338262 34:-0.16487801 35:-0.27398148 36:-0.30811864 37:-0.39074841 38:-0.11907394 39:-0.21418162 40:-0.20511942 41:-0.13776088 42:-0.16252463 43:-0.2478133 44:-0.17397934 45:0.73489034 46:-0.15619448 47:-0.066107452 48:-0.14383133 49:-0.22159693 50:-0.64531434 51:-0.26362848 52:0.13941552 53:0.99402839 54:-0.28615856 55:0.00065150071 56:0.03719911 57:-0.42186904 #
0.023182627757652545658073606205107 1:-0.32373646 2:0.44887063 3:0.4944275 4:-0.098842546 5:0.2436468 6:-0.34561899 7:-0.26157999 8:-0.31560028 9:-0.30961666 10:-0.41393355 11:-0.22640149 12:-0.60592264 13:-0.21933696 14:-0.16083114 15:-0.15391792 16:0.39051151 17:-0.37343216 18:-0.36310151 19:-0.010039551 20:-0.14419276 21:-0.57808203 22:-0.062323686 23:-0.26375422 24:-0.25234732 25:-0.40743604 26:-0.4047187 27:-0.27057403 28:-0.30796358 29:-0.16733444 30:-0.27352092 31:-0.20108834 32:-0.16073692 33:-0.18338262 34:-0.16487801 35:-0.27398148 36:-0.30811864 37:-0.39074841 38:-0.11907394 39:-0.21418162 40:-0.20511942 41:-0.13776088 42:-0.16252463 43:-0.2478133 44:-0.17397934 45:-0.31722111 46:-0.15619448 47:-0.066107452 48:-0.14383133 49:-0.22159693 50:0.22717664 51:-0.26362848 52:1.9924381 53:-0.34909117 54:-0.28615856 55:-0.072682478 56:-0.15077041 57:-0.24569859 #
-0.023182627757652545658073606205107 1:-0.32373646 2:-0.17667121 3:-0.50017285 4:-0.098842546 5:-0.44537586 6:-0.34561899 7:-0.26157999 8:-0.31560028 9:-0.30961666 10:-0.41393355 11:-0.22640149 12:-0.60592264 13:-0.21933696 14:-0.16083114 15:-0.15391792 16:1.6928632 17:-0.37343216 18:-0.36310151 19:0.78263927 20:-0.14419276 21:-0.57808203 22:-0.062323686 23:-0.26375422 24:-0.25234732 25:-0.40743604 26:-0.4047187 27:0.19978127 28:-0.30796358 29:-0.16733444 30:-0.27352092 31:-0.20108834 32:-0.16073692 33:-0.18338262 34:-0.16487801 35:-0.27398148 36:-0.30811864 37:-0.39074841 38:-0.11907394 39:-0.21418162 40:-0.20511942 41:-0.13776088 42:-0.16252463 43:-0.2478133 44:-0.17397934 45:-0.31722111 46:-0.15619448 47:-0.066107452 48:-0.14383133 49:-0.22159693 50:-0.64531434 51:-0.26362848 52:-0.52965069 53:-0.34909117 54:-0.28615856 55:-0.082827233 56:-0.28503433 57:-0.52637696 #
-0.023182627757652545658073606205107 1:-0.32373646 2:-0.17667121 3:1.0299816 4:-0.098842546 5:2.7612295 6:-0.34561899 7:-0.26157999 8:-0.31560028 9:-0.30961666 10:-0.41393355 11:-0.22640149 12:-0.20788923 13:-0.21933696 14:-0.16083114 15:-0.15391792 16:-0.30765641 17:-0.37343216 18:0.39255187 19:2.0553911 20:-0.14419276 21:0.53646708 22:-0.062323686 23:-0.26375422 24:-0.25234732 25:-0.20929773 26:0.0084038228 27:-0.27057403 28:-0.30796358 29:-0.16733444 30:-0.27352092 31:-0.20108834 32:-0.16073692 33:-0.18338262 34:-0.16487801 35:-0.27398148 36:-0.30811864 37:-0.39074841 38:-0.11907394 39:-0.21418162 40:-0.20511942 41:-0.13776088 42:-0.16252463 43:-0.2478133 44:-0.17397934 45:1.0061378 46:-0.15619448 47:-0.066107452 48:-0.14383133 49:-0.22159693 50:-0.64531434 51:-0.26362848 52:0.25577486 53:-0.34909117 54:-0.28615856 55:-0.069588222 56:-0.016506467 57:-0.46068627 #
-0.023182627757652545658073606205107 1:-0.32373646 2:-0.17667121 3:-0.50017285 4:-0.098842546 5:0.56165725 6:0.79088759 7:-0.26157999 8:5.4875183 9:-0.30961666 10:-0.41393355 11:-0.22640149 12:0.15034086 13:-0.21933696 14:-0.16083114 15:-0.15391792 16:-0.30765641 17:-0.37343216 18:-0.36310151 19:-0.88086981 20:-0.14419276 21:-0.57808203 22:-0.062323686 23:-0.26375422 24:-0.25234732 25:-0.40743604 26:-0.4047187 27:-0.27057403 28:-0.30796358 29:-0.16733444 30:-0.27352092 31:-0.20108834 32:-0.16073692 33:-0.18338262 34:-0.16487801 35:-0.27398148 36:-0.30811864 37:-0.39074841 38:-0.11907394 39:-0.21418162 40:-0.20511942 41:-0.13776088 42:-0.16252463 43:-0.2478133 44:-0.17397934 45:-0.31722111 46:-0.15619448 47:-0.066107452 48:-0.14383133 49:-0.22159693 50:-0.64531434 51:-0.26362848 52:-0.52965069 53:-0.34909117 54:-0.28615856 55:-0.096552491 56:-0.28503433 57:-0.44277063 #
0.023182627757652545658073606205107 1:0.41550037 2:-0.17667121 3:-0.34715742 4:-0.098842546 5:0.12439287 6:0.018063109 7:-0.088455014 8:1.6492351 9:0.067261241 10:-0.22728199 11:-0.22640149 12:-0.0088725127 13:0.29382658 14:1.0527992 15:-0.15391792 16:-0.30765641 17:0.047284782 18:-0.21197082 19:-0.21100038 20:-0.14419276 21:1.5956348 22:-0.062323686 23:1.2413449 24:0.16196308 25:-0.40743604 26:-0.4047187 27:-0.27057403 28:-0.30796358 29:-0.16733444 30:-0.27352092 31:-0.20108834 32:-0.16073692 33:-0.18338262 34:-0.16487801 35:-0.27398148 36:-0.30811864 37:-0.39074841 38:-0.11907394 39:-0.21418162 40:-0.20511942 41:-0.13776088 42:-0.16252463 43:-0.2478133 44:-0.17397934 45:-0.31722111 46:-0.15619448 47:-0.066107452 48:-0.14383133 49:-0.22159693 50:-0.27723223 51:0.24130096 52:-0.27366012 53:-0.27317575 54:-0.28615856 55:-0.029804867 56:0.099855617 57:2.7671149 #
0.023182627757652545658073606205107 1:-0.32373646 2:1.4112427 3:0.57093525 4:-0.098842546 5:-0.44537586 6:3.9276457 7:-0.26157999 8:0.50688899 9:1.4334437 10:1.3359249 11:-0.22640149 12:1.4539003 13:-0.21933696 14:-0.16083114 15:-0.15391792 16:-0.30765641 17:0.54224592 18:-0.36310151 19:0.48678026 20:-0.14419276 21:0.072648503 22:-0.062323686 23:-0.26375422 24:0.67985106 25:-0.40743604 26:-0.4047187 27:-0.21375258 28:-0.30796358 29:-0.16733444 30:-0.27352092 31:-0.20108834 32:-0.16073692 33:-0.18338262 34:-0.16487801 35:-0.27398148 36:-0.30811864 37:-0.39074841 38:-0.11907394 39:-0.21418162 40:-0.20511942 41:-0.13776088 42:-0.16252463 43:-0.2478133 44:-0.17397934 45:-0.31722111 46:-0.15619448 47:-0.066107452 48:-0.14383133 49:-0.22159693 50:-0.28177646 51:-0.26362848 52:0.17141435 53:0.27575138 54:-0.28615856 55:-0.063775428 56:-0.016506467 57:0.091712639 #
0.023182627757652545658073606205107 1:-0.32373646 2:1.3992131 3:0.57093525 4:-0.098842546 5:-0.44537586 6:3.8821855 7:-0.26157999 8:0.50688899 9:1.4334437 10:1.3359249 11:-0.22640149 12:1.4439495 13:-0.21933696 14:-0.16083114 15:-0.15391792 16:-0.30765641 17:0.54224592 18:-0.36310151 19:0.48119801 20:-0.14419276 21:0.065725833 22:-0.062323686 23:-0.26375422 24:0.67985106 25:-0.40743604 26:-0.4047187 27:-0.21375258 28:-0.30796358 29:-0.16733444 30:-0.27352092 31:-0.20108834 32:-0.16073692 33:-0.18338262 34:-0.16487801 35:-0.27398148 36:-0.30811864 37:-0.39074841 38:-0.11907394 39:-0.21418162 40:-0.20511942 41:-0.13776088 42:-0.16252463 43:-0.2478133 44:-0.17397934 45:-0.31722111 46:-0.15619448 47:-0.066107452 48:-0.14383133 49:-0.22159693 50:-0.28177646 51:-0.26362848 52:0.24995689 53:0.27575138 54:-0.28615856 55:-0.062117789 56:0.04615004 57:0.11261421 #
-0.023182627757652545658073606205107 1:-0.32373646 2:-0.17667121 3:-0.50017285 4:-0.098842546 5:-0.44537586 6:5.7460566 7:-0.26157999 8:-0.31560028 9:-0.30961666 10:-0.41393355 11:-0.22640149 12:-0.60592264 13:-0.21933696 14:-0.16083114 15:-0.15391792 16:-0.30765641 17:-0.37343216 18:0.90261787 19:-0.13284895 20:-0.14419276 21:-0.57808203 22:-0.062323686 23:-0.26375422 24:-0.25234732 25:-0.40743604 26:-0.4047187 27:-0.059071977 28:-0.30796358 29:-0.16733444 30:-0.27352092 31:-0.20108834 32:-0.16073692 33:1.8820601 34:-0.16487801 35:-0.27398148 36:-0.30811864 37:-0.39074841 38:-0.11907394 39:-0.21418162 40:-0.20511942 41:-0.13776088 42:-0.16252463 43:-0.2478133 44:1.2907555 45:0.23349348 46:-0.15619448 47:-0.066107452 48:-0.14383133 49:-0.22159693 50:-0.1409055 51:-0.26362848 52:-0.52965069 53:-0.34909117 54:-0.28615856 55:-0.093347721 56:-0.28503433 57:-0.55623633 #
